{"learner":{"attributes":{"best_iteration":"90","best_score":"0.08304932660861505"},"feature_names":[],"feature_types":[],"gradient_booster":{"model":{"gbtree_model_param":{"num_parallel_tree":"1","num_trees":"141"},"iteration_indptr":[0,1,2,3,4,5,6,7,8,9,10,11,12,13,14,15,16,17,18,19,20,21,22,23,24,25,26,27,28,29,30,31,32,33,34,35,36,37,38,39,40,41,42,43,44,45,46,47,48,49,50,51,52,53,54,55,56,57,58,59,60,61,62,63,64,65,66,67,68,69,70,71,72,73,74,75,76,77,78,79,80,81,82,83,84,85,86,87,88,89,90,91,92,93,94,95,96,97,98,99,100,101,102,103,104,105,106,107,108,109,110,111,112,113,114,115,116,117,118,119,120,121,122,123,124,125,126,127,128,129,130,131,132,133,134,135,136,137,138,139,140,141],"tree_info":[0,0,0,0,0,0,0,0,0,0,0,0,0,0,0,0,0,0,0,0,0,0,0,0,0,0,0,0,0,0,0,0,0,0,0,0,0,0,0,0,0,0,0,0,0,0,0,0,0,0,0,0,0,0,0,0,0,0,0,0,0,0,0,0,0,0,0,0,0,0,0,0,0,0,0,0,0,0,0,0,0,0,0,0,0,0,0,0,0,0,0,0,0,0,0,0,0,0,0,0,0,0,0,0,0,0,0,0,0,0,0,0,0,0,0,0,0,0,0,0,0,0,0,0,0,0,0,0,0,0,0,0,0,0,0,0,0,0,0,0,0],"trees":[{"base_weights":[-1.3983494E-7,-4.7435984E-1,8.778038E-1,-7.1262443E-1,8.7280214E-1,-7.960994E-1,1.1979011E0,-1.0830423E0,-4.8380822E-1,-8.030978E-2,1.9455559E0,-8.1930876E-2,-8.342237E-1,-8.311375E-1,3.1985617E-1,1.4366702E0,3.389942E0,-8.06071E-2,-3.2339153E-1,-8.8904166E-1,1.6541077E-1,-4.456636E-2,1.4755591E0,5.513224E-1,2.0472784E0,6.6030666E-2,3.9445784E0,-7.16098E-2,3.005355E-1,-9.956927E-1,-6.6810304E-1,-4.837417E-1,8.8230026E-1,-8.096241E-2,1.5870872E-1,-7.849882E-2,1.9109013E0,7.395201E-1,-2.8484328E-2,9.270477E-1,2.6624432E0,2.908445E0,4.3509713E-1,-2.1228561E-2,4.6456542E-2,-7.7571206E-2,-6.719798E-2,-5.2182406E-2,1.0995912E-1,-6.269428E-2,-5.8405614E-3,-7.036773E-2,9.2622556E-2,3.998723E-3,9.493361E-2,1.2399625E-1,3.0458727E-1,7.575862E-2,-1.28467055E-2,1.0956576E-1,4.0841952E-4,2.2239707E-1,8.130936E-2,1.0995912E-1,2.461807E-1],"categories":[],"categories_nodes":[],"categories_segments":[],"categories_sizes":[],"default_left":[0,0,0,0,0,0,0,0,0,0,0,0,0,0,0,0,0,0,0,0,0,0,0,0,0,0,0,0,0,0,0,0,0,0,0,0,0,0,0,0,0,0,0,0,0,0,0,0,0,0,0,0,0,0,0,0,0,0,0,0,0,0,0,0,0],"id":0,"left_children":[1,3,-1,5,-1,7,9,11,13,-1,15,-1,17,19,21,23,25,-1,27,29,31,33,35,37,39,-1,41,-1,43,45,47,49,51,-1,53,-1,55,57,-1,59,61,63,-1,-1,-1,-1,-1,-1,-1,-1,-1,-1,-1,-1,-1,-1,-1,-1,-1,-1,-1,-1,-1,-1,-1],"loss_changes":[2.7646389E4,1.3818666E4,0E0,7.495991E2,0E0,4.025708E2,3.3609158E2,4.552002E0,6.020373E2,0E0,1.0425293E2,0E0,1.0621994E1,8.702417E1,2.743602E2,5.9158127E1,4.9339355E1,0E0,1.2109453E1,3.2866333E1,3.929422E1,1.0454213E2,1.7346878E2,8.497075E0,4.275992E1,0E0,4.2357117E1,0E0,3.12588E0,2.758728E0,2.8550919E1,6.292301E0,2.6868073E1,0E0,4.8416588E1,0E0,6.725339E1,9.86953E0,0E0,1.219268E1,1.678067E1,6.927643E0,0E0,0E0,0E0,0E0,0E0,0E0,0E0,0E0,0E0,0E0,0E0,0E0,0E0,0E0,0E0,0E0,0E0,0E0,0E0,0E0,0E0,0E0,0E0],"parents":[2147483647,0,0,1,1,3,3,5,5,6,6,7,7,8,8,10,10,12,12,13,13,14,14,15,15,16,16,18,18,19,19,20,20,21,21,22,22,23,23,24,24,26,26,28,28,29,29,30,30,31,31,32,32,34,34,36,36,37,37,39,39,40,40,41,41],"right_children":[2,4,-1,6,-1,8,10,12,14,-1,16,-1,18,20,22,24,26,-1,28,30,32,34,36,38,40,-1,42,-1,44,46,48,50,52,-1,54,-1,56,58,-1,60,62,64,-1,-1,-1,-1,-1,-1,-1,-1,-1,-1,-1,-1,-1,-1,-1,-1,-1,-1,-1,-1,-1,-1,-1],"split_conditions":[6.8E0,2.2E2,8.778038E-1,6.7E0,8.7280214E-1,7.308E2,1.26E2,7.182E2,5.4E1,-8.030978E-2,3.351E1,-8.1930876E-2,5.7E0,3.789E1,3.059E1,6.2E1,4.3E1,-8.06071E-2,4.1E1,3.8E1,3.9E1,5.7E0,5.7E0,1E0,2.726E1,6.6030666E-2,4.043E1,-7.16098E-2,1E0,2.8E1,7E0,3E1,5.7E0,-8.096241E-2,1E0,-7.849882E-2,1E0,2.15E2,-2.8484328E-2,9.3E2,1E0,5.4E1,4.3509713E-1,-2.1228561E-2,4.6456542E-2,-7.7571206E-2,-6.719798E-2,-5.2182406E-2,1.0995912E-1,-6.269428E-2,-5.8405614E-3,-7.036773E-2,9.2622556E-2,3.998723E-3,9.493361E-2,1.2399625E-1,3.0458727E-1,7.575862E-2,-1.28467055E-2,1.0956576E-1,4.0841952E-4,2.2239707E-1,8.130936E-2,1.0995912E-1,2.461807E-1],"split_indices":[4,5,0,17,0,15,5,15,0,0,3,0,4,3,3,0,0,0,0,0,0,4,4,9,3,0,3,0,6,0,16,0,4,0,2,0,2,22,0,15,9,0,0,0,0,0,0,0,0,0,0,0,0,0,0,0,0,0,0,0,0,0,0,0,0],"split_type":[0,0,0,0,0,0,0,0,0,0,0,0,0,0,0,0,0,0,0,0,0,0,0,0,0,0,0,0,0,0,0,0,0,0,0,0,0,0,0,0,0,0,0,0,0,0,0,0,0,0,0,0,0,0,0,0,0,0,0,0,0,0,0,0,0],"sum_hessian":[4.9776E3,4.78464E3,1.9295978E2,4.693255E3,9.138563E1,4.4973394E3,1.9591522E2,2.3425054E3,2.1548342E3,4.8453827E1,1.474614E2,2.2542307E3,8.827463E1,1.5045574E3,6.502768E2,1.1051828E2,3.6943127E1,5.926455E1,2.9010075E1,1.4220381E3,8.251928E1,4.9511566E2,1.5516113E2,4.5887253E1,6.463103E1,7.1553E0,2.9787827E1,1.415505E1,1.4855025E1,9.5671027E2,4.6532782E2,4.3476227E1,3.9043053E1,8.0574905E1,4.1454077E2,2.2632526E1,1.325286E2,3.8343075E1,7.544175E0,2.379915E1,4.0831875E1,2.0765926E1,9.0219E0,5.2887E0,9.566325E0,6.830201E2,2.7369022E2,4.6003912E2,5.2887E0,2.27103E1,2.0765926E1,6.06645E0,3.29766E1,3.7946423E2,3.5076527E1,1.19929054E2,1.259955E1,2.9476727E1,8.86635E0,1.4699475E1,9.099675E0,3.3521027E1,7.31085E0,5.2887E0,1.5477225E1],"tree_param":{"num_deleted":"0","num_feature":"25","num_nodes":"65","size_leaf_vector":"1"}},{"base_weights":[-2.3263393E-2,-4.5949367E-1,4.0950686E-1,-6.912996E-1,4.0995085E-1,-7.7606374E-1,1.0246803E0,-1.0751206E0,-4.6289933E-1,-7.9671085E-2,1.598479E0,-8.138049E-2,-8.1549776E-1,-8.1173724E-1,2.8773847E-1,1.2143978E0,2.5803263E0,-7.998394E-2,-3.0752787E-1,-8.7143755E-1,1.486388E-1,2.4458101E-2,1.521363E0,6.71819E-1,1.8864714E0,5.8683086E-2,2.9136124E0,-7.0567906E-2,2.741062E-1,-9.7744393E-1,-6.340057E-1,-4.6292928E-1,7.698516E-1,-8.044476E-2,2.1916322E-1,-7.620955E-2,1.8923306E0,-6.812597E-2,8.7276584E-1,8.486921E-1,2.364593E0,2.1159244E0,3.6719239E0,-4.703611E-3,5.9826687E-2,-7.675795E-2,-6.539199E-2,-4.9783077E-2,9.5138736E-2,-7.5621545E-2,-1.50835235E-2,-6.936698E-2,7.950673E-2,7.6692174E-3,9.976582E-2,1.662742E-1,4.4459734E-2,1.91048E-2,-3.259864E-2,-7.1848365E-3,8.4247224E-2,1.0067264E-1,1.9229807E-2,1.9369574E-1,7.0501015E-2,1.12232E-1,2.2814389E-1,3.3728698E-1,1.9854887E-1],"categories":[],"categories_nodes":[],"categories_segments":[],"categories_sizes":[],"default_left":[0,0,0,0,0,0,0,0,0,0,0,0,0,0,0,0,0,0,0,0,0,0,0,0,0,0,0,0,0,0,0,0,0,0,0,0,0,0,0,0,0,0,0,0,0,0,0,0,0,0,0,0,0,0,0,0,0,0,0,0,0,0,0,0,0,0,0,0,0],"id":1,"left_children":[1,3,-1,5,-1,7,9,11,13,-1,15,-1,17,19,21,23,25,-1,27,29,31,33,35,37,39,-1,41,-1,43,45,47,49,51,-1,53,-1,55,57,59,61,63,65,67,-1,-1,-1,-1,-1,-1,-1,-1,-1,-1,-1,-1,-1,-1,-1,-1,-1,-1,-1,-1,-1,-1,-1,-1,-1,-1],"loss_changes":[1.2055077E4,6.415997E3,0E0,6.543811E2,0E0,4.0057446E2,2.5550093E2,4.7734375E0,5.484603E2,0E0,5.970697E1,0E0,1.0491268E1,8.209833E1,2.1595001E2,4.3100067E1,2.5264313E1,0E0,1.1114435E1,3.326129E1,3.2468697E1,1.17515564E2,1.12008484E2,1.0300295E1,2.4686157E1,0E0,1.5465393E1,0E0,2.895822E0,3.6168823E0,2.4535141E1,5.967988E0,2.1790648E1,0E0,6.053934E1,0E0,4.1880493E1,1.9611157E0,1.326844E1,5.0725765E0,8.836777E0,7.540306E0,3.5949707E0,0E0,0E0,0E0,0E0,0E0,0E0,0E0,0E0,0E0,0E0,0E0,0E0,0E0,0E0,0E0,0E0,0E0,0E0,0E0,0E0,0E0,0E0,0E0,0E0,0E0,0E0],"parents":[2147483647,0,0,1,1,3,3,5,5,6,6,7,7,8,8,10,10,12,12,13,13,14,14,15,15,16,16,18,18,19,19,20,20,21,21,22,22,23,23,24,24,26,26,28,28,29,29,30,30,31,31,32,32,34,34,36,36,37,37,38,38,39,39,40,40,41,41,42,42],"right_children":[2,4,-1,6,-1,8,10,12,14,-1,16,-1,18,20,22,24,26,-1,28,30,32,34,36,38,40,-1,42,-1,44,46,48,50,52,-1,54,-1,56,58,60,62,64,66,68,-1,-1,-1,-1,-1,-1,-1,-1,-1,-1,-1,-1,-1,-1,-1,-1,-1,-1,-1,-1,-1,-1,-1,-1,-1,-1],"split_conditions":[6.8E0,2.2E2,4.0950686E-1,6.7E0,4.0995085E-1,7.308E2,1.26E2,7.182E2,5.4E1,-7.9671085E-2,3.351E1,-8.138049E-2,5.7E0,3.789E1,3.285E1,6.9E1,4.3E1,-7.998394E-2,4.1E1,3.9E1,3.9E1,5.7E0,5.7E0,4.8E1,2.67E1,5.8683086E-2,3.824E1,-7.0567906E-2,6.4E1,2.8E1,7E0,2.6E1,5.7E0,-8.044476E-2,1E0,-7.620955E-2,1E0,6.2E0,2.617E1,8E1,-1.235E2,2.24E2,9.12E2,-4.703611E-3,5.9826687E-2,-7.675795E-2,-6.539199E-2,-4.9783077E-2,9.5138736E-2,-7.5621545E-2,-1.50835235E-2,-6.936698E-2,7.950673E-2,7.6692174E-3,9.976582E-2,1.662742E-1,4.4459734E-2,1.91048E-2,-3.259864E-2,-7.1848365E-3,8.4247224E-2,1.0067264E-1,1.9229807E-2,1.9369574E-1,7.0501015E-2,1.12232E-1,2.2814389E-1,3.3728698E-1,1.9854887E-1],"split_indices":[4,5,0,17,0,15,5,15,0,0,3,0,4,3,3,0,0,0,0,0,0,4,4,0,3,0,3,0,0,0,16,0,4,0,2,0,9,4,3,0,19,22,15,0,0,0,0,0,0,0,0,0,0,0,0,0,0,0,0,0,0,0,0,0,0,0,0,0,0],"split_type":[0,0,0,0,0,0,0,0,0,0,0,0,0,0,0,0,0,0,0,0,0,0,0,0,0,0,0,0,0,0,0,0,0,0,0,0,0,0,0,0,0,0,0,0,0,0,0,0,0,0,0,0,0,0,0,0,0,0,0,0,0,0,0,0,0,0,0,0,0],"sum_hessian":[5.037688E3,4.667296E3,3.703922E2,4.492435E3,1.7486089E2,4.28149E3,2.1094467E2,2.1888303E3,2.09266E3,4.5307095E1,1.6563757E2,2.1049585E3,8.387176E1,1.4286523E3,6.6400757E2,1.2067034E2,4.4967236E1,5.540187E1,2.8469887E1,1.3451271E3,8.352522E1,5.4806024E2,1.1594728E2,6.787393E1,5.2796406E1,7.555786E0,3.741145E1,1.333303E1,1.5136857E1,9.277826E2,4.173445E2,4.221774E1,4.130748E1,8.192873E1,4.6613153E2,1.4567007E1,1.0138028E2,1.4637044E1,5.323689E1,1.7527481E1,3.5268925E1,2.0079552E1,1.7331898E1,9.746897E0,5.389961E0,6.4013696E2,2.876456E2,4.1155603E2,5.7884765E0,1.2768991E1,2.9448746E1,5.720125E0,3.5587357E1,4.2274173E2,4.338982E1,8.055058E1,2.0829697E1,7.9442472E0,6.6927967E0,1.1067392E1,4.21695E1,8.869498E0,8.657982E0,2.9882793E1,5.3861327E0,1.3598236E1,6.481315E0,7.722721E0,9.609177E0],"tree_param":{"num_deleted":"0","num_feature":"25","num_nodes":"69","size_leaf_vector":"1"}},{"base_weights":[-2.9519385E-2,-6.137134E-1,2.9060585E0,-7.804373E-1,1.701609E0,1.6110549E0,2.9764017E-1,-1.067767E0,-4.605798E-1,8.741438E-1,2.939097E-1,3.27902E-2,3.7725675E0,-8.0876276E-2,-7.9676604E-1,-7.925641E-1,2.1175471E-1,-7.907004E-2,1.3822323E0,-2.2908397E-1,2.7829498E-1,1.9130397E0,2.9577082E-1,-7.939985E-2,-2.9152784E-1,-9.052567E-1,-2.7464306E-1,-8.004814E-2,4.3617815E-1,5.012289E-1,1.6267047E0,-7.4402595E-1,7.7591735E-1,2.1529374E-1,7.601039E-2,-6.953655E-2,2.5279784E-1,-9.7807723E-1,-6.398652E-1,-9.259669E-1,-4.019019E-2,6.351316E-2,1.1702029E0,8.8341534E-1,-1.3725063E-1,1.4905876E0,2.6483157E-1,-8.4299546E-1,3.41723E-2,2.3021105E-1,2.2555668E0,-2.1096595E-2,3.991129E-2,-7.685452E-2,-8.978867E-1,-8.744454E-1,-4.7118402E-1,-3.1279538E-2,-7.373329E-2,-5.0806767E-1,3.9449957E-1,-2.5050196E-1,2.8220683E-1,1.0281137E0,2.621094E0,-2.196805E-2,1.2480466E0,5.3625744E-2,-5.660224E-2,1.6553195E0,4.5477077E-1,-7.102786E-2,-6.244675E-1,5.661125E-1,-4.6248436E-1,1.2016792E-1,2.1228403E-1,-6.4261906E-2,-7.96971E-2,-4.3652385E-2,-7.416814E-2,-4.3012362E-2,-7.7207764E-3,-7.877536E-2,-1.3673113E-2,7.914041E-3,9.557259E-2,-2.5985444E-2,2.2789981E-2,4.0247448E-2,-1.5320674E-2,4.8606873E-2,1.0815741E-1,2.3832934E-1,1.2075957E-1,5.773331E-2,1.4659855E-1,1.0489974E-1,2.0023197E-1,6.880871E-2,5.9259227E-3,-5.3915165E-2,5.9929593E-3,8.921785E-2,6.572372E-3,-4.613857E-2,-1.49232475E-2],"categories":[],"categories_nodes":[],"categories_segments":[],"categories_sizes":[],"default_left":[0,0,0,0,0,0,0,0,0,0,0,0,0,0,0,0,0,0,0,0,0,0,0,0,0,0,0,0,0,0,0,0,0,0,0,0,0,0,0,0,0,0,0,0,0,0,0,0,0,0,0,0,0,0,0,0,0,0,0,0,0,0,0,0,0,0,0,0,0,0,0,0,0,0,0,0,0,0,0,0,0,0,0,0,0,0,0,0,0,0,0,0,0,0,0,0,0,0,0,0,0,0,0,0,0,0,0],"id":2,"left_children":[1,3,5,7,9,11,-1,13,15,17,-1,19,21,-1,23,25,27,-1,29,31,-1,33,-1,-1,35,37,39,-1,41,43,45,47,49,-1,-1,-1,51,53,55,57,59,61,63,65,67,69,-1,71,-1,73,75,-1,-1,-1,77,79,81,-1,-1,83,85,87,89,91,93,-1,95,-1,-1,97,99,-1,101,103,105,-1,-1,-1,-1,-1,-1,-1,-1,-1,-1,-1,-1,-1,-1,-1,-1,-1,-1,-1,-1,-1,-1,-1,-1,-1,-1,-1,-1,-1,-1,-1,-1],"loss_changes":[8.560068E3,1.6083087E3,1.1334897E3,3.5646606E2,5.1017963E2,1.279354E3,0E0,5.006592E0,4.108026E2,2.0246568E2,0E0,2.1060162E2,4.2795654E1,0E0,1.0369751E1,7.164661E1,1.7525775E2,0E0,3.424948E1,1.0627937E2,0E0,1.0247433E1,0E0,0E0,1.0244142E1,1.8917297E1,3.379641E1,0E0,1.4182437E2,9.103336E0,2.7656067E1,1.6479233E1,5.5749687E1,0E0,0E0,0E0,2.592142E0,2.0413208E0,8.317833E0,1.2940865E0,3.3547527E1,2.3770966E1,3.330458E1,1.0299643E1,8.24808E0,1.9766327E1,0E0,2.2638474E0,0E0,1.23666935E1,2.4743881E0,0E0,0E0,0E0,1.1135864E0,2.474144E0,4.857935E0,0E0,0E0,1.3835245E1,2.1618418E1,7.6713524E0,2.5347815E1,2.4345963E1,3.285286E0,0E0,4.5344906E0,0E0,0E0,2.3180695E1,3.0359187E0,0E0,2.9460087E0,1.0481311E1,5.833278E-1,0E0,0E0,0E0,0E0,0E0,0E0,0E0,0E0,0E0,0E0,0E0,0E0,0E0,0E0,0E0,0E0,0E0,0E0,0E0,0E0,0E0,0E0,0E0,0E0,0E0,0E0,0E0,0E0,0E0,0E0,0E0,0E0],"parents":[2147483647,0,0,1,1,2,2,3,3,4,4,5,5,7,7,8,8,9,9,11,11,12,12,14,14,15,15,16,16,18,18,19,19,21,21,24,24,25,25,26,26,28,28,29,29,30,30,31,31,32,32,36,36,37,37,38,38,39,39,40,40,41,41,42,42,43,43,44,44,45,45,47,47,49,49,50,50,54,54,55,55,56,56,59,59,60,60,61,61,62,62,63,63,64,64,66,66,69,69,70,70,72,72,73,73,74,74],"right_children":[2,4,6,8,10,12,-1,14,16,18,-1,20,22,-1,24,26,28,-1,30,32,-1,34,-1,-1,36,38,40,-1,42,44,46,48,50,-1,-1,-1,52,54,56,58,60,62,64,66,68,70,-1,72,-1,74,76,-1,-1,-1,78,80,82,-1,-1,84,86,88,90,92,94,-1,96,-1,-1,98,100,-1,102,104,106,-1,-1,-1,-1,-1,-1,-1,-1,-1,-1,-1,-1,-1,-1,-1,-1,-1,-1,-1,-1,-1,-1,-1,-1,-1,-1,-1,-1,-1,-1,-1,-1],"split_conditions":[1.066E3,6.7E0,1.342E3,7.308E2,6.8E0,6.7E0,2.9764017E-1,7.182E2,5.4E1,1.26E2,2.939097E-1,2.2E2,6.8E0,-8.0876276E-2,5.7E0,3.07E1,5.7E0,-7.907004E-2,2.726E1,5.5E1,2.7829498E-1,-1.942E2,2.9577082E-1,-7.939985E-2,4.1E1,4.3E1,3E1,-8.004814E-2,2.914E1,9.164E2,-5E0,3.758E1,3.16E1,2.1529374E-1,7.601039E-2,-6.953655E-2,1E0,2.7E1,6E0,1.36E2,-1.493E2,6.4E1,7E0,2.311E1,-1.58E2,1E0,2.6483157E-1,3.9E1,3.41723E-2,1E0,6.6E1,-2.1096595E-2,3.991129E-2,-7.685452E-2,-5.6E0,2E2,-1.239E2,-3.1279538E-2,-7.373329E-2,1.647E2,4.043E1,-1.235E2,1E0,3.39E1,7E1,-2.196805E-2,1.45E2,5.3625744E-2,-5.660224E-2,1.652E2,6.1E0,-7.102786E-2,3.3E1,1E0,7E1,1.2016792E-1,2.1228403E-1,-6.4261906E-2,-7.96971E-2,-4.3652385E-2,-7.416814E-2,-4.3012362E-2,-7.7207764E-3,-7.877536E-2,-1.3673113E-2,7.914041E-3,9.557259E-2,-2.5985444E-2,2.2789981E-2,4.0247448E-2,-1.5320674E-2,4.8606873E-2,1.0815741E-1,2.3832934E-1,1.2075957E-1,5.773331E-2,1.4659855E-1,1.0489974E-1,2.0023197E-1,6.880871E-2,5.9259227E-3,-5.3915165E-2,5.9929593E-3,8.921785E-2,6.572372E-3,-4.613857E-2,-1.49232475E-2],"split_indices":[15,17,15,15,4,16,0,15,0,5,0,5,4,0,4,3,4,0,3,0,0,19,0,0,0,0,0,0,3,15,18,3,3,0,0,0,6,0,4,20,19,0,16,3,24,9,0,0,0,9,0,0,0,0,18,22,19,0,0,20,3,19,9,3,0,0,5,0,0,20,4,0,3,6,0,0,0,0,0,0,0,0,0,0,0,0,0,0,0,0,0,0,0,0,0,0,0,0,0,0,0,0,0,0,0,0,0],"split_type":[0,0,0,0,0,0,0,0,0,0,0,0,0,0,0,0,0,0,0,0,0,0,0,0,0,0,0,0,0,0,0,0,0,0,0,0,0,0,0,0,0,0,0,0,0,0,0,0,0,0,0,0,0,0,0,0,0,0,0,0,0,0,0,0,0,0,0,0,0,0,0,0,0,0,0,0,0,0,0,0,0,0,0,0,0,0,0,0,0,0,0,0,0,0,0,0,0,0,0,0,0,0,0,0,0,0,0],"sum_hessian":[4.9894077E3,4.1619507E3,8.2745703E2,3.8830027E3,2.7894803E2,3.7405508E2,4.5340198E2,2.0442782E3,1.8387245E3,2.0415181E2,7.479623E1,2.1678271E2,1.5727237E2,1.9645778E3,7.970051E1,1.2308021E3,6.0792236E2,4.2348053E1,1.6180376E2,2.0324835E2,1.3534353E1,1.4274045E1,1.4299832E2,5.1769535E1,2.7930973E1,1.01023975E3,2.2056235E2,9.018313E1,5.177392E2,3.5809082E1,1.25994675E2,1.345615E2,6.868686E1,5.852884E0,8.421161E0,1.2560443E1,1.537053E1,7.9061743E2,2.1962233E2,5.7599117E1,1.6296323E2,3.4411716E2,1.7362206E2,2.2160463E1,1.3648619E1,1.1925365E2,6.7410254E0,1.24581085E2,9.980414E0,5.102429E1,1.766257E1,5.2761993E0,1.0094331E1,4.923954E2,2.9822205E2,9.011624E1,1.2950609E2,6.6524634E0,5.0946655E1,7.84042E1,8.455902E1,1.4121118E2,2.0290598E2,1.5969168E2,1.3930373E1,5.290309E0,1.6870153E1,5.6676073E0,7.981011E0,1.0237438E2,1.687927E1,8.2139984E1,4.24411E1,3.448472E1,1.653957E1,1.003986E1,7.6227117E0,2.4368523E2,5.4536816E1,2.7063437E1,6.3052807E1,1.0091097E2,2.8595116E1,2.8589262E1,4.9814938E1,6.449498E1,2.0064041E1,1.2069231E2,2.0518879E1,1.3316096E2,6.974501E1,8.459879E1,7.509289E1,7.6016874E0,6.328686E0,1.1306592E1,5.563562E0,8.360167E1,1.8772715E1,6.918631E0,9.960638E0,3.740715E1,5.0339494E0,1.4328543E1,2.0156176E1,9.626598E0,6.9129715E0],"tree_param":{"num_deleted":"0","num_feature":"25","num_nodes":"107","size_leaf_vector":"1"}},{"base_weights":[-3.24043E-2,-5.942802E-1,2.4305284E0,-7.612289E-1,1.4622315E0,1.409239E0,2.4034789E-1,-1.0609245E0,-4.405241E-1,7.694164E-1,2.3829107E-1,2.9753944E-2,3.0657592E0,-8.0413826E-2,-7.782872E-1,-8.078848E-1,1.3445745E-1,-7.8501865E-2,1.1845452E0,-6.773781E-1,1.1570663E0,1.6435908E0,2.3931275E-1,-7.88501E-2,-2.7718645E-1,-9.1421866E-1,-3.1026527E-1,-7.9723336E-2,3.3231884E-1,9.2334396E-1,1.807984E0,-7.907488E-1,6.104202E-2,7.027003E-1,2.2908741E-1,3.7621513E-2,1.6540268E-1,-6.8511784E-2,2.3110013E-1,-9.658075E-1,-6.6125566E-1,-9.114873E-1,-6.910677E-2,1.4383799E-2,9.2239416E-1,7.798177E-1,2.3017366E0,4.6064056E-2,2.007858E0,-8.3456534E-1,1.3397117E-2,2.4772029E-1,1.8530627E0,-5.6358892E-3,5.172181E-2,-7.6133914E-2,-8.817884E-1,-7.795103E-2,-5.7390213E-1,-7.5281456E-2,-5.4309064E-1,-7.738336E-2,1.1335917E-1,-4.8076656E-2,1.1539406E0,4.5288596E-1,1.2352998E0,5.4338413E-1,1.4324702E0,8.347609E-2,2.361227E-1,1.6496531E0,2.179137E-1,-6.974941E-2,-5.342593E-1,5.830351E-1,-4.7989324E-1,9.525189E-2,1.7086391E-1,-6.293392E-2,-7.913355E-2,-3.4103457E-2,-6.2076163E-2,-6.06024E-2,-1.0806111E-2,-7.091936E-3,5.6335405E-2,-2.8636687E-2,9.44515E-3,1.1031279E-1,2.520967E-2,2.0442238E-2,1.1432714E-1,7.235997E-2,1.4446719E-1,5.6024164E-2,-7.587991E-2,3.55376E-2,1.5511392E-1,1.678653E-1,8.108286E-2,-6.094378E-2,-1.82484E-2,8.3391055E-2,1.0583E-2,-5.000892E-2,-1.4102488E-2],"categories":[],"categories_nodes":[],"categories_segments":[],"categories_sizes":[],"default_left":[0,0,0,0,0,0,0,0,0,0,0,0,0,0,0,0,0,0,0,0,0,0,0,0,0,0,0,0,0,0,0,0,0,0,0,0,0,0,0,0,0,0,0,0,0,0,0,0,0,0,0,0,0,0,0,0,0,0,0,0,0,0,0,0,0,0,0,0,0,0,0,0,0,0,0,0,0,0,0,0,0,0,0,0,0,0,0,0,0,0,0,0,0,0,0,0,0,0,0,0,0,0,0,0,0,0,0],"id":3,"left_children":[1,3,5,7,9,11,-1,13,15,17,-1,19,21,-1,23,25,27,-1,29,31,33,35,-1,-1,37,39,41,-1,43,45,47,49,-1,51,-1,-1,-1,-1,53,55,57,59,61,63,65,67,69,-1,71,73,-1,75,77,-1,-1,-1,79,-1,81,-1,83,-1,85,87,89,91,93,95,97,-1,-1,99,-1,-1,101,103,105,-1,-1,-1,-1,-1,-1,-1,-1,-1,-1,-1,-1,-1,-1,-1,-1,-1,-1,-1,-1,-1,-1,-1,-1,-1,-1,-1,-1,-1,-1],"loss_changes":[6.789157E3,1.3725846E3,7.159585E2,3.547036E2,3.5433392E2,9.0187524E2,0E0,5.2424316E0,3.775264E2,1.6347955E2,0E0,1.7326712E2,2.6656006E1,0E0,1.0217461E1,5.7412537E1,1.6559016E2,0E0,2.6930176E1,2.3230392E1,7.007885E1,9.517277E0,0E0,0E0,9.411875E0,1.1078796E1,2.7990988E1,0E0,1.1241556E2,2.3095612E1,1.08910675E1,5.4442215E0,0E0,3.559684E1,0E0,0E0,0E0,0E0,2.384626E0,2.185852E0,4.531624E0,1.3348923E0,2.456438E1,2.7847551E1,3.0265564E1,1.7038391E1,7.9204445E0,0E0,9.060455E0,2.926262E0,0E0,1.26053915E1,1.9077301E0,0E0,0E0,0E0,1.2049408E0,0E0,3.5062675E0,0E0,1.2850294E0,0E0,1.5705689E1,2.1601942E1,4.774273E0,1.610231E1,2.156517E1,2.8102442E1,1.7359528E1,0E0,0E0,8.659218E0,0E0,0E0,2.3250914E0,8.03087E0,7.738414E-1,0E0,0E0,0E0,0E0,0E0,0E0,0E0,0E0,0E0,0E0,0E0,0E0,0E0,0E0,0E0,0E0,0E0,0E0,0E0,0E0,0E0,0E0,0E0,0E0,0E0,0E0,0E0,0E0,0E0,0E0],"parents":[2147483647,0,0,1,1,2,2,3,3,4,4,5,5,7,7,8,8,9,9,11,11,12,12,14,14,15,15,16,16,18,18,19,19,20,20,21,21,24,24,25,25,26,26,28,28,29,29,30,30,31,31,33,33,38,38,39,39,40,40,41,41,42,42,43,43,44,44,45,45,46,46,48,48,49,49,51,51,52,52,56,56,58,58,60,60,62,62,63,63,64,64,65,65,66,66,67,67,68,68,71,71,74,74,75,75,76,76],"right_children":[2,4,6,8,10,12,-1,14,16,18,-1,20,22,-1,24,26,28,-1,30,32,34,36,-1,-1,38,40,42,-1,44,46,48,50,-1,52,-1,-1,-1,-1,54,56,58,60,62,64,66,68,70,-1,72,74,-1,76,78,-1,-1,-1,80,-1,82,-1,84,-1,86,88,90,92,94,96,98,-1,-1,100,-1,-1,102,104,106,-1,-1,-1,-1,-1,-1,-1,-1,-1,-1,-1,-1,-1,-1,-1,-1,-1,-1,-1,-1,-1,-1,-1,-1,-1,-1,-1,-1,-1,-1],"split_conditions":[1.066E3,6.7E0,1.342E3,7.308E2,6.8E0,6.7E0,2.4034789E-1,7.182E2,5.1E1,1.26E2,2.3829107E-1,2.56E2,6.8E0,-8.0413826E-2,5.7E0,3.07E1,5.7E0,-7.8501865E-2,3.351E1,3.902E1,2.2E2,2.67E2,2.3931275E-1,-7.88501E-2,4.1E1,4.3E1,3E1,-7.9723336E-2,2.924E1,-5.1E0,4.3E1,2.01E2,6.104202E-2,3.16E1,2.2908741E-1,3.7621513E-2,1.6540268E-1,-6.8511784E-2,6.4E1,2.7E1,5.7E0,-1.338E2,5.7E0,7.1E0,6E1,1.59E2,-1.489E2,4.6064056E-2,4.229E1,2.736E1,1.3397117E-2,1E0,6.6E1,-5.6358892E-3,5.172181E-2,-7.6133914E-2,-5.6E0,-7.795103E-2,1E0,-7.5281456E-2,3.671E1,-7.738336E-2,4.105E1,6E1,9.796E2,4.105E1,-5.7E0,1.58E2,6.2E1,8.347609E-2,2.361227E-1,1E0,2.179137E-1,-6.974941E-2,3.9E1,1E0,7E1,9.525189E-2,1.7086391E-1,-6.293392E-2,-7.913355E-2,-3.4103457E-2,-6.2076163E-2,-6.06024E-2,-1.0806111E-2,-7.091936E-3,5.6335405E-2,-2.8636687E-2,9.44515E-3,1.1031279E-1,2.520967E-2,2.0442238E-2,1.1432714E-1,7.235997E-2,1.4446719E-1,5.6024164E-2,-7.587991E-2,3.55376E-2,1.5511392E-1,1.678653E-1,8.108286E-2,-6.094378E-2,-1.82484E-2,8.3391055E-2,1.0583E-2,-5.000892E-2,-1.4102488E-2],"split_indices":[15,17,15,15,4,16,0,15,0,5,0,22,4,0,4,3,4,0,3,3,5,22,0,0,0,0,0,0,3,18,0,23,0,3,0,0,0,0,0,0,4,19,4,16,0,5,19,0,3,3,0,9,0,0,0,0,18,0,9,0,3,0,3,0,15,3,18,5,0,0,0,6,0,0,0,6,0,0,0,0,0,0,0,0,0,0,0,0,0,0,0,0,0,0,0,0,0,0,0,0,0,0,0,0,0,0,0],"split_type":[0,0,0,0,0,0,0,0,0,0,0,0,0,0,0,0,0,0,0,0,0,0,0,0,0,0,0,0,0,0,0,0,0,0,0,0,0,0,0,0,0,0,0,0,0,0,0,0,0,0,0,0,0,0,0,0,0,0,0,0,0,0,0,0,0,0,0,0,0,0,0,0,0,0,0,0,0,0,0,0,0,0,0,0,0,0,0,0,0,0,0,0,0,0,0,0,0,0,0,0,0,0,0,0,0,0,0],"sum_hessian":[4.9039043E3,3.993593E3,9.103111E2,3.6943162E3,2.992767E2,3.9370865E2,5.166024E2,1.9085171E3,1.7857992E3,2.1419522E2,8.508149E1,2.1537267E2,1.7833598E2,1.8327114E3,7.580563E1,1.0893799E3,6.964193E2,3.9568653E1,1.7462656E2,1.3259721E2,8.277546E1,1.5559576E1,1.6277641E2,4.83577E1,2.7447935E1,8.9689056E2,1.924893E2,9.813639E1,5.982829E2,1.2481434E2,4.9812225E1,1.2366556E2,8.931654E0,6.7888885E1,1.4886575E1,5.754622E0,9.804954E0,1.1834986E1,1.5612949E1,7.426233E2,1.5426732E2,5.4310493E1,1.381788E2,3.8946298E2,2.0881992E2,1.1446167E2,1.0352668E1,7.7279634E0,4.2084263E1,1.1845057E2,5.214984E0,4.951897E1,1.8369915E1,9.862178E0,5.7507715E0,4.6098587E2,2.816374E2,2.6907146E1,1.2736017E2,4.2053486E1,1.2257008E1,2.1275715E1,1.1690309E2,3.7013336E2,1.9329638E1,8.4490746E1,1.2432917E2,8.536826E1,2.9093409E1,5.2689333E0,5.0837345E0,3.2109062E1,9.975203E0,8.82963E1,3.015427E1,3.4033577E1,1.5485395E1,9.427681E0,8.942233E0,2.3068774E2,5.094966E1,8.855943E1,3.8800735E1,6.7499547E0,5.507053E0,8.880431E1,2.8098778E1,1.264379E2,2.4369547E2,1.3355835E1,5.973802E0,7.3393456E1,1.1097284E1,9.107105E1,3.3258118E1,7.594479E1,9.423468E0,1.2296336E1,1.6797071E1,1.433403E1,1.777503E1,1.4495131E1,1.5659139E1,1.4803086E1,1.923049E1,8.657174E0,6.8282213E0],"tree_param":{"num_deleted":"0","num_feature":"25","num_nodes":"107","size_leaf_vector":"1"}},{"base_weights":[-3.3858895E-2,-5.924861E-1,2.054498E0,-7.4599886E-1,1.2052388E0,1.2133818E0,2.0502083E-1,-1.0545317E0,-4.234734E-1,6.571916E-1,2.0327893E-1,1.7915878E-2,2.62394E0,-7.998921E-2,-7.5970507E-1,-7.7898246E-1,1.3778505E-1,-7.7962294E-2,1.0056301E0,-4.7313198E-1,1.1520307E0,1.446859E0,2.0444784E-1,-7.833045E-2,-2.6267806E-1,-8.9344376E-1,-2.7711856E-1,-7.919191E-2,3.2114556E-1,3.5599366E-1,1.176039E0,-7.165976E-1,3.4016925E-1,7.18362E-1,1.9715522E-1,4.1127216E-2,1.906805E0,-7.2836764E-2,1.7333598E-1,-9.5609945E-1,-6.2542176E-1,-8.9392686E-1,-5.744085E-2,7.977238E-2,9.696443E-1,-3.903586E-2,5.8493835E-1,6.074337E-1,1.3725321E0,-7.783948E-1,4.9589183E-2,-3.8527992E-1,9.768191E-1,3.7799877E-1,1.8878689E0,8.9639865E-2,1.7943011E-1,-2.5157696E-2,3.2666285E-2,-7.5372234E-2,-8.642747E-1,-8.5350657E-1,-4.5823377E-1,-7.439089E-2,-5.241585E-1,-7.6963656E-2,1.1788744E-1,-1.7906407E-1,3.448659E-1,1.1547099E0,1.7755616E-1,6.698336E-2,1.0086313E0,1.2533301E-1,1.1099988E0,1.523241E0,3.999332E-1,-8.487225E-1,-4.0233615E-1,-5.810782E-2,2.7340831E-2,1.5771238E-3,1.2758759E0,7.021078E-1,-3.98335E-1,8.002006E-2,1.859197E-1,-5.4071147E-2,-6.984191E-2,-4.3116853E-2,-7.2425164E-2,-3.8133495E-2,2.3993248E-2,-5.938011E-2,-1.0202846E-2,-4.961729E-3,5.4528955E-2,-1.7235694E-2,6.453637E-2,1.3976015E-2,7.744978E-2,7.599116E-2,1.8214451E-1,3.317394E-2,-2.4146846E-2,3.8986698E-2,-1.9685423E-2,3.0063344E-2,1.03086695E-1,6.0630817E-2,-1.4258551E-2,1.2580092E-1,3.908704E-2,1.0401259E-1,2.0448627E-1,5.42556E-2,3.575086E-3,-7.787337E-2,-5.6536045E-2,4.1524945E-3,-5.277737E-2,7.17809E-2,1.2549898E-1,-4.017643E-3,6.945629E-2,-4.9961057E-2,-8.384626E-3],"categories":[],"categories_nodes":[],"categories_segments":[],"categories_sizes":[],"default_left":[0,0,0,0,0,0,0,0,0,0,0,0,0,0,0,0,0,0,0,0,0,0,0,0,0,0,0,0,0,0,0,0,0,0,0,0,0,0,0,0,0,0,0,0,0,0,0,0,0,0,0,0,0,0,0,0,0,0,0,0,0,0,0,0,0,0,0,0,0,0,0,0,0,0,0,0,0,0,0,0,0,0,0,0,0,0,0,0,0,0,0,0,0,0,0,0,0,0,0,0,0,0,0,0,0,0,0,0,0,0,0,0,0,0,0,0,0,0,0,0,0,0,0,0,0,0,0],"id":4,"left_children":[1,3,5,7,9,11,-1,13,15,17,-1,19,21,-1,23,25,27,-1,29,31,33,35,-1,-1,37,39,41,-1,43,45,47,49,51,53,-1,-1,55,-1,57,59,61,63,65,67,69,-1,71,73,75,77,-1,79,81,83,85,-1,-1,-1,-1,-1,87,89,91,-1,93,-1,95,97,99,101,103,105,107,109,111,113,115,117,119,-1,-1,-1,121,123,125,-1,-1,-1,-1,-1,-1,-1,-1,-1,-1,-1,-1,-1,-1,-1,-1,-1,-1,-1,-1,-1,-1,-1,-1,-1,-1,-1,-1,-1,-1,-1,-1,-1,-1,-1,-1,-1,-1,-1,-1,-1,-1],"loss_changes":[5.597434E3,1.0455664E3,5.750884E2,3.4666223E2,2.4419806E2,7.657589E2,0E0,5.48999E0,3.407279E2,1.3106047E2,0E0,1.3799966E2,2.1075195E1,0E0,1.007291E1,5.9796265E1,1.4541615E2,0E0,1.9835663E1,3.448989E1,4.6057312E1,6.7023315E0,0E0,0E0,8.807578E0,1.3687683E1,2.6448273E1,0E0,8.998108E1,8.221403E0,1.5311493E1,1.1875084E1,1.909253E1,2.2870722E1,0E0,0E0,1.2861519E0,0E0,2.568929E0,2.2166748E0,5.8656387E0,1.3378639E0,2.4796207E1,2.8906025E1,2.2658188E1,0E0,6.900839E0,9.287301E0,1.5016129E1,3.0479736E0,0E0,6.0235777E0,6.223158E0,1.2141601E1,3.714367E0,0E0,0E0,0E0,0E0,0E0,1.688858E0,1.5773506E0,3.9463367E0,0E0,1.2280815E0,0E0,1.3940215E1,1.1452671E1,2.248759E1,2.0295181E1,4.2053576E0,2.4277816E0,3.3170242E0,4.6753416E0,5.4470177E0,1.1309219E1,1.7497325E0,1.1438141E0,3.0862832E0,0E0,0E0,0E0,5.0658417E-1,5.739908E0,1.0399933E0,0E0,0E0,0E0,0E0,0E0,0E0,0E0,0E0,0E0,0E0,0E0,0E0,0E0,0E0,0E0,0E0,0E0,0E0,0E0,0E0,0E0,0E0,0E0,0E0,0E0,0E0,0E0,0E0,0E0,0E0,0E0,0E0,0E0,0E0,0E0,0E0,0E0,0E0,0E0,0E0,0E0,0E0],"parents":[2147483647,0,0,1,1,2,2,3,3,4,4,5,5,7,7,8,8,9,9,11,11,12,12,14,14,15,15,16,16,18,18,19,19,20,20,21,21,24,24,25,25,26,26,28,28,29,29,30,30,31,31,32,32,33,33,36,36,38,38,39,39,40,40,41,41,42,42,43,43,44,44,46,46,47,47,48,48,49,49,51,51,52,52,53,53,54,54,60,60,61,61,62,62,64,64,66,66,67,67,68,68,69,69,70,70,71,71,72,72,73,73,74,74,75,75,76,76,77,77,78,78,82,82,83,83,84,84],"right_children":[2,4,6,8,10,12,-1,14,16,18,-1,20,22,-1,24,26,28,-1,30,32,34,36,-1,-1,38,40,42,-1,44,46,48,50,52,54,-1,-1,56,-1,58,60,62,64,66,68,70,-1,72,74,76,78,-1,80,82,84,86,-1,-1,-1,-1,-1,88,90,92,-1,94,-1,96,98,100,102,104,106,108,110,112,114,116,118,120,-1,-1,-1,122,124,126,-1,-1,-1,-1,-1,-1,-1,-1,-1,-1,-1,-1,-1,-1,-1,-1,-1,-1,-1,-1,-1,-1,-1,-1,-1,-1,-1,-1,-1,-1,-1,-1,-1,-1,-1,-1,-1,-1,-1,-1,-1,-1],"split_conditions":[1.05E3,6.7E0,1.342E3,7.308E2,6.8E0,6.7E0,2.0502083E-1,7.182E2,5.2E1,1.26E2,2.0327893E-1,2.6E2,6.8E0,-7.998921E-2,5.7E0,3.07E1,5.7E0,-7.7962294E-2,2.726E1,3.148E1,2.2E2,-6E0,2.0444784E-1,-7.833045E-2,3.5E1,4.3E1,3E1,-7.919191E-2,3.121E1,-6.2E0,5.3E1,6.4E1,4.5E1,3.351E1,1.9715522E-1,4.1127216E-2,1.232E3,-7.2836764E-2,1E0,2.8E1,6E0,-1.338E2,5.7E0,6.6E1,1E0,-3.903586E-2,6.9E1,3.409E1,1E0,2.736E1,4.9589183E-2,2.37E2,6.1E0,1E0,6.8E1,8.9639865E-2,1.7943011E-1,-2.5157696E-2,3.2666285E-2,-7.5372234E-2,1.51E2,2E2,2.957E1,-7.439089E-2,3.671E1,-7.6963656E-2,4.164E1,-5.2E0,2.782E1,7E0,2.17E2,1E0,1.461E2,2.736E1,6.1E0,4.229E1,6.1E0,2.16E1,2.905E1,-5.810782E-2,2.7340831E-2,1.5771238E-3,3.902E1,-6.2E0,7E1,8.002006E-2,1.859197E-1,-5.4071147E-2,-6.984191E-2,-4.3116853E-2,-7.2425164E-2,-3.8133495E-2,2.3993248E-2,-5.938011E-2,-1.0202846E-2,-4.961729E-3,5.4528955E-2,-1.7235694E-2,6.453637E-2,1.3976015E-2,7.744978E-2,7.599116E-2,1.8214451E-1,3.317394E-2,-2.4146846E-2,3.8986698E-2,-1.9685423E-2,3.0063344E-2,1.03086695E-1,6.0630817E-2,-1.4258551E-2,1.2580092E-1,3.908704E-2,1.0401259E-1,2.0448627E-1,5.42556E-2,3.575086E-3,-7.787337E-2,-5.6536045E-2,4.1524945E-3,-5.277737E-2,7.17809E-2,1.2549898E-1,-4.017643E-3,6.945629E-2,-4.9961057E-2,-8.384626E-3],"split_indices":[15,17,15,15,4,16,0,15,0,5,0,22,4,0,4,3,4,0,3,3,5,21,0,0,0,0,0,0,3,18,0,0,0,3,0,0,15,0,6,0,4,19,4,0,9,0,0,3,9,3,0,22,4,9,0,0,0,0,0,0,20,22,3,0,3,0,3,18,3,16,22,6,20,3,4,3,4,3,3,0,0,0,3,21,0,0,0,0,0,0,0,0,0,0,0,0,0,0,0,0,0,0,0,0,0,0,0,0,0,0,0,0,0,0,0,0,0,0,0,0,0,0,0,0,0,0,0],"split_type":[0,0,0,0,0,0,0,0,0,0,0,0,0,0,0,0,0,0,0,0,0,0,0,0,0,0,0,0,0,0,0,0,0,0,0,0,0,0,0,0,0,0,0,0,0,0,0,0,0,0,0,0,0,0,0,0,0,0,0,0,0,0,0,0,0,0,0,0,0,0,0,0,0,0,0,0,0,0,0,0,0,0,0,0,0,0,0,0,0,0,0,0,0,0,0,0,0,0,0,0,0,0,0,0,0,0,0,0,0,0,0,0,0,0,0,0,0,0,0,0,0,0,0,0,0,0,0],"sum_hessian":[4.7959785E3,3.7843862E3,1.0115921E3,3.4871902E3,2.9719595E2,4.5314084E2,5.584513E2,1.7810964E3,1.7060938E3,2.1892032E2,7.827564E1,2.458189E2,2.0732193E2,1.708973E3,7.212342E1,1.044258E3,6.618358E2,3.6960648E1,1.8195966E2,1.7195068E2,7.386821E1,1.7748375E1,1.8957355E2,4.5156265E1,2.696716E1,8.4968744E2,1.9457056E2,8.749363E1,5.7434216E2,3.845388E1,1.4350578E2,1.3242694E2,3.9523743E1,5.8248615E1,1.5619593E1,6.75156E0,1.0996815E1,9.806019E0,1.716114E1,6.866108E2,1.6307666E2,5.0292015E1,1.4427855E2,4.193732E2,1.5496896E2,7.7005167E0,3.0753363E1,3.7906013E1,1.0559977E2,1.271586E2,5.2683415E0,1.8658081E1,2.086566E1,4.6142822E1,1.2105795E1,5.8643413E0,5.1324735E0,5.741577E0,1.1419563E1,4.4164795E2,2.4496283E2,6.724E1,9.5836655E1,3.842958E1,1.1862433E1,2.1366932E1,1.2291161E2,2.12355E2,2.070182E2,1.252479E2,2.9721067E1,1.4358508E1,1.6394854E1,1.9984589E1,1.7921427E1,9.094174E1,1.4658024E1,1.0606604E2,2.1092566E1,1.2257657E1,6.4004235E0,5.227808E0,1.5637853E1,3.262001E1,1.352281E1,6.2416997E0,5.864095E0,8.174147E1,1.6322136E2,2.1057615E1,4.6182384E1,9.035287E1,5.4837866E0,6.4060698E0,5.4563637E0,9.50777E1,2.7833916E1,2.0321411E2,9.140884E0,1.6927562E2,3.7742584E1,1.14342834E2,1.09050665E1,1.9499846E1,1.0221222E1,5.8035975E0,8.554911E0,6.948006E0,9.446848E0,5.8197E0,1.4164889E1,8.185815E0,9.735611E0,8.361521E1,7.3265305E0,7.0920334E0,7.565991E0,3.2067657E1,7.399838E1,8.698196E0,1.2394368E1,1.0568633E1,5.0692196E0,7.631796E0,2.4988216E1,6.3050485E0,7.2177615E0],"tree_param":{"num_deleted":"0","num_feature":"25","num_nodes":"127","size_leaf_vector":"1"}},{"base_weights":[-3.453558E-2,-5.737963E-1,1.8368994E0,-7.2697407E-1,1.0759667E0,1.103355E0,1.8090844E-1,-1.0485433E0,-4.0448204E-1,5.8921695E-1,1.7960872E-1,1.6787712E-2,2.3162384E0,-7.95989E-2,-7.413636E-1,-7.601593E-1,1.2595186E-1,-7.744743E-2,8.8562E-1,-5.1387215E-1,9.280691E-1,1.2862571E0,1.8048185E-1,-7.783705E-2,-2.500681E-1,-8.783519E-1,-2.6266086E-1,-7.8744225E-2,2.9163402E-1,7.887474E-1,1.8565365E0,-6.304765E-1,8.3089066E-1,5.7181793E-1,1.7578298E-1,4.9753744E-2,1.3951686E-1,-7.2063245E-2,1.5875465E-1,-9.4400877E-1,-6.038328E-1,-8.7948203E-1,-5.413049E-2,1.267142E-1,1.0410608E0,1.974791E-1,9.3637747E-1,1.7448294E-1,4.8941605E-2,-7.2145414E-1,4.0715612E-2,-8.978131E-3,1.3141549E-1,5.4252215E-2,1.1792369E0,-1.20560564E-1,4.708802E-2,-7.467685E-2,-8.4786326E-1,-8.368452E-1,-4.3720657E-1,-7.364442E-2,-5.055749E-1,-7.633452E-2,1.0844577E-1,4.0908966E-2,8.5556686E-1,1.34646E0,6.193446E-1,-3.7517976E-2,3.9357617E-1,3.368166E-1,1.0533757E0,-8.5394543E-1,-3.9549166E-1,-3.1621322E-1,4.1450596E-1,3.1578008E-2,1.3986019E0,3.8524223E-3,-2.1930085E-2,-5.2538335E-2,-6.882526E-2,-4.1528836E-2,-7.1538806E-2,-3.65115E-2,2.2071388E-2,-5.815938E-2,-9.629829E-3,-1.4044188E-3,6.3432455E-2,2.5451936E-2,-1.2382905E-2,8.522217E-2,-6.720664E-4,3.2429203E-2,1.2275669E-1,-4.2067308E-2,1.03363864E-1,2.2067693E-4,5.7895508E-2,-3.602959E-2,4.4914708E-2,7.043818E-2,1.5212752E-1,-7.717529E-2,-5.7025805E-2,-5.2873977E-2,-3.089493E-3,1.7434983E-2,-4.110341E-2,-1.224018E-2,6.933971E-2,6.438334E-2,1.3359764E-1],"categories":[],"categories_nodes":[],"categories_segments":[],"categories_sizes":[],"default_left":[0,0,0,0,0,0,0,0,0,0,0,0,0,0,0,0,0,0,0,0,0,0,0,0,0,0,0,0,0,0,0,0,0,0,0,0,0,0,0,0,0,0,0,0,0,0,0,0,0,0,0,0,0,0,0,0,0,0,0,0,0,0,0,0,0,0,0,0,0,0,0,0,0,0,0,0,0,0,0,0,0,0,0,0,0,0,0,0,0,0,0,0,0,0,0,0,0,0,0,0,0,0,0,0,0,0,0,0,0,0,0,0,0,0,0],"id":5,"left_children":[1,3,5,7,9,11,-1,13,15,17,-1,19,21,-1,23,25,27,-1,29,31,33,35,-1,-1,37,39,41,-1,43,45,47,49,51,53,-1,-1,-1,-1,55,57,59,61,63,65,67,69,71,-1,-1,73,-1,-1,-1,75,77,79,-1,-1,81,83,85,-1,87,-1,89,91,93,95,97,-1,99,101,103,105,107,109,111,-1,113,-1,-1,-1,-1,-1,-1,-1,-1,-1,-1,-1,-1,-1,-1,-1,-1,-1,-1,-1,-1,-1,-1,-1,-1,-1,-1,-1,-1,-1,-1,-1,-1,-1,-1,-1,-1],"loss_changes":[4.718553E3,9.180143E2,4.386538E2,3.4406348E2,1.9680273E2,6.082032E2,0E0,5.738037E0,3.1330945E2,1.0997172E2,0E0,1.18687904E2,1.7162476E1,0E0,9.89312E0,5.821344E1,1.3029825E2,0E0,1.6626816E1,2.4849258E1,4.421138E1,5.811146E0,0E0,0E0,8.158088E0,1.389801E1,2.4678165E1,0E0,7.224745E1,1.5233322E1,7.936447E0,1.5691082E1,1.1428388E1,2.3037354E1,0E0,0E0,0E0,0E0,2.4797468E0,2.3657837E0,5.757141E0,1.3614235E0,2.2784647E1,3.0054407E1,1.2752113E1,5.1988254E0,9.541344E0,0E0,0E0,5.4250946E0,0E0,0E0,0E0,5.566154E0,5.0258904E0,3.7957254E-1,0E0,0E0,1.749588E0,1.6138382E0,3.5563126E0,0E0,1.17207E0,0E0,1.1712144E1,2.658694E1,1.2296841E1,1.5300888E1,4.211322E1,0E0,4.2983756E0,5.535287E0,1.1185898E1,7.580719E-1,4.4037833E0,2.7534387E0,6.361784E0,0E0,3.7943306E0,0E0,0E0,0E0,0E0,0E0,0E0,0E0,0E0,0E0,0E0,0E0,0E0,0E0,0E0,0E0,0E0,0E0,0E0,0E0,0E0,0E0,0E0,0E0,0E0,0E0,0E0,0E0,0E0,0E0,0E0,0E0,0E0,0E0,0E0,0E0,0E0],"parents":[2147483647,0,0,1,1,2,2,3,3,4,4,5,5,7,7,8,8,9,9,11,11,12,12,14,14,15,15,16,16,18,18,19,19,20,20,21,21,24,24,25,25,26,26,28,28,29,29,30,30,31,31,32,32,33,33,38,38,39,39,40,40,41,41,42,42,43,43,44,44,45,45,46,46,49,49,53,53,54,54,55,55,58,58,59,59,60,60,62,62,64,64,65,65,66,66,67,67,68,68,70,70,71,71,72,72,73,73,74,74,75,75,76,76,78,78],"right_children":[2,4,6,8,10,12,-1,14,16,18,-1,20,22,-1,24,26,28,-1,30,32,34,36,-1,-1,38,40,42,-1,44,46,48,50,52,54,-1,-1,-1,-1,56,58,60,62,64,66,68,70,72,-1,-1,74,-1,-1,-1,76,78,80,-1,-1,82,84,86,-1,88,-1,90,92,94,96,98,-1,100,102,104,106,108,110,112,-1,114,-1,-1,-1,-1,-1,-1,-1,-1,-1,-1,-1,-1,-1,-1,-1,-1,-1,-1,-1,-1,-1,-1,-1,-1,-1,-1,-1,-1,-1,-1,-1,-1,-1,-1,-1,-1],"split_conditions":[1.05E3,6.7E0,1.342E3,7.308E2,6.8E0,6.7E0,1.8090844E-1,7.182E2,5.2E1,1.26E2,1.7960872E-1,2.56E2,6.8E0,-7.95989E-2,5.7E0,3.07E1,5.7E0,-7.744743E-2,-5.1E0,3.942E1,2.2E2,1.254E3,1.8048185E-1,-7.783705E-2,3.5E1,4.3E1,3E1,-7.8744225E-2,3.39E1,2.726E1,9.164E2,6E1,4.5E1,2.791E1,1.7578298E-1,4.9753744E-2,1.3951686E-1,-7.2063245E-2,2.86E1,2.8E1,6E0,-1.338E2,5.7E0,1E0,1.611E2,-6.2E0,4.8E1,1.7448294E-1,4.8941605E-2,2.736E1,4.0715612E-2,-8.978131E-3,1.3141549E-1,-6E0,6E0,2.726E1,4.708802E-2,-7.467685E-2,1.51E2,2E2,2.957E1,-7.364442E-2,3.671E1,-7.633452E-2,4.494E1,1E0,2.3E2,1.92E2,1.59E2,-3.7517976E-2,7.1E1,2.924E1,4.229E1,2.16E1,4.3E1,2.538E1,2.732E1,3.1578008E-2,3.351E1,3.8524223E-3,-2.1930085E-2,-5.2538335E-2,-6.882526E-2,-4.1528836E-2,-7.1538806E-2,-3.65115E-2,2.2071388E-2,-5.815938E-2,-9.629829E-3,-1.4044188E-3,6.3432455E-2,2.5451936E-2,-1.2382905E-2,8.522217E-2,-6.720664E-4,3.2429203E-2,1.2275669E-1,-4.2067308E-2,1.03363864E-1,2.2067693E-4,5.7895508E-2,-3.602959E-2,4.4914708E-2,7.043818E-2,1.5212752E-1,-7.717529E-2,-5.7025805E-2,-5.2873977E-2,-3.089493E-3,1.7434983E-2,-4.110341E-2,-1.224018E-2,6.933971E-2,6.438334E-2,1.3359764E-1],"split_indices":[15,17,15,15,4,16,0,15,0,5,0,22,4,0,4,3,4,0,18,3,5,15,0,0,0,0,0,0,3,3,15,0,0,3,0,0,0,0,3,0,4,19,4,2,20,18,0,0,0,3,0,0,0,21,17,3,0,0,20,22,3,0,3,0,3,6,22,22,5,0,0,3,3,3,0,3,3,0,3,0,0,0,0,0,0,0,0,0,0,0,0,0,0,0,0,0,0,0,0,0,0,0,0,0,0,0,0,0,0,0,0,0,0,0,0],"split_type":[0,0,0,0,0,0,0,0,0,0,0,0,0,0,0,0,0,0,0,0,0,0,0,0,0,0,0,0,0,0,0,0,0,0,0,0,0,0,0,0,0,0,0,0,0,0,0,0,0,0,0,0,0,0,0,0,0,0,0,0,0,0,0,0,0,0,0,0,0,0,0,0,0,0,0,0,0,0,0,0,0,0,0,0,0,0,0,0,0,0,0,0,0,0,0,0,0,0,0,0,0,0,0,0,0,0,0,0,0,0,0,0,0,0,0],"sum_hessian":[4.6735337E3,3.6286255E3,1.0449081E3,3.3208494E3,3.0777612E2,4.6053104E2,5.84377E2,1.6616763E3,1.6591732E3,2.2586166E2,8.191445E1,2.4344948E2,2.1708157E2,1.5929712E3,6.870516E1,9.9293634E2,6.662368E2,3.451572E1,1.9134593E2,1.5413138E2,8.931811E1,1.8706305E1,1.9837526E2,4.2155018E1,2.6550142E1,8.017063E2,1.9123003E2,8.162107E1,5.846157E2,1.7563448E2,1.5711454E1,1.4232182E2,1.1809558E1,7.248237E1,1.6835733E1,1.0004802E1,8.701503E0,9.201769E0,1.7348373E1,6.450022E2,1.5670413E2,4.7502567E1,1.4372746E2,4.8012738E2,1.0448836E2,3.5558403E1,1.4007608E2,1.0630273E1,5.0811815E0,1.3243816E2,9.88367E0,6.2406354E0,5.5689225E0,3.9723953E1,3.275842E1,1.1339375E1,6.008999E0,4.1341632E2,2.3158586E2,6.3659504E1,9.3044624E1,3.6010292E1,1.1492276E1,1.9988163E1,1.23739296E2,4.3050204E2,4.962535E1,5.9329914E1,4.515844E1,7.460996E0,2.8097406E1,2.3504644E1,1.16571434E2,9.30124E1,3.942575E1,1.9644678E1,2.0079275E1,8.006098E0,2.4752321E1,6.01873E0,5.320644E0,7.7991646E1,1.5359421E2,2.0291348E1,4.3368156E1,8.744795E1,5.5966744E0,6.0834217E0,5.4088545E0,1.0636782E2,1.737148E1,1.7554506E2,2.5495699E2,3.7223736E1,1.2401616E1,1.4900709E1,4.4429207E1,1.777438E1,2.738406E1,1.4320395E1,1.3777012E1,5.504668E0,1.7999975E1,1.06106514E2,1.0464921E1,2.8923903E1,6.408849E1,2.0515118E1,1.8910635E1,5.8341656E0,1.3810513E1,9.733762E0,1.0345513E1,1.1609438E1,1.3142882E1],"tree_param":{"num_deleted":"0","num_feature":"25","num_nodes":"115","size_leaf_vector":"1"}},{"base_weights":[-3.4823008E-2,-5.5547553E-1,1.6712451E0,-7.079319E-1,9.6957946E-1,1.013786E0,1.6336706E-1,-1.0429054E0,-3.8604763E-1,5.3031385E-1,1.6230753E-1,-3.9453093E-2,2.0405574E0,-7.9239786E-2,-7.2284037E-1,-7.5275415E-1,9.9951506E-2,-7.695368E-2,7.8525037E-1,-5.9201777E-1,8.4567267E-1,1.6298747E-1,9.9402463E-1,-7.736635E-2,-2.3736688E-1,-8.707059E-1,-2.6368463E-1,-7.8383826E-2,2.4978277E-1,8.844593E-1,1.15502946E-1,-7.505685E-1,2.7670091E-2,5.054726E-1,1.6213882E-1,1.5164384E-2,1.3423618E0,-7.1297914E-2,1.4679173E-1,-9.318685E-1,-5.906955E-1,-8.6496055E-1,-5.8172844E-2,3.6512057E-3,6.5790105E-1,7.9157716E-1,1.7494494E0,-1.0630496E-1,5.1339325E-2,-8.117969E-1,1.1896121E-2,-6.517539E-1,4.4538411E-1,-3.0878287E-2,1.1434077E0,5.721477E-1,1.6291887E-1,-1.22469604E-1,4.4869825E-2,-7.3989496E-2,-8.3127207E-1,-7.626346E-2,-4.9827245E-1,-2.4959907E-2,-7.010503E-2,-7.54499E-2,9.013991E-2,-3.254839E-1,1.609207E-1,2.7493995E-1,9.007634E-1,6.806868E-1,1.4775243E0,1.745518E-1,7.111798E-2,3.9714113E-2,-3.860033E-1,-8.69775E-1,-5.059863E-1,-6.843295E-2,-1.9143311E-2,1.3314267E-1,7.06157E-2,2.2898301E-1,-4.8397925E-1,1.2813886E-1,5.0157326E-1,2.5434606E-4,7.675572E-2,1.778791E-2,-3.5750672E-2,-5.0997835E-2,-6.780117E-2,-2.7639596E-2,-5.8572054E-2,-1.0693794E-2,3.3753138E-2,-3.368973E-2,1.6656704E-2,2.5405865E-2,-1.5316769E-2,-6.585446E-2,6.486632E-2,5.6948673E-2,1.3484898E-1,3.605989E-2,9.3106E-2,2.6363436E-2,1.5159205E-1,-3.8875078E-3,-4.400611E-2,-7.663779E-2,-5.8947545E-2,-8.523894E-3,-5.5171438E-2,4.005013E-2,-1.9446949E-2,-3.875431E-2,3.590275E-2,-5.336283E-2,-1.3399462E-2,7.290222E-2,-1.598696E-2],"categories":[],"categories_nodes":[],"categories_segments":[],"categories_sizes":[],"default_left":[0,0,0,0,0,0,0,0,0,0,0,0,0,0,0,0,0,0,0,0,0,0,0,0,0,0,0,0,0,0,0,0,0,0,0,0,0,0,0,0,0,0,0,0,0,0,0,0,0,0,0,0,0,0,0,0,0,0,0,0,0,0,0,0,0,0,0,0,0,0,0,0,0,0,0,0,0,0,0,0,0,0,0,0,0,0,0,0,0,0,0,0,0,0,0,0,0,0,0,0,0,0,0,0,0,0,0,0,0,0,0,0,0,0,0,0,0,0,0,0,0,0,0],"id":6,"left_children":[1,3,5,7,9,11,-1,13,15,17,-1,19,21,-1,23,25,27,-1,29,31,33,-1,35,-1,37,39,41,-1,43,45,47,49,51,53,-1,-1,55,-1,57,59,61,63,65,67,69,71,73,75,-1,77,-1,79,81,83,85,87,-1,89,-1,-1,91,-1,93,-1,-1,-1,95,97,99,101,103,105,107,-1,-1,-1,109,111,113,-1,-1,115,-1,117,119,-1,121,-1,-1,-1,-1,-1,-1,-1,-1,-1,-1,-1,-1,-1,-1,-1,-1,-1,-1,-1,-1,-1,-1,-1,-1,-1,-1,-1,-1,-1,-1,-1,-1,-1,-1,-1,-1],"loss_changes":[4.0365796E3,8.102008E2,3.5196436E2,3.4094995E2,1.6510681E2,5.0240213E2,0E0,5.9990234E0,2.880889E2,9.3247826E1,0E0,1.1312484E2,3.0483826E1,0E0,9.719658E0,5.291089E1,1.1964992E2,0E0,1.3237267E1,1.4007706E1,3.872038E1,0E0,7.533491E0,0E0,7.5771084E0,1.2153015E1,2.2245735E1,0E0,6.189146E1,1.2651535E1,3.48705E0,6.4409866E0,8.795072E0,2.46564E1,0E0,0E0,1.1204964E1,0E0,2.323184E0,2.5177612E0,4.838337E0,1.3928261E0,1.914475E1,1.9999954E1,2.1311043E1,1.1133667E1,5.2545204E0,3.8198612E0,0E0,1.4464035E0,0E0,9.883871E-1,2.8416483E0,4.8282595E0,1.1073608E1,2.9372785E0,0E0,1.695668E0,0E0,0E0,1.8074036E0,0E0,3.8743954E0,0E0,0E0,0E0,9.957814E0,8.56279E0,1.7044434E1,6.292501E1,1.658043E1,1.5009254E1,1.2363499E1,0E0,0E0,0E0,9.555292E-1,3.1900024E-1,1.6595235E0,0E0,0E0,2.1707878E0,0E0,5.115315E0,9.096396E-1,0E0,5.861792E0,0E0,0E0,0E0,0E0,0E0,0E0,0E0,0E0,0E0,0E0,0E0,0E0,0E0,0E0,0E0,0E0,0E0,0E0,0E0,0E0,0E0,0E0,0E0,0E0,0E0,0E0,0E0,0E0,0E0,0E0,0E0,0E0,0E0,0E0,0E0,0E0],"parents":[2147483647,0,0,1,1,2,2,3,3,4,4,5,5,7,7,8,8,9,9,11,11,12,12,14,14,15,15,16,16,18,18,19,19,20,20,22,22,24,24,25,25,26,26,28,28,29,29,30,30,31,31,32,32,33,33,36,36,38,38,39,39,40,40,41,41,42,42,43,43,44,44,45,45,46,46,47,47,49,49,51,51,52,52,53,53,54,54,55,55,57,57,60,60,62,62,66,66,67,67,68,68,69,69,70,70,71,71,72,72,76,76,77,77,78,78,81,81,83,83,84,84,86,86],"right_children":[2,4,6,8,10,12,-1,14,16,18,-1,20,22,-1,24,26,28,-1,30,32,34,-1,36,-1,38,40,42,-1,44,46,48,50,52,54,-1,-1,56,-1,58,60,62,64,66,68,70,72,74,76,-1,78,-1,80,82,84,86,88,-1,90,-1,-1,92,-1,94,-1,-1,-1,96,98,100,102,104,106,108,-1,-1,-1,110,112,114,-1,-1,116,-1,118,120,-1,122,-1,-1,-1,-1,-1,-1,-1,-1,-1,-1,-1,-1,-1,-1,-1,-1,-1,-1,-1,-1,-1,-1,-1,-1,-1,-1,-1,-1,-1,-1,-1,-1,-1,-1,-1,-1],"split_conditions":[1.05E3,6.7E0,1.342E3,7.308E2,6.8E0,6.7E0,1.6336706E-1,7.182E2,5.1E1,1.26E2,1.6230753E-1,2.56E2,2E2,-7.9239786E-2,5.7E0,3.07E1,5.7E0,-7.695368E-2,1E0,3.19E1,2.2E2,1.6298747E-1,2.6E2,-7.736635E-2,3.5E1,4.3E1,3E1,-7.8383826E-2,2.924E1,-5.1E0,-1.39E2,6E1,3.9E1,2.791E1,1.6213882E-1,1.5164384E-2,1.254E3,-7.1297914E-2,6.4E1,2.8E1,5.7E0,1.36E2,5.7E0,6E1,-1.492E2,4.043E1,8.82E2,-1.529E2,5.1339325E-2,2.736E1,1.1896121E-2,2.3E2,3.942E1,1E0,1E0,-5.8E0,1.6291887E-1,5.1E1,4.4869825E-2,-7.3989496E-2,1.51E2,-7.626346E-2,1E0,-2.4959907E-2,-7.010503E-2,-7.54499E-2,3.789E1,-1.239E2,1E0,1.59E2,4.105E1,1.59E2,-1.488E2,1.745518E-1,7.111798E-2,3.9714113E-2,-6.1E0,2.16E1,2.905E1,-6.843295E-2,-1.9143311E-2,-6.2E0,7.06157E-2,-6.2E0,7E1,1.2813886E-1,1E0,2.5434606E-4,7.675572E-2,1.778791E-2,-3.5750672E-2,-5.0997835E-2,-6.780117E-2,-2.7639596E-2,-5.8572054E-2,-1.0693794E-2,3.3753138E-2,-3.368973E-2,1.6656704E-2,2.5405865E-2,-1.5316769E-2,-6.585446E-2,6.486632E-2,5.6948673E-2,1.3484898E-1,3.605989E-2,9.3106E-2,2.6363436E-2,1.5159205E-1,-3.8875078E-3,-4.400611E-2,-7.663779E-2,-5.8947545E-2,-8.523894E-3,-5.5171438E-2,4.005013E-2,-1.9446949E-2,-3.875431E-2,3.590275E-2,-5.336283E-2,-1.3399462E-2,7.290222E-2,-1.598696E-2],"split_indices":[15,17,15,15,4,17,0,15,0,5,0,22,5,0,4,3,4,0,9,3,5,0,22,0,0,0,0,0,3,18,24,0,0,3,0,0,15,0,0,0,4,20,4,0,19,3,15,19,0,3,0,22,3,9,6,18,0,0,0,0,20,0,9,0,0,0,3,19,9,5,3,5,19,0,0,0,18,3,3,0,0,18,0,18,0,0,13,0,0,0,0,0,0,0,0,0,0,0,0,0,0,0,0,0,0,0,0,0,0,0,0,0,0,0,0,0,0,0,0,0,0,0,0],"split_type":[0,0,0,0,0,0,0,0,0,0,0,0,0,0,0,0,0,0,0,0,0,0,0,0,0,0,0,0,0,0,0,0,0,0,0,0,0,0,0,0,0,0,0,0,0,0,0,0,0,0,0,0,0,0,0,0,0,0,0,0,0,0,0,0,0,0,0,0,0,0,0,0,0,0,0,0,0,0,0,0,0,0,0,0,0,0,0,0,0,0,0,0,0,0,0,0,0,0,0,0,0,0,0,0,0,0,0,0,0,0,0,0,0,0,0,0,0,0,0,0,0,0,0],"sum_hessian":[4.5422773E3,3.4807173E3,1.0615599E3,3.1648682E3,3.15849E2,4.634951E2,5.980649E2,1.5498029E3,1.6150654E3,2.3198445E2,8.3864555E1,2.2927327E2,2.342218E2,1.4843156E3,6.5487274E1,9.201928E2,6.9487256E2,3.2225594E1,1.9975887E2,1.4135782E2,8.791546E1,2.069252E2,2.7296604E1,3.9343826E1,2.6143448E1,7.407592E2,1.7943361E2,7.971141E1,6.1516113E2,1.7370721E2,2.6051653E1,1.12390785E2,2.8967031E1,7.0958466E1,1.695699E1,8.822326E0,1.8474277E1,8.635399E0,1.7508049E1,6.0605164E2,1.3470763E2,4.4889465E1,1.3454414E2,3.8436426E2,2.3079686E2,1.5859273E2,1.5114479E1,1.9329916E1,6.7217374E0,1.0539981E2,6.990976E0,1.0815317E1,1.8151714E1,3.90654E1,3.1893066E1,1.0457851E1,8.016426E0,1.1423643E1,6.084405E0,3.86982E2,2.1906961E2,2.2225718E1,1.124819E2,5.872145E0,3.901732E1,1.7422E1,1.1712214E2,1.2393091E2,2.6043335E2,9.039239E1,1.4040446E2,1.3823755E2,2.0355188E1,7.674269E0,7.44021E0,5.6325316E0,1.3697384E1,8.705169E1,1.8348124E1,5.7402263E0,5.0750904E0,1.1919135E1,6.2325783E0,2.5141146E1,1.3924253E1,1.6076448E1,1.5816619E1,5.072343E0,5.385509E0,5.832276E0,5.5913672E0,7.448792E1,1.445817E2,7.867593E1,3.3805984E1,7.149504E1,4.56271E1,1.0123799E2,2.2692911E1,1.751891E2,8.5244255E1,3.0430332E1,5.996205E1,1.2287883E2,1.7525637E1,1.0327828E2,3.495926E1,7.164331E0,1.3190857E1,5.6125903E0,8.084794E0,2.6953747E1,6.0097942E1,7.326137E0,1.1021987E1,5.717831E0,6.201304E0,6.0388637E0,1.9102282E1,7.216294E0,6.70796E0,9.321179E0,6.4954395E0],"tree_param":{"num_deleted":"0","num_feature":"25","num_nodes":"123","size_leaf_vector":"1"}},{"base_weights":[-3.4860164E-2,-5.374447E-1,1.5402485E0,-6.8888354E-1,8.8104254E-1,9.386274E-1,1.5003122E-1,-1.0375851E0,-3.6820766E-1,4.8010114E-1,1.4910787E-1,-3.8183656E-2,1.8669349E0,-7.890905E-2,-7.0437694E-1,-7.3398376E-1,9.117103E-2,-7.6477766E-2,7.017147E-1,-5.716917E-1,7.654656E-1,1.4939721E-1,9.0129E-1,-7.6915145E-2,-2.25419E-1,-8.556008E-1,-2.4975641E-1,-7.798856E-2,2.2741437E-1,4.6081445E-1,9.342095E-1,-7.3179495E-1,2.4771126E-2,4.5543805E-1,1.4861941E-1,1.3990168E-2,1.2082669E0,-7.053784E-2,1.3570438E-1,-9.196281E-1,-5.695398E-1,-8.4998286E-1,-5.4910798E-2,3.0863627E-3,5.864876E-1,6.5772045E-1,4.155172E-2,7.7549744E-1,1.5173563E0,-7.946512E-1,1.1018731E-2,-4.7508758E-2,4.0712756E-1,-3.0887868E-2,1.0017892E0,5.222143E-1,1.4503399E-1,-1.2596563E-1,4.228815E-2,-7.3306285E-2,-8.144701E-1,-7.570565E-2,-4.772417E-1,-7.219624E-2,-4.626692E-1,-7.484111E-2,8.2963325E-2,-5.160848E-2,8.663298E-1,1.9636512E-1,7.935356E-1,1.1991797E-1,5.359779E-1,-3.5836333E-1,4.5495537E-1,9.663302E-2,1.0645015E0,9.7378343E-1,1.5949354E-1,-8.546803E-1,-4.863196E-1,1.04932286E-1,6.115971E-2,2.0834637E-1,-4.6494508E-1,1.4548378E0,4.5517436E-1,2.3837201E-4,6.8758406E-2,2.6833287E-3,-2.163804E-2,-4.9450465E-2,-6.676611E-2,-2.6230222E-2,-5.7178322E-2,-5.5983365E-2,-6.3670315E-3,3.3329815E-2,-9.75368E-3,-1.8088967E-2,1.1293117E-2,3.9389815E-2,1.2355152E-1,4.7107745E-2,-1.0040601E-2,7.593601E-2,3.0002734E-2,3.0581167E-2,1.03282854E-1,-5.0994527E-4,-7.1746595E-2,-8.130533E-3,5.6938108E-2,-5.67782E-2,4.1606326E-2,5.7717267E-2,1.1403848E-1,1.258837E-1,-5.902551E-3,-7.612654E-2,-5.7575367E-2,-8.014251E-3,-5.376443E-2,3.8433988E-2,-2.4762055E-2,-3.7304584E-2,3.2427147E-2,-5.193452E-2,-1.2650046E-2,8.576486E-2,1.4178291E-1,6.480175E-2,-1.5102498E-2],"categories":[],"categories_nodes":[],"categories_segments":[],"categories_sizes":[],"default_left":[0,0,0,0,0,0,0,0,0,0,0,0,0,0,0,0,0,0,0,0,0,0,0,0,0,0,0,0,0,0,0,0,0,0,0,0,0,0,0,0,0,0,0,0,0,0,0,0,0,0,0,0,0,0,0,0,0,0,0,0,0,0,0,0,0,0,0,0,0,0,0,0,0,0,0,0,0,0,0,0,0,0,0,0,0,0,0,0,0,0,0,0,0,0,0,0,0,0,0,0,0,0,0,0,0,0,0,0,0,0,0,0,0,0,0,0,0,0,0,0,0,0,0,0,0,0,0,0,0,0,0,0,0],"id":7,"left_children":[1,3,5,7,9,11,-1,13,15,17,-1,19,21,-1,23,25,27,-1,29,31,33,-1,35,-1,37,39,41,-1,43,45,47,49,51,53,-1,-1,55,-1,57,59,61,63,65,67,69,71,73,75,77,79,-1,-1,81,83,85,87,-1,89,-1,-1,91,-1,93,-1,95,-1,97,99,101,103,105,-1,107,109,111,113,115,117,-1,119,121,123,-1,125,127,129,131,-1,-1,-1,-1,-1,-1,-1,-1,-1,-1,-1,-1,-1,-1,-1,-1,-1,-1,-1,-1,-1,-1,-1,-1,-1,-1,-1,-1,-1,-1,-1,-1,-1,-1,-1,-1,-1,-1,-1,-1,-1,-1,-1,-1,-1,-1],"loss_changes":[3.4892808E3,7.184032E2,2.9330176E2,3.3728284E2,1.4231064E2,4.2079187E2,0E0,6.2628174E0,2.646502E2,7.991055E1,0E0,9.779012E1,2.6928467E1,0E0,9.532007E0,5.1417236E1,1.07931145E2,0E0,1.12296295E1,1.3104679E1,3.3415497E1,0E0,6.1593456E0,0E0,7.0375395E0,1.2303162E1,2.0701336E1,0E0,5.0307693E1,8.576462E0,8.538345E0,6.085781E0,7.7998576E0,1.9647753E1,0E0,0E0,9.031544E0,0E0,2.1607826E0,2.6715393E0,4.8249054E0,1.4482594E0,1.7634247E1,1.824227E1,1.9242409E1,7.260769E0,5.845638E0,1.648671E1,5.0197105E0,1.4539909E0,0E0,0E0,2.3286338E0,4.253687E0,7.9555016E0,2.4011273E0,0E0,3.3618352E-1,0E0,0E0,1.8614197E0,0E0,3.7302208E0,0E0,1.1914208E0,0E0,9.196658E0,1.3965171E1,5.2684135E0,1.2145237E1,1.3083336E1,0E0,6.366808E0,3.785759E0,3.054403E0,1.0724393E1,6.7930984E0,9.89226E0,0E0,3.8195038E-1,1.5664301E0,2.3662736E0,0E0,4.404208E0,8.6284614E-1,3.567772E-1,4.7979546E0,0E0,0E0,0E0,0E0,0E0,0E0,0E0,0E0,0E0,0E0,0E0,0E0,0E0,0E0,0E0,0E0,0E0,0E0,0E0,0E0,0E0,0E0,0E0,0E0,0E0,0E0,0E0,0E0,0E0,0E0,0E0,0E0,0E0,0E0,0E0,0E0,0E0,0E0,0E0,0E0,0E0,0E0,0E0,0E0,0E0,0E0],"parents":[2147483647,0,0,1,1,2,2,3,3,4,4,5,5,7,7,8,8,9,9,11,11,12,12,14,14,15,15,16,16,18,18,19,19,20,20,22,22,24,24,25,25,26,26,28,28,29,29,30,30,31,31,32,32,33,33,36,36,38,38,39,39,40,40,41,41,42,42,43,43,44,44,45,45,46,46,47,47,48,48,49,49,52,52,53,53,54,54,55,55,57,57,60,60,62,62,64,64,66,66,67,67,68,68,69,69,70,70,72,72,73,73,74,74,75,75,76,76,77,77,79,79,80,80,81,81,83,83,84,84,85,85,86,86],"right_children":[2,4,6,8,10,12,-1,14,16,18,-1,20,22,-1,24,26,28,-1,30,32,34,-1,36,-1,38,40,42,-1,44,46,48,50,52,54,-1,-1,56,-1,58,60,62,64,66,68,70,72,74,76,78,80,-1,-1,82,84,86,88,-1,90,-1,-1,92,-1,94,-1,96,-1,98,100,102,104,106,-1,108,110,112,114,116,118,-1,120,122,124,-1,126,128,130,132,-1,-1,-1,-1,-1,-1,-1,-1,-1,-1,-1,-1,-1,-1,-1,-1,-1,-1,-1,-1,-1,-1,-1,-1,-1,-1,-1,-1,-1,-1,-1,-1,-1,-1,-1,-1,-1,-1,-1,-1,-1,-1,-1,-1,-1,-1],"split_conditions":[1.05E3,6.7E0,1.342E3,7.308E2,6.8E0,6.7E0,1.5003122E-1,7.182E2,5.1E1,1.26E2,1.4910787E-1,2.56E2,2E2,-7.890905E-2,5.7E0,3.07E1,5.7E0,-7.6477766E-2,2.946E1,3.19E1,2.2E2,1.4939721E-1,2.6E2,-7.6915145E-2,3.5E1,4.3E1,3E1,-7.798856E-2,2.924E1,9.3E2,2.23E2,6E1,3.9E1,2.791E1,1.4861941E-1,1.3990168E-2,1.254E3,-7.053784E-2,2.86E1,2.8E1,5.7E0,-1.338E2,5.7E0,7.1E0,5.9E1,-1.532E2,1.59E2,-1.49E2,9.75E2,2.736E1,1.1018731E-2,-4.7508758E-2,3.902E1,1E0,1E0,-5.8E0,1.4503399E-1,2.726E1,4.228815E-2,-7.3306285E-2,1.51E2,-7.570565E-2,1E0,-7.219624E-2,3.671E1,-7.484111E-2,1E0,6.6E1,1.59E2,1E0,1.58E2,1.1991797E-1,-5.2E0,1.58E2,6.2E1,1.59E2,3.726E1,9.3E2,1.5949354E-1,2.16E1,2.905E1,-6.2E0,6.115971E-2,-6.2E0,7E1,6.6E0,1E0,2.3837201E-4,6.8758406E-2,2.6833287E-3,-2.163804E-2,-4.9450465E-2,-6.676611E-2,-2.6230222E-2,-5.7178322E-2,-5.5983365E-2,-6.3670315E-3,3.3329815E-2,-9.75368E-3,-1.8088967E-2,1.1293117E-2,3.9389815E-2,1.2355152E-1,4.7107745E-2,-1.0040601E-2,7.593601E-2,3.0002734E-2,3.0581167E-2,1.03282854E-1,-5.0994527E-4,-7.1746595E-2,-8.130533E-3,5.6938108E-2,-5.67782E-2,4.1606326E-2,5.7717267E-2,1.1403848E-1,1.258837E-1,-5.902551E-3,-7.612654E-2,-5.7575367E-2,-8.014251E-3,-5.376443E-2,3.8433988E-2,-2.4762055E-2,-3.7304584E-2,3.2427147E-2,-5.193452E-2,-1.2650046E-2,8.576486E-2,1.4178291E-1,6.480175E-2,-1.5102498E-2],"split_indices":[15,17,15,15,4,17,0,15,0,5,0,22,5,0,4,3,4,0,3,3,5,0,22,0,0,0,0,0,3,15,22,0,0,3,0,0,15,0,3,0,4,19,4,16,0,19,5,19,15,3,0,0,3,9,6,18,0,3,0,0,20,0,9,0,3,0,6,0,5,6,5,0,18,5,0,5,3,15,0,3,3,18,0,18,0,16,13,0,0,0,0,0,0,0,0,0,0,0,0,0,0,0,0,0,0,0,0,0,0,0,0,0,0,0,0,0,0,0,0,0,0,0,0,0,0,0,0,0,0,0,0,0,0],"split_type":[0,0,0,0,0,0,0,0,0,0,0,0,0,0,0,0,0,0,0,0,0,0,0,0,0,0,0,0,0,0,0,0,0,0,0,0,0,0,0,0,0,0,0,0,0,0,0,0,0,0,0,0,0,0,0,0,0,0,0,0,0,0,0,0,0,0,0,0,0,0,0,0,0,0,0,0,0,0,0,0,0,0,0,0,0,0,0,0,0,0,0,0,0,0,0,0,0,0,0,0,0,0,0,0,0,0,0,0,0,0,0,0,0,0,0,0,0,0,0,0,0,0,0,0,0,0,0,0,0,0,0,0,0],"sum_hessian":[4.4056973E3,3.3404785E3,1.0652188E3,3.018713E3,3.2176578E2,4.629716E2,6.0224713E2,1.4450911E3,1.5736217E3,2.3726859E2,8.449718E1,2.2605948E2,2.3691212E2,1.3826201E3,6.2470963E1,8.757311E2,6.978907E2,3.0082087E1,2.0718651E2,1.3603821E2,9.002126E1,2.0881299E2,2.8099133E1,3.671265E1,2.5758312E1,6.993241E2,1.76407E2,7.431721E1,6.235735E2,1.0321842E2,1.0396808E2,1.0707115E2,2.8967056E1,7.282935E1,1.7191912E1,8.925337E0,1.9173796E1,8.104883E0,1.7653429E1,5.6961566E2,1.2970842E2,4.2407467E1,1.3399953E2,3.844193E2,2.3915416E2,6.984642E1,3.3372005E1,8.3556725E1,2.0411356E1,1.0001268E2,7.058473E0,1.0402535E1,1.856452E1,3.9030464E1,3.379889E1,1.0738875E1,8.43492E0,1.1394872E1,6.2585583E0,3.6224896E2,2.073667E2,2.0773048E1,1.0893537E2,3.1702723E1,1.0704745E1,1.6297493E1,1.17702034E2,3.623981E2,2.202122E1,8.359387E1,1.5556029E2,6.610152E0,6.3236267E1,1.7030407E1,1.6341597E1,2.5348352E1,5.8208374E1,1.2160076E1,8.25128E0,8.223114E1,1.7781538E1,1.1391228E1,7.173292E0,2.5497377E1,1.3533089E1,1.7572666E1,1.6226223E1,5.0732474E0,5.665628E0,6.1023626E0,5.2925086E0,7.121599E1,1.361507E2,7.68131E1,3.2122272E1,5.555611E0,5.149134E0,4.3242676E1,7.445936E1,1.8692992E2,1.7546819E2,1.6490858E1,5.5303607E0,3.583852E1,4.7755356E1,9.8937836E1,5.662245E1,5.615956E1,7.076709E0,1.1363849E1,5.6665587E0,5.955914E0,1.0385683E1,8.624535E0,1.6723818E1,3.6978867E1,2.1229506E1,6.92731E0,5.232766E0,2.5174217E1,5.7056927E1,7.273319E0,1.0508219E1,5.790177E0,5.601051E0,5.849307E0,1.964807E1,6.8984723E0,6.6346164E0,1.2362715E1,5.2099504E0,9.804577E0,6.4216456E0],"tree_param":{"num_deleted":"0","num_feature":"25","num_nodes":"133","size_leaf_vector":"1"}},{"base_weights":[-3.4585968E-2,-5.196245E-1,1.4341445E0,-6.357522E-1,1.1936859E0,8.75206E-1,1.3955943E-1,-1.030992E0,-3.0644843E-1,-7.336409E-2,1.3565102E0,-3.6263507E-2,1.7281388E0,-7.8605935E-2,-6.6596925E-1,-7.126521E-1,9.832191E-2,6.2241924E-1,1.6353816E0,-5.5145675E-1,6.9869375E-1,1.3867258E-1,8.2127273E-1,-7.648042E-2,-2.2150841E-1,-8.0945784E-1,5.3634178E-2,-7.773253E-2,2.1455522E-1,2.179401E-2,1.3144565E0,1.2616017E0,1.38713E-1,-7.1290904E-1,2.3034528E-2,4.139796E-1,1.3792017E-1,1.2916967E-2,1.0950817E0,-6.991828E-2,7.140719E-2,-9.463073E-1,-6.155102E-1,-3.7047324E-1,5.4211265E-1,1.3053419E-2,5.2626836E-1,-5.796738E-1,6.499587E-1,1.7242348E0,5.921523E-3,1.6134537E0,5.271353E-1,-7.7732867E-1,1.0211881E-2,-4.6003897E-2,3.7238112E-1,-3.0831374E-2,8.912294E-1,4.777621E-1,1.3061644E-1,-2.2537644E-1,3.7856206E-2,-7.277695E-2,-8.0185825E-1,-6.644095E-1,1.7889789E-1,-7.3838073E-1,-3.9160233E-2,7.146896E-1,-4.7676507E-2,-1.9239111E-1,2.4206272E-1,6.581417E-1,-1.1758935E-1,-1.9049748E-3,-7.604425E-2,-5.650511E-3,8.9888945E-2,1.5915217E-1,7.877267E-2,1.1806186E0,1.7859736E-1,9.014493E-2,6.437512E-2,-8.393916E-1,-4.6703207E-1,1.13024615E-1,5.6814812E-2,1.8978405E-1,-4.4635788E-1,1.2700446E0,4.1418058E-1,2.2340262E-4,6.1907154E-2,-5.970169E-3,-2.445149E-2,-3.1833358E-2,-6.877219E-2,-7.7403404E-2,-4.401482E-2,-2.8805433E-2,5.3968787E-2,-7.218857E-2,-3.8739312E-2,-5.833664E-2,1.56933E-2,9.600956E-2,2.6875837E-2,-2.6600968E-2,9.945022E-3,9.149937E-3,7.628805E-2,2.7562777E-2,6.779386E-2,-5.3893264E-2,2.7113121E-3,1.428662E-1,5.153786E-2,-3.979865E-2,4.6556152E-2,-7.562932E-2,-5.6188E-2,-7.5325835E-3,-5.2356504E-2,3.2404736E-2,-2.2631306E-2,3.1359572E-2,-3.3727925E-2,-5.0514854E-2,-1.1937221E-2,7.518654E-2,1.2328075E-1,5.7939287E-2,-1.4260873E-2],"categories":[],"categories_nodes":[],"categories_segments":[],"categories_sizes":[],"default_left":[0,0,0,0,0,0,0,0,0,0,0,0,0,0,0,0,0,0,0,0,0,0,0,0,0,0,0,0,0,0,0,0,0,0,0,0,0,0,0,0,0,0,0,0,0,0,0,0,0,0,0,0,0,0,0,0,0,0,0,0,0,0,0,0,0,0,0,0,0,0,0,0,0,0,0,0,0,0,0,0,0,0,0,0,0,0,0,0,0,0,0,0,0,0,0,0,0,0,0,0,0,0,0,0,0,0,0,0,0,0,0,0,0,0,0,0,0,0,0,0,0,0,0,0,0,0,0,0,0,0,0,0,0,0,0],"id":8,"left_children":[1,3,5,7,9,11,-1,13,15,-1,17,19,21,-1,23,25,27,29,31,33,35,-1,37,-1,39,41,43,-1,45,47,49,51,-1,53,55,57,-1,-1,59,-1,61,63,65,67,69,71,73,75,77,79,-1,81,83,85,-1,-1,87,89,91,93,-1,95,-1,-1,97,99,101,103,105,107,-1,109,111,113,115,-1,-1,-1,-1,-1,-1,117,-1,-1,119,121,123,125,-1,127,129,131,133,-1,-1,-1,-1,-1,-1,-1,-1,-1,-1,-1,-1,-1,-1,-1,-1,-1,-1,-1,-1,-1,-1,-1,-1,-1,-1,-1,-1,-1,-1,-1,-1,-1,-1,-1,-1,-1,-1,-1,-1,-1,-1],"loss_changes":[3.040636E3,6.391399E2,2.5105981E2,3.9086536E2,7.347424E1,3.581322E2,0E0,7.819458E0,2.698726E2,0E0,3.7920837E1,8.506244E1,2.455542E1,0E0,9.807196E0,6.0808167E1,1.0874677E2,2.2408072E1,8.649841E0,1.2262695E1,2.9300972E1,0E0,5.1030235E0,0E0,6.219913E0,1.8722015E1,1.9428905E1,0E0,4.6924076E1,1.1679296E1,1.2553398E1,1.2878738E1,0E0,5.7448997E0,6.8836393E0,1.6031567E1,0E0,0E0,7.450798E0,0E0,2.9251053E0,6.970215E-1,1.191848E1,6.099176E0,9.30423E0,2.1446333E1,2.4983963E1,3.7798128E0,6.09981E0,2.8041763E0,0E0,8.965141E0,5.759793E0,1.4562721E0,0E0,0E0,1.9069886E0,3.7504134E0,6.052294E0,1.9774883E0,0E0,1.7453611E-1,0E0,0E0,2.493721E0,7.5578003E0,5.8774757E0,6.8459797E-1,5.210264E0,7.2878094E0,0E0,1.2721747E1,1.9933586E1,1.7070198E1,4.7118707E0,0E0,0E0,0E0,0E0,0E0,0E0,7.4983406E0,0E0,0E0,4.3500986E0,4.448471E-1,1.4758196E0,1.8633541E0,0E0,4.1045723E0,8.1703424E-1,3.3249855E-1,3.9573798E0,0E0,0E0,0E0,0E0,0E0,0E0,0E0,0E0,0E0,0E0,0E0,0E0,0E0,0E0,0E0,0E0,0E0,0E0,0E0,0E0,0E0,0E0,0E0,0E0,0E0,0E0,0E0,0E0,0E0,0E0,0E0,0E0,0E0,0E0,0E0,0E0,0E0,0E0,0E0,0E0,0E0,0E0],"parents":[2147483647,0,0,1,1,2,2,3,3,4,4,5,5,7,7,8,8,10,10,11,11,12,12,14,14,15,15,16,16,17,17,18,18,19,19,20,20,22,22,24,24,25,25,26,26,28,28,29,29,30,30,31,31,33,33,34,34,35,35,38,38,40,40,41,41,42,42,43,43,44,44,45,45,46,46,47,47,48,48,49,49,51,51,52,52,53,53,56,56,57,57,58,58,59,59,61,61,64,64,65,65,66,66,67,67,68,68,69,69,71,71,72,72,73,73,74,74,81,81,84,84,85,85,86,86,87,87,89,89,90,90,91,91,92,92],"right_children":[2,4,6,8,10,12,-1,14,16,-1,18,20,22,-1,24,26,28,30,32,34,36,-1,38,-1,40,42,44,-1,46,48,50,52,-1,54,56,58,-1,-1,60,-1,62,64,66,68,70,72,74,76,78,80,-1,82,84,86,-1,-1,88,90,92,94,-1,96,-1,-1,98,100,102,104,106,108,-1,110,112,114,116,-1,-1,-1,-1,-1,-1,118,-1,-1,120,122,124,126,-1,128,130,132,134,-1,-1,-1,-1,-1,-1,-1,-1,-1,-1,-1,-1,-1,-1,-1,-1,-1,-1,-1,-1,-1,-1,-1,-1,-1,-1,-1,-1,-1,-1,-1,-1,-1,-1,-1,-1,-1,-1,-1,-1,-1,-1],"split_conditions":[1.05E3,6.7E0,1.342E3,7.308E2,1.26E2,6.7E0,1.3955943E-1,7.182E2,4.9E1,-7.336409E-2,-1.39E2,2.56E2,2E2,-7.8605935E-2,5.7E0,3.589E1,5.7E0,1.651E2,6.8E0,3.19E1,2.2E2,1.3867258E-1,2.6E2,-7.648042E-2,3.5E1,3.2E1,3.9E1,-7.773253E-2,2.957E1,-5.7E0,7.8E1,7.7E1,1.38713E-1,6E1,3.9E1,2.791E1,1.3792017E-1,1.2916967E-2,1.254E3,-6.991828E-2,2.84E1,2.8E1,6.7E0,-1.49E2,9.86E2,6.6E1,1E0,1.616E2,2.84E1,1.658E2,5.921523E-3,3.237E1,6.1E0,2.736E1,1.0211881E-2,-4.6003897E-2,3.942E1,1E0,1E0,-5.8E0,1.3061644E-1,2.653E1,3.7856206E-2,-7.277695E-2,1.7E2,5.7E0,2.924E1,1.89E2,2.6E1,1E0,-4.7676507E-2,-1.339E2,1.6E2,6.1E1,5.4E1,-1.9049748E-3,-7.604425E-2,-5.650511E-3,8.9888945E-2,1.5915217E-1,7.877267E-2,1.361E2,1.7859736E-1,9.014493E-2,8.568E2,2.16E1,2.905E1,3.494E1,5.6814812E-2,7.8E1,7E1,-5.7E0,1E0,2.2340262E-4,6.1907154E-2,-5.970169E-3,-2.445149E-2,-3.1833358E-2,-6.877219E-2,-7.7403404E-2,-4.401482E-2,-2.8805433E-2,5.3968787E-2,-7.218857E-2,-3.8739312E-2,-5.833664E-2,1.56933E-2,9.600956E-2,2.6875837E-2,-2.6600968E-2,9.945022E-3,9.149937E-3,7.628805E-2,2.7562777E-2,6.779386E-2,-5.3893264E-2,2.7113121E-3,1.428662E-1,5.153786E-2,-3.979865E-2,4.6556152E-2,-7.562932E-2,-5.6188E-2,-7.5325835E-3,-5.2356504E-2,3.2404736E-2,-2.2631306E-2,3.1359572E-2,-3.3727925E-2,-5.0514854E-2,-1.1937221E-2,7.518654E-2,1.2328075E-1,5.7939287E-2,-1.4260873E-2],"split_indices":[15,16,15,15,5,17,0,15,0,0,19,22,5,0,4,3,4,20,4,3,5,0,22,0,0,0,0,0,3,21,0,0,0,0,0,3,0,0,15,0,3,0,17,19,15,0,9,20,3,20,0,3,4,3,0,0,3,9,6,18,0,3,0,0,22,4,3,22,0,6,0,19,23,0,0,0,0,0,0,0,0,20,0,0,15,3,3,3,0,0,0,18,13,0,0,0,0,0,0,0,0,0,0,0,0,0,0,0,0,0,0,0,0,0,0,0,0,0,0,0,0,0,0,0,0,0,0,0,0,0,0,0,0,0,0],"split_type":[0,0,0,0,0,0,0,0,0,0,0,0,0,0,0,0,0,0,0,0,0,0,0,0,0,0,0,0,0,0,0,0,0,0,0,0,0,0,0,0,0,0,0,0,0,0,0,0,0,0,0,0,0,0,0,0,0,0,0,0,0,0,0,0,0,0,0,0,0,0,0,0,0,0,0,0,0,0,0,0,0,0,0,0,0,0,0,0,0,0,0,0,0,0,0,0,0,0,0,0,0,0,0,0,0,0,0,0,0,0,0,0,0,0,0,0,0,0,0,0,0,0,0,0,0,0,0,0,0,0,0,0,0,0,0],"sum_hessian":[4.266167E3,3.2075435E3,1.0586237E3,3.0045264E3,2.030171E2,4.5958572E2,5.9903796E2,1.3645833E3,1.639943E3,1.3809386E1,1.8920772E2,2.22632E2,2.3695372E2,1.3017745E3,6.2808697E1,8.1814264E2,8.218004E2,5.2979195E1,1.3622853E2,1.3103104E2,9.160097E1,2.0817775E2,2.877597E1,3.4251667E1,2.8557028E1,7.263285E2,9.181418E1,7.562048E1,7.4617993E2,2.8915054E1,2.406414E1,5.2126904E1,8.410162E1,1.02097176E2,2.8933853E1,7.43893E1,1.721167E1,9.021079E0,1.9754892E1,7.6973686E0,2.085966E1,4.2357483E2,3.0275363E2,4.9274544E1,4.253963E1,4.538427E2,2.923372E2,1.4810853E1,1.4104201E1,1.7773607E1,6.290533E0,3.4434166E1,1.7692738E1,9.497576E1,7.1214175E0,9.986042E0,1.8947811E1,3.898734E1,3.5401962E1,1.0994858E1,8.760035E0,1.2665402E1,8.194258E0,3.5821198E2,6.536285E1,2.8535257E2,1.7401072E1,2.276568E1,2.6508865E1,3.7446053E1,5.0935817E0,2.3931386E2,2.1452887E2,2.4262184E2,4.9715363E1,6.971258E0,7.8395944E0,6.445161E0,7.65904E0,9.825375E0,7.9482327E0,2.3643728E1,1.0790438E1,6.5476465E0,1.1145091E1,7.7724785E1,1.7250975E1,1.2095955E1,6.851856E0,2.5821306E1,1.3166033E1,1.8806103E1,1.6595858E1,5.0740952E0,5.920762E0,5.9043465E0,6.7610555E0,1.6371166E1,4.8991684E1,4.756099E1,2.3779158E2,8.666763E0,8.734308E0,9.664021E0,1.310166E1,6.1348457E0,2.037402E1,1.347382E1,2.397223E1,1.595495E2,7.976435E1,1.8675777E2,2.77711E1,1.1230871E2,1.3031313E2,9.378763E0,4.03366E1,8.421945E0,1.5221784E1,5.4078283E0,5.7372627E0,2.3509295E1,5.421549E1,7.223944E0,1.0027031E1,6.8134665E0,5.2824883E0,1.9282299E1,6.5390058E0,6.600097E0,6.5659356E0,1.3105531E1,5.700572E0,1.02435055E1,6.352353E0],"tree_param":{"num_deleted":"0","num_feature":"25","num_nodes":"135","size_leaf_vector":"1"}},{"base_weights":[-3.4185264E-2,-5.020585E-1,1.3458518E0,-7.832551E-2,-1.4406228E-1,8.200912E-1,1.3113044E-1,-3.043241E-1,1.237654E0,1.0531542E-2,1.664259E0,-7.26532E-1,5.1093157E-2,8.464861E-1,1.3032456E-1,-5.8022374E-1,4.8405588E-1,8.548704E-1,1.3092317E-1,-8.4150934E-1,-1.5336984E-1,-7.7637255E-2,1.7283577E-1,1.4530394E0,6.2857795E-1,-6.815892E-1,5.448363E-2,3.2245955E-1,1.2560795E-1,1.042629E-1,4.3975362E-1,-9.4358385E-1,-6.628278E-1,-7.1668245E-2,5.4808654E-4,-2.4326697E-2,4.7203746E-1,9.9416804E-1,1.6805674E-1,3.8203472E-1,1.150588E0,-7.70769E-1,1.1000258E-2,7.335222E-2,9.881178E-1,-8.2463527E-4,7.4541405E-2,-7.736436E-2,-9.002756E-1,-7.070459E-1,-5.34529E-2,-7.284581E-2,1.3066378E-1,-3.0745354E-1,1.4897665E-1,5.7729733E-1,-5.828803E-2,1.518237E-1,4.1435593E-1,7.9199487E-1,-4.5479578E-1,1.4902757E0,5.517812E-3,-8.2194936E-1,-3.4940684E-1,2.2898841E-1,-3.542712E-1,6.383433E-1,1.1375859E-1,-7.674752E-2,-6.304993E-2,-5.8637172E-2,-3.0031195E-2,-2.89415E-2,3.197637E-2,1.06922984E-1,7.121385E-4,-3.595441E-2,3.521851E-6,3.2834713E-3,6.303438E-2,3.5858303E-2,8.9684755E-2,8.659483E-3,-3.7370134E-2,5.859975E-2,-1.426341E-2,-1.0570245E-2,7.668274E-2,-7.187354E-2,1.4073957E-2,1.5161422E-1,8.151155E-2,-7.4972674E-2,-5.5403244E-2,-4.1535053E-2,-7.2295666E-3,-2.93E-2,3.562727E-2,9.6591626E-4,-3.52642E-2,-1.2227503E-2,7.3617116E-2],"categories":[],"categories_nodes":[],"categories_segments":[],"categories_sizes":[],"default_left":[0,0,0,0,0,0,0,0,0,0,0,0,0,0,0,0,0,0,0,0,0,0,0,0,0,0,0,0,0,0,0,0,0,0,0,0,0,0,0,0,0,0,0,0,0,0,0,0,0,0,0,0,0,0,0,0,0,0,0,0,0,0,0,0,0,0,0,0,0,0,0,0,0,0,0,0,0,0,0,0,0,0,0,0,0,0,0,0,0,0,0,0,0,0,0,0,0,0,0,0,0,0,0],"id":9,"left_children":[1,3,5,-1,7,9,-1,11,13,15,17,19,21,23,-1,25,27,29,-1,31,33,-1,35,37,39,41,-1,43,-1,-1,45,47,49,-1,51,53,55,57,-1,59,61,63,-1,65,67,-1,-1,-1,69,71,73,-1,75,77,79,81,83,-1,85,87,89,91,-1,93,95,97,99,101,-1,-1,-1,-1,-1,-1,-1,-1,-1,-1,-1,-1,-1,-1,-1,-1,-1,-1,-1,-1,-1,-1,-1,-1,-1,-1,-1,-1,-1,-1,-1,-1,-1,-1,-1],"loss_changes":[2.6655933E3,5.9837225E2,2.1979272E2,0E0,4.1185376E2,3.110341E2,0E0,2.5002081E2,3.6341248E1,6.555583E1,1.3184021E1,5.0052307E1,1.1991533E2,1.368103E1,0E0,1.4306553E1,2.4487179E1,4.3475304E0,0E0,1.0938293E1,1.5861069E1,0E0,4.809124E1,8.045635E0,1.0242001E1,7.29887E0,0E0,1.912362E1,0E0,0E0,3.5156553E0,5.990906E-1,6.263939E0,0E0,1.3881297E1,2.4198488E1,1.8108253E1,1.0961983E1,0E0,2.0213375E1,9.449074E0,1.610302E0,0E0,5.759474E0,4.846281E0,0E0,0E0,0E0,1.1684723E0,4.685074E0,2.8607707E0,0E0,1.5177141E1,9.898918E0,2.2223213E1,1.600779E1,4.2262206E0,0E0,3.2320983E0,8.5728855E0,6.5406604E0,2.0491142E0,0E0,4.1106415E-1,5.293969E-1,9.815113E0,9.9169755E-1,5.8399467E0,0E0,0E0,0E0,0E0,0E0,0E0,0E0,0E0,0E0,0E0,0E0,0E0,0E0,0E0,0E0,0E0,0E0,0E0,0E0,0E0,0E0,0E0,0E0,0E0,0E0,0E0,0E0,0E0,0E0,0E0,0E0,0E0,0E0,0E0,0E0],"parents":[2147483647,0,0,1,1,2,2,4,4,5,5,7,7,8,8,9,9,10,10,11,11,12,12,13,13,15,15,16,16,17,17,19,19,20,20,22,22,23,23,24,24,25,25,27,27,30,30,31,31,32,32,34,34,35,35,36,36,37,37,39,39,40,40,41,41,43,43,44,44,48,48,49,49,50,50,52,52,53,53,54,54,55,55,56,56,58,58,59,59,60,60,61,61,63,63,64,64,65,65,66,66,67,67],"right_children":[2,4,6,-1,8,10,-1,12,14,16,18,20,22,24,-1,26,28,30,-1,32,34,-1,36,38,40,42,-1,44,-1,-1,46,48,50,-1,52,54,56,58,-1,60,62,64,-1,66,68,-1,-1,-1,70,72,74,-1,76,78,80,82,84,-1,86,88,90,92,-1,94,96,98,100,102,-1,-1,-1,-1,-1,-1,-1,-1,-1,-1,-1,-1,-1,-1,-1,-1,-1,-1,-1,-1,-1,-1,-1,-1,-1,-1,-1,-1,-1,-1,-1,-1,-1,-1,-1],"split_conditions":[1.05E3,7.182E2,1.342E3,-7.832551E-2,6.7E0,6.7E0,1.3113044E-1,4.7E1,6.8E0,5E1,6.8E0,3.27E1,5.7E0,2.05E2,1.3032456E-1,2.01E2,2.2E2,-1.942E2,1.3092317E-1,3.2E1,2.6E1,-7.7637255E-2,2.957E1,3.237E1,1.651E2,3.758E1,5.448363E-2,3.351E1,1.2560795E-1,1.042629E-1,2.98E1,5.8E0,1E0,-7.1668245E-2,5.7E0,6E1,1E0,1.326E2,1.6805674E-1,1.611E2,7.8E1,4.6E1,1.1000258E-2,1E0,6.6E1,-8.2463527E-4,7.4541405E-2,-7.736436E-2,1E1,2.86E1,6.2E0,-7.284581E-2,7.56E2,-1.34E2,1.6E2,4.164E1,2.17E2,1.518237E-1,2.736E1,2.08E2,-5.7E0,1.6E2,5.517812E-3,2.16E1,6.2E0,6E1,5.8E1,6.2E0,1.1375859E-1,-7.674752E-2,-6.304993E-2,-5.8637172E-2,-3.0031195E-2,-2.89415E-2,3.197637E-2,1.06922984E-1,7.121385E-4,-3.595441E-2,3.521851E-6,3.2834713E-3,6.303438E-2,3.5858303E-2,8.9684755E-2,8.659483E-3,-3.7370134E-2,5.859975E-2,-1.426341E-2,-1.0570245E-2,7.668274E-2,-7.187354E-2,1.4073957E-2,1.5161422E-1,8.151155E-2,-7.4972674E-2,-5.5403244E-2,-4.1535053E-2,-7.2295666E-3,-2.93E-2,3.562727E-2,9.6591626E-4,-3.52642E-2,-1.2227503E-2,7.3617116E-2],"split_indices":[15,15,15,0,16,16,0,0,4,0,4,3,4,22,0,23,5,19,0,0,0,0,3,3,20,3,0,3,0,0,3,4,14,0,4,0,9,20,0,20,0,0,0,9,0,0,0,0,0,3,17,0,15,19,23,3,22,0,3,22,21,23,0,3,4,0,0,17,0,0,0,0,0,0,0,0,0,0,0,0,0,0,0,0,0,0,0,0,0,0,0,0,0,0,0,0,0,0,0,0,0,0,0],"split_type":[0,0,0,0,0,0,0,0,0,0,0,0,0,0,0,0,0,0,0,0,0,0,0,0,0,0,0,0,0,0,0,0,0,0,0,0,0,0,0,0,0,0,0,0,0,0,0,0,0,0,0,0,0,0,0,0,0,0,0,0,0,0,0,0,0,0,0,0,0,0,0,0,0,0,0,0,0,0,0,0,0,0,0,0,0,0,0,0,0,0,0,0,0,0,0,0,0,0,0,0,0,0,0],"sum_hessian":[4.1262886E3,3.0820269E3,1.0442617E3,1.2248081E3,1.8572188E3,4.541503E2,5.901114E2,1.6648918E3,1.9232687E2,2.3234406E2,2.2180623E2,7.604694E2,9.044224E2,1.09418785E2,8.29081E1,1.0327536E2,1.290687E2,2.131584E1,2.0049039E2,6.330169E2,1.27452515E2,9.0391884E1,8.140305E2,2.7421675E1,8.199711E1,9.628445E1,6.990916E0,1.1476443E2,1.4304268E1,8.284254E0,1.3031585E1,4.001464E2,2.3287051E2,1.9678991E1,1.0777353E2,4.9124054E2,3.2278998E2,1.8757118E1,8.6645565E0,5.6869656E1,2.5127449E1,8.698777E1,9.2966795E0,8.4319855E1,3.0444574E1,7.7266417E0,5.3049436E0,1.2450692E2,2.7563947E2,2.1696649E2,1.5904034E1,1.1962404E1,9.581112E1,1.8622668E2,3.0501385E2,2.6925854E2,5.3531445E1,5.8579726E0,1.2899146E1,3.8206173E1,1.8663485E1,1.8810858E1,6.3165903E0,7.671853E1,1.0269242E1,6.2160618E1,2.2159233E1,1.9650719E1,1.0793856E1,8.468909E1,1.909504E2,1.7318031E2,4.3786167E1,9.510442E0,6.3935924E0,7.2766786E0,8.853445E1,1.19082726E2,6.714397E1,2.6566135E2,3.9352493E1,2.3357408E2,3.568446E1,3.8905346E1,1.4626101E1,7.8446913E0,5.054455E0,7.6448355E0,3.0561337E1,1.0187438E1,8.476047E0,6.388422E0,1.2422436E1,2.0962353E1,5.5756172E1,5.022797E0,5.246445E0,1.749976E1,4.466086E1,5.530681E0,1.6628553E1,6.0498867E0,1.3600832E1],"tree_param":{"num_deleted":"0","num_feature":"25","num_nodes":"103","size_leaf_vector":"1"}},{"base_weights":[-3.3606328E-2,-4.8466533E-1,1.2707629E0,-7.806563E-2,-1.3657236E-1,7.712396E-1,1.2421177E-1,-3.3322793E-1,8.549154E-1,7.934458E-2,1.2400088E-1,-8.409429E-1,-5.6774918E-2,5.575077E-1,1.2342251E-1,-3.6218417E-1,7.305599E-1,-9.5084363E-1,-6.440122E-1,-7.7608235E-2,6.72846E-2,6.2880135E-1,4.8176385E-2,-6.8364197E-1,5.409302E-2,4.6620512E-1,1.2467709E-1,-9.0887487E-1,-7.756266E-2,-7.6762784E-1,-2.4919407E-1,-5.788651E-2,5.398195E-1,1.5620747E-1,6.9956857E-1,3.6969453E-1,-2.646062E-1,-7.63269E-1,2.1393716E-2,-4.2158753E-1,3.6149403E-1,6.451903E-1,-1.888587E-1,-7.6374516E-2,-8.4688467E-1,-5.973452E-1,-8.6550367E-1,4.9580563E-2,-4.2122465E-1,-3.283739E-1,1.9075501E-1,3.8587308E-1,9.5800865E-1,3.6264932E-1,-2.924529E-2,1.3583179E0,6.154855E-1,6.3171075E-3,5.2729737E-2,-4.0671717E-2,-1.864653E-3,-7.4939735E-2,-6.586955E-1,2.4934845E-2,-7.11943E-1,-2.2427468E-2,5.817428E-1,3.147976E-2,8.405744E-1,-4.7103053E-1,3.341222E-2,-3.132391E-2,-6.482378E-2,-4.978999E-2,8.429696E-4,-6.814628E-2,-4.3128144E-2,-2.2109952E-2,-6.325904E-2,-8.3182985E-3,-3.639993E-2,2.500481E-2,-1.2441406E-2,2.2445373E-2,1.2499467E-1,1.0984863E-1,4.951363E-2,4.9501125E-2,-7.247062E-3,1.279115E-1,2.9534278E-2,3.3703603E-2,7.57108E-2,-3.669755E-2,-5.822176E-2,-6.3964255E-2,-1.9154815E-2,5.5123005E-2,-1.2425555E-2,3.4215692E-2,-5.8154702E-2,7.0196785E-2,9.159712E-3,-5.7210073E-2,-1.14249885E-2],"categories":[],"categories_nodes":[],"categories_segments":[],"categories_sizes":[],"default_left":[0,0,0,0,0,0,0,0,0,0,0,0,0,0,0,0,0,0,0,0,0,0,0,0,0,0,0,0,0,0,0,0,0,0,0,0,0,0,0,0,0,0,0,0,0,0,0,0,0,0,0,0,0,0,0,0,0,0,0,0,0,0,0,0,0,0,0,0,0,0,0,0,0,0,0,0,0,0,0,0,0,0,0,0,0,0,0,0,0,0,0,0,0,0,0,0,0,0,0,0,0,0,0,0,0],"id":10,"left_children":[1,3,5,-1,7,9,-1,11,13,15,-1,17,19,21,-1,23,25,27,29,-1,31,33,35,37,39,41,-1,43,-1,45,47,49,51,53,55,57,59,61,-1,63,65,67,69,-1,71,73,75,-1,77,79,81,83,85,87,-1,89,91,-1,-1,-1,-1,-1,93,-1,95,-1,97,99,101,103,-1,-1,-1,-1,-1,-1,-1,-1,-1,-1,-1,-1,-1,-1,-1,-1,-1,-1,-1,-1,-1,-1,-1,-1,-1,-1,-1,-1,-1,-1,-1,-1,-1,-1,-1],"loss_changes":[2.3472905E3,5.738109E2,1.9607727E2,0E0,3.5602673E2,2.7350027E2,0E0,2.1375159E2,7.016391E1,7.281109E1,0E0,1.1008331E1,1.19858795E2,8.00045E0,0E0,2.0247252E1,2.4418789E1,2.5787354E-1,9.3461685E0,0E0,5.190945E1,6.3762207E0,2.9376447E0,6.798195E0,9.9108925E0,9.626347E0,0E0,7.391052E-1,0E0,1.9553146E0,7.8068643E0,4.6758587E1,1.1461697E1,3.1341276E0,8.490318E0,1.3056469E0,9.7822714E-1,1.2931023E0,0E0,6.0735345E0,6.1498704E0,7.635063E0,3.4621742E0,0E0,8.1101227E-1,2.3300571E0,6.292343E-1,0E0,1.9423575E0,1.130954E1,1.8491375E1,1.4585577E1,6.392803E0,2.7652714E0,0E0,5.432926E0,9.437927E0,0E0,0E0,0E0,0E0,0E0,7.70216E-1,0E0,1.0409307E0,0E0,3.6886883E0,5.997535E0,3.2041855E0,1.0983782E0,0E0,0E0,0E0,0E0,0E0,0E0,0E0,0E0,0E0,0E0,0E0,0E0,0E0,0E0,0E0,0E0,0E0,0E0,0E0,0E0,0E0,0E0,0E0,0E0,0E0,0E0,0E0,0E0,0E0,0E0,0E0,0E0,0E0,0E0,0E0],"parents":[2147483647,0,0,1,1,2,2,4,4,5,5,7,7,8,8,9,9,11,11,12,12,13,13,15,15,16,16,17,17,18,18,20,20,21,21,22,22,23,23,24,24,25,25,27,27,29,29,30,30,31,31,32,32,33,33,34,34,35,35,36,36,37,37,39,39,40,40,41,41,42,42,44,44,45,45,46,46,48,48,49,49,50,50,51,51,52,52,53,53,55,55,56,56,62,62,64,64,66,66,67,67,68,68,69,69],"right_children":[2,4,6,-1,8,10,-1,12,14,16,-1,18,20,22,-1,24,26,28,30,-1,32,34,36,38,40,42,-1,44,-1,46,48,50,52,54,56,58,60,62,-1,64,66,68,70,-1,72,74,76,-1,78,80,82,84,86,88,-1,90,92,-1,-1,-1,-1,-1,94,-1,96,-1,98,100,102,104,-1,-1,-1,-1,-1,-1,-1,-1,-1,-1,-1,-1,-1,-1,-1,-1,-1,-1,-1,-1,-1,-1,-1,-1,-1,-1,-1,-1,-1,-1,-1,-1,-1,-1,-1],"split_conditions":[1.05E3,7.182E2,1.342E3,-7.806563E-2,6.7E0,6.8E0,1.2421177E-1,3.9E1,6.8E0,2.6E2,1.2400088E-1,2.8E1,5.7E0,1E0,1.2342251E-1,2.736E1,2.2E2,-5.7E0,3.237E1,-7.7608235E-2,3.39E1,4.8E1,6.1E0,6E1,4.5E1,1E0,1.2467709E-1,1E1,-7.756266E-2,1E0,1.36E2,6E1,4.164E1,4.4E1,1.89E2,-1.39E2,-1.488E2,2.16E1,2.1393716E-2,-1.94E2,6.1E0,2.726E1,2.86E1,-7.6374516E-2,-1.539E2,1.0075E3,2.86E1,4.9580563E-2,9.796E2,1E0,1E0,7.2E0,1.465E2,6.2E0,-2.924529E-2,-1.198E2,1.59E2,6.3171075E-3,5.2729737E-2,-4.0671717E-2,-1.864653E-3,-7.4939735E-2,1E0,2.4934845E-2,3.824E1,-2.2427468E-2,1E0,2.538E1,6.6E0,7.2E1,3.341222E-2,-3.132391E-2,-6.482378E-2,-4.978999E-2,8.429696E-4,-6.814628E-2,-4.3128144E-2,-2.2109952E-2,-6.325904E-2,-8.3182985E-3,-3.639993E-2,2.500481E-2,-1.2441406E-2,2.2445373E-2,1.2499467E-1,1.0984863E-1,4.951363E-2,4.9501125E-2,-7.247062E-3,1.279115E-1,2.9534278E-2,3.3703603E-2,7.57108E-2,-3.669755E-2,-5.822176E-2,-6.3964255E-2,-1.9154815E-2,5.5123005E-2,-1.2425555E-2,3.4215692E-2,-5.8154702E-2,7.0196785E-2,9.159712E-3,-5.7210073E-2,-1.14249885E-2],"split_indices":[15,15,15,0,17,4,0,0,4,22,0,0,4,9,0,3,5,18,3,0,3,0,4,0,0,9,0,0,0,6,20,0,3,0,22,19,19,3,0,19,4,3,3,0,19,15,3,0,15,6,9,16,20,4,0,19,5,0,0,0,0,0,6,0,3,0,9,3,4,0,0,0,0,0,0,0,0,0,0,0,0,0,0,0,0,0,0,0,0,0,0,0,0,0,0,0,0,0,0,0,0,0,0,0,0],"split_type":[0,0,0,0,0,0,0,0,0,0,0,0,0,0,0,0,0,0,0,0,0,0,0,0,0,0,0,0,0,0,0,0,0,0,0,0,0,0,0,0,0,0,0,0,0,0,0,0,0,0,0,0,0,0,0,0,0,0,0,0,0,0,0,0,0,0,0,0,0,0,0,0,0,0,0,0,0,0,0,0,0,0,0,0,0,0,0,0,0,0,0,0,0,0,0,0,0,0,0,0,0,0,0,0,0],"sum_hessian":[3.9875864E3,2.9634392E3,1.0241473E3,1.1399497E3,1.8234894E3,4.4733774E2,5.768096E2,1.5222285E3,3.0126083E2,2.5130902E2,1.9602872E2,5.359313E2,9.862972E2,2.2015895E2,8.11019E1,1.5003084E2,1.01278175E2,3.415146E2,1.9441672E2,1.1020155E2,8.7609564E2,1.9292036E2,2.7238585E1,8.429457E1,6.5736275E1,8.006409E1,2.121409E1,2.3503893E2,1.0647565E2,1.4734077E2,4.7075943E1,6.933181E2,1.8277753E2,2.5543625E1,1.6737674E2,1.3342005E1,1.3896581E1,7.808914E1,6.205425E0,2.5659155E1,4.0077118E1,6.289434E1,1.7169746E1,7.940738E1,1.5563155E2,5.637085E1,9.0969925E1,7.0308294E0,4.0045113E1,3.3191745E2,3.614007E2,1.3500233E2,4.777518E1,1.8780579E1,6.7630467E0,1.723043E1,1.501463E2,7.8621955E0,5.4798093E0,5.854112E0,8.042468E0,2.1355099E1,5.6734043E1,7.0931754E0,1.856598E1,9.932327E0,3.0144793E1,1.5468423E1,4.7425915E1,1.2061883E1,5.107864E0,7.0480213E0,1.4858353E2,5.073448E1,5.636367E0,7.735926E1,1.3610663E1,3.2124485E1,7.9206257E0,1.39856E2,1.9206145E2,2.58197E2,1.032037E2,1.2760731E2,7.3950305E0,1.6236738E1,3.1538443E1,1.1134382E1,7.646197E0,1.2105139E1,5.1252913E0,1.0712413E2,4.3022175E1,2.5361605E1,3.1372438E1,1.3523773E1,5.0422072E0,2.502996E1,5.114831E0,1.041873E1,5.049693E0,4.160021E1,5.8257084E0,5.569478E0,6.492405E0],"tree_param":{"num_deleted":"0","num_feature":"25","num_nodes":"105","size_leaf_vector":"1"}},{"base_weights":[-3.3075705E-2,-4.6748215E-1,1.2056264E0,-7.782538E-2,-1.2945487E-1,7.2674644E-1,1.1844227E-1,-2.7571312E-1,1.0708412E0,7.301037E-2,1.1822437E-1,-6.900947E-1,4.133342E-2,7.191145E-1,1.1765287E-1,-3.457804E-1,6.6833234E-1,-8.207448E-1,-1.7292449E-1,-7.701114E-2,1.4369045E-1,1.237614E0,5.2856326E-1,-6.6445595E-1,4.8605118E-2,4.213774E-1,1.1835975E-1,-9.435555E-1,-6.751771E-1,-5.9185666E-1,9.205553E-2,-2.7867146E-2,3.9445326E-1,1.3786557E-1,8.552488E-1,3.1654078E-1,9.6300226E-1,-7.457006E-1,1.971165E-2,-4.0352222E-1,3.2826176E-1,5.7872754E-1,-1.793352E-1,-7.582985E-1,-7.216781E-2,-7.6514415E-2,-5.9876317E-1,-7.118991E-1,1.9957963E-2,-6.951174E-2,2.0343347E-1,-3.5941535E-1,8.205874E-2,4.8209053E-1,-6.508753E-2,3.992413E-1,1.1229218E-1,6.7019904E-1,-4.4932133E-1,1.2421899E0,2.6618093E-3,-7.446612E-2,-6.386672E-1,2.2893306E-2,-6.9319856E-1,-2.1243114E-2,5.2332157E-1,2.6895856E-2,7.483571E-1,-4.6424088E-1,3.4431078E-2,-6.796033E-2,-2.7456962E-2,-4.80114E-2,-3.2778848E-3,-6.6428475E-2,-1.877938E-2,-2.0348037E-2,3.3874985E-2,-3.3168364E-2,2.0774195E-2,-1.3856971E-2,1.6371168E-2,1.8641124E-2,5.251704E-2,1.856863E-2,-2.0439588E-2,4.5156004E-3,6.0014922E-2,6.622173E-2,-9.952273E-3,-7.0763186E-2,1.0726226E-2,1.2544912E-1,6.835783E-2,-3.5177868E-2,-5.6904692E-2,-6.25472E-2,-2.0362765E-2,4.926235E-2,-1.1735981E-2,3.2494098E-2,-4.930802E-2,7.3473535E-2,3.3801634E-2,-5.5931136E-2,-1.27457185E-2],"categories":[],"categories_nodes":[],"categories_segments":[],"categories_sizes":[],"default_left":[0,0,0,0,0,0,0,0,0,0,0,0,0,0,0,0,0,0,0,0,0,0,0,0,0,0,0,0,0,0,0,0,0,0,0,0,0,0,0,0,0,0,0,0,0,0,0,0,0,0,0,0,0,0,0,0,0,0,0,0,0,0,0,0,0,0,0,0,0,0,0,0,0,0,0,0,0,0,0,0,0,0,0,0,0,0,0,0,0,0,0,0,0,0,0,0,0,0,0,0,0,0,0,0,0,0,0],"id":11,"left_children":[1,3,5,-1,7,9,-1,11,13,15,-1,17,19,21,-1,23,25,27,29,-1,31,33,35,37,39,41,-1,43,45,47,49,51,53,-1,55,57,59,61,-1,63,65,67,69,71,-1,-1,73,75,-1,-1,77,79,81,83,85,87,-1,89,91,93,-1,-1,95,-1,97,-1,99,101,103,105,-1,-1,-1,-1,-1,-1,-1,-1,-1,-1,-1,-1,-1,-1,-1,-1,-1,-1,-1,-1,-1,-1,-1,-1,-1,-1,-1,-1,-1,-1,-1,-1,-1,-1,-1,-1,-1],"loss_changes":[2.0736553E3,5.497595E2,1.7786646E2,0E0,3.1494202E2,2.4445927E2,0E0,2.100282E2,3.299774E1,6.2537643E1,0E0,4.66774E1,9.925939E1,1.0811375E1,0E0,1.8553389E1,2.259935E1,9.247406E0,1.5708057E1,0E0,3.5637054E1,5.4185715E0,7.6725063E0,6.341511E0,8.577596E0,7.9305363E0,0E0,2.9953003E-1,6.1522064E0,5.830248E0,1.0088909E1,1.7984543E1,1.35820465E1,0E0,5.3947353E0,1.6468662E1,7.1844425E0,1.3570976E0,0E0,5.544268E0,5.136265E0,6.144121E0,3.478167E0,1.5214062E0,0E0,0E0,4.8523026E0,3.6541996E0,0E0,0E0,9.487276E0,6.5985518E0,1.3517651E1,1.4227867E1,3.6199317E0,1.7641556E0,0E0,7.161165E0,5.8299627E0,1.5261803E0,0E0,0E0,7.7085495E-1,0E0,8.861828E-1,0E0,3.0121746E0,4.878951E0,3.0237312E0,9.427388E-1,0E0,0E0,0E0,0E0,0E0,0E0,0E0,0E0,0E0,0E0,0E0,0E0,0E0,0E0,0E0,0E0,0E0,0E0,0E0,0E0,0E0,0E0,0E0,0E0,0E0,0E0,0E0,0E0,0E0,0E0,0E0,0E0,0E0,0E0,0E0,0E0,0E0],"parents":[2147483647,0,0,1,1,2,2,4,4,5,5,7,7,8,8,9,9,11,11,12,12,13,13,15,15,16,16,17,17,18,18,20,20,21,21,22,22,23,23,24,24,25,25,27,27,28,28,29,29,30,30,31,31,32,32,34,34,35,35,36,36,37,37,39,39,40,40,41,41,42,42,43,43,46,46,47,47,50,50,51,51,52,52,53,53,54,54,55,55,57,57,58,58,59,59,62,62,64,64,66,66,67,67,68,68,69,69],"right_children":[2,4,6,-1,8,10,-1,12,14,16,-1,18,20,22,-1,24,26,28,30,-1,32,34,36,38,40,42,-1,44,46,48,50,52,54,-1,56,58,60,62,-1,64,66,68,70,72,-1,-1,74,76,-1,-1,78,80,82,84,86,88,-1,90,92,94,-1,-1,96,-1,98,-1,100,102,104,106,-1,-1,-1,-1,-1,-1,-1,-1,-1,-1,-1,-1,-1,-1,-1,-1,-1,-1,-1,-1,-1,-1,-1,-1,-1,-1,-1,-1,-1,-1,-1,-1,-1,-1,-1,-1,-1],"split_conditions":[1.05E3,7.182E2,1.342E3,-7.782538E-2,6.7E0,6.8E0,1.1844227E-1,4.7E1,6.8E0,2.6E2,1.1822437E-1,3.175E1,5.7E0,2.05E2,1.1765287E-1,2.736E1,2.2E2,2.8E1,3.4E1,-7.701114E-2,2.957E1,1.3E2,1.651E2,6E1,4.5E1,1E0,1.1835975E-1,-6.5E0,5.7E0,4.622E1,5.7E0,5.6E1,1E0,1.3786557E-1,3.237E1,1.611E2,7.8E1,2.16E1,1.971165E-2,-1.94E2,6.1E0,2.726E1,2.871E1,1E0,-7.216781E-2,-7.6514415E-2,1E0,-1.339E2,1.9957963E-2,-6.951174E-2,-6.1E0,1E0,2.608E1,6.1E1,1E0,6.2E1,1.1229218E-1,-1.239E2,-5.7E0,1.6E2,2.6618093E-3,-7.446612E-2,1E0,2.2893306E-2,3.789E1,-2.1243114E-2,1E0,7.8E1,1E0,7.2E1,3.4431078E-2,-6.796033E-2,-2.7456962E-2,-4.80114E-2,-3.2778848E-3,-6.6428475E-2,-1.877938E-2,-2.0348037E-2,3.3874985E-2,-3.3168364E-2,2.0774195E-2,-1.3856971E-2,1.6371168E-2,1.8641124E-2,5.251704E-2,1.856863E-2,-2.0439588E-2,4.5156004E-3,6.0014922E-2,6.622173E-2,-9.952273E-3,-7.0763186E-2,1.0726226E-2,1.2544912E-1,6.835783E-2,-3.5177868E-2,-5.6904692E-2,-6.25472E-2,-2.0362765E-2,4.926235E-2,-1.1735981E-2,3.2494098E-2,-4.930802E-2,7.3473535E-2,3.3801634E-2,-5.5931136E-2,-1.27457185E-2],"split_indices":[15,15,15,0,16,4,0,0,4,22,0,3,4,22,0,3,5,0,0,0,3,5,20,0,0,9,0,21,4,3,4,0,9,0,3,20,0,3,0,19,4,3,3,13,0,0,14,19,0,0,21,12,3,0,6,0,0,19,21,23,0,0,6,0,3,0,9,0,13,0,0,0,0,0,0,0,0,0,0,0,0,0,0,0,0,0,0,0,0,0,0,0,0,0,0,0,0,0,0,0,0,0,0,0,0,0,0],"split_type":[0,0,0,0,0,0,0,0,0,0,0,0,0,0,0,0,0,0,0,0,0,0,0,0,0,0,0,0,0,0,0,0,0,0,0,0,0,0,0,0,0,0,0,0,0,0,0,0,0,0,0,0,0,0,0,0,0,0,0,0,0,0,0,0,0,0,0,0,0,0,0,0,0,0,0,0,0,0,0,0,0,0,0,0,0,0,0,0,0,0,0,0,0,0,0,0,0,0,0,0,0,0,0,0,0,0,0],"sum_hessian":[3.8516135E3,2.8520403E3,9.995733E2,1.0607245E3,1.7913158E3,4.3935715E2,5.602161E2,1.5974357E3,1.9388013E2,2.4891061E2,1.9044653E2,6.919181E2,9.055176E2,1.1504703E2,7.88331E1,1.4636588E2,1.0254474E2,5.5190594E2,1.4001219E2,7.8394875E1,8.271227E2,2.9441175E1,8.560585E1,8.0574455E1,6.579141E1,8.180327E1,2.0741472E1,2.9637894E2,2.55527E2,5.3769413E1,8.6242775E1,4.916516E2,3.354711E2,9.971362E0,1.9469814E1,5.8691044E1,2.6914806E1,7.426357E1,6.3108816E0,2.4973408E1,4.0818005E1,6.485246E1,1.6950804E1,3.0959757E1,2.654192E2,4.4092945E1,2.1143405E2,4.731899E1,6.4504237E0,7.7770815E0,7.84657E1,1.21854836E2,3.6979678E2,2.8170007E2,5.377101E1,1.2332065E1,7.137749E0,4.02359E1,1.8455143E1,2.0426891E1,6.4879136E0,1.9939438E1,5.4324135E1,7.2298965E0,1.7743511E1,9.762127E0,3.105588E1,1.55204735E1,4.933199E1,1.1909002E1,5.0418E0,2.1532768E1,9.426989E0,1.9661949E2,1.4814562E1,3.370556E1,1.3613434E1,2.690928E1,5.1556416E1,1.0809156E2,1.3763275E1,1.2486661E2,2.4493016E2,1.3707925E2,1.4462082E2,2.1368832E1,3.240218E1,7.305226E0,5.0268383E0,3.1728527E1,8.507373E0,9.737927E0,8.7172165E0,7.1127343E0,1.33141575E1,2.4548107E1,2.977603E1,1.2569949E1,5.1735616E0,2.598612E1,5.0697594E0,9.968234E0,5.552239E0,2.647203E1,2.2859959E1,5.302736E0,6.606267E0],"tree_param":{"num_deleted":"0","num_feature":"25","num_nodes":"107","size_leaf_vector":"1"}},{"base_weights":[-3.2465402E-2,-4.50539E-1,1.1487544E0,-7.760306E-2,-1.2265262E-1,6.867768E-1,1.1356788E-1,-7.5926137E-1,1.2773496E-1,6.73809E-2,1.1334043E-1,-8.106379E-1,8.234031E-1,-2.359565E-2,9.8310405E-1,-3.2990006E-1,6.1396676E-1,-9.326009E-1,-6.032662E-1,3.2036725E-2,9.6896745E-2,-7.703394E-2,7.53425E-2,6.5774065E-1,1.1266931E-1,-6.451959E-1,4.358261E-2,3.825987E-1,1.1300493E-1,-8.854102E-1,-7.703403E-2,-7.3459625E-1,-2.171671E-1,-4.104615E-2,4.6402514E-1,1.1541569E0,4.8573261E-1,-7.2006243E-1,2.4686502E-2,-3.8600844E-1,2.9871246E-1,5.2208936E-1,-1.7030431E-1,-7.566203E-2,-8.166447E-1,-5.530655E-1,-8.4083813E-1,4.469905E-2,-3.8026363E-1,-2.809259E-1,1.8716414E-1,3.1600317E-1,8.251685E-1,7.7909184E-1,1.3041902E-1,3.0431747E-1,8.548838E-1,-7.4067496E-2,-6.088566E-1,-6.187777E-2,6.995128E-2,4.4695827E-1,-2.948681E-2,2.323891E-2,6.709502E-1,-4.5034137E-1,3.3146493E-2,-2.7032202E-2,-6.269821E-2,-5.829001E-2,-2.3823826E-2,-6.657786E-2,-4.026583E-2,-4.801375E-2,-1.1593932E-2,-4.5419756E-2,-1.4717135E-2,6.261615E-3,5.936425E-2,4.8016153E-2,7.508729E-3,7.0940875E-2,-2.5366878E-2,1.06137715E-1,-2.5249918E-3,4.5314774E-2,-2.9073985E-2,8.176267E-2,2.4847616E-3,-3.1711232E-2,-5.272518E-2,3.7224554E-2,-2.7562609E-2,1.656617E-2,9.2519164E-2,2.9570183E-2,-4.7733948E-2,5.620263E-2,4.895614E-3,-5.500686E-2,-1.2027758E-2],"categories":[],"categories_nodes":[],"categories_segments":[],"categories_sizes":[],"default_left":[0,0,0,0,0,0,0,0,0,0,0,0,0,0,0,0,0,0,0,0,0,0,0,0,0,0,0,0,0,0,0,0,0,0,0,0,0,0,0,0,0,0,0,0,0,0,0,0,0,0,0,0,0,0,0,0,0,0,0,0,0,0,0,0,0,0,0,0,0,0,0,0,0,0,0,0,0,0,0,0,0,0,0,0,0,0,0,0,0,0,0,0,0,0,0,0,0,0,0,0,0],"id":12,"left_children":[1,3,5,-1,7,9,-1,11,13,15,-1,17,19,21,23,25,27,29,31,-1,-1,-1,33,35,-1,37,39,41,-1,43,-1,45,47,49,51,53,55,57,-1,59,61,63,65,-1,67,69,71,-1,73,75,77,79,81,83,-1,85,87,-1,89,-1,91,93,-1,95,97,99,-1,-1,-1,-1,-1,-1,-1,-1,-1,-1,-1,-1,-1,-1,-1,-1,-1,-1,-1,-1,-1,-1,-1,-1,-1,-1,-1,-1,-1,-1,-1,-1,-1,-1,-1],"loss_changes":[1.8374404E3,5.262357E2,1.6318799E2,0E0,2.80838E2,2.202141E2,0E0,4.110562E1,1.6375977E2,5.3925568E1,0E0,1.16328125E1,2.4433537E0,1.0688561E2,3.1134445E1,1.6975712E1,2.1005314E1,4.366455E-1,9.038696E0,0E0,0E0,0E0,4.43591E1,9.573521E0,0E0,5.934246E0,7.438591E0,6.5919943E0,0E0,9.459686E-1,0E0,2.137436E0,6.5211296E0,4.1394466E1,1.1817673E1,5.1843033E0,5.7583504E0,1.5656509E0,0E0,5.128793E0,4.533245E0,5.002693E0,3.2408187E0,0E0,9.260559E-1,2.5359173E0,7.0863724E-1,0E0,2.255752E0,1.0016829E1,2.4220802E1,1.1266441E1,9.457222E0,1.0374735E1,0E0,1.3060158E1,5.5824795E0,0E0,6.496258E-1,0E0,2.6721668E0,6.0329347E0,0E0,4.3059697E0,2.4213943E0,9.222894E-1,0E0,0E0,0E0,0E0,0E0,0E0,0E0,0E0,0E0,0E0,0E0,0E0,0E0,0E0,0E0,0E0,0E0,0E0,0E0,0E0,0E0,0E0,0E0,0E0,0E0,0E0,0E0,0E0,0E0,0E0,0E0,0E0,0E0,0E0,0E0],"parents":[2147483647,0,0,1,1,2,2,4,4,5,5,7,7,8,8,9,9,11,11,12,12,13,13,14,14,15,15,16,16,17,17,18,18,22,22,23,23,25,25,26,26,27,27,29,29,31,31,32,32,33,33,34,34,35,35,36,36,37,37,39,39,40,40,41,41,42,42,44,44,45,45,46,46,48,48,49,49,50,50,51,51,52,52,53,53,55,55,56,56,58,58,60,60,61,61,63,63,64,64,65,65],"right_children":[2,4,6,-1,8,10,-1,12,14,16,-1,18,20,22,24,26,28,30,32,-1,-1,-1,34,36,-1,38,40,42,-1,44,-1,46,48,50,52,54,56,58,-1,60,62,64,66,-1,68,70,72,-1,74,76,78,80,82,84,-1,86,88,-1,90,-1,92,94,-1,96,98,100,-1,-1,-1,-1,-1,-1,-1,-1,-1,-1,-1,-1,-1,-1,-1,-1,-1,-1,-1,-1,-1,-1,-1,-1,-1,-1,-1,-1,-1,-1,-1,-1,-1,-1,-1],"split_conditions":[1.05E3,7.182E2,1.342E3,-7.760306E-2,3.9E1,6.8E0,1.1356788E-1,6.8E0,6.7E0,2.6E2,1.1334043E-1,2.8E1,6.6E0,5.7E0,6.8E0,2.736E1,2.2E2,-5.7E0,3.237E1,3.2036725E-2,9.6896745E-2,-7.703394E-2,3.39E1,2.04E2,1.1266931E-1,6.2E1,4.5E1,1E0,1.1300493E-1,1E1,-7.703403E-2,1E0,1.36E2,6.1E1,4.164E1,3.237E1,1.651E2,2.16E1,2.4686502E-2,2.33E2,1E0,2.726E1,2.88E1,-7.566203E-2,-1.539E2,-1.49E2,2.86E1,4.469905E-2,9.063E2,2.518E1,1.6E2,1E0,1.027E3,1.361E2,1.3041902E-1,1.611E2,7.8E1,-7.4067496E-2,1.1625E3,-6.187777E-2,6.1E0,3.942E1,-2.948681E-2,7.8E1,6.6E0,7.2E1,3.3146493E-2,-2.7032202E-2,-6.269821E-2,-5.829001E-2,-2.3823826E-2,-6.657786E-2,-4.026583E-2,-4.801375E-2,-1.1593932E-2,-4.5419756E-2,-1.4717135E-2,6.261615E-3,5.936425E-2,4.8016153E-2,7.508729E-3,7.0940875E-2,-2.5366878E-2,1.06137715E-1,-2.5249918E-3,4.5314774E-2,-2.9073985E-2,8.176267E-2,2.4847616E-3,-3.1711232E-2,-5.272518E-2,3.7224554E-2,-2.7562609E-2,1.656617E-2,9.2519164E-2,2.9570183E-2,-4.7733948E-2,5.620263E-2,4.895614E-3,-5.500686E-2,-1.2027758E-2],"split_indices":[15,15,15,0,0,4,0,17,16,22,0,0,4,4,4,3,5,18,3,0,0,0,3,22,0,0,0,9,0,0,0,6,20,0,3,3,20,3,0,22,9,3,3,0,19,19,3,0,15,3,23,6,15,20,0,20,0,0,15,0,4,3,0,0,4,0,0,0,0,0,0,0,0,0,0,0,0,0,0,0,0,0,0,0,0,0,0,0,0,0,0,0,0,0,0,0,0,0,0,0,0],"split_type":[0,0,0,0,0,0,0,0,0,0,0,0,0,0,0,0,0,0,0,0,0,0,0,0,0,0,0,0,0,0,0,0,0,0,0,0,0,0,0,0,0,0,0,0,0,0,0,0,0,0,0,0,0,0,0,0,0,0,0,0,0,0,0,0,0,0,0,0,0,0,0,0,0,0,0,0,0,0,0,0,0,0,0,0,0,0,0,0,0,0,0,0,0,0,0,0,0,0,0,0,0],"sum_hessian":[3.718696E3,2.7470432E3,9.7165283E2,9.8679504E2,1.7602482E3,4.3044394E2,5.4120886E2,4.9632156E2,1.2639266E3,2.4640262E2,1.8404132E2,4.8118896E2,1.5132587E1,1.074755E3,1.891716E2,1.4291939E2,1.0348322E2,3.0078748E2,1.8040147E2,9.234659E0,5.8979287E0,9.560976E1,9.791452E2,1.1768384E2,7.148776E1,7.7102005E1,6.581738E1,8.331894E1,2.0164284E1,2.0753764E2,9.324985E1,1.3393977E2,4.64617E1,7.541992E2,2.2494597E2,2.881466E1,8.886918E1,7.184277E1,5.259237E0,2.433269E1,4.1484695E1,6.657789E1,1.6741055E1,6.936826E1,1.3816937E2,5.173988E1,8.21999E1,7.318662E0,3.914304E1,3.6758594E2,3.866133E2,1.6088074E2,6.406524E1,1.89759E1,9.8387575E0,6.080944E1,2.8059736E1,1.8782108E1,5.306066E1,1.1984123E1,1.2348565E1,3.4455875E1,7.028818E0,1.5567027E1,5.101086E1,1.1668516E1,5.0725393E0,6.4152746E0,1.317541E2,2.5325977E1,2.6413904E1,6.9555E1,1.2644896E1,1.7337837E1,2.18052E1,7.4780304E1,2.9280563E2,3.309739E2,5.56394E1,6.352113E1,9.7359604E1,5.8212296E1,5.8529463E0,1.0229185E1,8.7467165E0,4.2512592E1,1.8296848E1,2.1560017E1,6.49972E0,1.9674065E1,3.3386597E1,6.1852984E0,6.1632667E0,2.7758839E1,6.697038E0,1.0220856E1,5.3461704E0,4.4953392E1,6.057465E0,5.1305413E0,6.537975E0],"tree_param":{"num_deleted":"0","num_feature":"25","num_nodes":"101","size_leaf_vector":"1"}},{"base_weights":[-3.179056E-2,-4.338305E-1,1.0984745E0,-7.7397145E-2,-1.16149485E-1,6.505302E-1,1.094045E-1,-7.431087E-1,1.1849148E-1,6.236536E-2,1.0916541E-1,-7.9521763E-1,7.6202774E-1,-2.2410393E-2,9.1088885E-1,-7.4176185E-2,1.116378E-1,-9.2300004E-1,-5.831567E-1,2.9213833E-2,9.15117E-2,-7.676663E-2,6.933537E-2,5.957287E-1,1.0848715E-1,-6.003008E-1,2.5774848E-1,-8.733176E-1,-7.6764E-2,-7.199929E-1,-2.1304797E-1,-3.831301E-2,4.2010498E-1,1.0207767E0,4.3574598E-1,-6.9676435E-1,1.050621E-1,8.734488E-2,6.9741553E-1,-7.530279E-2,-8.014536E-1,-5.4424E-1,-8.237685E-1,3.5585288E-2,-3.5957634E-1,-2.6495594E-1,1.7137896E-1,2.8782445E-1,7.3679197E-1,6.3406086E-1,1.5525568E0,5.0717837E-1,-3.713208E-2,-7.316168E-2,-6.054184E-1,3.809019E-2,-2.3755271E-2,3.100157E-1,-1.2368262E-1,4.7489858E-1,8.66148E-2,-2.5851538E-2,-6.161313E-2,-5.671596E-2,-2.441737E-2,-6.563876E-2,-3.6077507E-2,-4.7350593E-2,-1.0004186E-2,-4.3808788E-2,-1.3792959E-2,5.7644793E-3,5.275088E-2,4.3055277E-2,6.9147525E-3,6.307226E-2,-2.4074864E-2,7.2132796E-2,1.2352007E-2,7.771385E-2,1.4499028E-1,-1.8448014E-2,4.4561148E-2,-5.0478183E-2,-2.812024E-2,3.4263633E-2,-1.6281644E-2,-5.1165916E-2,3.867861E-3,1.5696265E-2,9.009391E-2],"categories":[],"categories_nodes":[],"categories_segments":[],"categories_sizes":[],"default_left":[0,0,0,0,0,0,0,0,0,0,0,0,0,0,0,0,0,0,0,0,0,0,0,0,0,0,0,0,0,0,0,0,0,0,0,0,0,0,0,0,0,0,0,0,0,0,0,0,0,0,0,0,0,0,0,0,0,0,0,0,0,0,0,0,0,0,0,0,0,0,0,0,0,0,0,0,0,0,0,0,0,0,0,0,0,0,0,0,0,0,0],"id":13,"left_children":[1,3,5,-1,7,9,-1,11,13,15,-1,17,19,21,23,25,-1,27,29,-1,-1,-1,31,33,-1,35,37,39,-1,41,43,45,47,49,51,53,55,57,59,-1,61,63,65,-1,67,69,71,73,75,77,79,81,-1,-1,83,-1,-1,85,87,89,-1,-1,-1,-1,-1,-1,-1,-1,-1,-1,-1,-1,-1,-1,-1,-1,-1,-1,-1,-1,-1,-1,-1,-1,-1,-1,-1,-1,-1,-1,-1],"loss_changes":[1.6320671E3,5.0326736E2,1.5112207E2,0E0,2.5478886E2,1.9965031E2,0E0,3.759729E1,1.4077989E2,4.778063E1,0E0,1.1827728E1,2.3052216E0,9.847632E1,3.1270859E1,3.9336857E1,0E0,5.196686E-1,8.674145E0,0E0,0E0,0E0,3.710976E1,7.820011E0,0E0,5.9992313E0,1.0298658E1,1.0387573E0,0E0,1.8650131E0,5.053437E0,3.5812504E1,9.455105E0,5.697445E0,6.238657E0,1.3634338E0,2.0887215E0,4.774643E0,3.3683453E0,0E0,9.221573E-1,2.0730848E0,9.499817E-1,0E0,2.4067116E0,9.258596E0,1.9632065E1,9.154005E0,7.691387E0,2.9951477E0,5.500469E-1,5.656496E0,0E0,0E0,6.8966484E-1,0E0,0E0,3.9170828E0,5.170703E0,5.070649E0,0E0,0E0,0E0,0E0,0E0,0E0,0E0,0E0,0E0,0E0,0E0,0E0,0E0,0E0,0E0,0E0,0E0,0E0,0E0,0E0,0E0,0E0,0E0,0E0,0E0,0E0,0E0,0E0,0E0,0E0,0E0],"parents":[2147483647,0,0,1,1,2,2,4,4,5,5,7,7,8,8,9,9,11,11,12,12,13,13,14,14,15,15,17,17,18,18,22,22,23,23,25,25,26,26,27,27,29,29,30,30,31,31,32,32,33,33,34,34,35,35,36,36,37,37,38,38,40,40,41,41,42,42,44,44,45,45,46,46,47,47,48,48,49,49,50,50,51,51,54,54,57,57,58,58,59,59],"right_children":[2,4,6,-1,8,10,-1,12,14,16,-1,18,20,22,24,26,-1,28,30,-1,-1,-1,32,34,-1,36,38,40,-1,42,44,46,48,50,52,54,56,58,60,-1,62,64,66,-1,68,70,72,74,76,78,80,82,-1,-1,84,-1,-1,86,88,90,-1,-1,-1,-1,-1,-1,-1,-1,-1,-1,-1,-1,-1,-1,-1,-1,-1,-1,-1,-1,-1,-1,-1,-1,-1,-1,-1,-1,-1,-1,-1],"split_conditions":[1.05E3,7.182E2,1.342E3,-7.7397145E-2,3.9E1,6.8E0,1.094045E-1,6.8E0,6.7E0,2.2E2,1.0916541E-1,2.8E1,6.6E0,5.7E0,6.8E0,5E1,1.116378E-1,-5.7E0,3.205E1,2.9213833E-2,9.15117E-2,-7.676663E-2,3.39E1,2.05E2,1.0848715E-1,3.758E1,3.351E1,1E1,-7.6764E-2,1E0,1.36E2,6.1E1,4.164E1,1E0,1E0,2.16E1,4.309E1,1E0,6.8E1,-7.530279E-2,-1.539E2,-1.49E2,2.86E1,3.5585288E-2,9.063E2,2.518E1,1.6E2,1E0,1.027E3,1.96E2,2.991E1,2.08E2,-3.713208E-2,-7.316168E-2,4.3E1,3.809019E-2,-2.3755271E-2,1E0,5.9E1,1E0,8.66148E-2,-2.5851538E-2,-6.161313E-2,-5.671596E-2,-2.441737E-2,-6.563876E-2,-3.6077507E-2,-4.7350593E-2,-1.0004186E-2,-4.3808788E-2,-1.3792959E-2,5.7644793E-3,5.275088E-2,4.3055277E-2,6.9147525E-3,6.307226E-2,-2.4074864E-2,7.2132796E-2,1.2352007E-2,7.771385E-2,1.4499028E-1,-1.8448014E-2,4.4561148E-2,-5.0478183E-2,-2.812024E-2,3.4263633E-2,-1.6281644E-2,-5.1165916E-2,3.867861E-3,1.5696265E-2,9.009391E-2],"split_indices":[15,15,15,0,0,4,0,17,16,5,0,0,4,4,4,0,0,18,3,0,0,0,3,22,0,3,3,0,0,6,20,0,3,6,14,3,3,6,0,0,19,19,3,0,15,3,23,6,15,22,3,22,0,0,0,0,0,9,0,1,0,0,0,0,0,0,0,0,0,0,0,0,0,0,0,0,0,0,0,0,0,0,0,0,0,0,0,0,0,0,0],"split_type":[0,0,0,0,0,0,0,0,0,0,0,0,0,0,0,0,0,0,0,0,0,0,0,0,0,0,0,0,0,0,0,0,0,0,0,0,0,0,0,0,0,0,0,0,0,0,0,0,0,0,0,0,0,0,0,0,0,0,0,0,0,0,0,0,0,0,0,0,0,0,0,0,0,0,0,0,0,0,0,0,0,0,0,0,0,0,0,0,0,0,0],"sum_hessian":[3.589556E3,2.6481975E3,9.413585E2,9.178383E2,1.7303591E3,4.2085953E2,5.20499E2,4.7064133E2,1.2597178E3,2.4380518E2,1.7705434E2,4.553485E2,1.529284E1,1.0703608E3,1.8935686E2,2.233675E2,2.043769E1,2.8204373E2,1.7330476E2,9.455052E0,5.837788E0,8.900184E1,9.813591E2,1.205408E2,6.881605E1,8.6093895E1,1.3727359E2,1.9523561E2,8.680812E1,1.2583562E2,4.746915E1,7.515922E2,2.2976683E2,3.149177E1,8.9049034E1,7.574711E1,1.0346788E1,9.979448E1,3.747911E1,6.465598E1,1.3057964E2,4.903501E1,7.68006E1,7.9463587E0,3.9522793E1,3.610703E2,3.9052188E2,1.6341646E2,6.635039E1,1.9502031E1,1.19897375E1,8.3125175E1,5.923859E0,1.6307833E1,5.9439274E1,5.188168E0,5.15862E0,4.8329426E1,5.1465054E1,2.6585337E1,1.0893774E1,6.257047E0,1.24322586E2,2.3650873E1,2.538414E1,6.5431465E1,1.1369137E1,1.713899E1,2.2383802E1,7.1866135E1,2.892042E2,3.325748E2,5.794709E1,6.5557335E1,9.7859116E1,6.058859E1,5.7617955E0,1.086622E1,8.635811E0,6.6672916E0,5.3224463E0,8.4159355E0,7.4709236E1,4.4471165E1,1.496811E1,3.7903996E1,1.0425432E1,1.1600836E1,3.9864216E1,2.040991E1,6.175426E0],"tree_param":{"num_deleted":"0","num_feature":"25","num_nodes":"91","size_leaf_vector":"1"}},{"base_weights":[-3.1022765E-2,-4.1728598E-1,1.0538741E0,-7.72062E-2,-1.09899856E-1,6.1796755E-1,1.058153E-1,-7.2669697E-1,1.0996442E-1,5.8438014E-2,1.0556277E-1,-7.7948797E-1,7.062686E-1,-2.1260792E-2,8.4487003E-1,-6.987791E-2,1.0740814E-1,-9.1318536E-1,-5.6310135E-1,8.798248E-2,2.691598E-2,-7.651132E-2,6.3851506E-2,5.400308E-1,1.04869656E-1,-5.8050156E-1,2.3703527E-1,-8.6091906E-1,-7.650594E-2,-6.9535196E-1,-1.819181E-1,1.6377087E-1,-2.6470184E-1,6.685425E-1,1.14027254E-1,-6.7812496E-1,9.753954E-2,7.991259E-2,6.350812E-1,-7.4948564E-2,-7.8590894E-1,-5.017945E-1,-8.144075E-1,3.4099758E-2,-3.2068393E-1,-2.1794027E-1,2.6872152E-1,-4.7515094E-1,-1.4169966E-1,5.1330173E-1,1.105821E0,4.5198694E-1,-2.816917E-1,-7.2688624E-2,-5.8510816E-1,3.4785982E-2,-2.2611402E-2,1.8926516E-1,-3.028587E-1,4.3535393E-1,7.7927366E-2,-2.470337E-2,-6.0501236E-2,-5.6160934E-2,-1.9487092E-2,-6.52903E-2,-4.223417E-2,-1.4314176E-2,-5.981109E-2,1.4764771E-2,-3.1451836E-2,4.296347E-3,3.560305E-2,-1.8746478E-2,-4.8814096E-2,1.9703444E-2,-1.6630119E-2,5.681552E-2,1.1732785E-3,5.9588566E-2,1.24590196E-1,9.776116E-2,-4.6078763E-3,5.2428356E-4,-5.068856E-2,-4.9013462E-2,-2.6777806E-2,-4.0181972E-2,2.4274189E-2,1.7890144E-3,-3.0559944E-2,1.4437618E-2,8.114134E-2],"categories":[],"categories_nodes":[],"categories_segments":[],"categories_sizes":[],"default_left":[0,0,0,0,0,0,0,0,0,0,0,0,0,0,0,0,0,0,0,0,0,0,0,0,0,0,0,0,0,0,0,0,0,0,0,0,0,0,0,0,0,0,0,0,0,0,0,0,0,0,0,0,0,0,0,0,0,0,0,0,0,0,0,0,0,0,0,0,0,0,0,0,0,0,0,0,0,0,0,0,0,0,0,0,0,0,0,0,0,0,0,0,0],"id":14,"left_children":[1,3,5,-1,7,9,-1,11,13,15,-1,17,19,21,23,25,-1,27,29,-1,-1,-1,31,33,-1,35,37,39,-1,41,43,45,47,49,51,53,55,57,59,-1,61,63,65,-1,67,69,71,73,75,77,79,81,83,-1,85,-1,-1,87,89,91,-1,-1,-1,-1,-1,-1,-1,-1,-1,-1,-1,-1,-1,-1,-1,-1,-1,-1,-1,-1,-1,-1,-1,-1,-1,-1,-1,-1,-1,-1,-1,-1,-1],"loss_changes":[1.4528633E3,4.8094733E2,1.4078491E2,0E0,2.310409E2,1.8176233E2,0E0,3.4416992E1,1.2118469E2,4.2746655E1,0E0,1.1991058E1,2.2437391E0,9.078237E1,3.136139E1,3.496503E1,0E0,6.055145E-1,8.3269005E0,0E0,0E0,0E0,3.2353447E1,6.733574E0,0E0,5.6076794E0,8.674674E0,1.1327057E0,0E0,2.4520187E0,4.0809183E0,3.0316605E1,5.8836975E0,5.905403E0,4.143875E0,1.4175873E0,1.807553E0,4.2920895E0,2.7216606E0,0E0,9.1511536E-1,2.7869244E0,5.7125473E-1,0E0,2.1481225E0,1.3737455E1,2.5793892E1,3.1760025E0,4.8006325E0,8.76849E0,2.8498E0,7.329712E0,1.6489818E0,0E0,6.727333E-1,0E0,0E0,7.900769E0,7.9118466E-1,4.1952786E0,0E0,0E0,0E0,0E0,0E0,0E0,0E0,0E0,0E0,0E0,0E0,0E0,0E0,0E0,0E0,0E0,0E0,0E0,0E0,0E0,0E0,0E0,0E0,0E0,0E0,0E0,0E0,0E0,0E0,0E0,0E0,0E0,0E0],"parents":[2147483647,0,0,1,1,2,2,4,4,5,5,7,7,8,8,9,9,11,11,12,12,13,13,14,14,15,15,17,17,18,18,22,22,23,23,25,25,26,26,27,27,29,29,30,30,31,31,32,32,33,33,34,34,35,35,36,36,37,37,38,38,40,40,41,41,42,42,44,44,45,45,46,46,47,47,48,48,49,49,50,50,51,51,52,52,54,54,57,57,58,58,59,59],"right_children":[2,4,6,-1,8,10,-1,12,14,16,-1,18,20,22,24,26,-1,28,30,-1,-1,-1,32,34,-1,36,38,40,-1,42,44,46,48,50,52,54,56,58,60,-1,62,64,66,-1,68,70,72,74,76,78,80,82,84,-1,86,-1,-1,88,90,92,-1,-1,-1,-1,-1,-1,-1,-1,-1,-1,-1,-1,-1,-1,-1,-1,-1,-1,-1,-1,-1,-1,-1,-1,-1,-1,-1,-1,-1,-1,-1,-1,-1],"split_conditions":[1.05E3,7.182E2,1.342E3,-7.72062E-2,3.9E1,6.8E0,1.058153E-1,6.8E0,6.7E0,2.2E2,1.0556277E-1,2.8E1,1.65E2,5.7E0,6.8E0,5E1,1.0740814E-1,-5.7E0,3.27E1,8.798248E-2,2.691598E-2,-7.651132E-2,1E0,8E1,1.04869656E-1,3.758E1,3.351E1,1E1,-7.650594E-2,1E0,1.36E2,2.625E1,5.6E1,1E0,9.12E2,2.16E1,4.309E1,1E0,6.8E1,-7.4948564E-2,-1.539E2,-1.49E2,2.773E1,3.4099758E-2,9.796E2,1E0,6E1,6.1E0,1.98E2,2.19E2,2.22E2,-1.339E2,1E0,-7.2688624E-2,4.3E1,3.4785982E-2,-2.2611402E-2,5.7E1,5.9E1,1E0,7.7927366E-2,-2.470337E-2,-6.0501236E-2,-5.6160934E-2,-1.9487092E-2,-6.52903E-2,-4.223417E-2,-1.4314176E-2,-5.981109E-2,1.4764771E-2,-3.1451836E-2,4.296347E-3,3.560305E-2,-1.8746478E-2,-4.8814096E-2,1.9703444E-2,-1.6630119E-2,5.681552E-2,1.1732785E-3,5.9588566E-2,1.24590196E-1,9.776116E-2,-4.6078763E-3,5.2428356E-4,-5.068856E-2,-4.9013462E-2,-2.6777806E-2,-4.0181972E-2,2.4274189E-2,1.7890144E-3,-3.0559944E-2,1.4437618E-2,8.114134E-2],"split_indices":[15,15,15,0,0,4,0,17,16,5,0,0,22,4,4,0,0,18,3,0,0,0,9,0,0,3,3,0,0,6,20,3,0,13,15,3,3,9,0,0,19,19,3,0,15,6,0,4,22,22,22,19,13,0,0,0,0,0,0,1,0,0,0,0,0,0,0,0,0,0,0,0,0,0,0,0,0,0,0,0,0,0,0,0,0,0,0,0,0,0,0,0,0],"split_type":[0,0,0,0,0,0,0,0,0,0,0,0,0,0,0,0,0,0,0,0,0,0,0,0,0,0,0,0,0,0,0,0,0,0,0,0,0,0,0,0,0,0,0,0,0,0,0,0,0,0,0,0,0,0,0,0,0,0,0,0,0,0,0,0,0,0,0,0,0,0,0,0,0,0,0,0,0,0,0,0,0,0,0,0,0,0,0,0,0,0,0,0,0],"sum_hessian":[3.4649434E3,2.5556523E3,9.092909E2,8.5354675E2,1.7021056E3,4.1062848E2,4.9866245E2,4.4668655E2,1.2554191E3,2.4094748E2,1.69681E2,4.3125497E2,1.5431567E1,1.0660377E3,1.8938132E2,2.2123119E2,1.9716293E1,2.6456796E2,1.6668703E2,5.5698023E0,9.861765E0,8.2839195E1,9.8319855E2,1.23388115E2,6.599321E1,8.271821E1,1.3851299E2,1.8376767E2,8.0800285E1,1.2313978E2,4.3547245E1,7.5430237E2,2.2889622E2,9.43549E1,2.9033215E1,7.2307365E1,1.0410839E1,1.0017224E2,3.834074E1,6.0261543E1,1.2350613E2,4.8882576E1,7.42572E1,7.386331E0,3.616091E1,1.6243628E2,5.918661E2,8.337826E1,1.4551796E2,7.12381E1,2.3116796E1,1.5582743E1,1.3450472E1,1.5230516E1,5.707685E1,5.3435307E0,5.0673084E0,7.830663E1,2.1865604E1,2.7045992E1,1.1294747E1,6.1090803E0,1.1739705E2,2.3152275E1,2.57303E1,5.8684464E1,1.5572739E1,2.9522459E1,6.6384544E0,5.3101154E1,1.0933512E2,2.926992E2,2.991669E2,3.7604046E1,4.577421E1,2.3663837E1,1.2185412E2,4.7435635E1,2.3802467E1,1.637098E1,6.7458177E0,5.2827387E0,1.0300004E1,8.331035E0,5.119437E0,4.247273E1,1.4604124E1,1.1778138E1,6.6528496E1,5.4902544E0,1.637535E1,2.0604279E1,6.4417143E0],"tree_param":{"num_deleted":"0","num_feature":"25","num_nodes":"93","size_leaf_vector":"1"}},{"base_weights":[-3.0277189E-2,-4.0092006E-1,1.0134561E0,-7.702895E-2,-1.03986576E-1,5.877275E-1,1.0269639E-1,-7.099268E-1,1.01916194E-1,5.468421E-2,1.02428764E-1,-7.6346344E-1,6.522907E-1,3.4257084E-2,1.01714306E-1,-6.592533E-2,1.0371366E-1,-9.031252E-1,-5.4320866E-1,2.838685E-3,9.146756E-1,-7.6266356E-2,1.0802406E-1,-5.6076354E-1,2.181126E-1,-8.4818953E-1,-7.625822E-2,-7.021724E-1,-2.25407E-1,3.6707E-2,8.810501E-2,2.0156965E-1,-2.1479662E-1,-6.593246E-1,9.051975E-2,1.0787831E-2,4.783631E-1,-7.459737E-2,-7.700018E-1,-7.331224E-1,-8.424818E-3,4.2011258E-1,-3.9336604E-1,1.3741079E-1,6.9419914E-1,-5.835877E-1,-1.5256819E-1,-7.221258E-2,-5.648172E-1,3.4413826E-2,-2.2546042E-2,-1.7016812E-1,4.5856282E-1,7.162084E-1,2.626903E-1,-2.3588523E-2,-5.936146E-2,-6.5987766E-2,-4.5381524E-2,-4.328772E-3,6.667053E-2,-6.355791E-2,-1.9371558E-2,-4.407689E-3,2.7413486E-2,7.1387105E-2,2.8458199E-2,-2.6739346E-2,-6.64581E-2,3.09371E-2,-1.45701105E-2,-4.7538146E-2,-2.5474438E-2,-1.8431678E-2,2.2011558E-2,6.0664374E-2,3.2579028E-3,6.5426053E-3,7.08239E-2,5.858915E-3,6.613249E-2],"categories":[],"categories_nodes":[],"categories_segments":[],"categories_sizes":[],"default_left":[0,0,0,0,0,0,0,0,0,0,0,0,0,0,0,0,0,0,0,0,0,0,0,0,0,0,0,0,0,0,0,0,0,0,0,0,0,0,0,0,0,0,0,0,0,0,0,0,0,0,0,0,0,0,0,0,0,0,0,0,0,0,0,0,0,0,0,0,0,0,0,0,0,0,0,0,0,0,0,0,0],"id":15,"left_children":[1,3,5,-1,7,9,-1,11,13,15,-1,17,19,21,-1,23,-1,25,27,-1,29,-1,31,33,35,37,-1,39,41,-1,-1,43,45,47,49,51,53,-1,55,57,-1,59,61,63,65,67,69,-1,71,-1,-1,73,75,77,79,-1,-1,-1,-1,-1,-1,-1,-1,-1,-1,-1,-1,-1,-1,-1,-1,-1,-1,-1,-1,-1,-1,-1,-1,-1,-1],"loss_changes":[1.2951788E3,4.592227E2,1.3210388E2,0E0,2.0929688E2,1.6630354E2,0E0,3.1524765E1,1.0624553E2,3.8395695E1,0E0,1.2115768E1,2.6460314E0,9.2337814E1,0E0,3.106758E1,0E0,6.9395447E-1,8.002193E0,0E0,7.088299E-1,0E0,3.3634155E1,5.2315845E0,7.5809965E0,1.2273483E0,0E0,1.8746796E0,6.1643257E0,0E0,0E0,2.7179249E1,5.657338E0,1.4669323E0,1.7903249E0,6.501844E0,3.008603E0,0E0,9.049759E-1,1.3775711E0,0E0,2.718894E0,2.5058546E0,3.4243465E1,7.682209E0,2.1429996E0,5.1602826E0,0E0,6.530838E-1,0E0,0E0,2.0764832E0,3.3222537E0,4.086545E0,3.8460166E0,0E0,0E0,0E0,0E0,0E0,0E0,0E0,0E0,0E0,0E0,0E0,0E0,0E0,0E0,0E0,0E0,0E0,0E0,0E0,0E0,0E0,0E0,0E0,0E0,0E0,0E0],"parents":[2147483647,0,0,1,1,2,2,4,4,5,5,7,7,8,8,9,9,11,11,12,12,13,13,15,15,17,17,18,18,20,20,22,22,23,23,24,24,25,25,27,27,28,28,31,31,32,32,33,33,34,34,35,35,36,36,38,38,39,39,41,41,42,42,43,43,44,44,45,45,46,46,48,48,51,51,52,52,53,53,54,54],"right_children":[2,4,6,-1,8,10,-1,12,14,16,-1,18,20,22,-1,24,-1,26,28,-1,30,-1,32,34,36,38,-1,40,42,-1,-1,44,46,48,50,52,54,-1,56,58,-1,60,62,64,66,68,70,-1,72,-1,-1,74,76,78,80,-1,-1,-1,-1,-1,-1,-1,-1,-1,-1,-1,-1,-1,-1,-1,-1,-1,-1,-1,-1,-1,-1,-1,-1,-1,-1],"split_conditions":[1.05E3,7.182E2,1.342E3,-7.702895E-2,3.9E1,6.8E0,1.0269639E-1,6.8E0,6.8E0,2.2E2,1.02428764E-1,2.8E1,-1.39E2,5.7E0,1.01714306E-1,5E1,1.0371366E-1,-5.7E0,3.07E1,2.838685E-3,8.7E2,-7.6266356E-2,1E0,3.758E1,3.001E1,1E1,-7.625822E-2,1.0332E3,1.362E2,3.6707E-2,8.810501E-2,3.902E1,2.589E1,2.16E1,1.22E3,