{"learner":{"attributes":{"best_iteration":"67","best_score":"0.08222925516268151"},"feature_names":[],"feature_types":[],"gradient_booster":{"model":{"gbtree_model_param":{"num_parallel_tree":"1","num_trees":"118"},"iteration_indptr":[0,1,2,3,4,5,6,7,8,9,10,11,12,13,14,15,16,17,18,19,20,21,22,23,24,25,26,27,28,29,30,31,32,33,34,35,36,37,38,39,40,41,42,43,44,45,46,47,48,49,50,51,52,53,54,55,56,57,58,59,60,61,62,63,64,65,66,67,68,69,70,71,72,73,74,75,76,77,78,79,80,81,82,83,84,85,86,87,88,89,90,91,92,93,94,95,96,97,98,99,100,101,102,103,104,105,106,107,108,109,110,111,112,113,114,115,116,117,118],"tree_info":[0,0,0,0,0,0,0,0,0,0,0,0,0,0,0,0,0,0,0,0,0,0,0,0,0,0,0,0,0,0,0,0,0,0,0,0,0,0,0,0,0,0,0,0,0,0,0,0,0,0,0,0,0,0,0,0,0,0,0,0,0,0,0,0,0,0,0,0,0,0,0,0,0,0,0,0,0,0,0,0,0,0,0,0,0,0,0,0,0,0,0,0,0,0,0,0,0,0,0,0,0,0,0,0,0,0,0,0,0,0,0,0,0,0,0,0,0,0],"trees":[{"base_weights":[-1.7211403E-3,-4.7917226E-1,1.1697917E0,-8.7770355E-1,1.9899909E-1,-9.984645E-1,-5.984872E-1,-1.0910734E-1,9.723161E-1,-1.08219616E-1,-9.146557E-1,-1.0895874E-1,-2.6897755E-1,7.6884824E-1,2.9832807E0,-1.0020156E0,-7.350827E-1,-1.422319E-1,-6.1904866E-1,1.0303453E0,6.612763E-2,3.398546E-1,1.9512321E-1,-9.276041E-2,-1.0524831E-1,-6.6983896E-1,-8.976907E-2,-4.029939E-1,-3.298967E-2,-6.8575454E-1,-5.5637836E-1,5.796582E-1,1.3431835E0,-2.3002589E-1,2.284187E-1,-5.548343E-2,-7.245242E-2,-3.3303443E-2,-4.8771463E-2,1.4742303E-2,-1.52687E-2,-4.946268E-2,-8.1964456E-2,-4.238175E-2,-7.135313E-2,3.4664374E-2,9.1377705E-2,1.6979499E-1,1.1080309E-1,-8.894905E-3,-3.299987E-2,4.3727584E-2,7.901109E-3],"categories":[],"categories_nodes":[],"categories_segments":[],"categories_sizes":[],"default_left":[0,0,0,0,0,0,0,0,0,0,0,0,0,0,0,0,0,0,0,0,0,0,0,0,0,0,0,0,0,0,0,0,0,0,0,0,0,0,0,0,0,0,0,0,0,0,0,0,0,0,0,0,0],"id":0,"left_children":[1,3,-1,5,7,9,11,-1,13,-1,15,-1,17,19,21,23,25,27,29,31,33,-1,-1,-1,-1,35,-1,37,39,41,43,45,47,49,51,-1,-1,-1,-1,-1,-1,-1,-1,-1,-1,-1,-1,-1,-1,-1,-1,-1,-1],"loss_changes":[2.5095555E4,1.1667853E3,0E0,9.108032E1,1.595779E3,1.231897E1,1.3295026E2,0E0,4.0684924E2,0E0,1.4233826E1,0E0,2.183488E1,1.6704486E2,3.259613E1,1.4242554E0,2.7518768E0,1.035722E1,1.6626358E-1,9.2658264E1,1.1957876E1,0E0,0E0,0E0,0E0,1.041359E0,0E0,4.7411346E-1,5.586602E0,1.1088924E0,1.2155228E0,2.0960136E1,3.0689087E1,1.2144055E0,4.9743433E0,0E0,0E0,0E0,0E0,0E0,0E0,0E0,0E0,0E0,0E0,0E0,0E0,0E0,0E0,0E0,0E0,0E0,0E0],"parents":[2147483647,0,0,1,1,3,3,4,4,5,5,6,6,8,8,10,10,12,12,13,13,14,14,15,15,16,16,17,17,18,18,19,19,20,20,25,25,27,27,28,28,29,29,30,30,31,31,32,32,33,33,34,34],"right_children":[2,4,-1,6,8,10,12,-1,14,-1,16,-1,18,20,22,24,26,28,30,32,34,-1,-1,-1,-1,36,-1,38,40,42,44,46,48,50,52,-1,-1,-1,-1,-1,-1,-1,-1,-1,-1,-1,-1,-1,-1,-1,-1,-1,-1],"split_conditions":[6.8E0,5.1E1,1.1697917E0,3.8E1,5.7E0,5.8E0,5.7E0,-1.0910734E-1,1E0,-1.08219616E-1,2.7E1,-1.0895874E-1,1E0,1E0,7.8E1,1E0,1E0,4.2E1,4.4E1,6.1E1,6E1,3.398546E-1,1.9512321E-1,-9.276041E-2,-1.0524831E-1,6.1E0,-8.976907E-2,6.2E0,1E0,6.1E0,4.8E1,1E0,1E0,1E0,1E0,-5.548343E-2,-7.245242E-2,-3.3303443E-2,-4.8771463E-2,1.4742303E-2,-1.52687E-2,-4.946268E-2,-8.1964456E-2,-4.238175E-2,-7.135313E-2,3.4664374E-2,9.1377705E-2,1.6979499E-1,1.1080309E-1,-8.894905E-3,-3.299987E-2,4.3727584E-2,7.901109E-3],"split_indices":[4,0,0,0,4,4,4,0,2,0,0,0,9,9,0,9,9,0,0,0,0,0,0,0,0,4,0,4,6,4,0,7,6,6,6,0,0,0,0,0,0,0,0,0,0,0,0,0,0,0,0,0,0],"split_type":[0,0,0,0,0,0,0,0,0,0,0,0,0,0,0,0,0,0,0,0,0,0,0,0,0,0,0,0,0,0,0,0,0,0,0,0,0,0,0,0,0,0,0,0,0,0,0,0,0,0,0,0,0],"sum_hessian":[4.490573E3,4.315424E3,1.751493E2,2.7179253E3,1.5974985E3,1.8955323E3,8.223929E2,5.985564E2,9.9894214E2,9.4224414E2,9.532882E2,3.2929935E2,4.930935E2,9.08412E2,9.0530106E1,6.382217E2,3.1506653E2,3.630537E2,1.300398E2,6.617097E2,2.467023E2,6.2919975E1,2.7610126E1,2.6575717E2,3.7246448E2,2.2850296E2,8.6563576E1,1.063962E2,2.566575E2,5.81757E1,7.1864105E1,2.7229028E2,3.8941943E2,8.7185776E1,1.5951653E2,7.7230576E1,1.5127238E2,6.09756E1,4.54206E1,1.02274124E2,1.5438338E2,2.5899075E1,3.2276627E1,4.0987427E1,3.0876675E1,1.6161646E2,1.1067383E2,1.527501E2,2.3666933E2,3.6943127E1,5.0242653E1,6.571988E1,9.379665E1],"tree_param":{"num_deleted":"0","num_feature":"15","num_nodes":"53","size_leaf_vector":"1"}},{"base_weights":[-2.8193843E-2,-4.108747E-1,6.6176467E0,-6.913382E-1,4.3236914E-1,1.0608257E0,4.3143898E-1,-9.124929E-1,-2.5089023E-1,-9.408016E-1,6.0582377E-2,-1.0810105E-1,1.9309893E-1,-1.08232155E-1,-8.4531033E-1,-1.0429577E-1,6.3306636E-1,-1.09875135E-1,6.673192E-1,-9.723153E-1,-5.836812E-1,2.2748377E-2,1.0227265E-1,4.359313E-1,1.8711275E0,-1.0267197E-1,-8.559037E-2,-1.0850721E-1,-3.678903E-2,3.0399501E-2,1.5810989E-1,1.6311114E-1,2.2625832E-1],"categories":[],"categories_nodes":[],"categories_segments":[],"categories_sizes":[],"default_left":[0,0,0,0,0,0,0,0,0,0,0,0,0,0,0,0,0,0,0,0,0,0,0,0,0,0,0,0,0,0,0,0,0],"id":1,"left_children":[1,3,5,7,-1,-1,-1,9,11,13,15,-1,17,-1,19,-1,21,-1,23,25,27,-1,-1,29,31,-1,-1,-1,-1,-1,-1,-1,-1],"loss_changes":[1.1585856E4,5.7227383E3,2.2340293E3,3.9596704E2,0E0,0E0,0E0,7.463696E1,5.018252E2,3.4639404E1,4.9607204E1,0E0,5.4448456E2,0E0,5.178369E1,0E0,7.9277744E0,0E0,1.8020416E2,5.8290405E0,5.5578552E1,0E0,0E0,8.207464E1,6.125122E0,0E0,0E0,0E0,0E0,0E0,0E0,0E0,0E0],"parents":[2147483647,0,0,1,1,2,2,3,3,7,7,8,8,9,9,10,10,12,12,14,14,16,16,18,18,19,19,20,20,23,23,24,24],"right_children":[2,4,6,8,-1,-1,-1,10,12,14,16,-1,18,-1,20,-1,22,-1,24,26,28,-1,-1,30,32,-1,-1,-1,-1,-1,-1,-1,-1],"split_conditions":[2.2E2,6.8E0,6.8E0,5.4E1,4.3236914E-1,1.0608257E0,4.3143898E-1,1E0,5.7E0,5.7E0,5.7E0,-1.0810105E-1,1.26E2,-1.08232155E-1,3.9E1,-1.0429577E-1,1.45E2,-1.09875135E-1,1E0,2.8E1,1.26E2,2.2748377E-2,1.0227265E-1,1E0,1.59E2,-1.0267197E-1,-8.559037E-2,-1.0850721E-1,-3.678903E-2,3.0399501E-2,1.5810989E-1,1.6311114E-1,2.2625832E-1],"split_indices":[5,4,4,0,0,0,0,1,4,4,4,0,5,0,0,0,5,0,1,0,5,0,0,2,5,0,0,0,0,0,0,0,0],"split_type":[0,0,0,0,0,0,0,0,0,0,0,0,0,0,0,0,0,0,0,0,0,0,0,0,0,0,0,0,0,0,0,0,0],"sum_hessian":[4.553488E3,4.306452E3,2.4703596E2,4.0664216E3,2.4003038E2,8.908392E1,1.5795204E2,2.7064207E3,1.360001E3,2.6299434E3,7.647725E1,4.7341983E2,8.865811E2,1.0554352E3,1.574508E3,2.584183E1,5.0635418E1,2.3770863E2,6.488725E2,1.0581327E3,5.163755E2,2.5586842E1,2.5048578E1,5.4540125E2,1.0347123E2,7.157917E2,3.4234094E2,1.5415877E2,3.622167E2,4.9019113E2,5.521012E1,6.734582E1,3.6125416E1],"tree_param":{"num_deleted":"0","num_feature":"15","num_nodes":"33","size_leaf_vector":"1"}},{"base_weights":[-4.6619143E-2,-4.3019927E-1,3.1628472E-1,-1.0740298E-1,-7.9331204E-2,-6.854536E-1,6.219949E-1,-8.232339E-1,4.429925E-2,2.011451E-1,1.7915387E0,-9.2258096E-1,-5.2996004E-1,-5.1904947E-1,5.920114E-1,3.2076858E-2,1.1440712E0,1.4888728E0,2.6793451E0,-1.02196574E-1,-8.700546E-1,-6.036609E-1,-2.48091E-1,-1.0062795E-1,-2.0098418E-1,2.198936E-1,1.2481612E-1,-2.604411E-1,2.9665515E-1,5.3187346E-1,1.570573E0,9.62586E-1,1.7726297E0,2.2484516E-1,3.019286E-1,-8.8713765E-2,-6.0134437E-2,-4.7060315E-2,-6.879322E-2,-4.2651664E-2,8.19379E-4,-5.0658446E-2,1.1904546E-2,9.279732E-4,4.1331775E-2,-5.4527737E-2,-1.1941542E-2,1.2239476E-2,1.0107414E-1,3.780367E-2,6.9827676E-2,1.20148614E-1,1.728394E-1,7.402568E-2,1.2025844E-1,1.334684E-1,2.1977837E-1],"categories":[],"categories_nodes":[],"categories_segments":[],"categories_sizes":[],"default_left":[0,0,0,0,0,0,0,0,0,0,0,0,0,0,0,0,0,0,0,0,0,0,0,0,0,0,0,0,0,0,0,0,0,0,0,0,0,0,0,0,0,0,0,0,0,0,0,0,0,0,0,0,0,0,0,0,0],"id":2,"left_children":[1,3,-1,-1,5,7,9,11,13,15,17,19,21,23,25,27,29,31,33,-1,35,37,39,-1,41,43,-1,45,47,49,51,53,55,-1,-1,-1,-1,-1,-1,-1,-1,-1,-1,-1,-1,-1,-1,-1,-1,-1,-1,-1,-1,-1,-1,-1,-1],"loss_changes":[5.5253516E3,9.0553253E2,0E0,0E0,1.1039218E3,1.4009088E2,5.922356E2,3.3651672E1,6.885982E1,1.4128827E2,8.158588E1,3.6729126E0,6.0585327E0,1.6853327E1,2.7344925E1,5.8335194E1,3.4349716E1,3.4097534E1,4.8880615E0,0E0,2.1219788E0,2.3248367E0,2.913694E0,0E0,6.694883E0,2.9861403E0,0E0,1.43166485E1,4.911801E1,1.1911755E0,2.5199127E0,3.7078323E0,2.5848236E1,0E0,0E0,0E0,0E0,0E0,0E0,0E0,0E0,0E0,0E0,0E0,0E0,0E0,0E0,0E0,0E0,0E0,0E0,0E0,0E0,0E0,0E0,0E0,0E0],"parents":[2147483647,0,0,1,1,4,4,5,5,6,6,7,7,8,8,9,9,10,10,11,11,12,12,13,13,14,14,15,15,16,16,17,17,18,18,20,20,21,21,22,22,24,24,25,25,27,27,28,28,29,29,30,30,31,31,32,32],"right_children":[2,4,-1,-1,6,8,10,12,14,16,18,20,22,24,26,28,30,32,34,-1,36,38,40,-1,42,44,-1,46,48,50,52,54,56,-1,-1,-1,-1,-1,-1,-1,-1,-1,-1,-1,-1,-1,-1,-1,-1,-1,-1,-1,-1,-1,-1,-1,-1],"split_conditions":[6.8E0,5.7E0,3.1628472E-1,-1.0740298E-1,5E1,3.173E1,3.103E1,3.9E1,3.8E1,1E0,3.899E1,1.4E1,2.78E1,2.7E1,3.899E1,6.4E1,2.727E1,5.9E1,4.228E1,-1.02196574E-1,1E0,1E0,4.6E1,-1.0062795E-1,3.667E1,3.422E1,1.2481612E-1,2.654E1,2.78E1,2.5E1,6.3E1,1E0,3.383E1,2.2484516E-1,3.019286E-1,-8.8713765E-2,-6.0134437E-2,-4.7060315E-2,-6.879322E-2,-4.2651664E-2,8.19379E-4,-5.0658446E-2,1.1904546E-2,9.279732E-4,4.1331775E-2,-5.4527737E-2,-1.1941542E-2,1.2239476E-2,1.0107414E-1,3.780367E-2,6.9827676E-2,1.20148614E-1,1.728394E-1,7.402568E-2,1.2025844E-1,1.334684E-1,2.1977837E-1],"split_indices":[4,4,0,0,0,3,3,0,0,1,3,0,3,0,3,0,3,0,3,0,14,6,0,0,3,3,0,3,3,3,0,7,3,0,0,0,0,0,0,0,0,0,0,0,0,0,0,0,0,0,0,0,0,0,0,0,0],"split_type":[0,0,0,0,0,0,0,0,0,0,0,0,0,0,0,0,0,0,0,0,0,0,0,0,0,0,0,0,0,0,0,0,0,0,0,0,0,0,0,0,0,0,0,0,0,0,0,0,0,0,0,0,0,0,0,0,0],"sum_hessian":[4.486083E3,4.007939E3,4.7814386E2,1.4130256E3,2.5949133E3,1.391945E3,1.2029685E3,1.1707706E3,2.2117432E2,8.855009E2,3.1746753E2,8.7292126E2,2.9784937E2,1.090566E2,1.12117714E2,7.5174567E2,1.3375525E2,2.3875096E2,7.8716576E1,2.9544846E2,5.7747284E2,2.3520755E2,6.2641827E1,4.221918E1,6.683742E1,7.2395615E1,3.9722103E1,3.5702936E2,3.947163E2,5.584408E1,7.791116E1,8.5172646E1,1.5357831E2,3.8072227E1,4.064435E1,5.4079095E2,3.668183E1,9.375701E1,1.4145055E2,3.653907E1,2.6102755E1,3.3891285E1,3.2946136E1,3.5159473E1,3.723614E1,1.1728228E2,2.3974709E2,3.1822934E2,7.648697E1,3.0717825E1,2.5126255E1,2.5915966E1,5.19952E1,4.6334156E1,3.883849E1,7.769007E1,7.588824E1],"tree_param":{"num_deleted":"0","num_feature":"15","num_nodes":"57","size_leaf_vector":"1"}},{"base_weights":[-4.787339E-2,-4.07126E-1,2.5763413E-1,-1.0663487E-1,-7.6264545E-2,-7.919437E-1,4.1729093E-1,-9.5697373E-1,-5.6321543E-1,3.0540982E-1,1.4290351E0,-8.640451E-1,-1.0254095E-1,-6.7772555E-1,-3.6758938E-1,-8.8335045E-2,5.0449777E-1,1.6701252E0,5.481882E-2,-9.438757E-2,-8.018241E-1,-6.1440873E-1,-8.432879E-2,-2.7649307E-1,-4.849021E-1,3.950856E-2,-4.75103E-1,6.752468E-1,-4.9912906E-3,1.8178621E-1,1.0801228E-1,-8.6201996E-2,-6.929763E-2,-4.586641E-2,-7.38655E-2,-3.1828966E-2,-2.3799283E-2,-3.5497937E-2,-5.6575377E-2,-1.0343412E-2,2.443125E-2,-3.8982138E-2,-5.4964613E-2,8.9571565E-2,5.1797688E-2,1.7313996E-2,-1.3288963E-2],"categories":[],"categories_nodes":[],"categories_segments":[],"categories_sizes":[],"default_left":[0,0,0,0,0,0,0,0,0,0,0,0,0,0,0,0,0,0,0,0,0,0,0,0,0,0,0,0,0,0,0,0,0,0,0,0,0,0,0,0,0,0,0,0,0,0,0],"id":3,"left_children":[1,3,-1,-1,5,7,9,11,13,15,17,19,-1,21,23,25,27,29,-1,-1,31,33,-1,35,37,39,41,43,45,-1,-1,-1,-1,-1,-1,-1,-1,-1,-1,-1,-1,-1,-1,-1,-1,-1,-1],"loss_changes":[4.149461E3,8.442944E2,0E0,0E0,9.1119403E2,3.9203003E1,1.7239413E2,2.9943237E0,9.69017E0,1.0791533E2,3.1312286E1,5.6010437E-1,0E0,2.4033203E0,1.640028E0,2.2910843E1,7.952594E1,8.379395E0,0E0,0E0,4.2242432E-1,3.6334305E0,0E0,7.836437E-2,5.474701E-1,1.0238839E1,5.17395E-1,2.327539E1,5.2731895E0,0E0,0E0,0E0,0E0,0E0,0E0,0E0,0E0,0E0,0E0,0E0,0E0,0E0,0E0,0E0,0E0,0E0,0E0],"parents":[2147483647,0,0,1,1,4,4,5,5,6,6,7,7,8,8,9,9,10,10,11,11,13,13,14,14,15,15,16,16,17,17,20,20,21,21,23,23,24,24,25,25,26,26,27,27,28,28],"right_children":[2,4,-1,-1,6,8,10,12,14,16,18,20,-1,22,24,26,28,30,-1,-1,32,34,-1,36,38,40,42,44,46,-1,-1,-1,-1,-1,-1,-1,-1,-1,-1,-1,-1,-1,-1,-1,-1,-1,-1],"split_conditions":[6.8E0,5.7E0,2.5763413E-1,-1.0663487E-1,4.3E1,2.8E1,1E0,1E0,3.8E1,5.5E1,1E0,6.1E0,-1.0254095E-1,1E0,6.2E0,1E0,1E0,8E1,5.481882E-2,-9.438757E-2,1E0,1E0,-8.432879E-2,4E1,4E1,1E0,4.9E1,1E0,1E0,1.8178621E-1,1.0801228E-1,-8.6201996E-2,-6.929763E-2,-4.586641E-2,-7.38655E-2,-3.1828966E-2,-2.3799283E-2,-3.5497937E-2,-5.6575377E-2,-1.0343412E-2,2.443125E-2,-3.8982138E-2,-5.4964613E-2,8.9571565E-2,5.1797688E-2,1.7313996E-2,-1.3288963E-2],"split_indices":[4,4,0,0,0,0,2,9,0,0,9,4,0,9,4,9,9,0,0,0,7,13,0,0,0,7,0,6,6,0,0,0,0,0,0,0,0,0,0,0,0,0,0,0,0,0,0],"split_type":[0,0,0,0,0,0,0,0,0,0,0,0,0,0,0,0,0,0,0,0,0,0,0,0,0,0,0,0,0,0,0,0,0,0,0,0,0,0,0,0,0,0,0,0,0,0,0],"sum_hessian":[4.3993027E3,3.870306E3,5.289965E2,1.2926172E3,2.577689E3,1.0518505E3,1.5258384E3,6.091547E2,4.426958E2,1.3750806E3,1.5075787E2,2.641253E2,3.450294E2,2.7768677E2,1.6500902E2,4.61973E2,9.1310754E2,1.176584E2,3.309948E1,1.09484726E2,1.5464058E2,2.0427565E2,7.341112E1,9.477258E1,7.0236435E1,3.4788104E2,1.1409194E2,6.8366144E2,2.2944606E2,9.2432236E1,2.5226164E1,9.5118126E1,5.952246E1,9.272944E1,1.1154621E2,4.195654E1,5.281604E1,2.9009977E1,4.122646E1,2.0517462E2,1.4270644E2,5.611857E1,5.7973373E1,2.8268457E2,4.0097687E2,9.57441E1,1.3370197E2],"tree_param":{"num_deleted":"0","num_feature":"15","num_nodes":"47","size_leaf_vector":"1"}},{"base_weights":[-4.7061563E-2,-3.8339648E-1,2.2180693E-1,-1.0594777E-1,-7.1891546E-2,-7.4359244E-1,3.754514E-1,-8.6021405E-1,-1.7364894E-1,-2.0760775E-2,1.0792785E0,-7.63569E-1,-9.6645457E-1,-8.568279E-2,8.699303E-2,-1.5059423E-1,7.55924E-1,7.961702E-1,1.5939364E0,-7.9220575E-1,-4.0123597E-2,-9.838825E-2,-7.4661955E-2,-9.4630554E-2,5.57775E-2,-4.343184E-1,9.326537E-2,3.2424945E-1,1.11559E0,5.0910807E-1,1.1792094E0,1.0686418E0,1.8564951E0,-8.5278995E-2,-6.913833E-2,7.585312E-3,-3.2535195E-2,-6.443128E-2,-3.0015899E-2,2.297407E-2,-2.117352E-2,1.0703405E-2,5.682665E-2,1.3288388E-1,7.65899E-2,1.2788795E-2,6.94139E-2,1.03417575E-1,1.5753967E-1,3.8693544E-2,1.548373E-1,1.7415804E-1,2.1678503E-1],"categories":[],"categories_nodes":[],"categories_segments":[],"categories_sizes":[],"default_left":[0,0,0,0,0,0,0,0,0,0,0,0,0,0,0,0,0,0,0,0,0,0,0,0,0,0,0,0,0,0,0,0,0,0,0,0,0,0,0,0,0,0,0,0,0,0,0,0,0,0,0,0,0],"id":4,"left_children":[1,3,-1,-1,5,7,9,11,13,15,17,19,21,-1,23,25,27,29,31,33,-1,-1,-1,35,-1,37,39,41,43,45,47,49,51,-1,-1,-1,-1,-1,-1,-1,-1,-1,-1,-1,-1,-1,-1,-1,-1,-1,-1,-1,-1],"loss_changes":[3.2625935E3,7.852007E2,0E0,0E0,7.6760876E2,6.7726074E1,4.276604E2,7.963501E0,3.118479E1,9.915272E1,7.9211E1,4.3361816E0,7.9766846E-1,0E0,1.094379E1,5.8319084E1,2.150344E1,3.8800674E1,2.4913269E1,1.9432068E0,0E0,0E0,0E0,3.6736453E0,0E0,1.0780144E1,1.8938166E1,3.4065857E0,4.6804504E0,1.4483463E1,7.1475983E0,2.1426117E1,8.282776E-1,0E0,0E0,0E0,0E0,0E0,0E0,0E0,0E0,0E0,0E0,0E0,0E0,0E0,0E0,0E0,0E0,0E0,0E0,0E0,0E0],"parents":[2147483647,0,0,1,1,4,4,5,5,6,6,7,7,8,8,9,9,10,10,11,11,12,12,14,14,15,15,16,16,17,17,18,18,19,19,23,23,25,25,26,26,27,27,28,28,29,29,30,30,31,31,32,32],"right_children":[2,4,-1,-1,6,8,10,12,14,16,18,20,22,-1,24,26,28,30,32,34,-1,-1,-1,36,-1,38,40,42,44,46,48,50,52,-1,-1,-1,-1,-1,-1,-1,-1,-1,-1,-1,-1,-1,-1,-1,-1,-1,-1,-1,-1],"split_conditions":[6.8E0,5.7E0,2.2180693E-1,-1.0594777E-1,4.4E1,3.067E1,2.95E1,1E0,2.8E1,1E0,3.61E1,4.2E1,3.9E1,-8.568279E-2,4.041E1,6.1E1,2.732E1,6.4E1,5.5E1,1E0,-4.0123597E-2,-9.838825E-2,-7.4661955E-2,6.2E0,5.57775E-2,2.67E1,1E0,2.509E1,2.751E1,5.2E1,1E0,3.988E1,1E0,-8.5278995E-2,-6.913833E-2,7.585312E-3,-3.2535195E-2,-6.443128E-2,-3.0015899E-2,2.297407E-2,-2.117352E-2,1.0703405E-2,5.682665E-2,1.3288388E-1,7.65899E-2,1.2788795E-2,6.94139E-2,1.03417575E-1,1.5753967E-1,3.8693544E-2,1.548373E-1,1.7415804E-1,2.1678503E-1],"split_indices":[4,4,0,0,0,3,3,9,0,1,3,0,0,0,3,0,3,0,0,7,0,0,0,4,0,3,9,3,3,0,1,3,1,0,0,0,0,0,0,0,0,0,0,0,0,0,0,0,0,0,0,0,0],"split_type":[0,0,0,0,0,0,0,0,0,0,0,0,0,0,0,0,0,0,0,0,0,0,0,0,0,0,0,0,0,0,0,0,0,0,0,0,0,0,0,0,0,0,0,0,0,0,0,0,0,0,0,0,0],"sum_hessian":[4.280387E3,3.7277136E3,5.5267377E2,1.1750399E3,2.5526736E3,1.02017834E3,1.5324952E3,8.464655E2,1.737128E2,9.81142E2,5.513532E2,4.4753656E2,3.98929E2,4.734019E1,1.2637261E2,8.4131146E2,1.3983058E2,3.5733417E2,1.9401906E2,4.1365698E2,3.3879555E1,3.6640576E2,3.2523224E1,9.176823E1,3.460439E1,3.885097E2,4.5280173E2,6.441755E1,7.541303E1,2.0558853E2,1.5174564E2,6.634811E1,1.2767095E2,2.5373149E2,1.599255E2,5.3159252E1,3.8608974E1,1.4996806E2,2.3854166E2,3.1299567E2,1.3980606E2,3.4841503E1,2.9576044E1,4.5106266E1,3.0306767E1,6.7731705E1,1.3785681E2,1.13724464E2,3.8021175E1,2.8151253E1,3.8196854E1,9.806918E1,2.9601767E1],"tree_param":{"num_deleted":"0","num_feature":"15","num_nodes":"53","size_leaf_vector":"1"}},{"base_weights":[-4.697007E-2,-1.904566E-1,1.001739E0,-2.6631716E-1,1.0151961E0,9.446013E-1,1.2985677E-1,-3.2852548E-1,2.7139792E-1,9.139023E-1,1.2574773E-1,8.6566E-1,1.0368927E-1,-4.078457E-1,-2.0840807E-1,5.096672E-2,3.4823369E-3,8.455527E-1,1.03459455E-1,8.2393545E-1,1.1020082E-1,-4.5575052E-1,-8.747558E-2,-2.7016237E-2,-9.389448E-3,7.4813984E-2,1.0026363E-1,7.264181E-2,9.67493E-2,-4.9057168E-1,-7.704651E-2,-1.0817796E-2,-5.523811E-3,-5.27332E-2,-4.4449065E-2,-9.6639537E-4,-1.3095543E-2],"categories":[],"categories_nodes":[],"categories_segments":[],"categories_sizes":[],"default_left":[0,0,0,0,0,0,0,0,0,0,0,0,0,0,0,0,0,0,0,0,0,0,0,0,0,0,0,0,0,0,0,0,0,0,0,0,0],"id":5,"left_children":[1,3,5,7,9,11,-1,13,15,17,-1,19,-1,21,23,-1,-1,25,-1,27,-1,29,31,-1,-1,-1,-1,-1,-1,33,35,-1,-1,-1,-1,-1,-1],"loss_changes":[6.2517676E2,3.3450375E2,7.2541504E0,1.1511925E2,4.1648254E0,2.184143E0,0E0,2.9286102E1,2.0113277E1,4.149933E-1,0E0,1.4000092E0,0E0,2.8438599E1,8.659351E0,0E0,0E0,8.611069E-1,0E0,2.1374664E0,0E0,2.1245789E1,1.5594208E-1,0E0,0E0,0E0,0E0,0E0,0E0,2.269104E0,4.9672937E-1,0E0,0E0,0E0,0E0,0E0,0E0],"parents":[2147483647,0,0,1,1,2,2,3,3,4,4,5,5,7,7,8,8,9,9,11,11,13,13,14,14,17,17,19,19,21,21,22,22,29,29,30,30],"right_children":[2,4,6,8,10,12,-1,14,16,18,-1,20,-1,22,24,-1,-1,26,-1,28,-1,30,32,-1,-1,-1,-1,-1,-1,34,36,-1,-1,-1,-1,-1,-1],"split_conditions":[1E0,1E0,1E0,1E0,1E0,1E0,1.2985677E-1,1E0,1E0,1E0,1.2574773E-1,1E0,1.0368927E-1,1E0,1E0,5.096672E-2,3.4823369E-3,1E0,1.03459455E-1,1E0,1.1020082E-1,1E0,1E0,-2.7016237E-2,-9.389448E-3,7.4813984E-2,1.0026363E-1,7.264181E-2,9.67493E-2,1E0,1E0,-1.0817796E-2,-5.523811E-3,-5.27332E-2,-4.4449065E-2,-9.6639537E-4,-1.3095543E-2],"split_indices":[1,2,2,12,13,13,0,13,6,12,0,14,0,14,7,0,0,6,0,12,0,11,7,0,0,0,0,0,0,7,6,0,0,0,0,0,0],"split_type":[0,0,0,0,0,0,0,0,0,0,0,0,0,0,0,0,0,0,0,0,0,0,0,0,0,0,0,0,0,0,0,0,0,0,0,0,0],"sum_hessian":[4.152404E3,3.6533616E3,4.9904205E2,3.43783E3,2.155317E2,4.2199323E2,7.704883E1,3.081697E3,3.5613287E2,1.5535313E2,6.0178562E1,2.3304129E2,1.8895193E2,1.8546035E3,1.2270936E3,1.7685579E2,1.7927708E2,1.0429525E2,5.1057884E1,2.0188664E2,3.115466E1,1.6129911E3,2.4161246E2,7.963064E2,4.3078717E2,6.793139E1,3.636386E1,1.2383012E2,7.8056526E1,1.4768976E3,1.3609349E2,1.4569432E2,9.591814E1,8.157241E2,6.6117346E2,6.1011925E1,7.508157E1],"tree_param":{"num_deleted":"0","num_feature":"15","num_nodes":"37","size_leaf_vector":"1"}},{"base_weights":[-4.363997E-2,-3.694466E-1,2.7942662E0,-1.073421E-1,-1.2562317E-1,3.1450853E-1,2.6532158E-1,-7.4748635E-1,2.729093E-1,-8.529798E-1,-2.576192E-1,-2.8949191E-3,9.8865867E-1,-9.4954425E-1,-7.005502E-1,-7.706675E-1,6.7098206E-3,-3.0568612E-1,2.2964443E-1,8.303294E-1,1.4079528E0,-1.0289238E-1,-9.035953E-2,-8.8062786E-2,-6.5209574E-1,-9.225017E-2,-5.5130254E-2,-1.7102279E-1,5.432525E-2,-4.0309548E-1,5.7771266E-3,3.5345724E-1,-1.2714268E-1,3.048642E-1,1.0115567E0,1.7452286E-1,1.2048291E0,-5.934299E-2,-7.741906E-2,-3.2224502E-2,1.1889125E-2,-5.5662323E-2,-2.9334173E-2,1.7843608E-2,-2.3438876E-2,5.6364227E-2,1.6920226E-2,-2.1603147E-2,3.884556E-2,-2.788945E-4,6.424427E-2,8.363851E-2,1.2955406E-1,9.2532866E-2,1.4048909E-1],"categories":[],"categories_nodes":[],"categories_segments":[],"categories_sizes":[],"default_left":[0,0,0,0,0,0,0,0,0,0,0,0,0,0,0,0,0,0,0,0,0,0,0,0,0,0,0,0,0,0,0,0,0,0,0,0,0,0,0,0,0,0,0,0,0,0,0,0,0,0,0,0,0,0,0],"id":6,"left_children":[1,3,5,-1,7,-1,-1,9,11,13,15,17,19,21,23,25,27,29,31,33,35,-1,-1,-1,37,-1,-1,39,-1,41,43,45,47,49,51,-1,53,-1,-1,-1,-1,-1,-1,-1,-1,-1,-1,-1,-1,-1,-1,-1,-1,-1,-1],"loss_changes":[3.8147446E3,6.350892E2,1.268042E1,0E0,6.817155E2,0E0,0E0,5.529669E1,3.3097586E2,1.2339233E1,2.6014116E1,8.535522E1,2.979071E1,1.0327148E0,2.4487E0,1.663765E0,1.2257729E1,1.5978363E1,3.0334354E1,3.2161133E1,6.556305E0,0E0,0E0,0E0,1.5235748E0,0E0,0E0,4.2727065E0,0E0,6.596016E0,5.284754E0,1.9628326E1,8.213364E0,9.231531E0,1.1506805E1,0E0,3.291626E0,0E0,0E0,0E0,0E0,0E0,0E0,0E0,0E0,0E0,0E0,0E0,0E0,0E0,0E0,0E0,0E0,0E0,0E0],"parents":[2147483647,0,0,1,1,2,2,4,4,7,7,8,8,9,9,10,10,11,11,12,12,13,13,14,14,15,15,16,16,17,17,18,18,19,19,20,20,24,24,27,27,29,29,30,30,31,31,32,32,33,33,34,34,36,36],"right_children":[2,4,6,-1,8,-1,-1,10,12,14,16,18,20,22,24,26,28,30,32,34,36,-1,-1,-1,38,-1,-1,40,-1,42,44,46,48,50,52,-1,54,-1,-1,-1,-1,-1,-1,-1,-1,-1,-1,-1,-1,-1,-1,-1,-1,-1,-1],"split_conditions":[2.2E2,1.26E2,5.5E1,-1.073421E-1,4.4E1,3.1450853E-1,2.6532158E-1,3.067E1,3.173E1,2.8E1,3E1,6.1E1,3.988E1,1E1,2.351E1,2.5E1,4.164E1,2.816E1,1E0,5.4E1,1.45E2,-1.0289238E-1,-9.035953E-2,-8.8062786E-2,1E0,-9.225017E-2,-5.5130254E-2,1.59E2,5.432525E-2,2.67E1,1.58E2,1E0,2.807E1,1E0,1.59E2,1.7452286E-1,1.59E2,-5.934299E-2,-7.741906E-2,-3.2224502E-2,1.1889125E-2,-5.5662323E-2,-2.9334173E-2,1.7843608E-2,-2.3438876E-2,5.6364227E-2,1.6920226E-2,-2.1603147E-2,3.884556E-2,-2.788945E-4,6.424427E-2,8.363851E-2,1.2955406E-1,9.2532866E-2,1.4048909E-1],"split_indices":[5,5,0,0,0,0,0,3,3,0,0,0,3,0,3,0,3,3,9,0,5,0,0,0,9,0,0,5,0,3,5,6,3,7,5,0,5,0,0,0,0,0,0,0,0,0,0,0,0,0,0,0,0,0,0],"split_type":[0,0,0,0,0,0,0,0,0,0,0,0,0,0,0,0,0,0,0,0,0,0,0,0,0,0,0,0,0,0,0,0,0,0,0,0,0,0,0,0,0,0,0,0,0,0,0,0,0,0,0,0,0,0,0],"sum_hessian":[4.123677E3,3.699791E3,4.2388577E2,9.509055E2,2.7488855E3,1.1544785E2,3.084379E2,1.073281E3,1.6756046E3,8.824937E2,1.9078722E2,1.210248E3,4.6535657E2,5.37045E2,3.4544873E2,6.4221405E1,1.2656582E2,5.255765E2,6.846716E2,3.3996356E2,1.2539301E2,1.8905293E2,3.4799207E2,6.9602295E1,2.7584644E2,3.605824E1,2.8163162E1,9.558427E1,3.0981548E1,4.0013962E2,1.2543687E2,5.0829245E2,1.763791E2,8.78696E1,2.5209396E2,4.4278706E1,8.11143E1,1.9027898E2,8.556746E1,6.2744534E1,3.2839733E1,1.6510828E2,2.3503133E2,7.3123955E1,5.231291E1,2.364771E2,2.7181537E2,1.5093843E2,2.5440674E1,4.649133E1,4.137827E1,1.5835805E2,9.373592E1,3.618564E1,4.492867E1],"tree_param":{"num_deleted":"0","num_feature":"15","num_nodes":"55","size_leaf_vector":"1"}},{"base_weights":[-4.6324816E-2,-3.4934404E-1,2.4216146E0,-5.85761E-1,1.916368E-1,3.0647628E0,1.7176287E-1,-1.04966536E-1,-3.7711385E-1,3.199213E-1,2.3823464E-1,-1.0753498E-1,-1.3609661E-1,-2.1341822E-1,8.290046E-1,-2.6671755E-1,1.8465176E-1,1.099201E-1,5.955703E-1,-3.789004E-2,-1.145587E-2,3.8443673E-2,-2.6960175E-3,4.382656E-2,7.540938E-2],"categories":[],"categories_nodes":[],"categories_segments":[],"categories_sizes":[],"default_left":[0,0,0,0,0,0,0,0,0,0,0,0,0,0,0,0,0,0,0,0,0,0,0,0,0],"id":7,"left_children":[1,3,5,7,-1,9,-1,-1,11,-1,-1,-1,13,15,17,19,21,-1,23,-1,-1,-1,-1,-1,-1],"loss_changes":[2.997193E3,1.9130948E3,1.9317505E2,3.1252698E2,0E0,1.3275879E1,0E0,0E0,3.7539096E2,0E0,0E0,0E0,1.2405536E2,3.267472E1,7.1247177E0,2.3112274E1,7.711937E0,0E0,1.3740025E0,0E0,0E0,0E0,0E0,0E0,0E0],"parents":[2147483647,0,0,1,1,2,2,3,3,5,5,8,8,12,12,13,13,14,14,15,15,16,16,18,18],"right_children":[2,4,6,8,-1,10,-1,-1,12,-1,-1,-1,14,16,18,20,22,-1,24,-1,-1,-1,-1,-1,-1],"split_conditions":[2.2E2,6.8E0,6.8E0,5.7E0,1.916368E-1,1E0,1.7176287E-1,-1.04966536E-1,1.26E2,3.199213E-1,2.3823464E-1,-1.0753498E-1,1E0,1E0,1.55E2,1E0,1E0,1.099201E-1,1.6E2,-3.789004E-2,-1.145587E-2,3.8443673E-2,-2.6960175E-3,4.382656E-2,7.540938E-2],"split_indices":[5,4,4,4,0,2,0,0,5,0,0,0,2,12,5,13,6,0,5,0,0,0,0,0,0],"split_type":[0,0,0,0,0,0,0,0,0,0,0,0,0,0,0,0,0,0,0,0,0,0,0,0,0],"sum_hessian":[4.0057053E3,3.5684246E3,4.3728082E2,3.2319287E3,3.3649594E2,2.26762E2,2.1051884E2,1.0013982E3,2.2305305E3,1.863576E2,4.0404385E1,5.7147736E2,1.6590531E3,1.5367141E3,1.2233899E2,1.3555443E3,1.8116983E2,5.498543E1,6.735355E1,7.794129E2,5.761314E2,9.276898E1,8.840085E1,3.569633E1,3.1657225E1],"tree_param":{"num_deleted":"0","num_feature":"15","num_nodes":"25","size_leaf_vector":"1"}},{"base_weights":[-4.6710458E-2,-3.3184445E-1,1.7009369E-1,-1.04452096E-1,-6.1439477E-2,-7.6750964E-1,2.2365735E-1,-9.0319383E-1,-5.563648E-1,-5.6610256E-2,3.636581E-1,-7.881315E-1,-9.9089436E-2,-4.999994E-1,-7.1826644E-2,3.8737398E-2,-3.782465E-1,4.4881213E-1,5.775386E-2,-9.7211175E-2,-7.528811E-1,-3.6942562E-1,-5.7177164E-2,-6.7840196E-2,1.825143E-1,-2.716778E-2,-4.1955918E-1,3.9459226E-1,7.422519E-1,1.3632767E-1,-1.6575865E-1,-8.743797E-2,-7.1533345E-2,-5.026365E-2,-1.5474014E-2,-1.5415919E-2,8.242895E-3,-4.6892865E-3,2.99925E-2,-4.8271187E-2,-2.487381E-2,2.8591875E-2,4.885976E-2,8.451667E-2,4.0815867E-2,5.250088E-3,5.16208E-2,-1.1443765E-3,-2.814422E-2],"categories":[],"categories_nodes":[],"categories_segments":[],"categories_sizes":[],"default_left":[0,0,0,0,0,0,0,0,0,0,0,0,0,0,0,0,0,0,0,0,0,0,0,0,0,0,0,0,0,0,0,0,0,0,0,0,0,0,0,0,0,0,0,0,0,0,0,0,0],"id":8,"left_children":[1,3,-1,-1,5,7,9,11,13,15,17,19,-1,21,-1,23,25,27,29,-1,31,33,-1,35,37,-1,39,41,43,45,47,-1,-1,-1,-1,-1,-1,-1,-1,-1,-1,-1,-1,-1,-1,-1,-1,-1,-1],"loss_changes":[1.9184958E3,6.377737E2,0E0,0E0,4.8338467E2,1.9285187E1,6.71479E1,3.4460144E0,2.1304626E0,1.7518505E1,2.9696503E1,4.7481537E-1,0E0,1.7160606E0,0E0,6.772483E0,4.610176E-1,1.390564E1,4.406273E0,0E0,1.0710144E-1,2.0891466E0,0E0,3.3084702E0,5.0798836E0,0E0,8.754444E-1,7.57708E0,4.4013824E0,5.8714814E0,1.1638392E0,0E0,0E0,0E0,0E0,0E0,0E0,0E0,0E0,0E0,0E0,0E0,0E0,0E0,0E0,0E0,0E0,0E0,0E0],"parents":[2147483647,0,0,1,1,4,4,5,5,6,6,7,7,8,8,9,9,10,10,11,11,13,13,15,15,16,16,17,17,18,18,20,20,21,21,23,23,24,24,26,26,27,27,28,28,29,29,30,30],"right_children":[2,4,-1,-1,6,8,10,12,14,16,18,20,-1,22,-1,24,26,28,30,-1,32,34,-1,36,38,-1,40,42,44,46,48,-1,-1,-1,-1,-1,-1,-1,-1,-1,-1,-1,-1,-1,-1,-1,-1,-1,-1],"split_conditions":[6.8E0,5.7E0,1.7009369E-1,-1.04452096E-1,3.9E1,2.7E1,5.5E1,1E0,1E0,1E0,1E0,5.8E0,-9.9089436E-2,1E0,-7.1826644E-2,1E0,6E0,1E0,7.7E1,-9.7211175E-2,1.4E1,3.5E1,-5.7177164E-2,5E1,4.6E1,-2.716778E-2,5.1E1,6.6E1,8E1,7.2E1,6.1E0,-8.743797E-2,-7.1533345E-2,-5.026365E-2,-1.5474014E-2,-1.5415919E-2,8.242895E-3,-4.6892865E-3,2.99925E-2,-4.8271187E-2,-2.487381E-2,2.8591875E-2,4.885976E-2,8.451667E-2,4.0815867E-2,5.250088E-3,5.16208E-2,-1.1443765E-3,-2.814422E-2],"split_indices":[4,4,0,0,0,0,0,9,9,9,9,4,0,6,0,7,4,2,0,0,0,0,0,0,0,0,0,0,0,0,4,0,0,0,0,0,0,0,0,0,0,0,0,0,0,0,0,0,0],"split_type":[0,0,0,0,0,0,0,0,0,0,0,0,0,0,0,0,0,0,0,0,0,0,0,0,0,0,0,0,0,0,0,0,0,0,0,0,0,0,0,0,0,0,0,0,0,0,0,0,0],"sum_hessian":[3.8478438E3,3.3088113E3,5.3903253E2,9.0932947E2,2.3994817E3,6.896943E2,1.7097875E3,4.1788126E2,2.7181305E2,5.6976666E2,1.1400208E3,1.8506456E2,2.3281668E2,2.0465248E2,6.7160576E1,4.401621E2,1.2960457E2,8.914126E2,2.4860815E2,2.5483364E1,1.5958119E2,7.4770744E1,1.2988173E2,2.5308545E2,1.8707666E2,3.832332E1,9.128126E1,7.543698E2,1.3704279E2,1.8423283E2,6.437532E1,3.2412384E1,1.2716881E2,4.5313046E1,2.94577E1,1.6073097E2,9.235448E1,6.353572E1,1.2354094E2,6.53102E1,2.5971054E1,3.5176202E2,4.026078E2,1.035999E2,3.344289E1,1.5186053E2,3.23723E1,2.8053099E1,3.6322224E1],"tree_param":{"num_deleted":"0","num_feature":"15","num_nodes":"49","size_leaf_vector":"1"}},{"base_weights":[-3.99858E-2,-3.2641715E-1,2.0618587E0,-1.0588509E-1,-1.0718652E-1,2.4049151E-1,1.973532E-1,-6.8740803E-1,2.0841955E-1,-9.109784E-1,-4.585984E-1,1.01883724E-1,6.5693027E-1,-1.00491695E-1,-8.602255E-1,-3.9384934E-1,-6.523587E-1,-1.9151327E-1,2.2528249E-1,7.289889E-1,2.5507396E-2,-6.9539025E-2,-8.782723E-2,-2.3626985E-1,-5.195771E-1,-4.4718914E-2,-7.114248E-1,-2.0584937E-2,-3.376172E-1,3.2348695E-1,-8.3756596E-2,7.9298264E-1,2.6374219E-2,-5.1558614E-2,-1.489473E-2,-5.819918E-2,-3.916997E-2,-7.788617E-2,-5.5466026E-2,1.3067856E-2,-4.970689E-2,-6.312476E-2,-1.6561942E-2,1.9396394E-2,5.5912133E-2,-1.4692837E-2,3.6781594E-2,6.684189E-2,9.932151E-2],"categories":[],"categories_nodes":[],"categories_segments":[],"categories_sizes":[],"default_left":[0,0,0,0,0,0,0,0,0,0,0,0,0,0,0,0,0,0,0,0,0,0,0,0,0,0,0,0,0,0,0,0,0,0,0,0,0,0,0,0,0,0,0,0,0,0,0,0,0],"id":9,"left_children":[1,3,5,-1,7,-1,-1,9,11,13,15,17,19,-1,21,23,25,27,29,31,-1,-1,-1,33,35,-1,37,39,41,43,45,47,-1,-1,-1,-1,-1,-1,-1,-1,-1,-1,-1,-1,-1,-1,-1,-1,-1],"loss_changes":[2.2382266E3,5.252411E2,8.764648E0,0E0,4.6145932E2,0E0,0E0,4.4995453E1,7.79343E1,1.2715149E0,5.272644E0,4.7843643E1,8.881851E0,0E0,2.7513123E-1,6.472294E0,1.0012283E0,9.768334E0,2.8247124E1,7.6804504E0,0E0,0E0,0E0,3.5710955E0,1.2431602E0,0E0,4.4378662E-1,1.3143237E1,1.0550476E1,2.1433464E1,6.4731736E0,5.1338654E0,0E0,0E0,0E0,0E0,0E0,0E0,0E0,0E0,0E0,0E0,0E0,0E0,0E0,0E0,0E0,0E0,0E0],"parents":[2147483647,0,0,1,1,2,2,4,4,7,7,8,8,9,9,10,10,11,11,12,12,14,14,15,15,16,16,17,17,18,18,19,19,23,23,24,24,26,26,27,27,28,28,29,29,30,30,31,31],"right_children":[2,4,6,-1,8,-1,-1,10,12,14,16,18,20,-1,22,24,26,28,30,32,-1,-1,-1,34,36,-1,38,40,42,44,46,48,-1,-1,-1,-1,-1,-1,-1,-1,-1,-1,-1,-1,-1,-1,-1,-1,-1],"split_conditions":[2.2E2,1.26E2,5.1E1,-1.0588509E-1,4.4E1,2.4049151E-1,1.973532E-1,2.7E1,1E0,1E1,1E0,5.5E1,8E1,-1.00491695E-1,1.3E2,1E0,1.4E2,1.55E2,1E0,1E0,2.5507396E-2,-6.9539025E-2,-8.782723E-2,3.1E1,1.59E2,-4.4718914E-2,3.9E1,1E0,1.59E2,1.59E2,1E0,1.59E2,2.6374219E-2,-5.1558614E-2,-1.489473E-2,-5.819918E-2,-3.916997E-2,-7.788617E-2,-5.5466026E-2,1.3067856E-2,-4.970689E-2,-6.312476E-2,-1.6561942E-2,1.9396394E-2,5.5912133E-2,-1.4692837E-2,3.6781594E-2,6.684189E-2,9.932151E-2],"split_indices":[5,5,0,0,0,0,0,0,1,0,9,0,0,0,5,13,5,5,9,9,0,0,0,0,5,0,0,9,5,5,2,5,0,0,0,0,0,0,0,0,0,0,0,0,0,0,0,0,0],"split_type":[0,0,0,0,0,0,0,0,0,0,0,0,0,0,0,0,0,0,0,0,0,0,0,0,0,0,0,0,0,0,0,0,0,0,0,0,0,0,0,0,0,0,0,0,0,0,0,0,0],"sum_hessian":[3.7156553E3,3.2707717E3,4.448836E2,7.525907E2,2.5181812E3,8.572085E1,3.5916275E2,8.867571E2,1.631424E3,4.4700555E2,4.3975153E2,1.3192795E3,3.1214447E2,1.5020006E2,2.9680548E2,3.3187964E2,1.0787189E2,3.9042947E2,9.2885004E2,2.6399274E2,4.8151726E1,3.3189716E1,2.6361578E2,1.4856126E2,1.8331836E2,2.6029139E1,8.184275E1,1.8045471E2,2.0997478E2,7.0482764E2,2.2402238E2,2.3145247E2,3.2540268E1,3.4214825E1,1.14346436E2,1.208046E2,6.251376E1,5.44508E1,2.7391949E1,1.375228E2,4.2931923E1,7.6576E1,1.3339877E2,4.5599847E2,2.4882918E2,1.9712117E2,2.690121E1,1.4536174E2,8.609073E1],"tree_param":{"num_deleted":"0","num_feature":"15","num_nodes":"49","size_leaf_vector":"1"}},{"base_weights":[-3.5627134E-2,-6.5466285E-1,2.5477478E-1,-7.861286E-1,-1.07089676E-1,-1.0318154E-2,6.4296305E-1,-8.7833244E-1,-6.4410275E-1,-6.4264697E-1,1.4761108E-1,-2.6007888E-1,1.6478983E-1,4.5948285E-1,9.4042397E-1,-7.805606E-2,-9.5149356E-1,-6.64987E-1,-4.136942E-2,-7.931081E-2,-3.867729E-2,1.326222E-2,7.4884705E-2,-2.983158E-1,4.663769E-2,-1.06240086E-1,2.3395316E-1,-5.069306E-3,5.619381E-1,8.052848E-1,1.1758521E0,-1.0073718E-1,-8.869953E-2,-7.072145E-1,-5.569779E-1,-1.2411916E-1,2.3705516E-2,-6.1216116E-1,-1.8628578E-1,-2.558419E-1,9.019612E-2,3.2373345E-1,1.9628133E-3,-1.6103192E-1,1.5671326E-1,5.02683E-1,8.82763E-1,4.664176E-1,9.5260805E-1,9.403031E-2,1.2617467E-1,-7.644527E-1,-6.0507876E-1,-4.684794E-1,-6.672385E-2,-2.8543582E-2,5.6501823E-3,-7.386668E-1,-2.8511355E-2,-3.2765868E-1,-8.8376835E-2,-5.2279975E-2,-1.3363163E-1,-1.1550219E-2,2.3689728E-2,2.60533E-1,6.3843745E-1,6.40203E-2,-1.0417497E-1,-2.749077E-3,-2.6407704E-2,8.274074E-3,2.2165483E-2,4.343155E-1,7.555068E-1,7.404839E-2,1.03824E-1,1.6556358E-2,8.584963E-2,7.888657E-1,1.0715226E-1,-6.0026485E-2,-7.997422E-2,-4.2475443E-2,-6.7777E-2,-3.1559955E-2,-6.1146546E-2,-8.0576956E-2,-5.1024664E-2,-2.512356E-2,-4.9380008E-2,-3.9652046E-2,-1.719169E-3,-2.5114024E-3,-2.689357E-2,1.0126477E-2,3.1332947E-2,3.7469354E-2,7.5955056E-2,-8.449799E-3,1.4336528E-2,-1.5598036E-2,-3.2220092E-3,3.1292323E-2,6.579872E-2,9.2625506E-2,6.491693E-2,6.51768E-2,9.958649E-2],"categories":[],"categories_nodes":[],"categories_segments":[],"categories_sizes":[],"default_left":[0,0,0,0,0,0,0,0,0,0,0,0,0,0,0,0,0,0,0,0,0,0,0,0,0,0,0,0,0,0,0,0,0,0,0,0,0,0,0,0,0,0,0,0,0,0,0,0,0,0,0,0,0,0,0,0,0,0,0,0,0,0,0,0,0,0,0,0,0,0,0,0,0,0,0,0,0,0,0,0,0,0,0,0,0,0,0,0,0,0,0,0,0,0,0,0,0,0,0,0,0,0,0,0,0,0,0,0,0],"id":10,"left_children":[1,3,5,7,9,11,13,15,17,19,21,23,25,27,29,-1,31,33,-1,-1,-1,35,-1,37,-1,39,41,43,45,47,49,-1,-1,51,53,55,-1,57,59,61,63,65,67,69,71,73,75,77,79,-1,-1,81,83,85,-1,-1,-1,87,-1,89,91,-1,93,-1,-1,95,97,99,101,-1,-1,-1,-1,103,105,-1,-1,-1,-1,107,-1,-1,-1,-1,-1,-1,-1,-1,-1,-1,-1,-1,-1,-1,-1,-1,-1,-1,-1,-1,-1,-1,-1,-1,-1,-1,-1,-1,-1],"loss_changes":[6.509106E2,8.314606E1,2.5363922E2,1.1641541E1,3.0786566E1,6.413852E1,5.4154816E1,3.2807922E0,1.5086823E0,2.492319E0,1.2372637E1,1.6927952E1,1.6185904E1,2.9538528E1,1.11623535E1,0E0,2.4951172E-1,1.148819E0,0E0,0E0,0E0,3.9130063E0,0E0,2.0095753E1,0E0,5.194209E0,1.431189E1,2.8795218E0,9.221771E0,1.1785828E1,1.5778656E0,0E0,0E0,9.3738556E-1,6.610489E-1,2.3157792E0,0E0,6.0271225E0,5.854121E0,3.1975722E0,2.345317E0,9.687511E0,1.2761819E0,7.921026E-1,2.508297E-1,7.130104E0,9.5536804E-1,8.845364E0,2.4607086E0,0E0,0E0,3.8713074E-1,9.0231705E-1,1.0903854E0,0E0,0E0,0E0,1.2455597E0,0E0,2.0794144E0,5.5314884E0,0E0,1.0216963E0,0E0,0E0,3.4517422E0,2.340023E0,1.4526844E0,2.614801E-1,0E0,0E0,0E0,0E0,9.079964E0,1.0417709E0,0E0,0E0,0E0,0E0,1.4856377E0,0E0,0E0,0E0,0E0,0E0,0E0,0E0,0E0,0E0,0E0,0E0,0E0,0E0,0E0,0E0,0E0,0E0,0E0,0E0,0E0,0E0,0E0,0E0,0E0,0E0,0E0,0E0,0E0,0E0],"parents":[2147483647,0,0,1,1,2,2,3,3,4,4,5,5,6,6,7,7,8,8,9,9,10,10,11,11,12,12,13,13,14,14,16,16,17,17,21,21,23,23,25,25,26,26,27,27,28,28,29,29,30,30,33,33,34,34,35,35,37,37,38,38,39,39,40,40,41,41,42,42,43,43,44,44,45,45,46,46,47,47,48,48,51,51,52,52,53,53,57,57,59,59,60,60,62,62,65,65,66,66,67,67,68,68,73,73,74,74,79,79],"right_children":[2,4,6,8,10,12,14,16,18,20,22,24,26,28,30,-1,32,34,-1,-1,-1,36,-1,38,-1,40,42,44,46,48,50,-1,-1,52,54,56,-1,58,60,62,64,66,68,70,72,74,76,78,80,-1,-1,82,84,86,-1,-1,-1,88,-1,90,92,-1,94,-1,-1,96,98,100,102,-1,-1,-1,-1,104,106,-1,-1,-1,-1,108,-1,-1,-1,-1,-1,-1,-1,-1,-1,-1,-1,-1,-1,-1,-1,-1,-1,-1,-1,-1,-1,-1,-1,-1,-1,-1,-1,-1,-1],"split_conditions":[4.3E1,3.067E1,2.939E1,2.8E1,3E1,6.1E1,3.61E1,1E0,2.899E1,2.6E1,4.391E1,1E0,2.409E1,5.2E1,4.228E1,-7.805606E-2,1E1,3.9E1,-4.136942E-2,-7.931081E-2,-3.867729E-2,3.9E1,7.4884705E-2,2.518E1,4.663769E-2,7.8E1,1E0,3.231E1,1E0,5.5E1,5.2E1,-1.0073718E-1,-8.869953E-2,1E0,1E0,3.557E1,2.3705516E-2,1E0,5.1E1,2.114E1,2.163E1,1E0,7.7E1,3.054E1,1E0,7.4E1,3.247E1,1E0,6.3E1,9.403031E-2,1.2617467E-1,3E1,2.608E1,4.1E1,-6.672385E-2,-2.8543582E-2,5.6501823E-3,2.409E1,-2.8511355E-2,1E0,2.7E1,-5.2279975E-2,2.303E1,-1.1550219E-2,2.3689728E-2,6.6E1,2.67E1,6.6E1,1E0,-2.749077E-3,-2.6407704E-2,8.274074E-3,2.2165483E-2,3.33E1,3.091E1,7.404839E-2,1.03824E-1,1.6556358E-2,8.584963E-2,1E0,1.0715226E-1,-6.0026485E-2,-7.997422E-2,-4.2475443E-2,-6.7777E-2,-3.1559955E-2,-6.1146546E-2,-8.0576956E-2,-5.1024664E-2,-2.512356E-2,-4.9380008E-2,-3.9652046E-2,-1.719169E-3,-2.5114024E-3,-2.689357E-2,1.0126477E-2,3.1332947E-2,3.7469354E-2,7.5955056E-2,-8.449799E-3,1.4336528E-2,-1.5598036E-2,-3.2220092E-3,3.1292323E-2,6.579872E-2,9.2625506E-2,6.491693E-2,6.51768E-2,9.958649E-2],"split_indices":[0,3,3,0,0,0,3,9,3,0,3,2,3,0,3,0,0,0,0,0,0,0,0,3,0,0,9,3,2,0,0,0,0,7,13,3,0,7,0,3,3,2,0,3,7,0,3,7,0,0,0,0,3,0,0,0,0,3,0,9,3,0,3,0,0,0,3,0,7,0,0,0,0,3,3,0,0,0,0,7,0,0,0,0,0,0,0,0,0,0,0,0,0,0,0,0,0,0,0,0,0,0,0,0,0,0,0,0,0],"split_type":[0,0,0,0,0,0,0,0,0,0,0,0,0,0,0,0,0,0,0,0,0,0,0,0,0,0,0,0,0,0,0,0,0,0,0,0,0,0,0,0,0,0,0,0,0,0,0,0,0,0,0,0,0,0,0,0,0,0,0,0,0,0,0,0,0,0,0,0,0,0,0,0,0,0,0,0,0,0,0,0,0,0,0,0,0,0,0,0,0,0,0,0,0,0,0,0,0,0,0,0,0,0,0,0,0,0,0,0,0],"sum_hessian":[3.6188855E3,1.1551831E3,2.4637024E3,9.311819E2,2.240012E2,1.4645427E3,9.9915967E2,5.6148126E2,3.6970062E2,7.170484E1,1.5229636E2,6.034056E2,8.6113715E2,6.1955176E2,3.796079E2,2.4531447E2,3.161668E2,3.3724643E2,3.2454193E1,4.3831238E1,2.7873606E1,1.25315994E2,2.6980362E1,5.737934E2,2.9612183E1,1.7496538E2,6.861718E2,1.1212154E2,5.0743024E2,2.4398016E2,1.3562773E2,1.6157106E2,1.5459576E2,2.3846707E2,9.877935E1,7.7925E1,4.7390995E1,1.497667E2,4.240267E2,9.915132E1,7.581406E1,4.9443137E2,1.9174043E2,5.7089962E1,5.503157E1,4.3048764E2,7.6942604E1,7.519212E1,1.6878804E2,3.943425E1,9.619349E1,1.4866727E2,8.979981E1,5.77091E1,4.107025E1,4.085562E1,3.7069378E1,1.0708604E2,4.268066E1,1.7254239E2,2.5148431E2,3.01071E1,6.904423E1,3.1649336E1,4.4164722E1,4.1326526E2,8.116612E1,1.2124611E2,7.0494316E1,2.5417276E1,3.1672688E1,2.6790077E1,2.8241495E1,3.4099512E2,8.9492516E1,4.3185574E1,3.3757034E1,4.335034E1,3.1841784E1,7.4221214E1,9.456683E1,2.9486776E1,1.1918049E2,2.7765514E1,6.2034298E1,2.9439627E1,2.826947E1,8.081695E1,2.626909E1,1.1990135E2,5.264103E1,4.6336094E1,2.0514822E2,3.897267E1,3.0071552E1,1.03614586E2,3.0965067E2,2.6830963E1,5.4335155E1,4.219687E1,7.904924E1,4.0306835E1,3.0187485E1,2.2258931E2,1.1840581E2,3.1385563E1,5.8106956E1,4.714514E1,2.7076069E1],"tree_param":{"num_deleted":"0","num_feature":"15","num_nodes":"109","size_leaf_vector":"1"}},{"base_weights":[-3.6849424E-2,-2.9802984E-1,1.8706015E0,-5.1351255E-1,1.6114314E-1,2.2023711E0,1.3990812E-1,-1.0375234E-1,-3.172022E-1,2.3867007E-1,2.0421243E-1,-1.0626861E-1,-1.03303246E-1,-3.417765E-1,4.8678347E-1,-7.961649E-1,-2.6972649E-1,3.7265268E-1,9.935229E-1,-6.558023E-2,-9.2472926E-2,-1.860859E-2,-4.8180614E-2,4.3925088E-2,-2.5689418E-3,1.3667816E-1,4.815411E-2],"categories":[],"categories_nodes":[],"categories_segments":[],"categories_sizes":[],"default_left":[0,0,0,0,0,0,0,0,0,0,0,0,0,0,0,0,0,0,0,0,0,0,0,0,0,0,0],"id":11,"left_children":[1,3,5,7,-1,9,-1,-1,11,-1,-1,-1,13,15,17,19,21,23,25,-1,-1,-1,-1,-1,-1,-1,-1],"loss_changes":[1.7756722E3,1.2906882E3,6.407129E1,2.895276E2,0E0,2.517456E0,0E0,0E0,3.269792E2,0E0,0E0,0E0,2.2461784E2,3.6993942E1,2.6203964E1,2.1913223E0,1.7338364E1,1.0002636E1,1.5368454E1,0E0,0E0,0E0,0E0,0E0,0E0,0E0,0E0],"parents":[2147483647,0,0,1,1,2,2,3,3,5,5,8,8,12,12,13,13,14,14,15,15,16,16,17,17,18,18],"right_children":[2,4,6,8,-1,10,-1,-1,12,-1,-1,-1,14,16,18,20,22,24,26,-1,-1,-1,-1,-1,-1,-1,-1],"split_conditions":[2.2E2,6.8E0,6.8E0,5.7E0,1.6114314E-1,2.877E1,1.3990812E-1,-1.0375234E-1,1.26E2,2.3867007E-1,2.0421243E-1,-1.0626861E-1,3.08E1,2.114E1,4.164E1,1E0,1E0,1E0,1.58E2,-6.558023E-2,-9.2472926E-2,-1.860859E-2,-4.8180614E-2,4.3925088E-2,-2.5689418E-3,1.3667816E-1,4.815411E-2],"split_indices":[5,4,4,4,0,3,0,0,5,0,0,0,3,3,3,9,9,9,5,0,0,0,0,0,0,0,0],"split_type":[0,0,0,0,0,0,0,0,0,0,0,0,0,0,0,0,0,0,0,0,0,0,0,0,0,0,0],"sum_hessian":[3.562136E3,3.13387E3,4.282658E2,2.816733E3,3.1713727E2,2.4923155E2,1.7903427E2,7.664811E2,2.0502517E3,1.09444984E2,1.3978656E2,4.5622867E2,1.5940232E3,1.1355366E3,4.5848648E2,1.5403757E2,9.814991E2,3.756221E2,8.286438E1,7.655652E1,7.748104E1,7.0524133E2,2.7625775E2,3.217299E2,5.3892212E1,4.695928E1,3.5905106E1],"tree_param":{"num_deleted":"0","num_feature":"15","num_nodes":"27","size_leaf_vector":"1"}},{"base_weights":[-3.6392443E-2,-2.851293E-1,1.7345097E0,-4.925833E-1,1.5226156E-1,1.9824976E0,1.346636E-1,-1.0336254E-1,-3.0276772E-1,2.0433903E-1,1.7494953E-1,-1.05603136E-1,-1.0323656E-1,-2.0061359E-1,4.7607532E-1,-7.6871715E-2,-5.1808536E-1,3.2404947E-1,7.318787E-1,-1.7561411E-2,1.1061514E-2,-4.1420024E-2,-6.0434606E-2,7.482549E-2,6.163704E-3,1.043278E-1,4.7110923E-2],"categories":[],"categories_nodes":[],"categories_segments":[],"categories_sizes":[],"default_left":[0,0,0,0,0,0,0,0,0,0,0,0,0,0,0,0,0,0,0,0,0,0,0,0,0,0,0],"id":12,"left_children":[1,3,5,7,-1,9,-1,-1,11,-1,-1,-1,13,15,17,19,21,23,25,-1,-1,-1,-1,-1,-1,-1,-1],"loss_changes":[1.5029359E3,1.122684E3,3.7750244E1,2.753717E2,0E0,3.1921387E-2,0E0,0E0,2.9878326E2,0E0,0E0,0E0,8.884779E1,5.290002E1,8.578808E0,1.7992281E1,3.1349564E0,1.5981973E1,6.3061295E0,0E0,0E0,0E0,0E0,0E0,0E0,0E0,0E0],"parents":[2147483647,0,0,1,1,2,2,3,3,5,5,8,8,12,12,13,13,14,14,15,15,16,16,17,17,18,18],"right_children":[2,4,6,8,-1,10,-1,-1,12,-1,-1,-1,14,16,18,20,22,24,26,-1,-1,-1,-1,-1,-1,-1,-1],"split_conditions":[2.2E2,6.8E0,6.8E0,5.7E0,1.5226156E-1,1E0,1.346636E-1,-1.0336254E-1,1.26E2,2.0433903E-1,1.7494953E-1,-1.05603136E-1,1E0,1E0,1.59E2,1.59E2,1.55E2,1.4E2,6.1E0,-1.7561411E-2,1.1061514E-2,-4.1420024E-2,-6.0434606E-2,7.482549E-2,6.163704E-3,1.043278E-1,4.7110923E-2],"split_indices":[5,4,4,4,0,1,0,0,5,0,0,0,1,9,5,5,5,5,4,0,0,0,0,0,0,0,0],"split_type":[0,0,0,0,0,0,0,0,0,0,0,0,0,0,0,0,0,0,0,0,0,0,0,0,0,0,0],"sum_hessian":[3.4098513E3,2.990633E3,4.1921844E2,2.6834158E3,3.0721716E2,2.5321422E2,1.6600423E2,6.957721E2,1.9876437E3,1.9459035E2,5.862387E1,4.1534692E2,1.5722968E3,1.3465995E3,2.2569736E2,9.698287E2,3.7677075E2,1.4298631E2,8.271104E1,6.3530194E2,3.3452673E2,1.7355609E2,2.0321468E2,5.3939095E1,8.904722E1,3.632845E1,4.638259E1],"tree_param":{"num_deleted":"0","num_feature":"15","num_nodes":"27","size_leaf_vector":"1"}},{"base_weights":[-3.733413E-2,-2.6419795E-1,1.3997583E-1,-1.0300318E-1,-4.2109523E-2,-6.6922855E-1,1.5149453E-1,-8.2849824E-1,-4.5243096E-1,-6.941948E-2,2.4128447E-1,-9.428736E-2,-7.6908106E-1,-3.0785638E-1,-5.349024E-1,-1.00810304E-1,2.3641275E-2,3.2731238E-1,1.6912688E-1,-8.612702E-2,-6.965542E-1,-4.566654E-2,-1.8411323E-2,-4.6048772E-1,-6.2279254E-2,2.2646626E-2,-1.5348598E-1,-2.1025918E-2,1.1196225E-1,3.4432942E-1,6.3521266E-3,7.616409E-3,2.1518843E-1,-6.1436605E-2,-7.478657E-2,-3.7588276E-2,-5.0931346E-2,1.7679628E-2,-9.190788E-3,-2.1823885E-2,-8.354321E-3,5.4988725E-4,2.3845026E-2,2.8139833E-2,3.8247716E-2,9.311751E-3,-3.6895429E-3,4.5500174E-2,1.7256884E-2],"categories":[],"categories_nodes":[],"categories_segments":[],"categories_sizes":[],"default_left":[0,0,0,0,0,0,0,0,0,0,0,0,0,0,0,0,0,0,0,0,0,0,0,0,0,0,0,0,0,0,0,0,0,0,0,0,0,0,0,0,0,0,0,0,0,0,0,0,0],"id":13,"left_children":[1,3,-1,-1,5,7,9,11,13,15,17,-1,19,21,23,25,27,29,31,-1,33,-1,-1,35,-1,37,39,-1,41,43,-1,45,47,-1,-1,-1,-1,-1,-1,-1,-1,-1,-1,-1,-1,-1,-1,-1,-1],"loss_changes":[1.063883E3,4.7927707E2,0E0,0E0,2.654696E2,1.7434402E1,3.316042E1,1.287323E0,2.4660683E0,1.4152393E0,7.3207855E0,0E0,7.39418E-1,1.4350891E0,6.2323E-1,2.356619E0,2.5604222E0,2.4064713E0,4.8212605E0,0E0,3.5388947E-2,0E0,0E0,1.3565445E-1,0E0,1.94258E0,1.1310334E0,0E0,1.2078909E0,1.1118011E0,0E0,5.548832E-1,5.0767555E0,0E0,0E0,0E0,0E0,0E0,0E0,0E0,0E0,0E0,0E0,0E0,0E0,0E0,0E0,0E0,0E0],"parents":[2147483647,0,0,1,1,4,4,5,5,6,6,7,7,8,8,9,9,10,10,12,12,13,13,14,14,15,15,16,16,17,17,18,18,20,20,23,23,25,25,26,26,28,28,29,29,31,31,32,32],"right_children":[2,4,-1,-1,6,8,10,12,14,16,18,-1,20,22,24,26,28,30,32,-1,34,-1,-1,36,-1,38,40,-1,42,44,-1,46,48,-1,-1,-1,-1,-1,-1,-1,-1,-1,-1,-1,-1,-1,-1,-1,-1],"split_conditions":[6.8E0,5.7E0,1.3997583E-1,-1.0300318E-1,3.9E1,2.7E1,5.4E1,1E1,1E0,5.1E1,1E0,-9.428736E-2,6.1E0,3.3E1,1E0,6E0,6E0,1E0,6E1,-8.612702E-2,1E0,-4.566654E-2,-1.8411323E-2,6.1E0,-6.2279254E-2,1E0,4.6E1,-2.1025918E-2,1E0,6.4E1,6.3521266E-3,5.6E1,5.8E0,-6.1436605E-2,-7.478657E-2,-3.7588276E-2,-5.0931346E-2,1.7679628E-2,-9.190788E-3,-2.1823885E-2,-8.354321E-3,5.4988725E-4,2.3845026E-2,2.8139833E-2,3.8247716E-2,9.311751E-3,-3.6895429E-3,4.5500174E-2,1.7256884E-2],"split_indices":[4,4,0,0,0,0,0,0,6,0,6,0,4,0,13,4,4,11,0,0,6,0,0,4,0,6,0,0,7,0,0,0,4,0,0,0,0,0,0,0,0,0,0,0,0,0,0,0,0],"split_type":[0,0,0,0,0,0,0,0,0,0,0,0,0,0,0,0,0,0,0,0,0,0,0,0,0,0,0,0,0,0,0,0,0,0,0,0,0,0,0,0,0,0,0,0,0,0,0,0,0],"sum_hessian":[3.2610676E3,2.8171584E3,4.4390915E2,6.324893E2,2.1846692E3,5.147719E2,1.6698972E3,2.9513232E2,2.1963957E2,4.8264706E2,1.1872502E3,9.581818E1,1.9931415E2,8.150028E1,1.381393E2,3.6084515E2,1.2180192E2,5.399608E2,6.4728937E2,8.297245E1,1.163417E2,3.5780968E1,4.5719315E1,7.8182915E1,5.9956375E1,1.0808782E2,2.5275732E2,3.3007504E1,8.879441E1,5.0695227E2,3.3008553E1,1.4389621E2,5.0339316E2,4.970312E1,6.663858E1,3.1792133E1,4.6390785E1,4.5848587E1,6.2239235E1,1.3014713E2,1.2261019E2,4.87802E1,4.001421E1,1.944882E2,3.1246408E2,4.8891125E1,9.500508E1,7.450276E1,4.2889038E2],"tree_param":{"num_deleted":"0","num_feature":"15","num_nodes":"49","size_leaf_vector":"1"}},{"base_weights":[-4.1312132E-2,-2.5166684E-1,1.346523E-1,-1.0267492E-1,-4.5437835E-2,-2.873624E-1,3.8152677E-1,-3.3801296E-1,2.7009854E-1,2.6704562E-1,7.25241E-1,-6.1995524E-1,-2.4473238E-1,3.6898097E-1,-4.1980306E-3,2.2183184E-1,6.255653E-1,8.054989E-1,3.0892162E-2,-4.8200116E-1,-8.6369884E-1,-1.8111002E-1,-3.9740747E-1,4.7719974E-2,2.1993393E-2,1.2727882E-1,3.5688052E-1,3.0793944E-2,8.669076E-2,7.015792E-1,1.0547588E-1,-6.220287E-2,-1.6570805E-2,-9.454336E-2,-7.03484E-2,-3.0496607E-2,-1.367269E-2,-4.4478342E-2,-3.2224008E-3,1.7287259E-3,2.434624E-2,2.8570244E-2,6.777985E-2,9.150671E-2,5.770728E-2],"categories":[],"categories_nodes":[],"categories_segments":[],"categories_sizes":[],"default_left":[0,0,0,0,0,0,0,0,0,0,0,0,0,0,0,0,0,0,0,0,0,0,0,0,0,0,0,0,0,0,0,0,0,0,0,0,0,0,0,0,0,0,0,0,0],"id":14,"left_children":[1,3,-1,-1,5,7,9,11,13,15,17,19,21,23,-1,25,27,29,-1,31,33,35,37,-1,-1,39,41,-1,-1,43,-1,-1,-1,-1,-1,-1,-1,-1,-1,-1,-1,-1,-1,-1,-1],"loss_changes":[9.2010626E2,4.3740356E2,0E0,0E0,2.2349466E2,3.9085342E1,3.0601166E1,3.3155197E1,3.5822802E0,9.403381E0,6.2651596E0,1.014827E1,9.187477E0,1.3124361E0,0E0,6.649288E0,4.744379E0,3.4776154E0,0E0,8.883041E0,8.0535126E-1,3.6671867E0,4.822216E0,0E0,0E0,3.9564662E0,4.7255077E0,0E0,0E0,2.605812E0,0E0,0E0,0E0,0E0,0E0,0E0,0E0,0E0,0E0,0E0,0E0,0E0,0E0,0E0,0E0],"parents":[2147483647,0,0,1,1,4,4,5,5,6,6,7,7,8,8,9,9,10,10,11,11,12,12,13,13,15,15,16,16,17,17,19,19,20,20,21,21,22,22,25,25,26,26,29,29],"right_children":[2,4,-1,-1,6,8,10,12,14,16,18,20,22,24,-1,26,28,30,-1,32,34,36,38,-1,-1,40,42,-1,-1,44,-1,-1,-1,-1,-1,-1,-1,-1,-1,-1,-1,-1,-1,-1,-1],"split_conditions":[6.8E0,5.7E0,1.346523E-1,-1.0267492E-1,2.962E1,1E0,3.899E1,2.351E1,1E0,1E0,1E0,1E0,1E0,6.2E0,-4.1980306E-3,3.383E1,3.247E1,4.617E1,3.0892162E-2,1E0,1.982E1,2.625E1,2.733E1,4.7719974E-2,2.1993393E-2,1E0,1E0,3.0793944E-2,8.669076E-2,1E0,1.0547588E-1,-6.220287E-2,-1.6570805E-2,-9.454336E-2,-7.03484E-2,-3.0496607E-2,-1.367269E-2,-4.4478342E-2,-3.2224008E-3,1.7287259E-3,2.434624E-2,2.8570244E-2,6.777985E-2,9.150671E-2,5.770728E-2],"split_indices":[4,4,0,0,3,2,3,3,9,2,9,9,9,4,0,3,3,3,0,7,3,3,3,0,0,7,12,0,0,6,0,0,0,0,0,0,0,0,0,0,0,0,0,0,0],"split_type":[0,0,0,0,0,0,0,0,0,0,0,0,0,0,0,0,0,0,0,0,0,0,0,0,0,0,0,0,0,0,0,0,0,0,0,0,0,0,0,0,0,0,0,0,0],"sum_hessian":[3.1495605E3,2.7357244E3,4.1383615E2,5.740943E2,2.1616301E3,1.3800181E3,7.81612E2,1.265435E3,1.1458306E2,5.876574E2,1.9395454E2,3.1318417E2,9.5225085E2,8.687448E1,2.770858E1,5.232836E2,6.437383E1,1.6182346E2,3.2131092E1,2.0189375E2,1.1129042E2,6.736962E2,2.7855463E2,4.9055225E1,3.7819252E1,3.0893103E2,2.1435258E2,2.877697E1,3.559686E1,1.16900696E2,4.492276E1,1.3927019E2,6.262356E1,7.044921E1,4.084121E1,1.761787E2,4.9751755E2,2.4637408E2,3.2180557E1,1.5928444E2,1.4964658E2,1.7698781E2,3.7364784E1,4.0723557E1,7.617714E1],"tree_param":{"num_deleted":"0","num_feature":"15","num_nodes":"45","size_leaf_vector":"1"}},{"base_weights":[-2.8035138E-2,-2.582764E-1,1.6014658E0,-1.0435527E-1,-7.18316E-2,1.6578574E-1,1.4800775E-1,-3.3246192E-1,3.047133E-1,-6.17032E-1,-2.3155776E-1,1.19586065E-1,5.184385E-1,-8.434139E-2,-5.059424E-1,-2.727319E-1,2.1634038E-1,5.6572903E-2,5.812924E-1,6.7184424E-1,3.1556836E-1,-6.034307E-1,-3.0101684E-1,-3.378818E-1,-1.4912488E-1,3.44668E-2,9.012236E-3,-5.1894136E-2,2.553936E-1,8.09361E-2,3.1391796E-2,5.3126276E-1,1.0011754E0,-1.10713325E-1,5.7570916E-1,-3.766605E-2,-6.648492E-2,-1.7428456E-2,-4.73025E-2,-2.2306494E-2,-1.0551429E-1,-8.739962E-3,-2.736393E-2,9.96648E-3,-1.0817379E-1,1.3782046E-2,3.92646E-2,4.0583957E-2,7.114677E-2,8.7842576E-2,1.16739504E-1,4.9095E-2,9.21586E-2],"categories":[],"categories_nodes":[],"categories_segments":[],"categories_sizes":[],"default_left":[0,0,0,0,0,0,0,0,0,0,0,0,0,0,0,0,0,0,0,0,0,0,0,0,0,0,0,0,0,0,0,0,0,0,0,0,0,0,0,0,0,0,0,0,0,0,0,0,0,0,0,0,0],"id":15,"left_children":[1,3,5,-1,7,-1,-1,9,11,13,15,17,19,-1,21,23,25,27,29,31,33,35,37,39,41,-1,-1,43,45,-1,-1,47,49,-1,51,-1,-1,-1,-1,-1,-1,-1,-1,-1,-1,-1,-1,-1,-1,-1,-1,-1,-1],"loss_changes":[1.1504592E3,3.9328586E2,1.4501953E-1,0E0,2.1328587E2,0E0,0E0,3.6732117E1,3.5115204E1,8.012184E0,1.7572144E1,1.3865327E1,1.2621239E1,0E0,4.3652954E0,6.9568024E0,1.2729204E0,9.101977E0,3.237606E0,1.0298134E1,6.7048836E1,1.8837929E0,1.5604572E0,4.662523E1,2.29808E0,0E0,0E0,4.2798626E1,2.3492346E0,0E0,0E0,3.4647522E0,3.793106E-1,0E0,4.01416E0,0E0,0E0,0E0,0E0,0E0,0E0,0E0,0E0,0E0,0E0,0E0,0E0,0E0,0E0,0E0,0E0,0E0,0E0],"parents":[2147483647,0,0,1,1,2,2,4,4,7,7,8,8,9,9,10,10,11,11,12,12,14,14,15,15,16,16,17,17,18,18,19,19,20,20,21,21,22,22,23,23,24,24,27,27,28,28,31,31,32,32,34,34],"right_children":[2,4,6,-1,8,-1,-1,10,12,14,16,18,20,-1,22,24,26,28,30,32,34,36,38,40,42,-1,-1,44,46,-1,-1,48,50,-1,52,-1,-1,-1,-1,-1,-1,-1,-1,-1,-1,-1,-1,-1,-1,-1,-1,-1,-1],"split_conditions":[2.2E2,1.26E2,3.295E1,-1.0435527E-1,2.854E1,1.6578574E-1,1.4800775E-1,2.351E1,3.444E1,1.921E1,1E0,1E0,1.58E2,-8.434139E-2,1E0,1.59E2,1.55E2,1.59E2,1.58E2,4.228E1,1.59E2,1.4E2,1.58E2,1.58E2,2E2,3.44668E-2,9.012236E-3,1.58E2,3.145E1,8.09361E-2,3.1391796E-2,1E0,4.792E1,-1.10713325E-1,1E0,-3.766605E-2,-6.648492E-2,-1.7428456E-2,-4.73025E-2,-2.2306494E-2,-1.0551429E-1,-8.739962E-3,-2.736393E-2,9.96648E-3,-1.0817379E-1,1.3782046E-2,3.92646E-2,4.0583957E-2,7.114677E-2,8.7842576E-2,1.16739504E-1,4.9095E-2,9.21586E-2],"split_indices":[5,5,3,0,3,0,0,3,3,3,2,2,5,0,7,5,5,5,5,3,5,5,5,5,5,0,0,5,3,0,0,7,3,0,12,0,0,0,0,0,0,0,0,0,0,0,0,0,0,0,0,0,0],"split_type":[0,0,0,0,0,0,0,0,0,0,0,0,0,0,0,0,0,0,0,0,0,0,0,0,0,0,0,0,0,0,0,0,0,0,0,0,0,0,0,0,0,0,0,0,0,0,0,0,0,0,0,0,0],"sum_hessian":[3.0643306E3,2.6856953E3,3.786353E2,5.144242E2,2.171271E3,2.4989015E2,1.2874516E2,1.283203E3,8.880681E2,3.3456036E2,9.4864264E2,4.7670724E2,4.1136084E2,1.0796126E2,2.265991E2,8.691362E2,7.950639E1,4.2044757E2,5.6259686E1,2.3292029E2,1.7844057E2,1.5223328E2,7.4365814E1,5.6801654E2,3.011197E2,3.8565544E1,4.0940853E1,2.7251526E2,1.4793228E2,2.9267576E1,2.6992111E1,1.6507004E2,6.785025E1,2.708078E1,1.5135979E2,3.3963947E1,1.1826933E2,4.397737E1,3.0388445E1,4.907671E2,7.724944E1,2.024577E2,9.8661995E1,2.3834238E2,3.417289E1,8.075775E1,6.717454E1,9.9246376E1,6.582366E1,4.2643597E1,2.5206652E1,1.2351189E2,2.78479E1],"tree_param":{"num_deleted":"0","num_feature":"15","num_nodes":"53","size_leaf_vector":"1"}},{"base_weights":[-3.043157E-2,-2.2341697E-1,1.2917553E-1,-1.0230016E-1,-3.236978E-2,-2.4175009E-1,2.959804E-1,-3.1629336E-1,2.8688943E-1,2.1042503E-1,5.1770514E-1,-5.4492754E-1,-2.2446343E-1,7.684557E-2,4.5395422E-1,1.5006581E-1,4.3944883E-1,4.2542484E-1,8.4437445E-2,-4.1891944E-1,-7.99288E-1,-1.5591674E-1,-3.7566474E-1,1.49262E-2,2.7775764E-3,5.8826018E-2,2.2348944E-2,1.03241265E-1,3.4749782E-1,6.888371E-2,3.1768808E-1,5.1017E-1,1.9562688E-2,-5.8372337E-2,-1.0074126E-2,-9.062334E-2,-6.527727E-2,-1.1869041E-2,-2.451165E-2,-4.3419912E-2,1.1748373E-2,-1.3340989E-3,1.4311247E-2,4.803391E-2,1.346076E-2,1.45605495E-2,5.7410885E-2,3.9975055E-2,6.66574E-2],"categories":[],"categories_nodes":[],"categories_segments":[],"categories_sizes":[],"default_left":[0,0,0,0,0,0,0,0,0,0,0,0,0,0,0,0,0,0,0,0,0,0,0,0,0,0,0,0,0,0,0,0,0,0,0,0,0,0,0,0,0,0,0,0,0,0,0,0,0],"id":16,"left_children":[1,3,-1,-1,5,7,9,11,13,15,17,19,21,23,25,27,29,31,-1,33,35,37,39,-1,-1,-1,-1,41,43,-1,45,47,-1,-1,-1,-1,-1,-1,-1,-1,-1,-1,-1,-1,-1,-1,-1,-1,-1],"loss_changes":[7.576292E2,3.957459E2,0E0,0E0,1.439141E2,5.045726E1,1.5353806E1,2.3406197E1,5.5263042E0,8.088064E0,6.4617004E0,9.935242E0,8.245586E0,2.4961567E-1,2.5944462E0,4.293806E0,3.5013676E0,3.37529E0,0E0,1.1287296E1,1.054451E0,1.8072023E0,7.2449875E0,0E0,0E0,0E0,0E0,1.7681794E0,2.4624977E0,0E0,3.630764E0,1.9742546E0,0E0,0E0,0E0,0E0,0E0,0E0,0E0,0E0,0E0,0E0,0E0,0E0,0E0,0E0,0E0,0E0,0E0],"parents":[2147483647,0,0,1,1,4,4,5,5,6,6,7,7,8,8,9,9,10,10,11,11,12,12,13,13,14,14,15,15,16,16,17,17,19,19,20,20,21,21,22,22,27,27,28,28,30,30,31,31],"right_children":[2,4,-1,-1,6,8,10,12,14,16,18,20,22,24,26,28,30,32,-1,34,36,38,40,-1,-1,-1,-1,42,44,-1,46,48,-1,-1,-1,-1,-1,-1,-1,-1,-1,-1,-1,-1,-1,-1,-1,-1,-1],"split_conditions":[6.8E0,5.7E0,1.2917553E-1,-1.0230016E-1,2.939E1,1E0,3.824E1,2.416E1,2.732E1,1E0,1E0,1E0,1E0,2.427E1,2.751E1,1E0,6E0,6.5E0,8.4437445E-2,1E0,1.953E1,6.5E0,2.751E1,1.49262E-2,2.7775764E-3,5.8826018E-2,2.2348944E-2,3.103E1,1E0,6.888371E-2,3.347E1,4.391E1,1.9562688E-2,-5.8372337E-2,-1.0074126E-2,-9.062334E-2,-6.527727E-2,-1.1869041E-2,-2.451165E-2,-4.3419912E-2,1.1748373E-2,-1.3340989E-3,1.4311247E-2,4.803391E-2,1.346076E-2,1.45605495E-2,5.7410885E-2,3.9975055E-2,6.66574E-2],"split_indices":[4,4,0,0,3,1,3,3,3,1,1,9,9,3,3,12,4,4,0,7,3,4,3,0,0,0,0,3,6,0,3,3,0,0,0,0,0,0,0,0,0,0,0,0,0,0,0,0,0],"split_type":[0,0,0,0,0,0,0,0,0,0,0,0,0,0,0,0,0,0,0,0,0,0,0,0,0,0,0,0,0,0,0,0,0,0,0,0,0,0,0,0,0,0,0,0,0,0,0,0,0],"sum_hessian":[2.9670688E3,2.5898826E3,3.771863E2,4.9862912E2,2.0912534E3,1.2771268E3,8.141266E2,1.1196475E3,1.5747937E2,5.8885736E2,2.2526921E2,3.194243E2,8.0022314E2,7.041251E1,8.706686E1,4.6734406E2,1.2151331E2,1.7744527E2,4.7823933E1,2.153758E2,1.0404849E2,5.520046E2,2.482186E2,2.7615772E1,4.2796738E1,5.4028587E1,3.3038273E1,3.789841E2,8.8359955E1,3.83363E1,8.317701E1,1.2874606E2,4.8699207E1,1.4133513E2,7.4040665E1,5.7148796E1,4.6899696E1,3.9111047E2,1.6089409E2,2.2198909E2,2.6229515E1,9.675135E1,2.8223276E2,5.3635612E1,3.4724342E1,5.0712185E1,3.246483E1,7.755147E1,5.1194595E1],"tree_param":{"num_deleted":"0","num_feature":"15","num_nodes":"49","size_leaf_vector":"1"}},{"base_weights":[-2.941361E-2,-2.4079292E-1,1.5257264E0,-1.0393707E-1,-6.689129E-2,1.7507033E-1,1.4605196E-1,-6.450511E-1,1.0934105E-1,-8.3555543E-1,-4.0824422E-1,-3.4625668E-2,4.8678803E-1,-9.8574795E-2,-7.754392E-2,-5.777143E-1,-1.2602396E-1,-2.4167337E-1,1.4877453E-1,4.0078497E-1,7.784487E-1,-3.929746E-2,-6.3824606E-1,1.1876973E-2,-2.708675E-2,-3.8122508E-1,-1.6528274E-1,5.45671E-2,3.205409E-1,1.2624742E-1,5.284788E-1,9.4692804E-2,5.0983526E-2,-7.840848E-2,-5.7863444E-2,-4.7430955E-2,-2.6300946E-2,-3.8788987E-3,-2.7398068E-2,2.0924075E-2,-1.10954E-1,2.0556863E-2,5.7483543E-2,2.9118082E-2,-7.1083778E-3,4.3043833E-2,6.7825004E-2],"categories":[],"categories_nodes":[],"categories_segments":[],"categories_sizes":[],"default_left":[0,0,0,0,0,0,0,0,0,0,0,0,0,0,0,0,0,0,0,0,0,0,0,0,0,0,0,0,0,0,0,0,0,0,0,0,0,0,0,0,0,0,0,0,0,0,0],"id":17,"left_children":[1,3,5,-1,7,-1,-1,9,11,13,15,17,19,-1,-1,21,23,25,27,29,31,-1,33,-1,-1,35,37,39,41,43,45,-1,-1,-1,-1,-1,-1,-1,-1,-1,-1,-1,-1,-1,-1,-1,-1],"loss_changes":[9.452259E2,3.5145447E2,2.4906006E0,0E0,2.1196896E2,0E0,0E0,2.1582474E1,8.667231E1,1.6586304E0,1.0382961E1,4.390647E1,1.0734261E1,0E0,0E0,1.2735062E0,2.985734E0,5.726198E0,9.906164E0,1.1928047E1,4.007633E0,0E0,4.249649E-1,0E0,0E0,1.9807987E0,4.8390293E0,7.1760216E1,6.2265816E0,3.5986946E0,3.1325378E0,0E0,0E0,0E0,0E0,0E0,0E0,0E0,0E0,0E0,0E0,0E0,0E0,0E0,0E0,0E0,0E0],"parents":[2147483647,0,0,1,1,2,2,4,4,7,7,8,8,9,9,10,10,11,11,12,12,15,15,16,16,17,17,18,18,19,19,20,20,22,22,25,25,26,26,27,27,28,28,29,29,30,30],"right_children":[2,4,6,-1,8,-1,-1,10,12,14,16,18,20,-1,-1,22,24,26,28,30,32,-1,34,-1,-1,36,38,40,42,44,46,-1,-1,-1,-1,-1,-1,-1,-1,-1,-1,-1,-1,-1,-1,-1,-1],"split_conditions":[2.2E2,1.26E2,5.1E1,-1.0393707E-1,3.9E1,1.7507033E-1,1.4605196E-1,2.7E1,3.28E1,9E0,2.929E1,6.2E1,4.228E1,-9.8574795E-2,-7.754392E-2,3E1,1E0,4.9E1,1.59E2,5.5E1,1.58E2,-3.929746E-2,2.435E1,1.1876973E-2,-2.708675E-2,1E0,1.55E2,1.58E2,2.798E1,4.9E1,1.59E2,9.4692804E-2,5.0983526E-2,-7.840848E-2,-5.7863444E-2,-4.7430955E-2,-2.6300946E-2,-3.8788987E-3,-2.7398068E-2,2.0924075E-2,-1.10954E-1,2.0556863E-2,5.7483543E-2,2.9118082E-2,-7.1083778E-3,4.3043833E-2,6.7825004E-2],"split_indices":[5,5,0,0,0,0,0,0,3,0,3,0,3,0,0,0,6,0,5,0,5,0,3,0,0,7,5,5,3,0,5,0,0,0,0,0,0,0,0,0,0,0,0,0,0,0,0],"split_type":[0,0,0,0,0,0,0,0,0,0,0,0,0,0,0,0,0,0,0,0,0,0,0,0,0,0,0,0,0,0,0,0,0,0,0,0,0,0,0,0,0,0,0,0,0,0,0],"sum_hessian":[2.873318E3,2.5302446E3,3.430733E2,4.5157584E2,2.078669E3,7.128323E1,2.7179007E2,4.8497305E2,1.5936958E3,2.6736066E2,2.1761238E2,1.1543204E3,4.3937537E2,7.202308E1,1.9533759E2,1.3531201E2,8.230037E1,5.4205524E2,6.122652E2,3.411526E2,9.822278E1,3.5243317E1,1.00068695E2,3.0661215E1,5.1639156E1,1.9034297E2,3.5171228E2,3.9625296E2,2.1601227E2,1.0893488E2,2.3221771E2,5.8810505E1,3.941227E1,2.5508753E1,7.4559944E1,1.0480555E2,8.553742E1,1.6317705E2,1.8853523E2,3.5050235E2,4.575061E1,1.5000157E2,6.60107E1,5.907947E1,4.985541E1,1.4268793E2,8.9529785E1],"tree_param":{"num_deleted":"0","num_feature":"15","num_nodes":"47","size_leaf_vector":"1"}},{"base_weights":[-2.979401E-2,-6.206322E-1,1.3805346E-1,-7.8587866E-1,-4.1681546E-1,-2.7798126E-2,3.575045E-1,-9.233602E-2,-7.249082E-1,-6.062667E-1,-1.3711709E-1,-2.6999855E-1,9.518905E-2,2.9865628E-1,6.5717196E-1,-6.7656046E-1,-7.7103525E-1,-4.4072587E-2,-6.625606E-1,-2.6383248E-1,2.7608296E-3,-3.380426E-1,3.6430858E-2,-1.2589592E-1,1.4828275E-1,6.599829E-2,3.6900687E-1,5.531758E-1,7.923578E-1,-8.484194E-2,-6.211421E-1,-8.139379E-2,-6.4601004E-2,-7.367557E-2,-5.3634375E-2,-4.54348E-2,-6.023932E-3,-5.3228426E-1,-2.8796622E-1,-1.9384214E-1,1.457187E-2,1.15574986E-1,5.5274393E-2,4.048989E-3,3.8824107E-2,2.7808645E-1,4.7382802E-1,4.1580406E-1,7.63527E-2,6.755673E-2,9.163896E-2,-7.07304E-1,-4.9237084E-2,-4.366113E-2,-6.913741E-2,-5.0790906E-2,-2.2463898E-1,-2.9946515E-1,-4.0701358E-4,-4.184158E-2,1.9330554E-1,-1.4633958E-1,8.608263E-2,1.6368116E-1,3.6784884E-1,4.130228E-1,6.2177277E-1,2.5752602E-2,5.4841496E-2,-5.6068625E-2,-8.199745E-2,-2.9584894E-2,-1.4521286E-2,-9.242926E-3,-4.2068306E-2,-9.735475E-3,2.051345E-2,1.4930253E-2,3.538856E-2,-8.082308E-3,-2.0144602E-2,1.6787965E-2,-1.5589149E-3,3.382458E-2,4.0295296E-3,6.185469E-2,3.1301893E-2,3.478951E-2,6.0568463E-2,4.9037736E-2,7.752772E-2],"categories":[],"categories_nodes":[],"categories_segments":[],"categories_sizes":[],"default_left":[0,0,0,0,0,0,0,0,0,0,0,0,0,0,0,0,0,0,0,0,0,0,0,0,0,0,0,0,0,0,0,0,0,0,0,0,0,0,0,0,0,0,0,0,0,0,0,0,0,0,0,0,0,0,0,0,0,0,0,0,0,0,0,0,0,0,0,0,0,0,0,0,0,0,0,0,0,0,0,0,0,0,0,0,0,0,0,0,0,0,0],"id":18,"left_children":[1,3,5,7,9,11,13,-1,15,17,19,21,23,25,27,29,31,-1,33,35,-1,37,-1,39,41,43,45,47,49,-1,51,-1,-1,-1,-1,-1,-1,53,55,57,-1,59,-1,61,-1,63,65,67,-1,-1,-1,69,-1,-1,-1,-1,71,73,-1,75,77,79,81,83,85,87,89,-1,-1,-1,-1,-1,-1,-1,-1,-1,-1,-1,-1,-1,-1,-1,-1,-1,-1,-1,-1,-1,-1,-1,-1],"loss_changes":[2.7768698E2,2.0536118E1,7.9381516E1,2.1888123E0,1.4727009E1,3.705134E1,1.6358818E1,0E0,1.5525818E-2,1.2580719E0,2.3901086E0,1.820203E1,9.704079E0,1.284893E1,1.7163467E0,6.708107E-1,9.6961975E-2,0E0,7.4864197E-1,2.4789872E0,0E0,3.531376E0,0E0,2.9870167E0,8.743947E0,3.6680632E0,5.6215744E0,2.281332E0,3.1270218E-1,0E0,7.4830246E-1,0E0,0E0,0E0,0E0,0E0,0E0,8.619633E-1,4.1110325E0,2.5778923E0,0E0,7.560774E0,0E0,1.9272146E0,0E0,3.2844849E0,2.252903E0,1.0467978E0,0E0,0E0,0E0,4.8056793E-1,0E0,0E0,0E0,0E0,1.2993288E0,2.035304E0,0E0,2.8286908E0,2.8681583E0,1.8281758E-1,8.4297585E-1,3.109393E0,2.3040333E0,2.3076057E0,1.2189865E0,0E0,0E0,0E0,0E0,0E0,0E0,0E0,0E0,0E0,0E0,0E0,0E0,0E0,0E0,0E0,0E0,0E0,0E0,0E0,0E0,0E0,0E0,0E0,0E0],"parents":[2147483647,0,0,1,1,2,2,3,3,4,4,5,5,6,6,8,8,9,9,10,10,11,11,12,12,13,13,14,14,15,15,16,16,18,18,19,19,21,21,23,23,24,24,25,25,26,26,27,27,28,28,30,30,37,37,38,38,39,39,41,41,43,43,45,45,46,46,47,47,51,51,56,56,57,57,59,59,60,60,61,61,62,62,63,63,64,64,65,65,66,66],"right_children":[2,4,6,8,10,12,14,-1,16,18,20,22,24,26,28,30,32,-1,34,36,-1,38,-1,40,42,44,46,48,50,-1,52,-1,-1,-1,-1,-1,-1,54,56,58,-1,60,-1,62,-1,64,66,68,-1,-1,-1,70,-1,-1,-1,-1,72,74,-1,76,78,80,82,84,86,88,90,-1,-1,-1,-1,-1,-1,-1,-1,-1,-1,-1,-1,-1,-1,-1,-1,-1,-1,-1,-1,-1,-1,-1,-1],"split_conditions":[3.9E1,2.7E1,2.95E1,1E1,2.899E1,5.7E1,4.164E1,-9.233602E-2,2.689E1,3E1,3.667E1,1E0,2.416E1,5.2E1,1E0,1.937E1,2.4E1,-4.4072587E-2,1E0,3.4E1,2.7608296E-3,2.427E1,3.6430858E-2,1E0,1E0,1E0,3.383E1,1E0,4.617E1,-8.484194E-2,1E0,-8.139379E-2,-6.4601004E-2,-7.367557E-2,-5.3634375E-2,-4.54348E-2,-6.023932E-3,2.285E1,4.4E1,7.8E1,1.457187E-2,6.6E1,5.5274393E-2,3.247E1,3.8824107E-2,6.4E1,6.9E1,5.5E1,7.63527E-2,6.755673E-2,9.163896E-2,2E1,-4.9237084E-2,-4.366113E-2,-6.913741E-2,-5.0790906E-2,1E0,6.4E1,-4.0701358E-4,1E0,1E0,3.08E1,1E0,5.7E1,3.008E1,1E0,1E0,2.5752602E-2,5.4841496E-2,-5.6068625E-2,-8.199745E-2,-2.9584894E-2,-1.4521286E-2,-9.242926E-3,-4.2068306E-2,-9.735475E-3,2.051345E-2,1.4930253E-2,3.538856E-2,-8.082308E-3,-2.0144602E-2,1.6787965E-2,-1.5589149E-3,3.382458E-2,4.0295296E-3,6.185469E-2,3.1301893E-2,3.478951E-2,6.0568463E-2,4.9037736E-2,7.752772E-2],"split_indices":[0,0,3,0,3,0,3,0,3,0,3,1,3,0,13,3,0,0,7,0,0,3,0,1,10,1,3,7,3,0,7,0,0,0,0,0,0,3,0,0,0,0,0,3,0,0,0,0,0,0,0,0,0,0,0,0,7,0,0,1,12,3,13,0,3,1,13,0,0,0,0,0,0,0,0,0,0,0,0,0,0,0,0,0,0,0,0,0,0,0,0],"split_type":[0,0,0,0,0,0,0,0,0,0,0,0,0,0,0,0,0,0,0,0,0,0,0,0,0,0,0,0,0,0,0,0,0,0,0,0,0,0,0,0,0,0,0,0,0,0,0,0,0,0,0,0,0,0,0,0,0,0,0,0,0,0,0,0,0,0,0,0,0,0,0,0,0,0,0,0,0,0,0,0,0,0,0,0,0,0,0,0,0,0,0],"sum_hessian":[2.7982273E3,6.184678E2,2.1797595E3,3.3997427E2,2.784935E2,1.2419904E3,9.377692E2,1.0010488E2,2.3986938E2,1.6533662E2,1.13156876E2,4.1787253E2,8.241178E2,7.855089E2,1.5226031E2,1.247651E2,1.1510429E2,4.4197166E1,1.21139465E2,6.3617397E1,4.9539482E1,3.778107E2,4.006182E1,1.5932188E2,6.6479596E2,1.8282443E2,6.026845E2,8.893563E1,6.332468E1,2.6933077E1,9.783202E1,8.1594696E1,3.3509594E1,7.324563E1,4.7893837E1,3.2227947E1,3.1389448E1,7.546385E1,3.0234686E2,1.2767056E2,3.1651314E1,6.162473E2,4.8548626E1,1.5419409E2,2.863035E1,3.2469843E2,2.7798608E2,5.5601368E1,3.3334267E1,3.5934692E1,2.7389986E1,5.5921646E1,4.191038E1,4.946262E1,2.6001234E1,6.6022545E1,2.3632431E2,8.164865E1,4.602191E1,2.0386017E2,4.1238715E2,5.414627E1,1.0004781E2,1.4399513E2,1.8070328E2,1.9970088E2,7.828522E1,2.6688824E1,2.8912542E1,2.6896984E1,2.9024662E1,1.2317038E2,1.1315393E2,3.080216E1,5.0846493E1,1.6694215E2,3.691801E1,3.2520303E2,8.718412E1,2.5863554E1,2.8282717E1,5.5082016E1,4.4965797E1,5.8909466E1,8.508567E1,3.0583878E1,1.501194E2,1.5134554E2,4.8355347E1,4.44402E1,3.3845016E1],"tree_param":{"num_deleted":"0","num_feature":"15","num_nodes":"91","size_leaf_vector":"1"}},{"base_weights":[-2.6281778E-2,-2.2476876E-1,1.4596984E0,-1.0359998E-1,-6.3831404E-2,1.6573083E-1,1.3972796E-1,-5.939275E-1,7.911988E-2,-7.8658515E-1,-3.6974204E-1,1.5997734E-2,3.3264127E-1,-9.3885E-2,-7.2079927E-1,-2.3320031E-1,-4.519339E-1,-1.5621938E-1,1.0293943E-1,5.544808E-1,2.736433E-1,-6.298563E-2,-7.640287E-2,-1.1402062E-2,-3.6991436E-2,-3.5811144E-1,-5.6789E-2,8.3095804E-2,-2.273182E-1,1.9054709E-2,2.514167E-1,8.251434E-2,1.7861243E-2,1.8819779E-1,4.164076E-1,-1.6225286E-2,-5.1819723E-2,-3.6433542E-3,1.6658103E-2,-1.0634161E-2,-3.2166008E-2,1.6128875E-2,-1.1072623E-1,3.371216E-2,-7.990957E-3,2.945523E-2,-1.1951744E-2,2.7934477E-2,5.743873E-2],"categories":[],"categories_nodes":[],"categories_segments":[],"categories_sizes":[],"default_left":[0,0,0,0,0,0,0,0,0,0,0,0,0,0,0,0,0,0,0,0,0,0,0,0,0,0,0,0,0,0,0,0,0,0,0,0,0,0,0,0,0,0,0,0,0,0,0,0,0],"id":19,"left_children":[1,3,5,-1,7,-1,-1,9,11,13,15,17,19,-1,21,23,25,27,29,31,33,-1,-1,-1,-1,35,-1,37,39,41,43,-1,-1,45,47,-1,-1,-1,-1,-1,-1,-1,-1,-1,-1,-1,-1,-1,-1],"loss_changes":[8.1597705E2,3.185475E2,1.7052002E0,0E0,1.5444293E2,0E0,0E0,1.840512E1,2.568901E1,1.6463318E0,2.1610203E0,1.9279976E1,4.0367737E0,0E0,1.7238617E-1,1.2279267E0,1.1565285E0,7.3696785E0,1.0651326E1,6.593073E0,3.0294456E0,0E0,0E0,0E0,0E0,2.1671753E0,0E0,1.0008075E0,3.7701836E0,8.793399E1,8.795328E0,0E0,0E0,5.3109035E0,1.8871765E0,0E0,0E0,0E0,0E0,0E0,0E0,0E0,0E0,0E0,0E0,0E0,0E0,0E0,0E0],"parents":[2147483647,0,0,1,1,2,2,4,4,7,7,8,8,9,9,10,10,11,11,12,12,14,14,15,15,16,16,17,17,18,18,19,19,20,20,25,25,27,27,28,28,29,29,30,30,33,33,34,34],"right_children":[2,4,6,-1,8,-1,-1,10,12,14,16,18,20,-1,22,24,26,28,30,32,34,-1,-1,-1,-1,36,-1,38,40,42,44,-1,-1,46,48,-1,-1,-1,-1,-1,-1,-1,-1,-1,-1,-1,-1,-1,-1],"split_conditions":[2.2E2,1.26E2,5.1E1,-1.0359998E-1,3.9E1,1.6573083E-1,1.3972796E-1,2.7E1,1E0,1E1,1E0,5.5E1,5.5E1,-9.3885E-2,1.45E2,1.58E2,1E0,1.4E2,1.59E2,1E0,1.59E2,-6.298563E-2,-7.640287E-2,-1.1402062E-2,-3.6991436E-2,1.55E2,-5.6789E-2,1E0,1E0,1.58E2,1E0,8.251434E-2,1.7861243E-2,1.55E2,7E1,-1.6225286E-2,-5.1819723E-2,-3.6433542E-3,1.6658103E-2,-1.0634161E-2,-3.2166008E-2,1.6128875E-2,-1.1072623E-1,3.371216E-2,-7.990957E-3,2.945523E-2,-1.1951744E-2,2.7934477E-2,5.743873E-2],"split_indices":[5,5,0,0,0,0,0,0,1,0,6,0,0,0,5,5,13,5,5,13,5,0,0,0,0,5,0,6,6,5,9,0,0,5,0,0,0,0,0,0,0,0,0,0,0,0,0,0,0],"split_type":[0,0,0,0,0,0,0,0,0,0,0,0,0,0,0,0,0,0,0,0,0,0,0,0,0,0,0,0,0,0,0,0,0,0,0,0,0,0,0,0,0,0,0,0,0,0,0,0,0],"sum_hessian":[2.7644019E3,2.439411E3,3.2499094E2,4.0293152E2,2.0364792E3,7.187914E1,2.5311179E2,4.3186612E2,1.6046132E3,2.3091592E2,2.009502E2,1.2855885E3,3.190247E2,6.566336E1,1.6525256E2,7.695144E1,1.2399876E2,4.3101743E2,8.5457104E2,6.5256E1,2.537687E2,5.8259865E1,1.069927E2,4.2091988E1,3.4859447E1,7.0800766E1,5.3197998E1,9.86838E1,3.3233365E2,5.4678436E2,3.0778665E2,3.724244E1,2.8013556E1,1.6020377E2,9.356494E1,3.274819E1,3.805257E1,4.0813286E1,5.7870514E1,1.4654416E2,1.8578947E2,4.8623788E2,6.0546497E1,2.4451894E2,6.3267723E1,1.1908695E2,4.1116817E1,5.158134E1,4.1983604E1],"tree_param":{"num_deleted":"0","num_feature":"15","num_nodes":"49","size_leaf_vector":"1"}},{"base_weights":[-2.3985146E-2,5.025525E-2,-2.6125842E-1,1.0640543E-2,3.9825357E-2,-3.044405E-1,2.7662352E-2,-4.4796843E-2,8.6122066E-2,-3.2704193E-2,-2.748151E-2,-5.355145E-2,1.9952063E-3,5.5566244E-2,1.8644018E-2,-6.38916E-2,2.2585355E-3,4.519141E-2,9.553724E-3,-7.2680205E-2,5.182936E-3,3.9003648E-2,9.432627E-3,-8.896857E-3,-1.2003232E-3,4.026739E-3,3.2825277E-3],"categories":[],"categories_nodes":[],"categories_segments":[],"categories_sizes":[],"default_left":[0,0,0,0,0,0,0,0,0,0,0,0,0,0,0,0,0,0,0,0,0,0,0,0,0,0,0],"id":20,"left_children":[1,3,5,7,-1,9,-1,11,13,-1,-1,15,-1,17,-1,19,-1,21,-1,23,-1,25,-1,-1,-1,-1,-1],"loss_changes":[4.745885E1,2.8289528E1,1.499741E1,7.7186003E0,0E0,3.0840302E-1,0E0,6.039803E-1,2.383739E0,0E0,0E0,7.392733E-1,0E0,2.445414E-1,0E0,8.43225E-1,0E0,1.4175242E-1,0E0,7.575331E-1,0E0,2.0085573E-3,0E0,0E0,0E0,0E0,0E0],"parents":[2147483647,0,0,1,1,2,2,3,3,5,5,7,7,8,8,11,11,13,13,15,15,17,17,19,19,21,21],"right_children":[2,4,6,8,-1,10,-1,12,14,-1,-1,16,-1,18,-1,20,-1,22,-1,24,-1,26,-1,-1,-1,-1,-1],"split_conditions":[1E0,1E0,1E0,1E0,3.9825357E-2,1E0,2.7662352E-2,1E0,1E0,-3.2704193E-2,-2.748151E-2,1E0,1.9952063E-3,1E0,1.8644018E-2,1E0,2.2585355E-3,1E0,9.553724E-3,1E0,5.182936E-3,1E0,9.432627E-3,-8.896857E-3,-1.2003232E-3,4.026739E-3,3.2825277E-3],"split_indices":[9,2,2,7,0,7,0,10,12,0,0,14,0,10,0,11,0,11,0,12,0,14,0,0,0,0,0],"split_type":[0,0,0,0,0,0,0,0,0,0,0,0,0,0,0,0,0,0,0,0,0,0,0,0,0,0,0],"sum_hessian":[2.6924438E3,2.051377E3,6.4106683E2,1.8426481E3,2.0872896E2,5.938274E2,4.7239456E1,1.0626163E3,7.800318E2,3.3115067E2,2.6267673E2,9.362062E2,1.2641016E2,5.991048E2,1.8092702E2,8.2440454E2,1.1180161E2,4.77338E2,1.2176677E2,7.6655896E2,5.7845577E1,4.2554153E2,5.1796482E1,6.039626E2,1.6259637E2,3.487E2,7.684152E1],"tree_param":{"num_deleted":"0","num_feature":"15","num_nodes":"27","size_leaf_vector":"1"}},{"base_weights":[-2.7311478E-2,-2.1230882E-1,1.4068447E0,-3.753162E-1,1.2939744E-1,1.5192829E-1,1.1167176E-1,-1.0192307E-1,-2.2582212E-1,-1.03816584E-1,-7.574375E-2,-2.7185705E-1,2.0697342E-1,-6.692358E-1,-2.2072199E-1,1.3557687E-1,5.144052E-1,-8.038719E-2,-5.1516134E-2,-2.5735056E-2,9.920884E-3,3.3613914E-3,2.470236E-2,6.642695E-2,2.908571E-2],"categories":[],"categories_nodes":[],"categories_segments":[],"categories_sizes":[],"default_left":[0,0,0,0,0,0,0,0,0,0,0,0,0,0,0,0,0,0,0,0,0,0,0,0,0],"id":21,"left_children":[1,3,5,7,-1,-1,-1,-1,9,-1,11,13,15,17,19,21,23,-1,-1,-1,-1,-1,-1,-1,-1],"loss_changes":[7.1278076E2,5.847278E2,8.316711E0,2.0652802E2,0E0,0E0,0E0,0E0,2.1259787E2,0E0,8.1754616E1,1.7539673E1,1.3189346E1,1.6342812E0,9.080448E0,5.5777483E0,3.6088982E0,0E0,0E0,0E0,0E0,0E0,0E0,0E0,0E0],"parents":[2147483647,0,0,1,1,2,2,3,3,8,8,10,10,11,11,12,12,13,13,14,14,15,15,16,16],"right_children":[2,4,6,8,-1,-1,-1,-1,10,-1,12,14,16,18,20,22,24,-1,-1,-1,-1,-1,-1,-1,-1],"split_conditions":[2.2E2,6.8E0,6.8E0,5.7E0,1.2939744E-1,1.5192829E-1,1.1167176E-1,-1.0192307E-1,1.26E2,-1.03816584E-1,2.95E1,2.126E1,4.104E1,1.921E1,1E0,1E0,1.58E2,-8.038719E-2,-5.1516134E-2,-2.5735056E-2,9.920884E-3,3.3613914E-3,2.470236E-2,6.642695E-2,2.908571E-2],"split_indices":[5,4,4,4,0,0,0,0,5,0,3,3,3,3,2,7,5,0,0,0,0,0,0,0,0],"split_type":[0,0,0,0,0,0,0,0,0,0,0,0,0,0,0,0,0,0,0,0,0,0,0,0,0],"sum_hessian":[2.6844185E3,2.3784634E3,3.059552E2,2.1468823E3,2.3158105E2,2.1744733E2,8.850788E1,4.034194E2,1.7434629E3,2.7094974E2,1.4725132E3,8.694426E2,6.0307056E2,9.774704E1,7.7169556E2,4.905812E2,1.1248934E2,4.9913414E1,4.7833622E1,6.925965E2,7.909908E1,2.5687085E2,2.3371036E2,6.616293E1,4.632641E1],"tree_param":{"num_deleted":"0","num_feature":"15","num_nodes":"25","size_leaf_vector":"1"}},{"base_weights":[-2.1698048E-2,-1.9877197E-1,1.3577911E0,-1.0285187E-1,-5.756263E-2,1.4994717E-1,1.3040155E-1,-5.5741256E-1,6.7329414E-2,-7.6406693E-1,-3.3447123E-1,-2.166618E-2,3.720029E-1,-9.5047735E-2,-6.971498E-1,-5.1589024E-1,-8.2077466E-2,-1.8030334E-1,1.0005068E-1,3.2655734E-1,6.401136E-2,-7.594117E-2,-5.987965E-1,-6.396062E-2,-3.912364E-1,1.4091817E-2,-1.9362535E-1,-2.3283337E-1,1.4617258E-1,2.4002448E-2,2.335191E-1,2.6570463E-1,5.530531E-1,-4.135016E-2,-7.673575E-2,-1.760615E-2,-6.0421497E-2,-4.2240094E-2,2.2879806E-3,-3.5228487E-2,-6.0955114E-3,3.4715362E-2,-1.4735619E-2,1.4828781E-2,-1.0982205E-1,1.788043E-2,4.1266028E-2,3.654487E-2,1.3686733E-2,6.593915E-2,3.7917204E-2],"categories":[],"categories_nodes":[],"categories_segments":[],"categories_sizes":[],"default_left":[0,0,0,0,0,0,0,0,0,0,0,0,0,0,0,0,0,0,0,0,0,0,0,0,0,0,0,0,0,0,0,0,0,0,0,0,0,0,0,0,0,0,0,0,0,0,0,0,0,0,0],"id":22,"left_children":[1,3,5,-1,7,-1,-1,9,11,13,15,17,19,-1,21,23,25,27,29,31,-1,-1,33,-1,35,-1,37,39,41,43,45,47,49,-1,-1,-1,-1,-1,-1,-1,-1,-1,-1,-1,-1,-1,-1,-1,-1,-1,-1],"loss_changes":[6.28946E2,2.6729105E2,2.7630615E-1,0E0,1.218321E2,0E0,0E0,1.7718353E1,4.2357124E1,1.853157E0,8.632273E0,2.337622E1,4.0937614E0,0E0,4.7703552E-1,1.44664E0,2.0275953E0,9.047281E0,6.948753E0,4.0430183E0,0E0,0E0,1.672636E0,0E0,2.523368E0,0E0,2.6855085E0,9.281242E0,4.384638E0,6.1194626E1,2.3626776E0,3.0540028E0,9.232559E-1,0E0,0E0,0E0,0E0,0E0,0E0,0E0,0E0,0E0,0E0,0E0,0E0,0E0,0E0,0E0,0E0,0E0,0E0],"parents":[2147483647,0,0,1,1,2,2,4,4,7,7,8,8,9,9,10,10,11,11,12,12,14,14,15,15,16,16,17,17,18,18,19,19,22,22,24,24,26,26,27,27,28,28,29,29,30,30,31,31,32,32],"right_children":[2,4,6,-1,8,-1,-1,10,12,14,16,18,20,-1,22,24,26,28,30,32,-1,-1,34,-1,36,-1,38,40,42,44,46,48,50,-1,-1,-1,-1,-1,-1,-1,-1,-1,-1,-1,-1,-1,-1,-1,-1,-1,-1],"split_conditions":[2.2E2,1.26E2,5.2E1,-1.0285187E-1,3.9E1,1.4994717E-1,1.3040155E-1,2.7E1,3.444E1,9E0,2.899E1,6.1E1,4.617E1,-9.5047735E-2,1E0,2.732E1,1.45E2,1E0,1.59E2,6.9E1,6.401136E-2,-7.594117E-2,2.537E1,-6.396062E-2,3.3E1,1.4091817E-2,1.59E2,2.751E1,5.5E1,1.58E2,1E0,1.58E2,7.6E1,-4.135016E-2,-7.673575E-2,-1.760615E-2,-6.0421497E-2,-4.2240094E-2,2.2879806E-3,-3.5228487E-2,-6.0955114E-3,3.4715362E-2,-1.4735619E-2,1.4828781E-2,-1.0982205E-1,1.788043E-2,4.1266028E-2,3.654487E-2,1.3686733E-2,6.593915E-2,3.7917204E-2],"split_indices":[5,5,0,0,0,0,0,0,3,0,3,0,3,0,13,3,5,1,5,0,0,0,3,0,0,0,5,3,0,5,1,5,0,0,0,0,0,0,0,0,0,0,0,0,0,0,0,0,0,0,0],"split_type":[0,0,0,0,0,0,0,0,0,0,0,0,0,0,0,0,0,0,0,0,0,0,0,0,0,0,0,0,0,0,0,0,0,0,0,0,0,0,0,0,0,0,0,0,0,0,0,0,0,0,0],"sum_hessian":[2.5726772E3,2.280769E3,2.9190805E2,3.3078595E2,1.9499832E3,7.29157E1,2.1899236E2,3.8912842E2,1.5608547E3,2.00681E2,1.8844743E2,1.2087158E3,3.521389E2,4.952255E1,1.5115845E2,1.0903196E2,7.9415474E1,5.2456006E2,6.841558E2,3.0299783E2,4.914106E1,8.844669E1,6.271175E1,5.2648533E1,5.6383427E1,2.6391956E1,5.302352E1,4.5210336E2,7.2456696E1,4.3657944E2,2.4757635E2,2.405439E2,6.245393E1,3.1517958E1,3.1193792E1,2.8955746E1,2.7427681E1,2.5318792E1,2.7704727E1,2.6611194E2,1.8599142E2,4.290006E1,2.9556635E1,3.9383084E2,4.274861E1,1.9118205E2,5.639431E1,1.3454471E2,1.0599918E2,3.7021133E1,2.5432796E1],"tree_param":{"num_deleted":"0","num_feature":"15","num_nodes":"51","size_leaf_vector":"1"}},{"base_weights":[-2.1027355E-2,-1.78078E-1,1.21810615E-1,-1.0167169E-1,-2.0150134E-2,-1.8089038E-1,1.4927039E-1,-2.417243E-1,2.0952895E-1,9.676783E-2,3.270528E-1,-5.843102E-1,-1.9006364E-1,4.463618E-2,1.0591476E-1,5.5081204E-2,2.5103727E-1,3.8264924E-1,5.7288404E-3,-7.407085E-2,-4.4981744E-2,-2.2486977E-1,1.7394137E-1,1.241306E-3,1.9689359E-2,2.5463454E-2,3.0403143E-1,1.440923E-1,4.2195487E-1,3.256657E-1,5.576531E-2,-2.9168366E-2,-1.3785991E-2,-2.242648E-3,3.302514E-2,-3.8064138E-3,9.967088E-3,7.830718E-3,5.1570248E-2,2.617144E-2,-5.3929356E-3,5.8417805E-2,2.3579007E-2,4.9905594E-2,2.4693718E-2],"categories":[],"categories_nodes":[],"categories_segments":[],"categories_sizes":[],"default_left":[0,0,0,0,0,0,0,0,0,0,0,0,0,0,0,0,0,0,0,0,0,0,0,0,0,0,0,0,0,0,0,0,0,0,0,0,0,0,0,0,0,0,0,0,0],"id":23,"left_children":[1,3,-1,-1,5,7,9,11,13,15,17,19,21,-1,23,25,27,29,-1,-1,-1,31,33,-1,-1,35,37,39,41,43,-1,-1,-1,-1,-1,-1,-1,-1,-1,-1,-1,-1,-1,-1,-1],"loss_changes":[4.869534E2,2.9409363E2,0E0,0E0,5.094583E1,2.2849342E1,8.47028E0,1.4595673E1,3.1414227E0,4.5174885E0,3.0863228E0,1.9470673E0,9.206425E0,0E0,7.776705E-1,4.0918E0,2.6739492E0,1.5301952E0,0E0,0E0,0E0,3.8016396E0,1.9630291E0,0E0,0E0,2.3513432E0,2.7796836E0,2.1930108E0,1.5856428E0,1.6772346E0,0E0,0E0,0E0,0E0,0E0,0E0,0E0,0E0,0E0,0E0,0E0,0E0,0E0,0E0,0E0],"parents":[2147483647,0,0,1,1,4,4,5,5,6,6,7,7,8,8,9,9,10,10,11,11,12,12,14,14,15,15,16,16,17,17,21,21,22,22,25,25,26,26,27,27,28,28,29,29],"right_children":[2,4,-1,-1,6,8,10,12,14,16,18,20,22,-1,24,26,28,30,-1,-1,-1,32,34,-1,-1,36,38,40,42,44,-1,-1,-1,-1,-1,-1,-1,-1,-1,-1,-1,-1,-1,-1,-1],"split_conditions":[6.8E0,5.7E0,1.21810615E-1,-1.0167169E-1,2.798E1,1E0,3.899E1,2.114E1,6E0,1E0,1E0,1.869E1,1E0,4.463618E-2,2.727E1,1E0,3.347E1,1E0,5.7288404E-3,-7.407085E-2,-4.4981744E-2,1E0,6.1E0,1.241306E-3,1.9689359E-2,1E0,6.2E0,3.118E1,3.583E1,6E0,5.576531E-2,-2.9168366E-2,-1.3785991E-2,-2.242648E-3,3.302514E-2,-3.8064138E-3,9.967088E-3,7.830718E-3,5.1570248E-2,2.617144E-2,-5.3929356E-3,5.8417805E-2,2.3579007E-2,4.9905594E-2,2.4693718E-2],"split_indices":[4,4,0,0,3,1,3,3,4,1,9,3,2,0,3,2,3,1,0,0,0,7,4,0,0,7,4,3,3,4,0,0,0,0,0,0,0,0,0,0,0,0,0,0,0],"split_type":[0,0,0,0,0,0,0,0,0,0,0,0,0,0,0,0,0,0,0,0,0,0,0,0,0,0,0,0,0,0,0,0,0,0,0,0,0,0,0,0,0,0,0,0,0],"sum_hessian":[2.500129E3,2.2196604E3,2.8046857E2,3.508921E2,1.8687682E3,9.589153E2,9.098529E2,8.299724E2,1.2894284E2,7.036082E2,2.0624467E2,1.0740557E2,7.2256683E2,3.823667E1,9.070616E1,5.549948E2,1.486134E2,1.706554E2,3.5589275E1,4.7574703E1,5.9830868E1,6.598539E2,6.271296E1,4.5293304E1,4.5412857E1,4.9697208E2,5.8022766E1,9.254811E1,5.60653E1,1.3089514E2,3.9760265E1,3.7191348E2,2.879404E2,2.8174574E1,3.4538383E1,2.6801578E2,2.2895628E2,2.8742235E1,2.928053E1,5.7859016E1,3.4689095E1,2.8816647E1,2.7248653E1,3.9207138E1,9.1687996E1],"tree_param":{"num_deleted":"0","num_feature":"15","num_nodes":"45","size_leaf_vector":"1"}},{"base_weights":[-2.2219935E-2,-1.8504207E-1,1.3231261E0,-3.2290542E-1,1.2298999E-1,1.4021848E-1,1.0735708E-1,-1.01453066E-1,-1.8974593E-1,-1.0303944E-1,-5.9365496E-2,-5.1300436E-1,3.5308257E-2,-6.9862777E-1,-3.0731922E-1,-4.5725037E-3,5.757433E-1,-8.0043525E-2,-5.1252704E-2,-6.9195256E-3,-4.643057E-2,-1.2285212E-2,8.954409E-3,7.4716866E-2,3.2250773E-2],"categories":[],"categories_nodes":[],"categories_segments":[],"categories_sizes":[],"default_left":[0,0,0,0,0,0,0,0,0,0,0,0,0,0,0,0,0,0,0,0,0,0,0,0,0],"id":24,"left_children":[1,3,5,7,-1,-1,-1,-1,9,-1,11,13,15,17,19,21,23,-1,-1,-1,-1,-1,-1,-1,-1],"loss_changes":[5.3381354E2,4.2442062E2,3.6853027E0,1.8229814E2,0E0,0E0,0E0,0E0,1.8219243E2,0E0,6.1889725E1,9.284798E0,2.5711403E1,2.0527382E0,4.446697E0,1.2388055E1,3.3179245E0,0E0,0E0,0E0,0E0,0E0,0E0,0E0,0E0],"parents":[2147483647,0,0,1,1,2,2,3,3,8,8,10,10,11,11,12,12,13,13,14,14,15,15,16,16],"right_children":[2,4,6,8,-1,-1,-1,-1,10,-1,12,14,16,18,20,22,24,-1,-1,-1,-1,-1,-1,-1,-1],"split_conditions":[2.2E2,6.8E0,6.8E0,5.7E0,1.2298999E-1,1.4021848E-1,1.0735708E-1,-1.01453066E-1,1.26E2,-1.0303944E-1,3.9E1,2.8E1,4.228E1,1E0,1E0,6.1E1,1.58E2,-8.0043525E-2,-5.1252704E-2,-6.9195256E-3,-4.643057E-2,-1.2285212E-2,8.954409E-3,7.4716866E-2,3.2250773E-2],"split_indices":[5,4,4,4,0,0,0,0,5,0,0,0,3,13,6,0,5,0,0,0,0,0,0,0,0],"split_type":[0,0,0,0,0,0,0,0,0,0,0,0,0,0,0,0,0,0,0,0,0,0,0,0,0],"sum_hessian":[2.4348071E3,2.172714E3,2.6209293E2,1.9805165E3,1.9219771E2,1.955305E2,6.656242E1,3.18681E2,1.6618354E3,2.2220844E2,1.4396271E3,2.4780856E2,1.1918185E3,1.2899693E2,1.1881162E2,1.1108372E3,8.098136E1,8.124841E1,4.7748524E1,4.777904E1,7.1032585E1,4.920967E2,6.187404E2,4.712802E1,3.385334E1],"tree_param":{"num_deleted":"0","num_feature":"15","num_nodes":"25","size_leaf_vector":"1"}},{"base_weights":[-2.1069402E-2,-1.7186518E-1,1.2820518E-1,-1.0222366E-1,-4.9041275E-2,-4.3690822E-1,6.4914264E-2,-6.97104E-1,-2.6399556E-1,-2.0765973E-2,2.7272093E-1,-9.220767E-2,-6.205645E-1,-4.3162805E-1,-1.2642341E-2,-1.436802E-1,5.7455953E-2,2.0417927E-1,3.838698E-1,-4.7634993E-2,-6.7989576E-1,-3.0938652E-1,-5.1569545E-1,1.3843407E-2,-1.0424064E-1,1.2101707E-2,-2.7716532E-1,-1.8638713E-2,1.91572E-1,3.389843E-1,-1.9070084E-1,2.892626E-1,5.5177426E-1,-7.460164E-2,-5.2619535E-2,-1.980499E-2,-4.409492E-2,-6.436295E-2,-3.8884457E-2,1.3318594E-2,-3.3536505E-2,2.4718652E-2,-1.9104438E-2,-6.02857E-2,-1.0732207E-2,9.553969E-3,-1.08351685E-1,3.2020397E-2,7.0250123E-3,5.0653934E-2,2.7953623E-2,1.3049367E-2,-4.1540753E-2,-1.9160329E-4,4.2368613E-2,6.321331E-2,4.5547843E-2],"categories":[],"categories_nodes":[],"categories_segments":[],"categories_sizes":[],"default_left":[0,0,0,0,0,0,0,0,0,0,0,0,0,0,0,0,0,0,0,0,0,0,0,0,0,0,0,0,0,0,0,0,0,0,0,0,0,0,0,0,0,0,0,0,0,0,0,0,0,0,0,0,0,0,0,0,0],"id":25,"left_children":[1,3,-1,-1,5,7,9,11,13,15,17,-1,19,21,23,25,27,29,31,-1,33,35,37,-1,39,41,43,45,47,49,51,53,55,-1,-1,-1,-1,-1,-1,-1,-1,-1,-1,-1,-1,-1,-1,-1,-1,-1,-1,-1,-1,-1,-1,-1,-1],"loss_changes":[4.5842056E2,2.1832404E2,0E0,0E0,8.0823685E1,1.849762E1,2.5177116E1,2.2718277E0,1.0573139E1,9.6414995E0,3.0664291E0,0E0,7.567711E-1,1.3879509E0,1.4187298E0,8.112002E0,6.259549E0,1.3770441E1,2.323555E0,0E0,4.9305725E-1,8.480859E-1,1.1733761E0,0E0,3.542723E0,8.686393E0,1.1554012E1,4.7766464E1,3.4418507E0,1.7739353E0,4.829791E0,3.9965973E0,1.3949776E-1,0E0,0E0,0E0,0E0,0E0,0E0,0E0,0E0,0E0,0E0,0E0,0E0,0E0,0E0,0E0,0E0,0E0,0E0,0E0,0E0,0E0,0E0,0E0,0E0],"parents":[2147483647,0,0,1,1,4,4,5,5,6,6,7,7,8,8,9,9,10,10,12,12,13,13,14,14,15,15,16,16,17,17,18,18,20,20,21,21,22,22,24,24,25,25,26,26,27,27,28,28,29,29,30,30,31,31,32,32],"right_children":[2,4,-1,-1,6,8,10,12,14,16,18,-1,20,22,24,26,28,30,32,-1,34,36,38,-1,40,42,44,46,48,50,52,54,56,-1,-1,-1,-1,-1,-1,-1,-1,-1,-1,-1,-1,-1,-1,-1,-1,-1,-1,-1,-1,-1,-1,-1,-1],"split_conditions":[2.2E2,1.26E2,1.2820518E-1,-1.0222366E-1,4.3E1,2.7E1,3.28E1,9E0,3.067E1,6.1E1,1.59E2,-9.220767E-2,2.285E1,1E0,1E0,1.55E2,1.59E2,1.55E2,3.899E1,-4.7634993E-2,1.59E2,3.7E1,2.732E1,1.3843407E-2,1.55E2,1E0,1.59E2,1.58E2,1E0,1.3E2,1E0,5.7E1,5.7E1,-7.460164E-2,-5.2619535E-2,-1.980499E-2,-4.409492E-2,-6.436295E-2,-3.8884457E-2,1.3318594E-2,-3.3536505E-2,2.4718652E-2,-1.9104438E-2,-6.02857E-2,-1.0732207E-2,9.553969E-3,-1.08351685E-1,3.2020397E-2,7.0250123E-3,5.0653934E-2,2.7953623E-2,1.3049367E-2,-4.1540753E-2,-1.9160329E-4,4.2368613E-2,6.321331E-2,4.5547843E-2],"split_indices":[5,5,0,0,0,0,3,0,3,0,5,0,3,6,6,5,5,5,3,0,5,0,3,0,5,6,5,5,6,5,6,0,0,0,0,0,0,0,0,0,0,0,0,0,0,0,0,0,0,0,0,0,0,0,0,0,0],"split_type":[0,0,0,0,0,0,0,0,0,0,0,0,0,0,0,0,0,0,0,0,0,0,0,0,0,0,0,0,0,0,0,0,0,0,0,0,0,0,0,0,0,0,0,0,0,0,0,0,0,0,0,0,0,0,0,0,0],"sum_hessian":[2.3307463E3,2.0897866E3,2.4095973E2,2.6282117E2,1.8269655E3,4.142299E2,1.4127356E3,1.6416537E2,2.5006453E2,1.0009404E3,4.1179514E2,3.886937E1,1.25296E2,1.4958565E2,1.00478874E2,3.8894067E2,6.1199976E2,2.564737E2,1.5532143E2,3.9154064E1,8.614193E1,6.2860733E1,8.6724915E1,3.773306E1,6.274582E1,1.7990015E2,2.0904053E2,3.9100986E2,2.2098988E2,1.9130658E2,6.5167114E1,1.01086266E2,5.423516E1,5.7536488E1,2.8605446E1,3.5404545E1,2.7456188E1,4.1149826E1,4.5575092E1,3.1159958E1,3.1585861E1,8.329392E1,9.6606224E1,7.077425E1,1.382663E2,3.5396707E2,3.7042793E1,1.0646776E2,1.14522125E2,4.813026E1,1.4317632E2,2.699701E1,3.81701E1,3.2238747E1,6.884752E1,2.6530764E1,2.7704397E1],"tree_param":{"num_deleted":"0","num_feature":"15","num_nodes":"57","size_leaf_vector":"1"}},{"base_weights":[-1.7793661E-2,-1.5378521E-1,1.1737653E-1,-1.0123994E-1,-1.7513447E-2,-6.359464E-1,4.055616E-2,-8.372908E-2,-5.6480414E-1,-1.18146636E-1,9.9369906E-2,-6.344468E-2,-3.8955867E-2,-1.8734492E-1,4.620741E-2,5.711749E-2,1.4125559E-1,-2.6648882E-1,-1.4459035E-1,2.4726935E-2,3.3893088E-1,1.8129796E-1,4.6048384E-2,-1.6166158E-2,-3.336503E-2,4.7605755E-3,-1.7433345E-2,-1.5128927E-3,1.9337786E-2,1.1844198E-2,5.73557E-2,1.3868235E-2,2.411175E-2,2.572172E-2,-4.1027684E-3],"categories":[],"categories_nodes":[],"categories_segments":[],"categories_sizes":[],"default_left":[0,0,0,0,0,0,0,0,0,0,0,0,0,0,0,0,0,0,0,0,0,0,0,0,0,0,0,0,0,0,0,0,0,0,0],"id":26,"left_children":[1,3,-1,-1,5,7,9,-1,11,13,15,-1,-1,17,-1,19,21,23,25,27,29,31,33,-1,-1,-1,-1,-1,-1,-1,-1,-1,-1,-1,-1],"loss_changes":[3.7072934E2,2.4023784E2,0E0,0E0,6.3703163E1,1.7081261E0,1.5150213E1,0E0,1.1634712E0,1.7712252E1,2.08714E0,0E0,0E0,1.2910423E0,0E0,5.3867054E0,2.255579E0,9.07979E-1,1.4791493E0,3.5734513E0,3.0800095E0,1.031353E0,3.2680507E0,0E0,0E0,0E0,0E0,0E0,0E0,0E0,0E0,0E0,0E0,0E0,0E0],"parents":[2147483647,0,0,1,1,4,4,5,5,6,6,8,8,9,9,10,10,13,13,15,15,16,16,17,17,18,18,19,19,20,20,21,21,22,22],"right_children":[2,4,-1,-1,6,8,10,-1,12,14,16,-1,-1,18,-1,20,22,24,26,28,30,32,34,-1,-1,-1,-1,-1,-1,-1,-1,-1,-1,-1,-1],"split_conditions":[6.8E0,5.7E0,1.1737653E-1,-1.0123994E-1,2.8E1,1E1,5.1E1,-8.372908E-2,6.5E0,1E0,6.6E1,-6.344468E-2,-3.8955867E-2,3.9E1,4.620741E-2,1E0,8E1,1E0,4.1E1,1E0,6.2E0,7.3E1,6E0,-1.6166158E-2,-3.336503E-2,4.7605755E-3,-1.7433345E-2,-1.5128927E-3,1.9337786E-2,1.1844198E-2,5.73557E-2,1.3868235E-2,2.411175E-2,2.572172E-2,-4.1027684E-3],"split_indices":[4,4,0,0,0,0,0,0,4,1,0,0,0,0,0,2,0,6,0,1,4,0,4,0,0,0,0,0,0,0,0,0,0,0,0],"split_type":[0,0,0,0,0,0,0,0,0,0,0,0,0,0,0,0,0,0,0,0,0,0,0,0,0,0,0,0,0,0,0,0,0,0,0],"sum_hessian":[2.2857466E3,2.052381E3,2.3336548E2,2.8023865E2,1.7721426E3,1.5126291E2,1.6208796E3,3.6680817E1,1.1458209E2,4.379928E2,1.1828868E3,8.012145E1,3.446064E1,3.919278E2,4.606498E1,5.900421E2,5.928448E2,1.3562906E2,2.5629874E2,5.3019165E2,5.9850464E1,4.166889E2,1.7615588E2,5.4293503E1,8.133555E1,3.4267307E1,2.2203145E2,4.2958234E2,1.0060931E2,3.1630577E1,2.8219887E1,2.452736E2,1.714153E2,5.0860287E1,1.2529559E2],"tree_param":{"num_deleted":"0","num_feature":"15","num_nodes":"35","size_leaf_vector":"1"}},{"base_weights":[-1.937256E-2,-1.5597545E-1,1.2539116E0,-2.7645436E-1,1.18088976E-1,1.3097988E-1,1.0416819E-1,-1.0104825E-1,-1.5915349E-1,-1.0231352E-1,-4.8368335E-2,9.518849E-3,-2.6701525E-1,-3.6092367E-2,1.8459369E-1,-3.0037493E-1,6.5131932E-3,-1.0902828E-2,9.139157E-3,2.8234342E-2,4.8461645E-3,-7.0008794E-3,-3.4168914E-2],"categories":[],"categories_nodes":[],"categories_segments":[],"categories_sizes":[],"default_left":[0,0,0,0,0,0,0,0,0,0,0,0,0,0,0,0,0,0,0,0,0,0,0],"id":27,"left_children":[1,3,5,7,-1,-1,-1,-1,9,-1,11,13,15,17,19,21,-1,-1,-1,-1,-1,-1,-1],"loss_changes":[3.8749127E2,3.2435944E2,1.1958313E0,1.5881117E2,0E0,0E0,0E0,0E0,1.5243713E2,0E0,1.7887913E1,8.936372E0,3.2975655E0,8.266482E0,3.0639858E0,2.536415E0,0E0,0E0,0E0,0E0,0E0,0E0,0E0],"parents":[2147483647,0,0,1,1,2,2,3,3,8,8,10,10,11,11,12,12,13,13,14,14,15,15],"right_children":[2,4,6,8,-1,-1,-1,-1,10,-1,12,14,16,18,20,22,-1,-1,-1,-1,-1,-1,-1],"split_conditions":[2.2E2,6.8E0,6.8E0,5.7E0,1.18088976E-1,1.3097988E-1,1.0416819E-1,-1.0104825E-1,1.26E2,-1.0231352E-1,1E0,1E0,1E0,1.59E2,1.58E2,5.8E0,6.5131932E-3,-1.0902828E-2,9.139157E-3,2.8234342E-2,4.8461645E-3,-7.0008794E-3,-3.4168914E-2],"split_indices":[5,4,4,4,0,0,0,0,5,0,9,1,2,5,5,4,0,0,0,0,0,0,0],"split_type":[0,0,0,0,0,0,0,0,0,0,0,0,0,0,0,0,0,0,0,0,0,0,0],"sum_hessian":[2.2256782E3,2.0108265E3,2.1485179E2,1.8453187E3,1.6550778E2,1.6597375E2,4.887803E1,2.5320917E2,1.5921095E3,1.8001202E2,1.4120975E3,1.1172578E3,2.9483966E2,8.869737E2,2.3028416E2,2.6801666E2,2.6822987E1,5.6428217E2,3.226915E2,1.3341289E2,9.687128E1,4.116683E1,2.2684985E2],"tree_param":{"num_deleted":"0","num_feature":"15","num_nodes":"23","size_leaf_vector":"1"}},{"base_weights":[-1.3327313E-2,-1.4191881E-1,1.22655E-1,-1.0170986E-1,-3.583999E-2,-5.6275326E-1,3.269887E-2,-9.304531E-2,-4.9022722E-1,-8.251561E-2,1.6546929E-1,-5.6953186E-1,-3.4256917E-1,-2.3187819E-1,3.288594E-2,2.5890037E-1,4.2291563E-2,-4.5944743E-2,-6.1077785E-1,-1.3494017E-2,-5.003363E-2,-2.8012106E-1,1.4786082E-2,-6.1355565E-2,2.0008972E-1,2.0715201E-1,5.2500415E-1,-1.1200857E-1,2.3425928E-1,-6.655325E-2,-4.818151E-2,-4.1276455E-2,-1.849E-2,3.8004133E-3,-3.3977862E-2,3.4447115E-2,6.982311E-3,1.237309E-3,2.9809242E-2,4.319458E-2,6.34497E-2,1.5727412E-2,5.074965E-2],"categories":[],"categories_nodes":[],"categories_segments":[],"categories_sizes":[],"default_left":[0,0,0,0,0,0,0,0,0,0,0,0,0,0,0,0,0,0,0,0,0,0,0,0,0,0,0,0,0,0,0,0,0,0,0,0,0,0,0,0,0,0,0],"id":28,"left_children":[1,3,-1,-1,5,7,9,-1,11,13,15,17,19,21,23,25,27,-1,29,-1,-1,31,-1,33,35,37,39,-1,41,-1,-1,-1,-1,-1,-1,-1,-1,-1,-1,-1,-1,-1,-1],"loss_changes":[3.4405743E2,1.8146875E2,0E0,0E0,6.3028633E1,4.9009857E0,2.364571E1,0E0,1.7944412E0,1.4275948E1,8.253233E0,2.144165E-1,1.9593577E0,6.6535225E0,7.384596E0,5.511713E0,6.964323E1,0E0,2.1793365E-1,0E0,0E0,3.9728718E0,0E0,8.311535E0,3.152278E0,6.078274E0,3.963642E-1,0E0,5.5510187E0,0E0,0E0,0E0,0E0,0E0,0E0,0E0,0E0,0E0,0E0,0E0,0E0,0E0,0E0],"parents":[2147483647,0,0,1,1,4,4,5,5,6,6,8,8,9,9,10,10,11,11,12,12,13,13,14,14,15,15,16,16,18,18,21,21,23,23,24,24,25,25,26,26,28,28],"right_children":[2,4,-1,-1,6,8,10,-1,12,14,16,18,20,22,24,26,28,-1,30,-1,-1,32,-1,34,36,38,40,-1,42,-1,-1,-1,-1,-1,-1,-1,-1,-1,-1,-1,-1,-1,-1],"split_conditions":[2.2E2,1.26E2,1.22655E-1,-1.0170986E-1,3.2E1,9E0,2.919E1,-9.304531E-2,2.7E1,6.1E1,1.58E2,2.265E1,1.55E2,1E0,1.59E2,4.228E1,1.59E2,-4.5944743E-2,1.59E2,-1.3494017E-2,-5.003363E-2,2.719E1,1.4786082E-2,1.55E2,1E0,5.4E1,1E0,-1.1200857E-1,7E1,-6.655325E-2,-4.818151E-2,-4.1276455E-2,-1.849E-2,3.8004133E-3,-3.3977862E-2,3.4447115E-2,6.982311E-3,1.237309E-3,2.9809242E-2,4.319458E-2,6.34497E-2,1.5727412E-2,5.074965E-2],"split_indices":[5,5,0,0,0,0,3,0,0,0,5,3,5,1,5,3,5,0,5,0,0,3,0,5,6,0,13,0,0,0,0,0,0,0,0,0,0,0,0,0,0,0,0],"split_type":[0,0,0,0,0,0,0,0,0,0,0,0,0,0,0,0,0,0,0,0,0,0,0,0,0,0,0,0,0,0,0,0,0,0,0,0,0,0,0,0,0,0,0],"sum_hessian":[2.1558516E3,1.954074E3,2.017775E2,2.1031647E2,1.7437576E3,1.9988329E2,1.5438743E3,3.0981415E1,1.6890187E2,8.267886E2,7.1708563E2,1.0802591E2,6.0875973E1,3.5992868E2,4.668599E2,4.071545E2,3.0993112E2,3.275171E1,7.52742E1,2.7085493E1,3.3790478E1,3.1958966E2,4.033902E1,2.9897876E2,1.6788113E2,3.4235605E2,6.4798454E1,4.3245003E1,2.6668613E2,4.9919056E1,2.5355145E1,1.32158E2,1.8743167E2,2.209815E2,7.799727E1,7.884675E1,8.903439E1,1.0932868E2,2.3302736E2,3.770112E1,2.7097338E1,2.0929297E2,5.739315E1],"tree_param":{"num_deleted":"0","num_feature":"15","num_nodes":"43","size_leaf_vector":"1"}},{"base_weights":[-1.6509354E-2,-1.3136792E-1,1.1392938E-1,-1.00853816E-1,-1.6166106E-2,-1.2360604E-1,1.5870526E-1,-4.6477368E-1,-9.3548276E-2,2.5530747E-1,8.215972E-2,-3.1570238E-1,-7.094027E-2,-1.9581924E-1,-4.7671404E-2,1.5268523E-1,4.585329E-1,5.624996E-2,2.9329777E-2,-2.3651343E-2,-3.8339984E-2,-6.5673715E-3,-3.4443572E-1,1.149834E-2,-1.2551853E-1,3.0894935E-1,3.1682543E-2,3.5906768E-1,6.354324E-2,-1.7109213E-2,1.2888409E-1,1.3548033E-2,-1.5425424E-2,-1.9568171E-2,-3.9887924E-2,-2.9603543E-3,3.70464E-2,-8.187051E-3,-2.4020676E-2,3.7987676E-2,1.4298859E-2,-7.996573E-3,1.1399525E-2,5.7042684E-2,1.265942E-2,-5.315048E-3,1.3530335E-2,1.8794471E-2,4.6710162E-3],"categories":[],"categories_nodes":[],"categories_segments":[],"categories_sizes":[],"default_left":[0,0,0,0,0,0,0,0,0,0,0,0,0,0,0,0,0,0,0,0,0,0,0,0,0,0,0,0,0,0,0,0,0,0,0,0,0,0,0,0,0,0,0,0,0,0,0,0,0],"id":29,"left_children":[1,3,-1,-1,5,7,9,11,13,15,17,19,-1,21,23,25,27,29,-1,-1,-1,31,33,35,37,39,41,43,-1,45,47,-1,-1,-1,-1,-1,-1,-1,-1,-1,-1,-1,-1,-1,-1,-1,-1,-1,-1],"loss_changes":[2.7906015E2,1.9318872E2,0E0,0E0,3.1790562E1,1.0703684E1,4.74098E0,2.861349E0,4.5155716E0,5.857561E0,1.9570935E0,2.008028E-1,0E0,8.388487E0,3.074171E0,3.5895133E0,1.4410477E0,1.7209922E0,0E0,0E0,0E0,2.7951775E0,1.2751122E0,5.6164556E0,1.4228396E0,9.222059E-1,1.0052819E0,3.0244427E0,0E0,8.9360833E-1,7.784381E-1,0E0,0E0,0E0,0E0,0E0,0E0,0E0,0E0,0E0,0E0,0E0,0E0,0E0,0E0,0E0,0E0,0E0,0E0],"parents":[2147483647,0,0,1,1,4,4,5,5,6,6,7,7,8,8,9,9,10,10,11,11,13,13,14,14,15,15,16,16,17,17,21,21,22,22,23,23,24,24,25,25,26,26,27,27,29,29,30,30],"right_children":[2,4,-1,-1,6,8,10,12,14,16,18,20,-1,22,24,26,28,30,-1,-1,-1,32,34,36,38,40,42,44,-1,46,48,-1,-1,-1,-1,-1,-1,-1,-1,-1,-1,-1,-1,-1,-1,-1,-1,-1,-1],"split_conditions":[6.8E0,5.7E0,1.1392938E-1,-1.00853816E-1,3.067E1,2.103E1,6.1E0,1E0,2.654E1,3.824E1,1E0,1.969E1,-7.094027E-2,1E0,6.2E0,3.312E1,4.486E1,6.5E0,2.9329777E-2,-2.3651343E-2,-3.8339984E-2,2.471E1,2.285E1,1E0,1E0,6E0,3.487E1,4.104E1,6.354324E-2,4.228E1,3.667E1,1.3548033E-2,-1.5425424E-2,-1.9568171E-2,-3.9887924E-2,-2.9603543E-3,3.70464E-2,-8.187051E-3,-2.4020676E-2,3.7987676E-2,1.4298859E-2,-7.996573E-3,1.1399525E-2,5.7042684E-2,1.265942E-2,-5.315048E-3,1.3530335E-2,1.8794471E-2,4.6710162E-3],"split_indices":[4,4,0,0,3,3,4,9,3,3,10,3,0,6,4,3,3,4,0,0,0,3,3,10,9,4,3,3,0,3,3,0,0,0,0,0,0,0,0,0,0,0,0,0,0,0,0,0,0],"split_type":[0,0,0,0,0,0,0,0,0,0,0,0,0,0,0,0,0,0,0,0,0,0,0,0,0,0,0,0,0,0,0,0,0,0,0,0,0,0,0,0,0,0,0,0,0,0,0,0,0],"sum_hessian":[2.099959E3,1.9109443E3,1.8901479E2,2.209362E2,1.690008E3,1.047019E3,6.429891E2,8.36051E1,9.634139E2,2.8322165E2,3.5976746E2,5.3371975E1,3.0233128E1,2.973278E2,6.660861E2,1.8935489E2,9.386676E1,3.215722E2,3.8195248E1,2.6669302E1,2.6702675E1,1.3124341E2,1.660844E2,3.7892587E2,2.8716025E2,8.195897E1,1.0739591E2,6.202293E1,3.1843834E1,1.6036792E2,1.6120428E2,6.694104E1,6.430236E1,4.5730602E1,1.2035379E2,3.4081927E2,3.810658E1,2.0924115E2,7.791908E1,5.651636E1,2.544261E1,4.5588524E1,6.180739E1,3.1725325E1,3.0297604E1,1.3022472E2,3.0143194E1,9.304394E1,6.816035E1],"tree_param":{"num_deleted":"0","num_feature":"15","num_nodes":"49","size_leaf_vector":"1"}},{"base_weights":[-8.604317E-3,-1.2560448E-1,1.2070982E0,-2.273109E-1,1.14392176E-1,1.24719284E-1,1.0165268E-1,-1.0068703E-1,-1.2516055E-1,-1.0171869E-1,-2.9253853E-2,-5.8112955E-1,1.2749558E-2,-7.9020776E-2,-4.9425107E-1,8.491193E-2,-8.163783E-2,-6.2248837E-2,-3.22472E-2,-3.7076633E-4,1.9051572E-2,-1.0930097E-1,1.0254913E-2],"categories":[],"categories_nodes":[],"categories_segments":[],"categories_sizes":[],"default_left":[0,0,0,0,0,0,0,0,0,0,0,0,0,0,0,0,0,0,0,0,0,0,0],"id":30,"left_children":[1,3,5,7,-1,-1,-1,-1,9,-1,11,13,15,-1,17,19,21,-1,-1,-1,-1,-1,-1],"loss_changes":[2.9364935E2,2.4341547E2,1.1709595E-1,1.3878008E2,0E0,0E0,0E0,0E0,1.3200975E2,0E0,3.2335052E1,1.4014893E0,8.84066E0,0E0,1.3933868E0,6.8838687E0,1.0488514E2,0E0,0E0,0E0,0E0,0E0,0E0],"parents":[2147483647,0,0,1,1,2,2,3,3,8,8,10,10,11,11,12,12,14,14,15,15,16,16],"right_children":[2,4,6,8,-1,-1,-1,-1,10,-1,12,14,16,-1,18,20,22,-1,-1,-1,-1,-1,-1],"split_conditions":[2.2E2,6.8E0,6.8E0,5.7E0,1.14392176E-1,1.24719284E-1,1.0165268E-1,-1.0068703E-1,1.26E2,-1.0171869E-1,2.8E1,1.2E1,1.58E2,-7.9020776E-2,6.2E0,1E0,1.59E2,-6.2248837E-2,-3.22472E-2,-3.7076633E-4,1.9051572E-2,-1.0930097E-1,1.0254913E-2],"split_indices":[5,4,4,4,0,0,0,0,5,0,0,0,5,0,4,7,5,0,0,0,0,0,0],"split_type":[0,0,0,0,0,0,0,0,0,0,0,0,0,0,0,0,0,0,0,0,0,0,0],"sum_hessian":[2.062436E3,1.8821893E3,1.802467E2,1.7433446E3,1.388448E2,1.443352E2,3.59115E1,2.0094884E2,1.5423958E3,1.4880035E2,1.3935955E3,9.765731E1,1.2959381E3,2.6290974E1,7.136634E1,7.3449335E2,5.6144476E2,3.9359627E1,3.2006714E1,3.998858E2,3.346075E2,8.573563E1,4.7570914E2],"tree_param":{"num_deleted":"0","num_feature":"15","num_nodes":"23","size_leaf_vector":"1"}},{"base_weights":[-9.73517E-3,-1.17047645E-1,1.18332826E-1,-2.0978343E-1,1.1274922E-1,-1.0052498E-1,-1.1392906E-1,-1.01402774E-1,-2.6688214E-2,-5.6751335E-1,1.228636E-2,-4.2662525E-1,-7.404774E-2,-8.609636E-2,1.589063E-1,-2.8561054E-2,-5.386075E-2,-1.7166412E-2,2.5401365E-3,2.359867E-2,5.7005393E-3],"categories":[],"categories_nodes":[],"categories_segments":[],"categories_sizes":[],"default_left":[0,0,0,0,0,0,0,0,0,0,0,0,0,0,0,0,0,0,0,0,0],"id":31,"left_children":[1,3,-1,5,-1,-1,7,-1,9,11,13,15,-1,17,19,-1,-1,-1,-1,-1,-1],"loss_changes":[2.5610577E2,2.1204184E2,0E0,1.3017714E2,0E0,0E0,1.1981291E2,0E0,2.9354671E1,1.9653149E0,1.876163E1,6.980953E-1,0E0,7.4311695E0,4.088629E0,0E0,0E0,0E0,0E0,0E0,0E0],"parents":[2147483647,0,0,1,1,3,3,6,6,8,8,9,9,10,10,11,11,13,13,14,14],"right_children":[2,4,-1,6,-1,-1,8,-1,10,12,14,16,-1,18,20,-1,-1,-1,-1,-1,-1],"split_conditions":[2.2E2,6.8E0,1.18332826E-1,5.7E0,1.1274922E-1,-1.0052498E-1,1.26E2,-1.01402774E-1,2.8E1,1E0,3.08E1,2.598E1,-7.404774E-2,6.6E1,1.58E2,-2.8561054E-2,-5.386075E-2,-1.7166412E-2,2.5401365E-3,2.359867E-2,5.7005393E-3],"split_indices":[5,4,0,4,0,0,5,0,0,9,3,3,0,0,5,0,0,0,0,0,0],"split_type":[0,0,0,0,0,0,0,0,0,0,0,0,0,0,0,0,0,0,0,0,0],"sum_hessian":[1.9982664E3,1.8341885E3,1.6407785E2,1.7077672E3,1.2642134E2,1.8263637E2,1.5251309E3,1.3382117E2,1.3913097E3,9.26133E1,1.2986963E3,5.2949654E1,3.9663647E1,7.774418E2,5.212546E2,2.5008255E1,2.7941397E1,4.3956366E2,3.378781E2,2.9602103E2,2.2523352E2],"tree_param":{"num_deleted":"0","num_feature":"15","num_nodes":"21","size_leaf_vector":"1"}},{"base_weights":[-1.1114557E-2,-1.0202134E-1,1.09731846E-1,-1.0036465E-1,-1.0470509E-2,-4.0932506E-1,3.838993E-2,-6.978653E-2,-3.3037305E-1,-1.5046838E-1,8.2883164E-2,-4.701269E-2,-2.693526E-1,-2.891673E-1,-9.306603E-3,-3.7189655E-2,1.1596598E-1,-1.4188512E-2,-3.2192314E-1,-1.1243005E-1,-4.005794E-1,-1.6557173E-1,1.5415275E-1,-1.0622567E-1,3.9454725E-2,9.764168E-2,3.242199E-1,-5.0647087E-2,-1.8412804E-2,7.962494E-3,-3.0851642E-2,-5.2348282E-2,-2.3618333E-2,-2.498731E-3,-4.0836487E-2,2.5924018E-2,-1.8581692E-3,-2.78923E-2,-1.2618011E-5,2.4515516E-3,1.3574498E-2,4.699672E-2,2.1045117E-2],"categories":[],"categories_nodes":[],"categories_segments":[],"categories_sizes":[],"default_left":[0,0,0,0,0,0,0,0,0,0,0,0,0,0,0,0,0,0,0,0,0,0,0,0,0,0,0,0,0,0,0,0,0,0,0,0,0,0,0,0,0,0,0],"id":32,"left_children":[1,3,-1,-1,5,7,9,-1,11,13,15,-1,17,19,21,23,25,-1,27,29,31,33,35,37,-1,39,41,-1,-1,-1,-1,-1,-1,-1,-1,-1,-1,-1,-1,-1,-1,-1,-1],"loss_changes":[1.9633311E2,1.4862286E2,0E0,0E0,3.1892033E1,3.837906E0,1.2264602E1,0E0,1.0853615E0,5.4474726E0,4.6945133E0,0E0,6.329303E-1,2.7190523E0,3.5758066E0,7.666142E0,3.5017242E0,0E0,1.7099862E0,2.1209116E0,1.6081104E0,2.431738E0,1.2473422E0,4.0553045E0,0E0,2.3719254E0,1.1356091E0,0E0,0E0,0E0,0E0,0E0,0E0,0E0,0E0,0E0,0E0,0E0,0E0,0E0,0E0,0E0,0E0],"parents":[2147483647,0,0,1,1,4,4,5,5,6,6,8,8,9,9,10,10,12,12,13,13,14,14,15,15,16,16,18,18,19,19,20,20,21,21,22,22,23,23,25,25,26,26],"right_children":[2,4,-1,-1,6,8,10,-1,12,14,16,-1,18,20,22,24,26,-1,28,30,32,34,36,38,-1,40,42,-1,-1,-1,-1,-1,-1,-1,-1,-1,-1,-1,-1,-1,-1,-1,-1],"split_conditions":[6.8E0,5.7E0,1.09731846E-1,-1.0036465E-1,3.4E1,1.4E1,2.654E1,-6.978653E-2,6E0,6.6E1,5E1,-4.701269E-2,2.509E1,1E0,2.409E1,1E0,4.164E1,-1.4188512E-2,2.7E1,2.471E1,6.2E0,2.285E1,2.572E1,2.899E1,3.9454725E-2,6.1E1,5.9E1,-5.0647087E-2,-1.8412804E-2,7.962494E-3,-3.0851642E-2,-5.2348282E-2,-2.3618333E-2,-2.498731E-3,-4.0836487E-2,2.5924018E-2,-1.8581692E-3,-2.78923E-2,-1.2618011E-5,2.4515516E-3,1.3574498E-2,4.699672E-2,2.1045117E-2],"split_indices":[4,4,0,0,0,0,3,0,4,0,0,0,3,6,3,1,3,0,0,3,4,3,3,3,0,0,0,0,0,0,0,0,0,0,0,0,0,0,0,0,0,0,0],"split_type":[0,0,0,0,0,0,0,0,0,0,0,0,0,0,0,0,0,0,0,0,0,0,0,0,0,0,0,0,0,0,0,0,0,0,0,0,0,0,0,0,0,0,0],"sum_hessian":[1.9463325E3,1.7996448E3,1.4668771E2,1.6497266E2,1.6346721E3,1.7759138E2,1.4570807E3,3.6469574E1,1.4112181E2,2.7736807E2,1.1797126E3,4.085288E1,1.00268936E2,1.3937563E2,1.3799243E2,2.5480037E2,9.249123E2,3.0358295E1,6.9910645E1,5.4665997E1,8.470963E1,7.0542114E1,6.745032E1,2.2032388E2,3.4476486E1,8.5146094E2,7.345136E1,2.8741661E1,4.116898E1,2.7916939E1,2.6749058E1,4.7221954E1,3.7487675E1,4.537282E1,2.5169294E1,4.1625546E1,2.5824772E1,8.322701E1,1.3709686E2,2.9224356E2,5.592174E2,3.0827658E1,4.2623703E1],"tree_param":{"num_deleted":"0","num_feature":"15","num_nodes":"43","size_leaf_vector":"1"}},{"base_weights":[-3.214919E-3,-8.654629E-2,1.0865649E-1,-1.0021039E-1,-1.6430707E-3,-5.212175E-1,3.2450106E-2,-3.849513E-1,-6.8338126E-2,-1.6693541E-1,8.1160896E-2,-5.6637246E-2,-1.5907688E-2,-3.4029552E-1,-6.097616E-2,3.2804243E-2,1.782357E-1,-4.531605E-2,-2.4522975E-1,-3.3597276E-2,-1.1351998E-2,-1.7428483E-1,7.194252E-2,1.4337897E-1,3.3272275E-1,-6.6090175E-3,-4.479676E-2,2.0671712E-2,-6.971419E-3,-7.940764E-3,-3.0073276E-2,1.2901301E-2,-2.748421E-4,1.7411318E-2,-4.0290738E-3,1.9933295E-2,5.0835162E-2],"categories":[],"categories_nodes":[],"categories_segments":[],"categories_sizes":[],"default_left":[0,0,0,0,0,0,0,0,0,0,0,0,0,0,0,0,0,0,0,0,0,0,0,0,0,0,0,0,0,0,0,0,0,0,0,0,0],"id":33,"left_children":[1,3,-1,-1,5,7,9,11,-1,13,15,-1,-1,17,19,21,23,-1,25,-1,27,29,31,33,35,-1,-1,-1,-1,-1,-1,-1,-1,-1,-1,-1,-1],"loss_changes":[1.7334698E2,1.3783656E2,0E0,0E0,2.8779549E1,1.9476242E0,1.4821639E1,2.2314186E0,0E0,5.484126E0,5.74928E0,0E0,0E0,1.106307E0,2.551025E0,6.6553054E0,2.1462507E0,0E0,2.2863572E0,0E0,2.0460415E0,1.5425172E0,2.9416335E0,1.8934417E0,1.6380577E0,0E0,0E0,0E0,0E0,0E0,0E0,0E0,0E0,0E0,0E0,0E0,0E0],"parents":[2147483647,0,0,1,1,4,4,5,5,6,6,7,7,9,9,10,10,13,13,14,14,15,15,16,16,18,18,20,20,21,21,22,22,23,23,24,24],"right_children":[2,4,-1,-1,6,8,10,12,-1,14,16,-1,-1,18,20,22,24,-1,26,-1,28,30,32,34,36,-1,-1,-1,-1,-1,-1,-1,-1,-1,-1,-1,-1],"split_conditions":[6.8E0,5.7E0,1.0865649E-1,-1.0021039E-1,2.7E1,1E0,2.662E1,6.2E0,-6.8338126E-2,5.9E1,3.383E1,-5.6637246E-2,-1.5907688E-2,6.1E0,2.114E1,4.6E1,6.9E1,-4.531605E-2,1E0,-3.3597276E-2,2.294E1,6.2E0,6.2E0,6.6E0,1E0,-6.6090175E-3,-4.479676E-2,2.0671712E-2,-6.971419E-3,-7.940764E-3,-3.0073276E-2,1.2901301E-2,-2.748421E-4,1.7411318E-2,-4.0290738E-3,1.9933295E-2,5.0835162E-2],"split_indices":[4,4,0,0,0,9,3,4,0,0,3,0,0,4,3,0,0,0,13,0,3,4,4,4,13,0,0,0,0,0,0,0,0,0,0,0,0],"split_type":[0,0,0,0,0,0,0,0,0,0,0,0,0,0,0,0,0,0,0,0,0,0,0,0,0,0,0,0,0,0,0,0,0,0,0,0,0],"sum_hessian":[1.9068021E3,1.7722086E3,1.3459355E2,1.4948013E2,1.6227284E3,9.904289E1,1.5236855E3,5.5652184E1,4.3390705E1,2.9868118E2,1.2250044E3,3.0027103E1,2.562508E1,1.12465164E2,1.8621602E2,8.1857764E2,4.0642673E2,4.96968E1,6.276836E1,2.7584393E1,1.5863164E2,1.295655E2,6.8901215E2,3.3317987E2,7.3246864E1,3.4027546E1,2.8740816E1,3.2954784E1,1.2567685E2,7.495373E1,5.4611774E1,3.9016458E2,2.9884753E2,2.8546402E2,4.7715836E1,4.2842796E1,3.0404066E1],"tree_param":{"num_deleted":"0","num_feature":"15","num_nodes":"37","size_leaf_vector":"1"}},{"base_weights":[-1.81041E-2,-1.2053919E-1,1.1709487E-1,-1.9439462E-1,1.0882326E-1,-1.01037934E-1,-1.1387455E-1,-9.998614E-2,-4.21136E-2,-5.582939E-1,-1.2507711E-2,-6.5532476E-2,-3.9819133E-2,-7.576527E-2,9.538666E-2,3.077177E-3,-1.0826186E-1,-5.9436454E-4,1.7117409E-2],"categories":[],"categories_nodes":[],"categories_segments":[],"categories_sizes":[],"default_left":[0,0,0,0,0,0,0,0,0,0,0,0,0,0,0,0,0,0,0],"id":34,"left_children":[1,3,-1,5,-1,-1,7,-1,9,11,13,-1,-1,15,17,-1,-1,-1,-1],"loss_changes":[2.2930858E2,1.5493918E2,0E0,1.0725832E2,0E0,0E0,9.4599976E1,0E0,2.1052786E1,8.9998436E-1,8.909582E0,0E0,0E0,8.829492E1,3.706624E0,0E0,0E0,0E0,0E0],"parents":[2147483647,0,0,1,1,3,3,6,6,8,8,9,9,10,10,13,13,14,14],"right_children":[2,4,-1,6,-1,-1,8,-1,10,12,14,-1,-1,16,18,-1,-1,-1,-1],"split_conditions":[2.2E2,6.8E0,1.1709487E-1,1.26E2,1.0882326E-1,-1.01037934E-1,5.7E0,-9.998614E-2,2.7E1,1E0,1.59E2,-6.5532476E-2,-3.9819133E-2,1.58E2,5.9E1,3.077177E-3,-1.0826186E-1,-5.9436454E-4,1.7117409E-2],"split_indices":[5,4,0,5,0,0,4,0,0,13,5,0,0,5,0,0,0,0,0],"split_type":[0,0,0,0,0,0,0,0,0,0,0,0,0,0,0,0,0,0,0],"sum_hessian":[1.880495E3,1.7321698E3,1.4832518E2,1.63322E3,9.8949844E1,1.4565135E2,1.4875686E3,1.1048966E2,1.377079E3,7.373027E1,1.3033486E3,4.3981766E1,2.97485E1,8.218202E2,4.8152847E2,