{"learner":{"attributes":{"best_iteration":"122","best_score":"0.08058665951900958"},"feature_names":[],"feature_types":[],"gradient_booster":{"model":{"gbtree_model_param":{"num_parallel_tree":"1","num_trees":"173"},"iteration_indptr":[0,1,2,3,4,5,6,7,8,9,10,11,12,13,14,15,16,17,18,19,20,21,22,23,24,25,26,27,28,29,30,31,32,33,34,35,36,37,38,39,40,41,42,43,44,45,46,47,48,49,50,51,52,53,54,55,56,57,58,59,60,61,62,63,64,65,66,67,68,69,70,71,72,73,74,75,76,77,78,79,80,81,82,83,84,85,86,87,88,89,90,91,92,93,94,95,96,97,98,99,100,101,102,103,104,105,106,107,108,109,110,111,112,113,114,115,116,117,118,119,120,121,122,123,124,125,126,127,128,129,130,131,132,133,134,135,136,137,138,139,140,141,142,143,144,145,146,147,148,149,150,151,152,153,154,155,156,157,158,159,160,161,162,163,164,165,166,167,168,169,170,171,172,173],"tree_info":[0,0,0,0,0,0,0,0,0,0,0,0,0,0,0,0,0,0,0,0,0,0,0,0,0,0,0,0,0,0,0,0,0,0,0,0,0,0,0,0,0,0,0,0,0,0,0,0,0,0,0,0,0,0,0,0,0,0,0,0,0,0,0,0,0,0,0,0,0,0,0,0,0,0,0,0,0,0,0,0,0,0,0,0,0,0,0,0,0,0,0,0,0,0,0,0,0,0,0,0,0,0,0,0,0,0,0,0,0,0,0,0,0,0,0,0,0,0,0,0,0,0,0,0,0,0,0,0,0,0,0,0,0,0,0,0,0,0,0,0,0,0,0,0,0,0,0,0,0,0,0,0,0,0,0,0,0,0,0,0,0,0,0,0,0,0,0,0,0,0,0,0,0],"trees":[{"base_weights":[-1.3983494E-7,-4.7575235E-1,8.778165E-1,-7.0890445E-1,8.725968E-1,-7.9090214E-1,1.2087148E0,-1.0818228E0,-4.7145104E-1,-8.029132E-2,1.9689833E0,-8.193106E-2,-8.053787E-1,-8.202612E-1,3.2942212E-1,1.4503672E0,3.4394243E0,-8.061755E-2,-1.888229E-2,-6.5515384E-2,2.0214546E-2,-4.670831E-3,1.2845658E-1,9.486351E-2,2.6118672E-1,5.9806235E-2,2.9776192E-1],"categories":[],"categories_nodes":[],"categories_segments":[],"categories_sizes":[],"default_left":[0,0,0,0,0,0,0,0,0,0,0,0,0,0,0,0,0,0,0,0,0,0,0,0,0,0,0],"id":0,"left_children":[1,3,-1,5,-1,7,9,11,13,-1,15,-1,17,19,21,23,25,-1,-1,-1,-1,-1,-1,-1,-1,-1,-1],"loss_changes":[2.772795E4,1.3519252E4,0E0,7.3930176E2,0E0,4.1804175E2,3.3645984E2,6.0195312E0,6.0042236E2,0E0,1.0561774E2,0E0,1.327066E1,8.7143616E1,3.5367596E2,3.667003E1,4.88385E1,0E0,0E0,0E0,0E0,0E0,0E0,0E0,0E0,0E0,0E0],"parents":[2147483647,0,0,1,1,3,3,5,5,6,6,7,7,8,8,10,10,12,12,13,13,14,14,15,15,16,16],"right_children":[2,4,-1,6,-1,8,10,12,14,-1,16,-1,18,20,22,24,26,-1,-1,-1,-1,-1,-1,-1,-1,-1,-1],"split_conditions":[6.8E0,2.2E2,8.778165E-1,6.7E0,8.725968E-1,7.308E2,1.26E2,7.182E2,5.4E1,-8.029132E-2,3.383E1,-8.193106E-2,5.7E0,3.899E1,3.118E1,-5.1E0,4.3E1,-8.061755E-2,-1.888229E-2,-6.5515384E-2,2.0214546E-2,-4.670831E-3,1.2845658E-1,9.486351E-2,2.6118672E-1,5.9806235E-2,2.9776192E-1],"split_indices":[4,5,0,17,0,15,5,15,0,0,3,0,4,3,3,18,0,0,0,0,0,0,0,0,0,0,0],"split_type":[0,0,0,0,0,0,0,0,0,0,0,0,0,0,0,0,0,0,0,0,0,0,0,0,0,0,0],"sum_hessian":[4.9776E3,4.7840957E3,1.9350421E2,4.694655E3,8.944125E1,4.502706E3,1.919487E2,2.3553381E3,2.1473677E3,4.79094E1,1.440393E2,2.2655857E3,8.975235E1,1.4958466E3,6.515212E2,1.07951706E2,3.60876E1,5.97312E1,3.002115E1,1.4263158E3,6.953085E1,5.0849295E2,1.4302823E2,1.00407524E2,7.544175E0,6.455325E0,2.9632275E1],"tree_param":{"num_deleted":"0","num_feature":"25","num_nodes":"27","size_leaf_vector":"1"}},{"base_weights":[-2.3021434E-2,-5.4285145E-1,4.712478E0,-7.4097043E-1,4.095243E-1,2.4831429E0,4.095057E-1,-8.114864E-1,8.875134E-1,-7.781492E-2,3.2134573E0,-1.0760112E0,-5.2664196E-1,-7.944705E-2,1.4409196E0,2.4296036E0,3.9760166E-1,-8.138037E-2,-8.410573E-1,-8.040464E-1,1.5902305E-1,1.1147802E0,2.7377691E0,1.7721848E0,4.369814E0,-7.999495E-2,-2.859666E-2,-6.8211794E-2,-2.0672135E-2,-8.873351E-3,1.0977765E-1,4.4849012E-2,1.15674496E-1,5.669987E-2,2.3502512E-1,1.565707E-1,5.6185275E-2,3.6968732E-1,1.14313185E-1],"categories":[],"categories_nodes":[],"categories_segments":[],"categories_sizes":[],"default_left":[0,0,0,0,0,0,0,0,0,0,0,0,0,0,0,0,0,0,0,0,0,0,0,0,0,0,0,0,0,0,0,0,0,0,0,0,0,0,0],"id":1,"left_children":[1,3,5,7,-1,9,-1,11,13,-1,15,17,19,-1,21,23,-1,-1,25,27,29,31,33,35,37,-1,-1,-1,-1,-1,-1,-1,-1,-1,-1,-1,-1,-1,-1],"loss_changes":[1.2404728E4,5.4044883E3,8.1718066E2,5.055896E2,0E0,3.2990247E2,0E0,3.169934E2,1.9863443E2,0E0,1.5967358E2,3.7370605E0,3.864931E2,0E0,5.737982E1,9.238693E1,0E0,0E0,8.464493E0,8.03385E1,2.121826E2,2.4676346E1,1.9618805E1,1.789981E1,2.3024384E1,0E0,0E0,0E0,0E0,0E0,0E0,0E0,0E0,0E0,0E0,0E0,0E0,0E0,0E0],"parents":[2147483647,0,0,1,1,2,2,3,3,5,5,7,7,8,8,10,10,11,11,12,12,14,14,15,15,18,18,19,19,20,20,21,21,22,22,23,23,24,24],"right_children":[2,4,6,8,-1,10,-1,12,14,-1,16,18,20,-1,22,24,-1,-1,26,28,30,32,34,36,38,-1,-1,-1,-1,-1,-1,-1,-1,-1,-1,-1,-1,-1,-1],"split_conditions":[6.7E0,2.2E2,6.8E0,6.7E0,4.095243E-1,1.26E2,4.095057E-1,7.308E2,1.26E2,-7.781492E-2,2.2E2,7.182E2,5.5E1,-7.944705E-2,3.639E1,3.247E1,3.9760166E-1,-8.138037E-2,5.7E0,3.103E1,3.28E1,6.2E1,4.3E1,1E0,2.37E2,-7.999495E-2,-2.859666E-2,-6.8211794E-2,-2.0672135E-2,-8.873351E-3,1.0977765E-1,4.4849012E-2,1.15674496E-1,5.669987E-2,2.3502512E-1,1.565707E-1,5.6185275E-2,3.6968732E-1,1.14313185E-1],"split_indices":[16,5,4,17,0,5,0,15,5,0,5,15,0,0,3,3,0,0,4,3,3,0,0,9,22,0,0,0,0,0,0,0,0,0,0,0,0,0,0],"split_type":[0,0,0,0,0,0,0,0,0,0,0,0,0,0,0,0,0,0,0,0,0,0,0,0,0,0,0,0,0,0,0,0,0,0,0,0,0,0,0],"sum_hessian":[5.037143E3,4.539693E3,4.9745035E2,4.3955073E3,1.4418558E2,1.2601007E2,3.714403E2,4.213555E3,1.8195207E2,2.15761E1,1.0443397E2,2.1832612E3,2.0302938E3,4.0071587E1,1.4188048E2,7.750147E1,2.6932499E1,2.0987124E3,8.454893E1,1.4453611E3,5.849328E2,1.1485553E2,2.702495E1,5.9316223E1,1.8185247E1,5.5837616E1,2.871131E1,1.2043214E3,2.4103963E2,4.8314127E2,1.0179157E2,5.3086407E1,6.1769127E1,4.984311E0,2.2040638E1,4.4542408E1,1.4773816E1,1.4585986E1,3.599262E0],"tree_param":{"num_deleted":"0","num_feature":"25","num_nodes":"39","size_leaf_vector":"1"}},{"base_weights":[-2.9166471E-2,-5.246242E-1,3.5091648E0,-7.203853E-1,2.9736558E-1,-7.712252E-2,3.6654806E0,-8.087732E-2,-3.95087E-1,2.5112994E0,2.972026E-1,-7.9043686E-1,2.2774737E-1,1.8995166E0,3.8275368E0,-8.9600676E-1,-2.17482E-1,-8.1380635E-2,4.8607188E-1,1.3035183E0,3.0238543E0,2.974965E-1,3.3245876E-2,-6.8559475E-2,1.7675417E-2,-4.777478E-2,2.3158818E-2,2.4123187E-3,1.02068014E-1,1.8617788E-3,1.0549654E-1,2.4939834E-1,5.8281075E-2],"categories":[],"categories_nodes":[],"categories_segments":[],"categories_sizes":[],"default_left":[0,0,0,0,0,0,0,0,0,0,0,0,0,0,0,0,0,0,0,0,0,0,0,0,0,0,0,0,0,0,0,0,0],"id":2,"left_children":[1,3,5,7,-1,-1,9,-1,11,13,-1,15,17,19,21,23,25,-1,27,29,31,-1,-1,-1,-1,-1,-1,-1,-1,-1,-1,-1,-1],"loss_changes":[8.750598E3,3.8508743E3,4.3862256E2,4.8823047E2,0E0,0E0,1.9343896E2,0E0,5.419201E2,9.269678E1,0E0,8.122217E1,2.905008E2,5.4181152E1,1.631958E1,2.3515564E1,4.6724495E1,0E0,2.8393695E2,7.670273E0,1.7255371E1,0E0,0E0,0E0,0E0,0E0,0E0,0E0,0E0,0E0,0E0,0E0,0E0],"parents":[2147483647,0,0,1,1,2,2,3,3,6,6,8,8,9,9,11,11,12,12,13,13,14,14,15,15,16,16,18,18,19,19,20,20],"right_children":[2,4,6,8,-1,-1,10,-1,12,14,-1,16,18,20,22,24,26,-1,28,30,32,-1,-1,-1,-1,-1,-1,-1,-1,-1,-1,-1,-1],"split_conditions":[6.7E0,2.2E2,1.26E2,7.182E2,2.9736558E-1,-7.712252E-2,6.8E0,-8.087732E-2,5.1E1,1.254E3,2.972026E-1,3.173E1,5.7E0,3.08E1,-1.934E2,6.7E0,3.9E1,-8.1380635E-2,2.95E1,2.126E1,8E1,2.974965E-1,3.3245876E-2,-6.8559475E-2,1.7675417E-2,-4.777478E-2,2.3158818E-2,2.4123187E-3,1.02068014E-1,1.8617788E-3,1.0549654E-1,2.4939834E-1,5.8281075E-2],"split_indices":[16,5,5,15,0,0,4,0,0,15,0,3,4,3,19,17,0,0,3,3,0,0,0,0,0,0,0,0,0,0,0,0,0],"split_type":[0,0,0,0,0,0,0,0,0,0,0,0,0,0,0,0,0,0,0,0,0,0,0,0,0,0,0,0,0,0,0,0,0],"sum_hessian":[4.9894673E3,4.377374E3,6.120936E2,4.1952812E3,1.8209248E2,2.0198633E1,5.91895E2,1.9962102E3,2.1990713E3,1.23144165E2,4.6875085E2,1.3450311E3,8.5404004E2,8.573702E1,3.7407143E1,1.1352852E3,2.0974605E2,1.3989316E2,7.141469E2,5.7445305E1,2.8291714E1,3.576522E1,1.6419237E0,1.1175835E3,1.770158E1,1.16593056E2,9.3152985E1,4.70872E2,2.432749E2,4.378836E0,5.306647E1,2.4521544E1,3.7701714E0],"tree_param":{"num_deleted":"0","num_feature":"25","num_nodes":"33","size_leaf_vector":"1"}},{"base_weights":[-3.2238744E-2,-6.15089E-1,2.3821986E0,-7.3414725E-1,1.9425184E0,1.3983316E0,2.4057044E-1,-8.0414884E-2,-4.0502447E-1,-7.645554E-2,2.3051713E0,7.778859E-2,3.0967903E0,-7.8168446E-1,1.5442877E-1,1.5658808E0,2.3719415E-1,-2.826497E-1,2.2574015E0,2.3884903E-1,2.1125686E0,-8.772371E-1,-2.0165889E-1,-8.080104E-2,4.072134E-1,1.1090583E0,2.6924493E0,-7.0290107E-1,5.84874E-1,1.3281013E0,2.233221E-1,3.1037545E-1,2.4729578E0,-7.575968E-2,-5.4630954E-2,-6.986544E-2,6.602829E-3,1.6932614E-3,8.213678E-2,1.0686916E-1,3.1836957E-2,2.1624322E-1,6.115967E-2,-6.173063E-2,6.2154274E-2,9.057345E-3,1.3136917E-1,6.067017E-2,1.6867132E-1,-2.3857044E-2,6.1978534E-2,-1.186676E-2,2.0181786E-1],"categories":[],"categories_nodes":[],"categories_segments":[],"categories_sizes":[],"default_left":[0,0,0,0,0,0,0,0,0,0,0,0,0,0,0,0,0,0,0,0,0,0,0,0,0,0,0,0,0,0,0,0,0,0,0,0,0,0,0,0,0,0,0,0,0,0,0,0,0,0,0,0,0],"id":3,"left_children":[1,3,5,7,9,11,-1,-1,13,-1,15,17,19,21,23,25,-1,27,29,-1,31,33,35,-1,37,39,41,43,45,47,-1,49,51,-1,-1,-1,-1,-1,-1,-1,-1,-1,-1,-1,-1,-1,-1,-1,-1,-1,-1,-1,-1],"loss_changes":[6.9064346E3,1.2052333E3,7.7053955E2,4.1993164E2,1.9152814E2,9.802576E2,0E0,0E0,4.038664E2,0E0,9.47027E1,1.9465915E2,9.80603E0,6.3295105E1,2.4074667E2,4.148059E1,0E0,7.799713E1,1.9575806E1,0E0,1.1338829E1,1.870459E1,3.46061E1,0E0,1.6961008E2,1.305555E1,6.325165E0,2.7153137E1,3.7689163E1,6.3822517E0,0E0,1.6410472E0,9.2512665E0,0E0,0E0,0E0,0E0,0E0,0E0,0E0,0E0,0E0,0E0,0E0,0E0,0E0,0E0,0E0,0E0,0E0,0E0,0E0,0E0],"parents":[2147483647,0,0,1,1,2,2,3,3,4,4,5,5,8,8,10,10,11,11,12,12,13,13,14,14,15,15,17,17,18,18,20,20,21,21,22,22,24,24,25,25,26,26,27,27,28,28,29,29,31,31,32,32],"right_children":[2,4,6,8,10,12,-1,-1,14,-1,16,18,20,22,24,26,-1,28,30,-1,32,34,36,-1,38,40,42,44,46,48,-1,50,52,-1,-1,-1,-1,-1,-1,-1,-1,-1,-1,-1,-1,-1,-1,-1,-1,-1,-1,-1,-1],"split_conditions":[1.05E3,6.7E0,1.342E3,7.182E2,1.26E2,6.7E0,2.4057044E-1,-8.0414884E-2,5.1E1,-7.645554E-2,6.8E0,2.01E2,2E2,3.262E1,5.7E0,3.247E1,2.3719415E-1,5.5E1,2.066E2,2.3884903E-1,2.6E2,2.8E1,3E1,-8.080104E-2,2.95E1,9.45E2,8E1,3.758E1,3.103E1,3.422E1,2.233221E-1,-6E0,2.224E1,-7.575968E-2,-5.4630954E-2,-6.986544E-2,6.602829E-3,1.6932614E-3,8.213678E-2,1.0686916E-1,3.1836957E-2,2.1624322E-1,6.115967E-2,-6.173063E-2,6.2154274E-2,9.057345E-3,1.3136917E-1,6.067017E-2,1.6867132E-1,-2.3857044E-2,6.1978534E-2,-1.186676E-2,2.0181786E-1],"split_indices":[15,16,15,15,5,16,0,0,0,0,4,23,5,3,4,3,0,0,20,0,22,0,0,0,3,15,0,3,3,3,0,21,3,0,0,0,0,0,0,0,0,0,0,0,0,0,0,0,0,0,0,0,0],"split_type":[0,0,0,0,0,0,0,0,0,0,0,0,0,0,0,0,0,0,0,0,0,0,0,0,0,0,0,0,0,0,0,0,0,0,0,0,0,0,0,0,0,0,0,0,0,0,0,0,0,0,0,0,0],"sum_hessian":[4.905692E3,3.9523352E3,9.533568E2,3.7772166E3,1.7511884E2,4.3615903E2,5.171978E2,1.8622205E3,1.914996E3,1.8904837E1,1.56214E2,2.4596684E2,1.9019218E2,1.1442296E3,7.7076636E2,8.540316E1,7.0810844E1,2.1181049E2,3.415636E1,1.725524E2,1.763979E1,9.819518E2,1.6227783E2,1.3068738E2,6.4007904E2,6.2175507E1,2.3227654E1,1.4281627E2,6.89942E1,1.6155325E1,1.8001036E1,3.2497973E0,1.4389992E1,5.1568585E2,4.6626593E2,4.5479153E1,1.16798676E2,4.1120358E2,2.2887544E2,4.18049E1,2.0370607E1,2.0597807E1,2.6298454E0,1.3285486E2,9.961414E0,5.01489E1,1.8845304E1,1.1532106E1,4.623218E0,1.6381518E0,1.6116456E0,1.1217377E0,1.3268254E1],"tree_param":{"num_deleted":"0","num_feature":"25","num_nodes":"53","size_leaf_vector":"1"}},{"base_weights":[-3.3703808E-2,-5.958193E-1,2.0739172E0,-7.4369884E-1,1.2715356E0,1.2486748E0,2.0516713E-1,-7.998989E-2,-4.3416223E-1,-7.7922225E-2,1.6239486E0,1.1224452E-2,2.5809114E0,-8.6890835E-1,-1.3198719E-2,1.107927E0,2.0293348E-1,-5.937783E-1,1.1896318E0,2.0428024E-1,1.5743747E0,-8.9711076E-1,4.0270057E-2,-8.035026E-2,2.095139E-1,3.8283777E-1,1.3235681E0,-7.811071E-1,1.8202515E-1,7.575737E-1,1.978214E-1,8.973314E-1,1.8919414E0,-7.516111E-2,-5.549944E-2,-3.9526083E-2,9.982199E-2,-6.1342292E-3,6.791321E-2,6.634133E-2,-2.546945E-2,8.3597414E-2,1.51576E-1,-6.2962025E-2,2.05001E-2,-3.5695236E-2,4.043197E-2,5.8082836E-3,1.2277915E-1,1.9275254E-2,1.2467348E-1,-1.1092281E-2,1.5238576E-1],"categories":[],"categories_nodes":[],"categories_segments":[],"categories_sizes":[],"default_left":[0,0,0,0,0,0,0,0,0,0,0,0,0,0,0,0,0,0,0,0,0,0,0,0,0,0,0,0,0,0,0,0,0,0,0,0,0,0,0,0,0,0,0,0,0,0,0,0,0,0,0,0,0],"id":4,"left_children":[1,3,5,7,9,11,-1,-1,13,-1,15,17,19,21,23,25,-1,27,29,-1,31,33,35,-1,37,39,41,43,45,47,-1,49,51,-1,-1,-1,-1,-1,-1,-1,-1,-1,-1,-1,-1,-1,-1,-1,-1,-1,-1,-1,-1],"loss_changes":[5.687953E3,1.0475724E3,5.485386E2,3.5055225E2,2.2845065E2,7.445748E2,0E0,0E0,3.2848553E2,0E0,1.3211365E2,1.6836615E2,2.6979126E1,2.2677185E1,2.1536931E2,2.5379913E1,0E0,2.2821861E1,4.8120255E1,0E0,4.622856E0,1.3393127E1,2.085373E1,0E0,1.531551E2,1.4565664E1,1.6283264E1,7.9800262E0,7.578108E0,3.761917E1,0E0,5.1022425E0,5.7524185E0,0E0,0E0,0E0,0E0,0E0,0E0,0E0,0E0,0E0,0E0,0E0,0E0,0E0,0E0,0E0,0E0,0E0,0E0,0E0,0E0],"parents":[2147483647,0,0,1,1,2,2,3,3,4,4,5,5,8,8,10,10,11,11,12,12,13,13,14,14,15,15,17,17,18,18,20,20,21,21,22,22,24,24,25,25,26,26,27,27,28,28,29,29,31,31,32,32],"right_children":[2,4,6,8,10,12,-1,-1,14,-1,16,18,20,22,24,26,-1,28,30,-1,32,34,36,-1,38,40,42,44,46,48,-1,50,52,-1,-1,-1,-1,-1,-1,-1,-1,-1,-1,-1,-1,-1,-1,-1,-1,-1,-1,-1,-1],"split_conditions":[1.05E3,6.7E0,1.342E3,7.182E2,1.26E2,6.7E0,2.0516713E-1,-7.998989E-2,4.4E1,-7.7922225E-2,6.8E0,2.57E2,2E2,4.228E1,5.7E0,2.727E1,2.0293348E-1,3.145E1,2.2E2,2.0428024E-1,2.6E2,2.8E1,3.9E1,-8.035026E-2,3.091E1,9.164E2,2.23E2,6E1,3.7E1,2.789E1,1.978214E-1,3.402E1,2.255E1,-7.516111E-2,-5.549944E-2,-3.9526083E-2,9.982199E-2,-6.1342292E-3,6.791321E-2,6.634133E-2,-2.546945E-2,8.3597414E-2,1.51576E-1,-6.2962025E-2,2.05001E-2,-3.5695236E-2,4.043197E-2,5.8082836E-3,1.2277915E-1,1.9275254E-2,1.2467348E-1,-1.1092281E-2,1.5238576E-1],"split_indices":[15,17,15,15,5,17,0,0,0,0,4,22,5,3,4,3,0,3,5,0,22,0,0,0,3,15,22,0,0,3,0,3,3,0,0,0,0,0,0,0,0,0,0,0,0,0,0,0,0,0,0,0,0],"split_type":[0,0,0,0,0,0,0,0,0,0,0,0,0,0,0,0,0,0,0,0,0,0,0,0,0,0,0,0,0,0,0,0,0,0,0,0,0,0,0,0,0,0,0,0,0,0,0,0,0,0,0,0,0],"sum_hessian":[4.7990264E3,3.789153E3,1.00987317E3,3.5116594E3,2.7749362E2,4.506646E2,5.592085E2,1.7177142E3,1.7939453E3,3.6466026E1,2.4102759E2,2.3416681E2,2.1649782E2,8.820019E2,9.1194336E2,1.645589E2,7.646868E1,1.5505605E2,7.911076E1,1.8810072E2,2.8397081E1,8.554785E2,2.6523378E1,1.5790497E2,7.540384E2,3.8357594E1,1.2620131E2,1.24892204E2,3.016384E1,6.2103252E1,1.7007513E1,1.0288322E1,1.810876E1,5.0949243E2,3.4598608E2,1.8836174E1,7.687204E0,5.321807E2,2.2185768E2,2.2504362E1,1.5853232E1,9.910904E1,2.7092272E1,1.1853268E2,6.359531E0,1.0493948E1,1.9669891E1,3.563425E1,2.6469002E1,6.3276887E0,3.9606335E0,1.1583295E0,1.695043E1],"tree_param":{"num_deleted":"0","num_feature":"25","num_nodes":"53","size_leaf_vector":"1"}},{"base_weights":[-3.4435272E-2,-5.768705E-1,1.8512286E0,-6.954092E-1,1.549531E0,1.1312892E0,1.8101232E-1,-7.960018E-2,-3.7028632E-1,-7.515039E-2,1.7947556E0,6.313622E-2,2.3346672E0,-8.484223E-1,2.1465262E-2,2.098221E0,7.8994745E-1,-2.5660923E-1,1.6971407E0,1.6466701E0,1.8035021E-1,-9.29504E-1,-4.350772E-1,-7.988413E-2,2.1695952E-1,1.6227971E0,1.7936069E-1,-2.0867212E-1,1.4668117E0,-8.2835895E-1,2.7906334E-1,9.8039484E-1,1.705823E-1,-9.234695E-3,1.7321875E0,-7.447012E-2,-6.082209E-2,-6.527708E-2,-1.0707455E-2,6.433711E-4,7.812777E-2,9.421084E-2,1.7899199E-1,5.5871006E-2,-7.78902E-2,6.959285E-2,1.7374909E-1,-6.930446E-2,-2.128689E-2,-7.1112695E-3,9.145554E-2,-4.4491652E-2,8.295127E-2,1.669883E-2,1.358482E-1],"categories":[],"categories_nodes":[],"categories_segments":[],"categories_sizes":[],"default_left":[0,0,0,0,0,0,0,0,0,0,0,0,0,0,0,0,0,0,0,0,0,0,0,0,0,0,0,0,0,0,0,0,0,0,0,0,0,0,0,0,0,0,0,0,0,0,0,0,0,0,0,0,0,0,0],"id":5,"left_children":[1,3,5,7,9,11,-1,-1,13,-1,15,17,19,21,23,25,27,29,31,33,-1,35,37,-1,39,41,-1,43,45,47,49,51,-1,-1,53,-1,-1,-1,-1,-1,-1,-1,-1,-1,-1,-1,-1,-1,-1,-1,-1,-1,-1,-1,-1],"loss_changes":[4.787686E3,9.1732117E2,4.205581E2,4.093152E2,1.2208768E2,5.916826E2,0E0,0E0,3.4187622E2,0E0,5.19328E1,1.2841153E2,6.4663086E0,2.7143005E1,2.1353186E2,1.4854309E1,2.8945528E1,6.323954E1,1.4411423E1,3.7192383E0,0E0,4.3550415E0,1.72657E1,0E0,1.4639218E2,1.2229736E1,0E0,1.5012305E1,9.473194E0,4.9366837E0,3.7721222E1,4.5503845E0,0E0,0E0,2.2438507E0,0E0,0E0,0E0,0E0,0E0,0E0,0E0,0E0,0E0,0E0,0E0,0E0,0E0,0E0,0E0,0E0,0E0,0E0,0E0,0E0],"parents":[2147483647,0,0,1,1,2,2,3,3,4,4,5,5,8,8,10,10,11,11,12,12,13,13,14,14,15,15,16,16,17,17,18,18,19,19,21,21,22,22,24,24,25,25,27,27,28,28,29,29,30,30,31,31,34,34],"right_children":[2,4,6,8,10,12,-1,-1,14,-1,16,18,20,22,24,26,28,30,32,34,-1,36,38,-1,40,42,-1,44,46,48,50,52,-1,-1,54,-1,-1,-1,-1,-1,-1,-1,-1,-1,-1,-1,-1,-1,-1,-1,-1,-1,-1,-1,-1],"split_conditions":[1.05E3,6.7E0,1.342E3,7.182E2,1.26E2,6.7E0,1.8101232E-1,-7.960018E-2,4.3E1,-7.515039E-2,1.61E2,2.01E2,6.8E0,3.067E1,5.7E0,6.8E0,1.59E2,4.4E1,2.066E2,5E1,1.8035021E-1,2.8E1,3E1,-7.988413E-2,3.383E1,3.247E1,1.7936069E-1,1.58E2,-1.529E2,3.145E1,3.159E1,2.332E1,1.705823E-1,-9.234695E-3,2.224E1,-7.447012E-2,-6.082209E-2,-6.527708E-2,-1.0707455E-2,6.433711E-4,7.812777E-2,9.421084E-2,1.7899199E-1,5.5871006E-2,-7.78902E-2,6.959285E-2,1.7374909E-1,-6.930446E-2,-2.128689E-2,-7.1112695E-3,9.145554E-2,-4.4491652E-2,8.295127E-2,1.669883E-2,1.358482E-1],"split_indices":[15,16,15,15,5,16,0,0,0,0,20,23,4,3,4,4,5,0,20,0,0,0,0,0,3,3,0,5,19,3,3,3,0,0,3,0,0,0,0,0,0,0,0,0,0,0,0,0,0,0,0,0,0,0,0],"split_type":[0,0,0,0,0,0,0,0,0,0,0,0,0,0,0,0,0,0,0,0,0,0,0,0,0,0,0,0,0,0,0,0,0,0,0,0,0,0,0,0,0,0,0,0,0,0,0,0,0,0,0,0,0,0,0],"sum_hessian":[4.6786855E3,3.6340103E3,1.0446753E3,3.4427625E3,1.9124777E2,4.594277E2,5.8524756E2,1.6186752E3,1.8240873E3,1.649833E1,1.7474945E2,2.4394635E2,2.1548137E2,8.2094794E2,1.0031393E3,1.3337901E2,4.1370438E1,2.0472775E2,3.92186E1,2.2164772E1,1.9331659E2,6.8527563E2,1.3567232E2,1.5228236E2,8.5085693E2,5.3377377E1,8.000163E1,1.6992323E1,2.4378115E1,9.876482E1,1.0596294E2,1.8699781E1,2.051882E1,1.0013708E0,2.11634E1,4.4160303E2,2.436726E2,5.3711857E1,8.196046E1,6.800458E2,1.7081114E2,3.785118E1,1.5526196E1,7.9542294E0,9.038093E0,1.6198246E1,8.17987E0,8.340892E1,1.5355893E1,7.6461174E1,2.950176E1,1.1072634E0,1.7592518E1,1.2439781E0,1.9919422E1],"tree_param":{"num_deleted":"0","num_feature":"25","num_nodes":"55","size_leaf_vector":"1"}},{"base_weights":[-3.46831E-2,-5.582552E-1,1.6817833E0,-7.06188E-1,1.0580703E0,1.0358644E0,1.634447E-1,-7.924059E-2,-3.9872375E-1,-7.6901495E-2,1.315355E0,5.8068577E-2,2.099693E0,-7.315968E-1,1.0933153E-1,9.165119E-1,1.6211927E-1,-4.5824683E-1,9.5591193E-1,1.4302862E0,1.629206E-1,-8.9816886E-1,-4.0763205E-1,-7.928411E-2,3.0762744E-1,3.3165506E-1,1.0799011E0,-5.929563E-1,9.3039405E-1,4.8400533E-1,1.755398E0,9.342007E-1,1.8716023E0,-7.380624E-2,-5.408987E-2,-3.809979E-2,8.3482526E-2,-1.8978673E-3,6.0035877E-2,4.869763E-3,1.0818187E-1,6.8495594E-2,1.2112908E-1,-4.8663806E-2,8.221449E-2,-5.5962365E-2,9.706269E-2,6.6532544E-3,1.017862E-1,1.5078586E-1,6.0752075E-2,1.01992644E-1,6.6081323E-3,1.6646406E-1,1.2412712E-2],"categories":[],"categories_nodes":[],"categories_segments":[],"categories_sizes":[],"default_left":[0,0,0,0,0,0,0,0,0,0,0,0,0,0,0,0,0,0,0,0,0,0,0,0,0,0,0,0,0,0,0,0,0,0,0,0,0,0,0,0,0,0,0,0,0,0,0,0,0,0,0,0,0,0,0],"id":6,"left_children":[1,3,5,7,9,11,-1,-1,13,-1,15,17,19,21,23,25,-1,27,29,31,-1,33,35,-1,37,39,41,43,45,47,49,51,53,-1,-1,-1,-1,-1,-1,-1,-1,-1,-1,-1,-1,-1,-1,-1,-1,-1,-1,-1,-1,-1,-1],"loss_changes":[4.0900046E3,8.3457996E2,3.3955542E2,3.4379773E2,1.583031E2,4.8328983E2,0E0,0E0,2.881737E2,0E0,8.613083E1,1.1317061E2,7.7056274E0,5.5179626E1,1.5649779E2,1.6763199E1,0E0,2.9559925E1,3.2770546E1,3.658451E0,0E0,9.613403E0,5.419279E1,0E0,9.483859E1,1.1925211E1,1.0973465E1,1.4115215E1,9.56647E0,1.9696825E1,6.255707E0,4.7871456E0,6.7991943E0,0E0,0E0,0E0,0E0,0E0,0E0,0E0,0E0,0E0,0E0,0E0,0E0,0E0,0E0,0E0,0E0,0E0,0E0,0E0,0E0,0E0,0E0],"parents":[2147483647,0,0,1,1,2,2,3,3,4,4,5,5,8,8,10,10,11,11,12,12,13,13,14,14,15,15,17,17,18,18,19,19,21,21,22,22,24,24,25,25,26,26,27,27,28,28,29,29,30,30,31,31,32,32],"right_children":[2,4,6,8,10,12,-1,-1,14,-1,16,18,20,22,24,26,-1,28,30,32,-1,34,36,-1,38,40,42,44,46,48,50,52,54,-1,-1,-1,-1,-1,-1,-1,-1,-1,-1,-1,-1,-1,-1,-1,-1,-1,-1,-1,-1,-1,-1],"split_conditions":[1.05E3,6.7E0,1.342E3,7.182E2,1.26E2,6.7E0,1.634447E-1,-7.924059E-2,5.3E1,-7.6901495E-2,6.8E0,2.57E2,6.8E0,3.9E1,5.7E0,2.727E1,1.6211927E-1,3.899E1,2.01E2,1.254E3,1.629206E-1,2.8E1,4.228E1,-7.928411E-2,2.877E1,1E0,2.23E2,7.6E0,3.3E1,3.103E1,6.1E0,1.22E3,6.6E0,-7.380624E-2,-5.408987E-2,-3.809979E-2,8.3482526E-2,-1.8978673E-3,6.0035877E-2,4.869763E-3,1.0818187E-1,6.8495594E-2,1.2112908E-1,-4.8663806E-2,8.221449E-2,-5.5962365E-2,9.706269E-2,6.6532544E-3,1.017862E-1,1.5078586E-1,6.0752075E-2,1.01992644E-1,6.6081323E-3,1.6646406E-1,1.2412712E-2],"split_indices":[15,17,15,15,5,16,0,0,0,0,4,22,4,0,4,3,0,3,23,15,0,0,3,0,3,12,22,17,0,3,4,15,4,0,0,0,0,0,0,0,0,0,0,0,0,0,0,0,0,0,0,0,0,0,0],"split_type":[0,0,0,0,0,0,0,0,0,0,0,0,0,0,0,0,0,0,0,0,0,0,0,0,0,0,0,0,0,0,0,0,0,0,0,0,0,0,0,0,0,0,0,0,0,0,0,0,0,0,0,0,0,0,0],"sum_hessian":[4.5490093E3,3.4862705E3,1.0627389E3,3.1944631E3,2.918074E2,4.637264E2,5.990125E2,1.4919551E3,1.702508E3,3.1746586E1,2.6006082E2,2.4218332E2,2.215431E2,1.0283214E3,6.741866E2,1.7816982E2,8.189101E1,1.54072E2,8.811131E1,2.3696888E1,1.9784622E2,6.7796277E2,3.503586E2,9.732898E1,5.768576E2,3.9567287E1,1.3860252E2,1.4096979E2,1.3102218E1,5.641629E1,3.169502E1,1.2623551E1,1.1073338E1,4.5332526E2,2.2463754E2,3.29292E2,2.106663E1,3.448512E2,2.3200642E2,3.2759365E1,6.8079247E0,1.07757484E2,3.0845045E1,1.3705061E2,3.9191751E0,2.1486042E0,1.0953613E1,3.9593063E1,1.6823225E1,2.4072985E1,7.6220355E0,7.9941278E0,4.6294236E0,8.947728E0,2.125609E0],"tree_param":{"num_deleted":"0","num_feature":"25","num_nodes":"55","size_leaf_vector":"1"}},{"base_weights":[-3.4558296E-2,-5.399617E-1,1.5489879E0,-6.868995E-1,9.5478326E-1,9.5810175E-1,1.5009145E-1,-7.890982E-2,-3.802166E-1,-7.6424964E-2,1.1748959E0,5.4449897E-2,1.9223657E0,-8.20442E-1,-1.8034019E-2,8.081117E-1,1.4895879E-1,-4.3784502E-1,8.609931E-1,1.279277E0,1.4965108E-1,-9.006392E-1,-4.2191765E-1,-7.9066545E-2,1.5543342E-1,7.256875E-1,1.7754886E0,-6.794274E-1,2.9406998E-1,5.6725854E-1,1.4676724E-1,8.3642143E-1,1.6777031E0,-7.301627E-2,-5.827952E-2,-7.194042E-2,-1.360083E-2,-1.0257776E-2,4.2882927E-2,4.8511513E-2,1.109179E-1,1.9677627E-1,7.2508305E-2,-5.5473264E-2,9.253234E-2,-3.3720203E-2,4.332958E-2,5.2507916E-3,8.2514875E-2,8.9703254E-2,6.1765835E-3,-1.4270825E-2,1.4232422E-1],"categories":[],"categories_nodes":[],"categories_segments":[],"categories_sizes":[],"default_left":[0,0,0,0,0,0,0,0,0,0,0,0,0,0,0,0,0,0,0,0,0,0,0,0,0,0,0,0,0,0,0,0,0,0,0,0,0,0,0,0,0,0,0,0,0,0,0,0,0,0,0,0,0],"id":7,"left_children":[1,3,5,7,9,11,-1,-1,13,-1,15,17,19,21,23,25,-1,27,29,31,-1,33,35,-1,37,39,41,43,45,47,-1,49,51,-1,-1,-1,-1,-1,-1,-1,-1,-1,-1,-1,-1,-1,-1,-1,-1,-1,-1,-1,-1],"loss_changes":[3.5339297E3,7.3582245E2,2.835564E2,3.410315E2,1.3153787E2,4.051438E2,0E0,0E0,2.6441663E2,0E0,7.884305E1,9.61126E1,8.005676E0,2.3544525E1,1.6389601E2,1.369194E1,0E0,2.6790981E1,2.8416794E1,3.1339874E0,0E0,4.850403E0,1.627838E1,0E0,9.511077E1,9.428291E0,7.107662E0,1.3973282E1,8.279582E0,1.9465693E1,0E0,3.7448149E0,5.514267E0,0E0,0E0,0E0,0E0,0E0,0E0,0E0,0E0,0E0,0E0,0E0,0E0,0E0,0E0,0E0,0E0,0E0,0E0,0E0,0E0],"parents":[2147483647,0,0,1,1,2,2,3,3,4,4,5,5,8,8,10,10,11,11,12,12,13,13,14,14,15,15,17,17,18,18,19,19,21,21,22,22,24,24,25,25,26,26,27,27,28,28,29,29,31,31,32,32],"right_children":[2,4,6,8,10,12,-1,-1,14,-1,16,18,20,22,24,26,-1,28,30,32,-1,34,36,-1,38,40,42,44,46,48,-1,50,52,-1,-1,-1,-1,-1,-1,-1,-1,-1,-1,-1,-1,-1,-1,-1,-1,-1,-1,-1,-1],"split_conditions":[1.05E3,6.7E0,1.342E3,7.182E2,1.26E2,6.7E0,1.5009145E-1,-7.890982E-2,4.4E1,-7.6424964E-2,6.8E0,2.57E2,6.8E0,3.067E1,5.7E0,4.228E1,1.4895879E-1,3.145E1,2.2E2,1.254E3,1.4965108E-1,2.8E1,2.8E1,-7.9066545E-2,2.877E1,-5.1E0,1.46E2,7.5E0,3.7E1,2.789E1,1.4676724E-1,1.22E3,2.6E2,-7.301627E-2,-5.827952E-2,-7.194042E-2,-1.360083E-2,-1.0257776E-2,4.2882927E-2,4.8511513E-2,1.109179E-1,1.9677627E-1,7.2508305E-2,-5.5473264E-2,9.253234E-2,-3.3720203E-2,4.332958E-2,5.2507916E-3,8.2514875E-2,8.9703254E-2,6.1765835E-3,-1.4270825E-2,1.4232422E-1],"split_indices":[15,17,15,15,5,16,0,0,0,0,4,22,4,3,4,3,0,3,5,15,0,0,0,0,3,18,20,17,0,3,0,15,22,0,0,0,0,0,0,0,0,0,0,0,0,0,0,0,0,0,0,0,0],"split_type":[0,0,0,0,0,0,0,0,0,0,0,0,0,0,0,0,0,0,0,0,0,0,0,0,0,0,0,0,0,0,0,0,0,0,0,0,0,0,0,0,0,0,0,0,0,0,0,0,0,0,0,0,0],"sum_hessian":[4.413548E3,3.3462273E3,1.0673204E3,3.0472175E3,2.990099E2,4.6407635E2,6.03244E2,1.3897367E3,1.6574807E3,2.9635395E1,2.6937448E2,2.4011298E2,2.2396338E2,7.475653E2,9.0991547E2,1.868766E2,8.249789E1,1.493875E2,9.072547E1,2.4714808E1,1.9924858E2,6.2128156E2,1.2628376E2,1.2975607E2,7.8015936E2,1.7381688E2,1.3059709E1,1.1236953E2,3.701797E1,7.274522E1,1.7980251E1,1.3172609E1,1.1542198E1,3.8641846E2,2.3486311E2,3.813259E1,8.815117E1,4.588154E2,3.21344E2,1.590246E2,1.4792283E1,5.278852E0,7.7808566E0,1.0953539E2,2.8341377E0,1.0059557E1,2.6958414E1,3.821805E1,3.452717E1,8.522176E0,4.6504335E0,1.2301238E0,1.0312075E1],"tree_param":{"num_deleted":"0","num_feature":"25","num_nodes":"53","size_leaf_vector":"1"}},{"base_weights":[-3.4218114E-2,-5.218652E-1,1.441012E0,-6.675189E-1,8.6845315E-1,8.917122E-1,1.3960747E-1,-7.860489E-2,-3.622049E-1,-7.596297E-2,1.0595338E0,1.3477062E-3,1.7330416E0,-8.701974E-1,-5.8892377E-2,7.1905774E-1,1.3859095E-1,-4.747071E-1,8.693099E-1,1.389543E-1,9.926346E-1,-9.6498203E-1,-6.830249E-1,-7.885654E-2,1.0515073E-1,8.1829965E-1,9.259124E-2,-7.795597E-1,4.189957E-2,5.587436E-1,1.371061E-1,8.097721E-1,1.2581025E-1,-7.284812E-2,-3.4643386E-2,-4.138435E-2,-7.155473E-2,-1.1874935E-2,3.923569E-2,5.4840475E-2,1.2849179E-1,-6.6430405E-2,2.056036E-2,-6.3276924E-2,3.0823763E-2,-2.6957013E-2,2.6501989E-2,7.819271E-3,7.991461E-2,4.95202E-2,1.2275056E-1],"categories":[],"categories_nodes":[],"categories_segments":[],"categories_sizes":[],"default_left":[0,0,0,0,0,0,0,0,0,0,0,0,0,0,0,0,0,0,0,0,0,0,0,0,0,0,0,0,0,0,0,0,0,0,0,0,0,0,0,0,0,0,0,0,0,0,0,0,0,0,0],"id":8,"left_children":[1,3,5,7,9,11,-1,-1,13,-1,15,17,19,21,23,25,-1,27,29,-1,31,33,35,-1,37,39,41,43,45,47,-1,49,-1,-1,-1,-1,-1,-1,-1,-1,-1,-1,-1,-1,-1,-1,-1,-1,-1,-1,-1],"loss_changes":[3.0773093E3,6.5161005E2,2.4376245E2,3.3779016E2,1.1082085E2,3.465733E2,0E0,0E0,2.4901279E2,0E0,7.319232E1,9.370502E1,1.9240356E1,1.0060944E1,1.6507762E2,1.2080811E1,0E0,2.309782E1,2.2896507E1,0E0,3.0566902E0,8.201904E-1,6.8204575E0,0E0,9.59437E1,1.1893379E1,5.192344E0,7.383049E0,7.039398E0,1.4195137E1,0E0,2.5982609E0,0E0,0E0,0E0,0E0,0E0,0E0,0E0,0E0,0E0,0E0,0E0,0E0,0E0,0E0,0E0,0E0,0E0,0E0,0E0],"parents":[2147483647,0,0,1,1,2,2,3,3,4,4,5,5,8,8,10,10,11,11,12,12,13,13,14,14,15,15,17,17,18,18,20,20,21,21,22,22,24,24,25,25,26,26,27,27,28,28,29,29,31,31],"right_children":[2,4,6,8,10,12,-1,-1,14,-1,16,18,20,22,24,26,-1,28,30,-1,32,34,36,-1,38,40,42,44,46,48,-1,50,-1,-1,-1,-1,-1,-1,-1,-1,-1,-1,-1,-1,-1,-1,-1,-1,-1,-1,-1],"split_conditions":[1.05E3,6.7E0,1.342E3,7.182E2,1.26E2,6.7E0,1.3960747E-1,-7.860489E-2,3.9E1,-7.596297E-2,6.8E0,2.6E2,2E2,2.8E1,5.7E0,1E0,1.3859095E-1,2.733E1,2.2E2,1.389543E-1,2.2E2,-1.194E2,-5.7E0,-7.885654E-2,2.95E1,4.228E1,2.598E1,6E1,4.4E1,2.798E1,1.371061E-1,4.104E1,1.2581025E-1,-7.284812E-2,-3.4643386E-2,-4.138435E-2,-7.155473E-2,-1.1874935E-2,3.923569E-2,5.4840475E-2,1.2849179E-1,-6.6430405E-2,2.056036E-2,-6.3276924E-2,3.0823763E-2,-2.6957013E-2,2.6501989E-2,7.819271E-3,7.991461E-2,4.95202E-2,1.2275056E-1],"split_indices":[15,17,15,15,5,17,0,0,0,0,4,22,5,0,4,9,0,3,5,0,5,19,18,0,3,3,3,0,0,3,0,3,0,0,0,0,0,0,0,0,0,0,0,0,0,0,0,0,0,0,0],"split_type":[0,0,0,0,0,0,0,0,0,0,0,0,0,0,0,0,0,0,0,0,0,0,0,0,0,0,0,0,0,0,0,0,0,0,0,0,0,0,0,0,0,0,0,0,0,0,0,0,0,0,0],"sum_hessian":[4.2756094E3,3.2138848E3,1.0617246E3,2.909588E3,3.042968E2,4.6166223E2,6.0006244E2,1.294134E3,1.615454E3,2.7660791E1,2.7663605E2,2.2478146E2,2.3688077E2,6.03251E2,1.01220294E3,1.9453223E2,8.210381E1,1.454558E2,7.932567E1,2.0262534E2,3.4255432E1,3.9769946E2,2.0555153E2,1.4279927E2,8.694037E2,1.6766525E2,2.6866968E1,9.115545E1,5.4300354E1,6.1112732E1,1.8212934E1,2.8758787E1,5.4966445E0,3.9184125E2,5.858226E0,1.4053966E2,6.501188E1,5.336414E2,3.3576227E2,1.5445123E2,1.3214023E1,3.5981603E0,2.3268808E1,8.67725E1,4.3829494E0,2.3659866E1,3.0640488E1,3.285444E1,2.8258293E1,2.5878477E1,2.8803096E0],"tree_param":{"num_deleted":"0","num_feature":"25","num_nodes":"51","size_leaf_vector":"1"}},{"base_weights":[-3.3792026E-2,-5.040411E-1,1.3511232E0,-7.832591E-2,-1.4594793E-1,8.340584E-1,1.3116962E-1,-3.0909282E-1,1.3072288E0,4.5419775E-2,1.6703925E0,-6.758357E-1,9.646122E-2,1.5392569E0,5.705441E-1,-7.11124E-1,4.51959E-1,1.0712193E0,1.3082957E-1,-8.159223E-1,-2.4820313E-1,-7.809149E-2,2.3658909E-1,9.917608E-1,1.6393687E0,-2.7076584E-1,1.0994058E0,-7.8041214E-1,6.738328E-1,2.8457466E-1,1.2777533E-1,6.944475E-1,1.4223236E0,-7.149857E-2,-5.043077E-2,-7.738818E-2,-7.5047896E-3,1.2372718E-2,1.1831287E-1,1.05605155E-1,9.795018E-3,3.439633E-2,1.2530895E-1,4.16964E-2,-7.84604E-2,5.133058E-2,1.2965846E-1,-6.37435E-2,3.5752666E-3,-3.9457683E-3,9.141669E-2,1.6784843E-4,6.075535E-2,7.427532E-2,3.6429602E-3,1.2885965E-1,3.980091E-3],"categories":[],"categories_nodes":[],"categories_segments":[],"categories_sizes":[],"default_left":[0,0,0,0,0,0,0,0,0,0,0,0,0,0,0,0,0,0,0,0,0,0,0,0,0,0,0,0,0,0,0,0,0,0,0,0,0,0,0,0,0,0,0,0,0,0,0,0,0,0,0,0,0,0,0,0,0],"id":9,"left_children":[1,3,5,-1,7,9,-1,11,13,15,17,19,21,23,25,27,29,31,-1,33,35,-1,37,39,41,43,45,47,49,51,-1,53,55,-1,-1,-1,-1,-1,-1,-1,-1,-1,-1,-1,-1,-1,-1,-1,-1,-1,-1,-1,-1,-1,-1,-1,-1],"loss_changes":[2.6959653E3,5.977512E2,2.1437866E2,0E0,4.4129388E2,3.0212527E2,0E0,2.4886455E2,3.1239777E1,7.316604E1,7.989807E0,5.242737E1,1.2702304E2,6.1739197E0,2.1029549E1,8.507317E0,3.1921059E1,2.5883427E0,0E0,1.239856E1,2.52296E1,0E0,6.78138E1,8.610256E0,3.639801E0,1.2624508E1,6.341099E0,4.625984E0,1.8457122E0,2.041742E1,0E0,2.8173404E0,5.1900387E0,0E0,0E0,0E0,0E0,0E0,0E0,0E0,0E0,0E0,0E0,0E0,0E0,0E0,0E0,0E0,0E0,0E0,0E0,0E0,0E0,0E0,0E0,0E0,0E0],"parents":[2147483647,0,0,1,1,2,2,4,4,5,5,7,7,8,8,9,9,10,10,11,11,12,12,13,13,14,14,15,15,16,16,17,17,19,19,20,20,22,22,23,23,24,24,25,25,26,26,27,27,28,28,29,29,31,31,32,32],"right_children":[2,4,6,-1,8,10,-1,12,14,16,18,20,22,24,26,28,30,32,-1,34,36,-1,38,40,42,44,46,48,50,52,-1,54,56,-1,-1,-1,-1,-1,-1,-1,-1,-1,-1,-1,-1,-1,-1,-1,-1,-1,-1,-1,-1,-1,-1,-1,-1],"split_conditions":[1.05E3,7.182E2,1.342E3,-7.832591E-2,6.7E0,6.7E0,1.3116962E-1,5.1E1,1.61E2,4.2E1,6.8E0,2.962E1,5.7E0,8.19E2,1.59E2,2.01E2,2.2E2,1.254E3,1.3082957E-1,2.8E1,5.7E0,-7.809149E-2,4.164E1,7.9E2,2.136E1,1.58E2,-1.529E2,3.697E1,2.066E2,3.159E1,1.2777533E-1,1.22E3,6.6E0,-7.149857E-2,-5.043077E-2,-7.738818E-2,-7.5047896E-3,1.2372718E-2,1.1831287E-1,1.05605155E-1,9.795018E-3,3.439633E-2,1.2530895E-1,4.16964E-2,-7.84604E-2,5.133058E-2,1.2965846E-1,-6.37435E-2,3.5752666E-3,-3.9457683E-3,9.141669E-2,1.6784843E-4,6.075535E-2,7.427532E-2,3.6429602E-3,1.2885965E-1,3.980091E-3],"split_indices":[15,15,15,0,16,16,0,0,20,0,4,3,4,15,5,23,5,15,0,0,4,0,3,15,3,5,19,3,20,3,0,15,4,0,0,0,0,0,0,0,0,0,0,0,0,0,0,0,0,0,0,0,0,0,0,0,0],"split_type":[0,0,0,0,0,0,0,0,0,0,0,0,0,0,0,0,0,0,0,0,0,0,0,0,0,0,0,0,0,0,0,0,0,0,0,0,0,0,0,0,0,0,0,0,0,0,0,0,0,0,0,0,0,0,0,0,0],"sum_hessian":[4.1376E3,3.0892715E3,1.0483286E3,1.2305919E3,1.8586797E3,4.5718225E2,5.9114636E2,1.6717799E3,1.8689969E2,2.3584328E2,2.2133899E2,8.7754694E2,7.94233E2,1.4130458E2,4.5595104E1,8.2173805E1,1.5366946E2,2.6032839E1,1.9530614E2,6.603254E2,2.1722159E2,8.639249E1,7.078405E2,2.3529852E1,1.17774734E2,1.778726E1,2.7807846E1,7.867431E1,3.4994965E0,1.3662653E2,1.7042944E1,1.3993856E1,1.2038983E1,3.344732E2,3.2585217E2,3.3586678E1,1.836349E2,6.730171E2,3.4823425E1,1.5433704E1,8.096147E0,3.4567668E0,1.1431797E2,8.745559E0,9.0417E0,1.801591E1,9.791937E0,7.255812E1,6.1161866E0,1.8874321E0,1.6120644E0,8.952901E1,4.7097515E1,9.231409E0,4.7624474E0,9.690681E0,2.3483016E0],"tree_param":{"num_deleted":"0","num_feature":"25","num_nodes":"57","size_leaf_vector":"1"}},{"base_weights":[-3.319345E-2,-4.8633164E-1,1.2749566E0,-7.806604E-2,-1.3824362E-1,7.834223E-1,1.24244295E-1,-2.9319078E-1,1.1888893E0,4.2636022E-2,1.574425E0,-7.668412E-1,4.962304E-3,8.484719E-1,1.2368014E-1,-6.9234806E-1,4.1473147E-1,9.7635925E-1,1.2392178E-1,-8.6573035E-1,-3.348921E-1,-7.800847E-2,1.3350958E-1,1.0372518E0,2.1787141E-1,-7.628074E-1,6.389936E-1,2.5966308E-1,1.2082675E-1,6.2986404E-1,1.305665E0,-7.090355E-2,-5.480657E-2,-6.960292E-2,-8.690843E-3,2.2458538E-2,-2.6048422E-2,1.600456E-1,6.799406E-2,9.1014385E-2,-1.6357284E-2,-6.260165E-2,3.3358645E-3,-3.7599287E-3,8.6163215E-2,9.980795E-3,9.674994E-2,6.6625126E-2,3.4099948E-3,1.17963314E-1,3.763443E-3],"categories":[],"categories_nodes":[],"categories_segments":[],"categories_sizes":[],"default_left":[0,0,0,0,0,0,0,0,0,0,0,0,0,0,0,0,0,0,0,0,0,0,0,0,0,0,0,0,0,0,0,0,0,0,0,0,0,0,0,0,0,0,0,0,0,0,0,0,0,0,0],"id":10,"left_children":[1,3,5,-1,7,9,-1,11,13,15,17,19,21,23,-1,25,27,29,-1,31,33,-1,35,37,39,41,43,45,-1,47,49,-1,-1,-1,-1,-1,-1,-1,-1,-1,-1,-1,-1,-1,-1,-1,-1,-1,-1,-1,-1],"loss_changes":[2.3728022E3,5.737368E2,1.9188892E2,0E0,3.7617868E2,2.6479697E2,0E0,2.3123497E2,2.8564362E1,6.4403915E1,8.565247E0,2.6728912E1,1.3526518E2,1.3107368E1,0E0,7.914253E0,2.8571156E1,2.3294868E0,0E0,4.8359375E0,1.5411917E1,0E0,7.163711E1,1.0379341E1,1.2015323E1,4.4269295E0,1.6469798E0,1.8026863E1,0E0,2.2846088E0,4.3592243E0,0E0,0E0,0E0,0E0,0E0,0E0,0E0,0E0,0E0,0E0,0E0,0E0,0E0,0E0,0E0,0E0,0E0,0E0,0E0,0E0],"parents":[2147483647,0,0,1,1,2,2,4,4,5,5,7,7,8,8,9,9,10,10,11,11,12,12,13,13,15,15,16,16,17,17,19,19,20,20,22,22,23,23,24,24,25,25,26,26,27,27,29,29,30,30],"right_children":[2,4,6,-1,8,10,-1,12,14,16,18,20,22,24,-1,26,28,30,-1,32,34,-1,36,38,40,42,44,46,-1,48,50,-1,-1,-1,-1,-1,-1,-1,-1,-1,-1,-1,-1,-1,-1,-1,-1,-1,-1,-1,-1],"split_conditions":[1.05E3,7.182E2,1.342E3,-7.806604E-2,6.7E0,6.7E0,1.24244295E-1,4.3E1,6.8E0,4.2E1,6.8E0,3.067E1,5.7E0,8E1,1.2368014E-1,2.01E2,2.2E2,1.254E3,1.2392178E-1,2.8E1,2.7E1,-7.800847E-2,1E0,1.27E2,6E0,3.697E1,2.066E2,3.899E1,1.2082675E-1,1.22E3,6.6E0,-7.090355E-2,-5.480657E-2,-6.960292E-2,-8.690843E-3,2.2458538E-2,-2.6048422E-2,1.600456E-1,6.799406E-2,9.1014385E-2,-1.6357284E-2,-6.260165E-2,3.3358645E-3,-3.7599287E-3,8.6163215E-2,9.980795E-3,9.674994E-2,6.6625126E-2,3.4099948E-3,1.17963314E-1,3.763443E-3],"split_indices":[15,15,15,0,16,16,0,0,4,0,4,3,4,0,0,23,5,15,0,0,0,0,9,23,4,3,20,3,0,15,4,0,0,0,0,0,0,0,0,0,0,0,0,0,0,0,0,0,0,0,0],"split_type":[0,0,0,0,0,0,0,0,0,0,0,0,0,0,0,0,0,0,0,0,0,0,0,0,0,0,0,0,0,0,0,0,0,0,0,0,0,0,0,0,0,0,0,0,0,0,0,0,0,0,0],"sum_hessian":[4.0008406E3,2.9719846E3,1.028856E3,1.1453326E3,1.826652E3,4.5101428E2,5.778416E2,1.6363785E3,1.9027353E2,2.3344414E2,2.1757014E2,6.315372E2,1.0048413E3,1.1100292E2,7.927061E1,7.817257E1,1.5527158E2,2.6623106E1,1.9094704E2,5.1307184E2,1.18465355E2,1.09283905E2,8.9555743E2,8.4932274E1,2.607065E1,7.464892E1,3.5236497E0,1.3853159E2,1.6739992E1,1.4392272E1,1.2230834E1,3.188891E2,1.9418271E2,3.1073359E1,8.7392E1,6.660668E2,2.2949068E2,7.4097214E0,7.752255E1,7.3961043E0,1.8674545E1,6.851441E1,6.13451E0,1.8818126E0,1.6418372E0,1.24379616E2,1.4151964E1,9.618192E0,4.7740803E0,9.876288E0,2.354545E0],"tree_param":{"num_deleted":"0","num_feature":"25","num_nodes":"51","size_leaf_vector":"1"}},{"base_weights":[-3.2498337E-2,-4.6878785E-1,1.2091744E0,-7.782581E-2,-1.3085395E-1,7.3816717E-1,1.1846965E-1,-3.1682834E-1,8.599405E-1,-7.206192E-3,1.4500079E0,-8.281575E-1,-5.524393E-2,5.8766884E-1,1.1786674E-1,-4.3310085E-1,6.9307476E-1,1.1764099E-1,7.983242E-1,-9.368444E-1,-6.279865E-1,-7.786725E-2,7.550341E-2,1.5034908E-1,7.060384E-1,-7.370992E-1,1.991874E-2,4.4523802E-1,1.1575469E-1,4.417153E-1,1.0281252E0,-7.322434E-2,-5.9315853E-2,-3.6571067E-2,-6.967289E-2,-4.8659407E-3,5.1281057E-2,3.917824E-2,-3.1803608E-2,4.349034E-2,8.303491E-2,-6.0491048E-2,2.6851032E-2,-5.781934E-3,8.8525265E-2,5.3009488E-2,-1.9937987E-2,1.6141562E-2,1.002754E-1,-1.146109E-2,8.2667865E-2],"categories":[],"categories_nodes":[],"categories_segments":[],"categories_sizes":[],"default_left":[0,0,0,0,0,0,0,0,0,0,0,0,0,0,0,0,0,0,0,0,0,0,0,0,0,0,0,0,0,0,0,0,0,0,0,0,0,0,0,0,0,0,0,0,0,0,0,0,0,0,0],"id":11,"left_children":[1,3,5,-1,7,9,-1,11,13,15,17,19,21,23,-1,25,27,-1,29,31,33,-1,35,37,39,41,43,45,-1,47,49,-1,-1,-1,-1,-1,-1,-1,-1,-1,-1,-1,-1,-1,-1,-1,-1,-1,-1,-1,-1],"loss_changes":[2.0959E3,5.502474E2,1.7434619E2,0E0,3.314219E2,2.3598032E2,0E0,2.0244339E2,5.4158325E1,6.539081E1,1.6321198E1,1.0556885E1,1.2893408E2,1.0620415E1,0E0,1.8788965E1,1.6787437E1,0E0,2.5818596E0,1.129425E0,7.291664E0,0E0,7.5682E1,9.925305E0,7.596733E0,6.4952393E0,6.3633847E0,1.2390747E1,0E0,3.0117106E0,2.0743484E0,0E0,0E0,0E0,0E0,0E0,0E0,0E0,0E0,0E0,0E0,0E0,0E0,0E0,0E0,0E0,0E0,0E0,0E0,0E0,0E0],"parents":[2147483647,0,0,1,1,2,2,4,4,5,5,7,7,8,8,9,9,10,10,11,11,12,12,13,13,15,15,16,16,18,18,19,19,20,20,22,22,23,23,24,24,25,25,26,26,27,27,29,29,30,30],"right_children":[2,4,6,-1,8,10,-1,12,14,16,18,20,22,24,-1,26,28,-1,30,32,34,-1,36,38,40,42,44,46,-1,48,50,-1,-1,-1,-1,-1,-1,-1,-1,-1,-1,-1,-1,-1,-1,-1,-1,-1,-1,-1,-1],"split_conditions":[1.05E3,7.182E2,1.342E3,-7.782581E-2,6.7E0,6.7E0,1.1846965E-1,3.9E1,6.8E0,2.6E2,2E2,2.8E1,5.7E0,2.727E1,1.1786674E-1,2.733E1,2.2E2,1.1764099E-1,-6E0,6.5E0,-5.7E0,-7.786725E-2,3.467E1,9.164E2,2.23E2,6E1,1E0,1E0,1.1575469E-1,4.104E1,2.4E2,-7.322434E-2,-5.9315853E-2,-3.6571067E-2,-6.967289E-2,-4.8659407E-3,5.1281057E-2,3.917824E-2,-3.1803608E-2,4.349034E-2,8.303491E-2,-6.0491048E-2,2.6851032E-2,-5.781934E-3,8.8525265E-2,5.3009488E-2,-1.9937987E-2,1.6141562E-2,1.002754E-1,-1.146109E-2,8.2667865E-2],"split_indices":[15,15,15,0,17,17,0,0,4,22,5,0,4,3,0,3,5,0,18,4,18,0,3,15,22,0,11,9,0,3,22,0,0,0,0,0,0,0,0,0,0,0,0,0,0,0,0,0,0,0,0],"split_type":[0,0,0,0,0,0,0,0,0,0,0,0,0,0,0,0,0,0,0,0,0,0,0,0,0,0,0,0,0,0,0,0,0,0,0,0,0,0,0,0,0,0,0,0,0,0,0,0,0,0,0],"sum_hessian":[3.8668638E3,2.8618953E3,1.0049685E3,1.0657329E3,1.7961624E3,4.437335E2,5.61235E2,1.5128728E3,2.8328946E2,2.1724484E2,2.2648866E2,5.1128278E2,1.0015901E3,2.062152E2,7.7074265E1,1.353249E2,8.191994E1,1.9044131E2,3.6047356E1,3.289775E2,1.8230527E2,1.1676741E2,8.848227E2,4.4410286E1,1.6180492E2,8.060675E1,5.4718155E1,6.4611664E1,1.730827E1,1.5271284E1,2.0776072E1,2.5446315E2,7.451435E1,1.2611046E2,5.6194813E1,7.1962634E2,1.6519632E2,2.7008135E1,1.7402151E1,1.2494742E2,3.685749E1,7.6047585E1,4.559162E0,5.1358166E1,3.3599882E0,4.724106E1,1.737061E1,1.3177878E1,2.0934062E0,1.1641562E0,1.9611914E1],"tree_param":{"num_deleted":"0","num_feature":"25","num_nodes":"51","size_leaf_vector":"1"}},{"base_weights":[-3.1805575E-2,-4.5159337E-1,1.1512859E0,-7.760352E-2,-1.23898044E-1,6.968187E-1,1.1359121E-1,-2.6555818E-1,1.0425723E0,3.655374E-2,1.4246365E0,-7.3240477E-1,4.602012E-4,7.346491E-1,1.1294499E-1,-6.5819645E-1,3.5505837E-1,8.288715E-1,1.13300875E-1,-8.3889323E-1,-2.9457122E-1,-7.7369474E-2,1.09030254E-1,5.221862E-1,1.2009127E0,-7.30859E-1,5.8896065E-1,2.2047146E-1,1.1021999E-1,6.3294697E-1,1.0313723E-1,-6.942762E-2,-5.2371275E-2,-6.7915045E-2,-6.690592E-3,2.2118893E-3,7.326536E-2,5.303111E-2,7.131514E-3,-2.737672E-2,9.537608E-2,-6.0525917E-2,3.1883214E-3,-4.146882E-3,8.011452E-2,-6.798389E-3,4.0137265E-2,5.901959E-2,-4.0978817E-3],"categories":[],"categories_nodes":[],"categories_segments":[],"categories_sizes":[],"default_left":[0,0,0,0,0,0,0,0,0,0,0,0,0,0,0,0,0,0,0,0,0,0,0,0,0,0,0,0,0,0,0,0,0,0,0,0,0,0,0,0,0,0,0,0,0,0,0,0,0],"id":12,"left_children":[1,3,5,-1,7,9,-1,11,13,15,17,19,21,23,-1,25,27,29,-1,31,33,-1,35,37,39,41,43,45,-1,47,-1,-1,-1,-1,-1,-1,-1,-1,-1,-1,-1,-1,-1,-1,-1,-1,-1,-1,-1],"loss_changes":[1.85639E3,5.2705115E2,1.605581E2,0E0,2.9232764E2,2.0981857E2,0E0,1.9582393E2,2.6230957E1,5.1132156E1,9.395233E0,2.6438568E1,1.1277342E2,1.096917E1,0E0,7.014433E0,2.3430962E1,2.172308E0,0E0,4.9664917E0,1.4161785E1,0E0,6.283052E1,6.422806E0,4.439678E0,4.103916E0,1.4650011E0,1.3997879E1,0E0,2.4544735E0,0E0,0E0,0E0,0E0,0E0,0E0,0E0,0E0,0E0,0E0,0E0,0E0,0E0,0E0,0E0,0E0,0E0,0E0,0E0],"parents":[2147483647,0,0,1,1,2,2,4,4,5,5,7,7,8,8,9,9,10,10,11,11,12,12,13,13,15,15,16,16,17,17,19,19,20,20,22,22,23,23,24,24,25,25,26,26,27,27,29,29],"right_children":[2,4,6,-1,8,10,-1,12,14,16,18,20,22,24,-1,26,28,30,-1,32,34,-1,36,38,40,42,44,46,-1,48,-1,-1,-1,-1,-1,-1,-1,-1,-1,-1,-1,-1,-1,-1,-1,-1,-1,-1,-1],"split_conditions":[1.05E3,7.182E2,1.342E3,-7.760352E-2,6.7E0,6.7E0,1.1359121E-1,4.3E1,6.8E0,4.2E1,6.8E0,3.067E1,5.7E0,3.247E1,1.1294499E-1,2.01E2,2.2E2,2.2E2,1.13300875E-1,2.8E1,2.7E1,-7.7369474E-2,3.988E1,9.45E2,-1.539E2,3.697E1,2.066E2,2.866E1,1.1021999E-1,8E1,1.0313723E-1,-6.942762E-2,-5.2371275E-2,-6.7915045E-2,-6.690592E-3,2.2118893E-3,7.326536E-2,5.303111E-2,7.131514E-3,-2.737672E-2,9.537608E-2,-6.0525917E-2,3.1883214E-3,-4.146882E-3,8.011452E-2,-6.798389E-3,4.0137265E-2,5.901959E-2,-4.0978817E-3],"split_indices":[15,15,15,0,16,16,0,0,4,0,4,3,4,3,0,23,5,5,0,0,0,0,3,15,19,3,20,3,0,0,0,0,0,0,0,0,0,0,0,0,0,0,0,0,0,0,0,0,0],"split_type":[0,0,0,0,0,0,0,0,0,0,0,0,0,0,0,0,0,0,0,0,0,0,0,0,0,0,0,0,0,0,0,0,0,0,0,0,0,0,0,0,0,0,0,0,0,0,0,0,0],"sum_hessian":[3.7357966E3,2.7578625E3,9.7793414E2,9.91454E2,1.7664084E3,4.3572772E2,5.422064E2,1.5758092E3,1.9059932E2,2.2901715E2,2.0671057E2,5.713574E2,1.0044517E3,1.1605876E2,7.454056E1,7.165358E1,1.5736359E2,2.7428093E1,1.7928249E2,4.588431E2,1.12514336E2,9.479936E1,9.096524E2,8.118503E1,3.4873737E1,6.8099884E1,3.5536933E0,1.4147725E2,1.5886331E1,2.1776642E1,5.65145E0,2.802447E2,1.785984E2,2.7447548E1,8.506679E1,8.342286E2,7.54238E1,5.6199993E1,2.4985031E1,1.3280983E0,3.354564E1,6.195565E1,6.144234E0,1.8932048E0,1.6604884E0,7.150079E1,6.9976456E1,1.7674139E1,4.102504E0],"tree_param":{"num_deleted":"0","num_feature":"25","num_nodes":"49","size_leaf_vector":"1"}},{"base_weights":[-3.1022327E-2,-4.3462178E-1,1.1001356E0,-7.7397615E-2,-1.17190614E-1,6.594247E-1,1.0942459E-1,-5.4827535E-1,2.280978E-1,-1.00416085E-2,1.3168771E0,-6.044502E-1,1.3136739E0,-7.674729E-2,3.1954414E-1,-4.4467422E-1,5.44304E-1,7.346759E-1,1.0912969E-1,-7.7601546E-1,-2.3711151E-1,-1.4210173E-2,1.3982601E0,2.4158263E-1,1.0834419E-1,-6.863737E-1,-1.3127473E-2,3.389456E-1,1.0672274E-1,6.0883886E-1,1.4832983E0,-6.8537705E-2,-4.7975745E-2,-7.628996E-2,-8.296742E-3,8.786429E-3,1.11151956E-1,2.880217E-2,-1.5261733E-2,-5.853781E-2,2.1010875E-3,-6.5865307E-3,6.5610826E-2,4.4034354E-2,-2.7614148E-2,2.716266E-2,7.7584974E-2,2.0486169E-2,1.4099024E-1],"categories":[],"categories_nodes":[],"categories_segments":[],"categories_sizes":[],"default_left":[0,0,0,0,0,0,0,0,0,0,0,0,0,0,0,0,0,0,0,0,0,0,0,0,0,0,0,0,0,0,0,0,0,0,0,0,0,0,0,0,0,0,0,0,0,0,0,0,0],"id":13,"left_children":[1,3,5,-1,7,9,-1,11,13,15,17,19,21,-1,23,25,27,29,-1,31,33,-1,35,37,-1,39,41,43,-1,45,47,-1,-1,-1,-1,-1,-1,-1,-1,-1,-1,-1,-1,-1,-1,-1,-1,-1,-1],"loss_changes":[1.6481923E3,5.0440598E2,1.4918811E2,0E0,2.589141E2,1.8836282E2,0E0,8.170126E1,1.1088029E2,5.1566288E1,1.630127E1,4.7181335E1,3.1853294E0,0E0,7.868216E1,1.250263E1,1.6491228E1,3.188757E0,0E0,9.033356E0,2.3638508E1,0E0,2.172741E0,5.3577705E1,0E0,5.1910095E0,3.0005522E0,1.382752E1,0E0,3.7075024E0,2.1520758E0,0E0,0E0,0E0,0E0,0E0,0E0,0E0,0E0,0E0,0E0,0E0,0E0,0E0,0E0,0E0,0E0,0E0,0E0],"parents":[2147483647,0,0,1,1,2,2,4,4,5,5,7,7,8,8,9,9,10,10,11,11,12,12,14,14,15,15,16,16,17,17,19,19,20,20,22,22,23,23,25,25,26,26,27,27,29,29,30,30],"right_children":[2,4,6,-1,8,10,-1,12,14,16,18,20,22,-1,24,26,28,30,-1,32,34,-1,36,38,-1,40,42,44,-1,46,48,-1,-1,-1,-1,-1,-1,-1,-1,-1,-1,-1,-1,-1,-1,-1,-1,-1,-1],"split_conditions":[1.05E3,7.182E2,1.342E3,-7.7397615E-2,5.1E1,6.7E0,1.0942459E-1,6.8E0,5.7E0,2.57E2,6.8E0,2.816E1,6E0,-7.674729E-2,6.8E0,2.854E1,2.2E2,4.104E1,1.0912969E-1,2.8E1,5.7E0,-1.4210173E-2,8.12E2,1E0,1.0834419E-1,5.5E1,1E0,1E0,1.0672274E-1,2.72E2,4.6E1,-6.8537705E-2,-4.7975745E-2,-7.628996E-2,-8.296742E-3,8.786429E-3,1.11151956E-1,2.880217E-2,-1.5261733E-2,-5.853781E-2,2.1010875E-3,-6.5865307E-3,6.5610826E-2,4.4034354E-2,-2.7614148E-2,2.716266E-2,7.7584974E-2,2.0486169E-2,1.4099024E-1],"split_indices":[15,15,15,0,0,17,0,16,4,22,4,3,17,0,4,3,5,3,0,0,4,0,15,9,0,0,11,9,0,22,0,0,0,0,0,0,0,0,0,0,0,0,0,0,0,0,0,0,0],"split_type":[0,0,0,0,0,0,0,0,0,0,0,0,0,0,0,0,0,0,0,0,0,0,0,0,0,0,0,0,0,0,0,0,0,0,0,0,0,0,0,0,0,0,0,0,0,0,0,0,0],"sum_hessian":[3.6081758E3,2.6597776E3,9.4839825E2,9.221715E2,1.7376061E3,4.2692892E2,5.2146936E2,7.725309E2,9.6507513E2,2.1201964E2,2.1490927E2,7.505618E2,2.196901E1,6.5026855E1,9.0004834E2,1.189529E2,9.3066734E1,4.243581E1,1.7247346E2,5.1085492E2,2.3970694E2,1.104341E0,2.0864668E1,8.428562E2,5.7192123E1,7.586958E1,4.308332E1,7.6559326E1,1.6507406E1,3.7881527E1,4.5542836E0,2.5121107E2,2.5964383E2,3.2462147E1,2.072448E2,1.4277258E0,1.9436943E1,6.386062E2,2.0425002E2,6.695483E1,8.91476E0,4.057156E1,2.5117624E0,5.6795746E1,1.9763584E1,2.5154362E1,1.2727165E1,1.5409147E0,3.013369E0],"tree_param":{"num_deleted":"0","num_feature":"25","num_nodes":"49","size_leaf_vector":"1"}},{"base_weights":[-3.0203456E-2,-4.177172E-1,1.0542799E0,-7.720669E-2,-1.1075786E-1,6.251589E-1,1.05832756E-1,-6.650477E-1,1.3694517E-1,3.1219121E-2,1.3113524E0,-7.1820605E-1,5.5563945E-1,-1.8553992E-3,9.024156E-1,-6.2305796E-1,3.045432E-1,7.16428E-1,1.05530046E-1,-9.075989E-1,-4.9338385E-1,1.6816412E-1,9.273554E-2,-7.6814055E-2,9.094708E-2,6.3269573E-1,1.0492548E-1,-6.972026E-1,5.3161126E-1,1.8675807E-1,1.0228548E-1,5.372348E-1,9.5309414E-2,-7.160695E-2,-5.5226155E-2,-4.2907655E-2,3.8430285E-2,4.447059E-2,-5.5351187E-2,-1.04756E-2,2.5422864E-2,6.172889E-2,1.509153E-2,-5.8325294E-2,3.2439039E-3,-5.1389183E-3,7.4199736E-2,6.121621E-3,7.3803246E-2,6.0810674E-2,1.27038965E-2],"categories":[],"categories_nodes":[],"categories_segments":[],"categories_sizes":[],"default_left":[0,0,0,0,0,0,0,0,0,0,0,0,0,0,0,0,0,0,0,0,0,0,0,0,0,0,0,0,0,0,0,0,0,0,0,0,0,0,0,0,0,0,0,0,0,0,0,0,0,0,0],"id":14,"left_children":[1,3,5,-1,7,9,-1,11,13,15,17,19,21,23,25,27,29,31,-1,33,35,37,-1,-1,39,41,-1,43,45,47,-1,49,-1,-1,-1,-1,-1,-1,-1,-1,-1,-1,-1,-1,-1,-1,-1,-1,-1,-1,-1],"loss_changes":[1.465951E3,4.8243237E2,1.3973126E2,0E0,2.3519168E2,1.7061061E2,0E0,3.472821E1,1.2582924E2,4.0510612E1,1.0052948E1,2.1157013E1,5.764884E0,9.530029E1,2.3462952E1,6.0865498E0,1.9671082E1,2.1939E0,0E0,1.5115204E0,1.883485E1,6.437211E0,0E0,0E0,5.2723106E1,9.659763E0,0E0,3.7974243E0,1.3302276E0,1.2064325E1,0E0,2.2392697E0,0E0,0E0,0E0,0E0,0E0,0E0,0E0,0E0,0E0,0E0,0E0,0E0,0E0,0E0,0E0,0E0,0E0,0E0,0E0],"parents":[2147483647,0,0,1,1,2,2,4,4,5,5,7,7,8,8,9,9,10,10,11,11,12,12,13,13,14,14,15,15,16,16,17,17,19,19,20,20,21,21,24,24,25,25,27,27,28,28,29,29,31,31],"right_children":[2,4,6,-1,8,10,-1,12,14,16,18,20,22,24,26,28,30,32,-1,34,36,38,-1,-1,40,42,-1,44,46,48,-1,50,-1,-1,-1,-1,-1,-1,-1,-1,-1,-1,-1,-1,-1,-1,-1,-1,-1,-1,-1],"split_conditions":[1.05E3,7.182E2,1.342E3,-7.720669E-2,4.3E1,6.7E0,1.05832756E-1,6.7E0,6.7E0,4.2E1,6.8E0,2.8E1,6.7E0,5.7E0,6.8E0,2.01E2,2.2E2,2.2E2,1.05530046E-1,6.5E0,4.228E1,3.9E1,9.273554E-2,-7.6814055E-2,6.1E1,7.7E1,1.0492548E-1,3.697E1,2.066E2,3.899E1,1.0228548E-1,1E0,9.5309414E-2,-7.160695E-2,-5.5226155E-2,-4.2907655E-2,3.8430285E-2,4.447059E-2,-5.5351187E-2,-1.04756E-2,2.5422864E-2,6.172889E-2,1.509153E-2,-5.8325294E-2,3.2439039E-3,-5.1389183E-3,7.4199736E-2,6.121621E-3,7.3803246E-2,6.0810674E-2,1.27038965E-2],"split_indices":[15,15,15,0,0,16,0,17,16,0,4,0,16,4,4,23,5,5,0,4,3,0,0,0,0,0,0,3,20,3,0,6,0,0,0,0,0,0,0,0,0,0,0,0,0,0,0,0,0,0,0],"split_type":[0,0,0,0,0,0,0,0,0,0,0,0,0,0,0,0,0,0,0,0,0,0,0,0,0,0,0,0,0,0,0,0,0,0,0,0,0,0,0,0,0,0,0,0,0,0,0,0,0,0,0],"sum_hessian":[3.486217E3,2.5688984E3,9.173186E2,8.575762E2,1.7113224E3,4.177176E2,4.9960098E2,5.280376E2,1.1832848E3,2.2447078E2,1.9324683E2,5.0639673E2,2.1640892E1,1.0025016E3,1.8078317E2,6.576483E1,1.5870595E2,2.7957754E1,1.6528906E2,2.73207E2,2.3318971E2,1.4586464E1,7.054427E0,8.259385E1,9.199077E2,1.18626236E2,6.215694E1,6.216897E1,3.59586E0,1.4388312E2,1.4822822E1,2.261633E1,5.341425E0,2.1062741E2,6.25796E1,2.1666365E2,1.6526049E1,1.0166519E1,4.419945E0,4.769033E2,4.4300443E2,8.168246E1,3.694378E1,5.6029747E1,6.139222E0,1.923802E0,1.672058E0,1.28094E2,1.5789135E1,1.2279631E1,1.03366995E1],"tree_param":{"num_deleted":"0","num_feature":"25","num_nodes":"51","size_leaf_vector":"1"}},{"base_weights":[-2.931698E-2,-4.0107208E-1,1.0126538E0,-7.702947E-2,-1.0458037E-1,5.934206E-1,1.0271167E-1,-7.1288425E-1,1.0328811E-1,1.0331974E-1,1.0239831E-1,-7.6674354E-1,8.575255E-1,-7.680163E-2,1.9022465E-1,-2.5895527E-1,5.804193E-1,-8.9729124E-1,-5.5050707E-1,1.0131022E0,-2.1452788E-2,6.686788E-2,8.426814E-1,-5.903051E-1,9.772022E-2,3.9459997E-1,1.01726875E-1,-7.1033366E-2,-5.3917114E-2,-6.705245E-2,-3.0150088E-2,-4.664038E-3,8.654965E-2,-3.132901E-7,7.5261794E-2,4.3309506E-2,1.0181445E-1,-5.0130386E-2,4.6822283E-2,-6.193618E-3,4.1703433E-2,4.1482773E-2,-1.4056448E-2],"categories":[],"categories_nodes":[],"categories_segments":[],"categories_sizes":[],"default_left":[0,0,0,0,0,0,0,0,0,0,0,0,0,0,0,0,0,0,0,0,0,0,0,0,0,0,0,0,0,0,0,0,0,0,0,0,0,0,0,0,0,0,0],"id":15,"left_children":[1,3,5,-1,7,9,-1,11,13,15,-1,17,19,-1,21,23,25,27,29,31,-1,33,35,37,39,41,-1,-1,-1,-1,-1,-1,-1,-1,-1,-1,-1,-1,-1,-1,-1,-1,-1],"loss_changes":[1.3057019E3,4.6098743E2,1.3178949E2,0E0,2.1338649E2,1.5470926E2,0E0,3.7008484E1,1.2350351E2,4.3610367E1,0E0,1.1250885E1,2.9091873E0,0E0,9.402701E1,1.7030443E1,1.5156727E1,1.6107483E0,7.7628746E0,2.0685558E0,0E0,6.1642654E1,2.4584122E1,7.4930553E0,5.8322473E0,8.333987E0,0E0,0E0,0E0,0E0,0E0,0E0,0E0,0E0,0E0,0E0,0E0,0E0,0E0,0E0,0E0,0E0,0E0],"parents":[2147483647,0,0,1,1,2,2,4,4,5,5,7,7,8,8,9,9,11,11,12,12,14,14,15,15,16,16,17,17,18,18,19,19,21,21,22,22,23,23,24,24,25,25],"right_children":[2,4,6,-1,8,10,-1,12,14,16,-1,18,20,-1,22,24,26,28,30,32,-1,34,36,38,40,42,-1,-1,-1,-1,-1,-1,-1,-1,-1,-1,-1,-1,-1,-1,-1,-1,-1],"split_conditions":[1.05E3,7.182E2,1.342E3,-7.702947E-2,3.9E1,6.8E0,1.0271167E-1,6.8E0,5.7E0,2.6E2,1.0239831E-1,2.8E1,1.027E3,-7.680163E-2,6.7E0,2.733E1,2.2E2,6.5E0,5.8E0,1.33E2,-2.1452788E-2,4.164E1,6.8E0,7E0,3.899E1,1E0,1.01726875E-1,-7.1033366E-2,-5.3917114E-2,-6.705245E-2,-3.0150088E-2,-4.664038E-3,8.654965E-2,-3.132901E-7,7.5261794E-2,4.3309506E-2,1.0181445E-1,-5.0130386E-2,4.6822283E-2,-6.193618E-3,4.1703433E-2,4.1482773E-2,-1.4056448E-2],"split_indices":[15,15,15,0,0,4,0,17,4,22,0,0,15,0,16,3,5,4,17,20,0,3,4,17,3,9,0,0,0,0,0,0,0,0,0,0,0,0,0,0,0,0,0],"split_type":[0,0,0,0,0,0,0,0,0,0,0,0,0,0,0,0,0,0,0,0,0,0,0,0,0,0,0,0,0,0,0,0,0,0,0,0,0,0,0,0,0,0,0],"sum_hessian":[3.3687405E3,2.4833457E3,8.8539484E2,7.9737396E2,1.6859718E3,4.0832767E2,4.7706717E2,4.287763E2,1.2571954E3,2.5044498E2,1.5788269E2,4.1505325E2,1.3723047E1,8.923984E1,1.1679556E3,1.4261253E2,1.0783245E2,2.5684155E2,1.582117E2,1.2180083E1,1.5429642E0,9.8317426E2,1.8478139E2,7.359142E1,6.90211E1,8.8215454E1,1.9616999E1,1.974041E2,5.943747E1,4.6236576E1,1.1197513E2,1.4757608E0,1.0704322E1,9.1858966E2,6.4584564E1,1.2335623E2,6.142516E1,6.956785E1,4.023582E0,5.0122944E1,1.8898165E1,6.9372604E1,1.8842842E1],"tree_param":{"num_deleted":"0","num_feature":"25","num_nodes":"43","size_leaf_vector":"1"}},{"base_weights":[-2.8490465E-2,-3.8472387E-1,9.7420615E-1,-7.6864764E-2,-9.8732896E-2,5.632399E-1,9.9980846E-2,-6.955486E-1,9.5671155E-2,9.6595794E-2,9.9654384E-2,-7.500631E-1,7.777248E-1,-7.654443E-2,1.7564908E-1,-4.4175085E-1,3.8850668E-1,-8.863776E-1,-5.2998894E-1,7.719569E-2,1.0316176E0,1.1426767E-1,9.9024914E-2,-5.451276E-1,4.8513383E-1,2.6944122E-1,9.80501E-2,-7.042377E-2,-5.258463E-2,-3.1373158E-2,-7.52629E-2,5.8330353E-2,-5.485477E-2,-4.4591324E-3,9.0523556E-2,-9.192026E-3,2.537567E-2,-5.4925714E-2,-1.9142266E-3,-2.0906674E-2,7.534316E-2,3.0623693E-2,-1.7693147E-2],"categories":[],"categories_nodes":[],"categories_segments":[],"categories_sizes":[],"default_left":[0,0,0,0,0,0,0,0,0,0,0,0,0,0,0,0,0,0,0,0,0,0,0,0,0,0,0,0,0,0,0,0,0,0,0,0,0,0,0,0,0,0,0],"id":16,"left_children":[1,3,5,-1,7,9,-1,11,13,15,-1,17,19,-1,21,23,25,27,29,31,33,35,-1,37,39,41,-1,-1,-1,-1,-1,-1,-1,-1,-1,-1,-1,-1,-1,-1,-1,-1,-1],"loss_changes":[1.1638455E3,4.4002805E2,1.2522241E2,0E0,1.9299237E2,1.4272156E2,0E0,3.3406265E1,1.122337E2,3.938472E1,0E0,1.1368103E1,2.6013098E0,0E0,8.220196E1,8.715595E0,1.7406563E1,1.7018127E0,7.6933784E0,3.452463E0,2.173131E0,5.9132812E1,0E0,7.7460804E0,4.0016155E0,1.0270063E1,0E0,0E0,0E0,0E0,0E0,0E0,0E0,0E0,0E0,0E0,0E0,0E0,0E0,0E0,0E0,0E0,0E0],"parents":[2147483647,0,0,1,1,2,2,4,4,5,5,7,7,8,8,9,9,11,11,12,12,14,14,15,15,16,16,17,17,18,18,19,19,20,20,21,21,23,23,24,24,25,25],"right_children":[2,4,6,-1,8,10,-1,12,14,16,-1,18,20,-1,22,24,26,28,30,32,34,36,-1,38,40,42,-1,-1,-1,-1,-1,-1,-1,-1,-1,-1,-1,-1,-1,-1,-1,-1,-1],"split_conditions":[1.05E3,7.182E2,1.342E3,-7.6864764E-2,3.9E1,6.8E0,9.9980846E-2,6.8E0,5.7E0,5E1,9.9654384E-2,2.8E1,-1.488E2,-7.654443E-2,6.8E0,2.01E2,2.2E2,6.5E0,-5.6E0,-1.525E2,1.33E2,2.761E1,9.9024914E-2,3.145E1,1.254E3,1E0,9.80501E-2,-7.042377E-2,-5.258463E-2,-3.1373158E-2,-7.52629E-2,5.8330353E-2,-5.485477E-2,-4.4591324E-3,9.0523556E-2,-9.192026E-3,2.537567E-2,-5.4925714E-2,-1.9142266E-3,-2.0906674E-2,7.534316E-2,3.0623693E-2,-1.7693147E-2],"split_indices":[15,15,15,0,0,4,0,17,4,0,0,0,19,0,4,23,5,4,18,19,20,3,0,3,15,9,0,0,0,0,0,0,0,0,0,0,0,0,0,0,0,0,0],"split_type":[0,0,0,0,0,0,0,0,0,0,0,0,0,0,0,0,0,0,0,0,0,0,0,0,0,0,0,0,0,0,0,0,0,0,0,0,0,0,0,0,0,0,0],"sum_hessian":[3.256251E3,2.4031038E3,8.531473E2,7.4128546E2,1.6618184E3,3.9890546E2,4.5424182E2,4.0767822E2,1.2541401E3,2.4852774E2,1.503777E2,3.9360483E2,1.4073411E1,8.306259E1,1.1710775E3,8.7199585E1,1.6132816E2,2.4118607E2,1.5241876E2,4.090671E0,9.98274E0,1.1125205E3,5.855693E1,7.8820496E1,8.379087E0,1.4396573E2,1.7362421E1,1.846745E2,5.6511555E1,1.2485481E2,2.756395E1,2.2122216E0,1.8784496E0,1.4738312E0,8.508909E0,5.4108844E2,5.7143207E2,5.7642345E1,2.1178156E1,3.5790708E0,4.800017E0,1.1308184E2,3.0883892E1],"tree_param":{"num_deleted":"0","num_feature":"25","num_nodes":"43","size_leaf_vector":"1"}},{"base_weights":[-2.7670901E-2,-3.686107E-1,9.3850875E-1,-7.671148E-2,-9.316797E-2,5.347349E-1,9.757704E-2,-4.3784788E-1,2.1547927E-1,9.012153E-2,9.723519E-2,-5.3444594E-1,5.356853E-1,-7.5409986E-2,2.7978864E-1,-5.749228E-1,3.0017382E-1,-5.9454226E-1,4.5174485E-1,2.25379E-1,1.3346698E0,2.2169255E-1,9.610703E-2,-6.5048593E-1,4.7696915E-1,1.9130363E-1,9.577969E-2,-6.542339E-2,-3.395997E-2,-1.6989695E-2,7.066277E-2,3.6160316E-2,-1.0070029E-2,1.0469737E-1,1.1656902E-2,2.5959192E-2,-1.3340571E-2,-5.5119995E-2,1.2529901E-3,-1.4888619E-2,5.826802E-2,-3.6989113E-3,3.1356577E-2],"categories":[],"categories_nodes":[],"categories_segments":[],"categories_sizes":[],"default_left":[0,0,0,0,0,0,0,0,0,0,0,0,0,0,0,0,0,0,0,0,0,0,0,0,0,0,0,0,0,0,0,0,0,0,0,0,0,0,0,0,0,0,0],"id":17,"left_children":[1,3,5,-1,7,9,-1,11,13,15,-1,17,19,-1,21,23,25,27,29,31,33,35,-1,37,39,41,-1,-1,-1,-1,-1,-1,-1,-1,-1,-1,-1,-1,-1,-1,-1,-1,-1],"loss_changes":[1.0380886E3,4.1964288E2,1.1962311E2,0E0,1.745948E2,1.321586E2,0E0,7.319069E1,6.828154E1,3.4773735E1,0E0,4.209645E1,1.7172834E1,0E0,4.7635963E1,5.0632133E0,1.9845434E1,2.5813004E1,1.3886864E1,4.863405E0,1.1933899E0,3.881962E1,0E0,3.179451E0,1.0830883E0,9.359091E0,0E0,0E0,0E0,0E0,0E0,0E0,0E0,0E0,0E0,0E0,0E0,0E0,0E0,0E0,0E0,0E0,0E0],"parents":[2147483647,0,0,1,1,2,2,4,4,5,5,7,7,8,8,9,9,11,11,12,12,14,14,15,15,16,16,17,17,18,18,19,19,20,20,21,21,23,23,24,24,25,25],"right_children":[2,4,6,-1,8,10,-1,12,14,16,-1,18,20,-1,22,24,26,28,30,32,34,36,-1,38,40,42,-1,-1,-1,-1,-1,-1,-1,-1,-1,-1,-1,-1,-1,-1,-1,-1,-1],"split_conditions":[1.05E3,7.182E2,1.342E3,-7.671148E-2,5.4E1,6.8E0,9.757704E-2,6.7E0,5.7E0,4.2E1,9.723519E-2,4.228E1,6.8E0,-7.5409986E-2,6.8E0,2.01E2,2.2E2,2.8E1,-1.493E2,9.164E2,1.58E2,1E0,9.610703E-2,3.697E1,2.38E2,2.866E1,9.577969E-2,-6.542339E-2,-3.395997E-2,-1.6989695E-2,7.066277E-2,3.6160316E-2,-1.0070029E-2,1.0469737E-1,1.1656902E-2,2.5959192E-2,-1.3340571E-2,-5.5119995E-2,1.2529901E-3,-1.4888619E-2,5.826802E-2,-3.6989113E-3,3.1356577E-2],"split_indices":[15,15,15,0,0,4,0,17,4,0,0,3,16,0,4,23,5,0,19,15,5,9,0,3,22,3,0,0,0,0,0,0,0,0,0,0,0,0,0,0,0,0,0],"split_type":[0,0,0,0,0,0,0,0,0,0,0,0,0,0,0,0,0,0,0,0,0,0,0,0,0,0,0,0,0,0,0,0,0,0,0,0,0,0,0,0,0,0,0],"sum_hessian":[3.1493154E3,2.3283274E3,8.2098804E2,6.890467E2,1.6392808E3,3.8956482E2,4.314232E2,7.742373E2,8.650434E2,2.4669235E2,1.4287248E2,7.047592E2,6.9478134E1,4.2551273E1,8.224921E2,5.8797413E1,1.8789493E2,6.6465375E2,4.0105457E1,5.096618E1,1.8511951E1,7.785564E2,4.393576E1,5.5212784E1,3.5846307E0,1.7013043E2,1.7764503E1,2.2282845E2,4.418253E2,1.7055393E1,2.3050064E1,2.9537895E1,2.1428284E1,1.7422577E1,1.0893735E0,5.9377985E2,1.8477652E2,4.891946E1,6.293323E0,1.206236E0,2.3783948E0,8.292639E1,8.720404E1],"tree_param":{"num_deleted":"0","num_feature":"25","num_nodes":"43","size_leaf_vector":"1"}},{"base_weights":[-2.676964E-2,-3.5278574E-1,9.0531737E-1,-7.656865E-2,-8.778051E-2,5.080531E-1,9.544981E-2,-6.619984E-1,8.327865E-2,8.4233604E-2,9.50904E-2,-7.172202E-1,6.860063E-1,-7.61305E-2,1.527238E-1,-6.448047E-1,2.5509378E-1,-8.6389065E-1,-4.9409276E-1,8.1271404E-1,-2.2273686E-2,4.8794955E-2,7.214575E-1,-3.751529E-1,-7.060414E-2,1.522203E-1,9.383633E-2,-6.9218025E-2,-4.950516E-2,-2.855699E-2,-7.469346E-2,-4.585609E-3,7.046209E-2,-5.579281E-3,3.2373823E-2,3.6860917E-2,9.433284E-2,-3.6514964E-2,8.867623E-3,-9.141901E-3,2.49205E-2],"categories":[],"categories_nodes":[],"categories_segments":[],"categories_sizes":[],"default_left":[0,0,0,0,0,0,0,0,0,0,0,0,0,0,0,0,0,0,0,0,0,0,0,0,0,0,0,0,0,0,0,0,0,0,0,0,0,0,0,0,0],"id":18,"left_children":[1,3,5,-1,7,9,-1,11,13,15,-1,17,19,-1,21,23,25,27,29,31,-1,33,35,37,-1,39,-1,-1,-1,-1,-1,-1,-1,-1,-1,-1,-1,-1,-1,-1,-1],"loss_changes":[9.2651904E2,3.9985776E2,1.1465668E2,0E0,1.5902716E2,1.2266903E2,0E0,2.8152435E1,9.533583E1,3.078417E1,0E0,1.1271118E1,2.1263638E0,0E0,6.938832E1,3.4020748E0,2.0288788E1,1.9690857E0,7.8166695E0,1.5723314E0,0E0,4.6917404E1,2.1755272E1,1.5047951E0,0E0,9.037342E0,0E0,0E0,0E0,0E0,0E0,0E0,0E0,0E0,0E0,0E0,0E0,0E0,0E0,0E0,0E0],"parents":[2147483647,0,0,1,1,2,2,4,4,5,5,7,7,8,8,9,9,11,11,12,12,14,14,15,15,16,16,17,17,18,18,19,19,21,21,22,22,23,23,25,25],"right_children":[2,4,6,-1,8,10,-1,12,14,16,-1,18,20,-1,22,24,26,28,30,32,-1,34,36,38,-1,40,-1,-1,-1,-1,-1,-1,-1,-1,-1,-1,-1,-1,-1,-1,-1],"split_conditions":[1.05E3,7.182E2,1.342E3,-7.656865E-2,3.9E1,6.8E0,9.544981E-2,6.8E0,5.7E0,3.7E1,9.50904E-2,2.8E1,1.027E3,-7.61305E-2,6.7E0,1E0,2.2E2,6.5E0,-5.6E0,2.7E1,-2.2273686E-2,3.383E1,6.8E0,2.33E2,-7.060414E-2,5.9E1,9.383633E-2,-6.9218025E-2,-4.950516E-2,-2.855699E-2,-7.469346E-2,-4.585609E-3,7.046209E-2,-5.579281E-3,3.2373823E-2,3.6860917E-2,9.433284E-2,-3.6514964E-2,8.867623E-3,-9.141901E-3,2.49205E-2],"split_indices":[15,15,15,0,0,4,0,17,4,0,0,0,15,0,16,9,5,4,18,0,0,3,4,22,0,0,0,0,0,0,0,0,0,0,0,0,0,0,0,0,0],"split_type":[0,0,0,0,0,0,0,0,0,0,0,0,0,0,0,0,0,0,0,0,0,0,0,0,0,0,0,0,0,0,0,0,0,0,0,0,0,0,0,0,0],"sum_hessian":[3.046959E3,2.2578516E3,7.8910736E2,6.404076E2,1.617444E3,3.8026053E2,4.0884683E2,3.705839E2,1.2468601E3,2.4481561E2,1.354449E2,3.5644968E2,1.4134228E1,7.333703E1,1.1735231E3,4.5955513E1,1.988601E2,2.133407E2,1.4310898E2,1.2673791E1,1.4604363E0,9.9312744E2,1.8039563E2,2.5256968E1,2.0698544E1,1.8128925E2,1.757086E1,1.6270242E2,5.063827E1,1.1817797E2,2.4931011E1,1.671366E0,1.1002425E1,7.519806E2,2.411469E2,1.27596794E2,5.2798836E1,2.0604826E1,4.652142E0,7.199986E1,1.0928938E2],"tree_param":{"num_deleted":"0","num_feature":"25","num_nodes":"41","size_leaf_vector":"1"}},{"base_weights":[-2.5951166E-2,-3.373843E-1,8.7369925E-1,-7.643534E-2,-8.277996E-2,4.822438E-1,9.3558416E-2,-6.4389455E-1,7.717023E-2,7.828851E-2,9.317929E-2,-6.995733E-1,6.240597E-1,-7.5897835E-2,1.4124E-1,-6.260479E-1,2.3613466E-1,-8.519475E-1,-4.7406805E-1,1.1132545E0,3.035523E-1,9.17173E-2,9.237115E-2,-3.573463E-1,-6.997808E-2,1.3980871E-1,9.1546595E-2,-6.855785E-2,-4.8105903E-2,-6.409766E-2,-2.4237499E-2,-9.762706E-3,1.1840875E-1,-2.405679E-2,4.891865E-2,1.55957425E-2,-2.1848146E-2,-3.1462293E-2,3.236511E-2,4.23284E-3,5.5514023E-2],"categories":[],"categories_nodes":[],"categories_segments":[],"categories_sizes":[],"default_left":[0,0,0,0,0,0,0,0,0,0,0,0,0,0,0,0,0,0,0,0,0,0,0,0,0,0,0,0,0,0,0,0,0,0,0,0,0,0,0,0,0],"id":19,"left_children":[1,3,5,-1,7,9,-1,11,13,15,-1,17,19,-1,21,23,25,27,29,31,33,35,-1,37,-1,39,-1,-1,-1,-1,-1,-1,-1,-1,-1,-1,-1,-1,-1,-1,-1],"loss_changes":[8.2705457E2,3.8052246E2,1.1045648E2,0E0,1.4343384E2,1.1425055E2,0E0,2.5463028E1,8.695724E1,2.7300943E1,0E0,1.1280701E1,2.0829558E0,0E0,6.338122E1,3.3775845E0,1.8819004E1,2.0528564E0,7.727873E0,3.5262995E0,2.539279E0,5.0180656E1,0E0,1.4367089E0,0E0,9.144584E0,0E0,0E0,0E0,0E0,0E0,0E0,0E0,0E0,0E0,0E0,0E0,0E0,0E0,0E0,0E0],"parents":[2147483647,0,0,1,1,2,2,4,4,5,5,7,7,8,8,9,9,11,11,12,12,14,14,15,15,16,16,17,17,18,18,19,19,20,20,21,21,23,23,25,25],"right_children":[2,4,6,-1,8,10,-1,12,14,16,-1,18,20,-1,22,24,26,28,30,32,34,36,-1,38,-1,40,-1,-1,-1,-1,-1,-1,-1,-1,-1,-1,-1,-1,-1,-1,-1],"split_conditions":[1.05E3,7.182E2,1.342E3,-7.643534E-2,3.9E1,6.8E0,9.3558416E-2,6.8E0,5.7E0,3.7E1,9.317929E-2,2.8E1,1.65E2,-7.5897835E-2,6.8E0,1E0,2.2E2,6.5E0,5.8E0,1.33E2,1.77E2,1E0,9.237115E-2,2.01E2,-6.997808E-2,3.899E1,9.1546595E-2,-6.855785E-2,-4.8105903E-2,-6.409766E-2,-2.4237499E-2,-9.762706E-3,1.1840875E-1,-2.405679E-2,4.891865E-2,1.55957425E-2,-2.1848146E-2,-3.1462293E-2,3.236511E-2,4.23284E-3,5.5514023E-2],"split_indices":[15,15,15,0,0,4,0,17,4,0,0,0,22,0,4,9,5,4,17,20,22,9,0,23,0,3,0,0,0,0,0,0,0,0,0,0,0,0,0,0,0],"split_type":[0,0,0,0,0,0,0,0,0,0,0,0,0,0,0,0,0,0,0,0,0,0,0,0,0,0,0,0,0,0,0,0,0,0,0,0,0,0,0,0,0],"sum_hessian":[2.9498064E3,2.1917207E3,7.580858E2,5.9513257E2,1.5965881E3,3.7138925E2,3.8669653E2,3.53492E2,1.2430961E3,2.4323364E2,1.2815562E2,3.3905173E2,1.4440254E1,6.824161E1,1.1748545E3,4.398754E1,1.992461E2,2.0067642E2,1.383753E2,4.7368774E0,9.703377E0,1.1248501E3,5.000436E1,2.4610634E1,1.9376907E1,1.825288E2,1.6717308E1,1.5235446E2,4.832197E1,3.7965153E1,1.0041016E2,1.4865899E0,3.2502875E0,3.5061154E0,6.197261E0,8.633355E2,2.6151465E2,2.324736E1,1.3632739E0,1.612333E2,2.1295477E1],"tree_param":{"num_deleted":"0","num_feature":"25","num_nodes":"41","size_leaf_vector":"1"}},{"base_weights":[-2.5066081E-2,-3.1392014E-1,8.7005574E-1,-7.630731E-2,-7.841667E-2,4.4669703E-1,9.196365E-2,-1.973003E-1,9.193808E-2,3.2986072E-1,9.048341E-2,-4.7414804E-1,9.122763E-2,-7.040457E-2,3.8841605E-1,-6.6421163E-1,-1.5942773E-1,-7.44641E-2,1.4353028E-1,3.5163465E-1,1.1074922E0,-3.9436895E-2,-6.350341E-2,-7.4263155E-2,-5.8029057E-3,-3.1185574E-3,2.7838945E-2,3.5816293E-2,1.4073703E-2,1.078861E-1,2.7476704E-2],"categories":[],"categories_nodes":[],"categories_segments":[],"categories_sizes":[],"default_left":[0,0,0,0,0,0,0,0,0,0,0,0,0,0,0,0,0,0,0,0,0,0,0,0,0,0,0,0,0,0,0],"id":20,"left_children":[1,3,5,-1,7,9,-1,11,-1,13,-1,15,17,-1,19,21,23,-1,25,27,29,-1,-1,-1,-1,-1,-1,-1,-1,-1,-1],"loss_changes":[7.397553E2,3.582822E2,1.0469208E2,0E0,2.516783E2,2.8049831E1,0E0,1.18821976E2,0E0,2.109993E1,0E0,4.5296265E1,4.147576E1,0E0,6.6864204E0,1.1498489E1,1.9494656E1,0E0,2.9358562E1,5.1959286E0,2.5524473E0,0E0,0E0,0E0,0E0,0E0,0E0,0E0,0E0,0E0,0E0],"parents":[2147483647,0,0,1,1,2,2,4,4,5,5,7,7,9,9,11,11,12,12,14,14,15,15,16,16,18,18,19,19,20,20],"right_children":[2,4,6,-1,8,10,-1,12,-1,14,-1,16,18,-1,20,22,24,-1,26,28,30,-1,-1,-1,-1,-1,-1,-1,-1,-1,-1],"split_conditions":[6.7E0,7.182E2,6.8E0,-7.630731E-2,2.2E2,2.2E2,9.196365E-2,5.5E1,9.193808E-2,1.26E2,9.048341E-2,2.807E1,5.7E0,-7.040457E-2,4.617E1,1E0,5.7E0,-7.44641E-2,2.877E1,9.3E2,5.406E1,-3.9436895E-2,-6.350341E-2,-7.4263155E-2,-5.8029057E-3,-3.1185574E-3,2.7838945E-2,3.5816293E-2,1.4073703E-2,1.078861E-1,2.7476704E-2],"split_indices":[17,15,4,0,5,5,0,0,0,5,0,3,4,0,3,9,4,0,3,15,3,0,0,0,0,0,0,0,0,0,0],"split_type":[0,0,0,0,0,0,0,0,0,0,0,0,0,0,0,0,0,0,0,0,0,0,0,0,0,0,0,0,0,0,0],"sum_hessian":[2.8590068E3,2.1619873E3,6.970197E2,5.413908E2,1.6205964E3,3.1947998E2,3.7753976E2,1.485996E3,1.3460043E2,2.7814084E2,4.133913E1,7.580194E2,7.279766E2,1.1608736E1,2.665321E2,4.7191403E2,2.8610535E2,3.2677803E1,6.9529877E2,2.5497873E2,1.1553384E1,2.7060275E2,2.013113E2,2.4724325E1,2.6138104E2,3.8393304E2,3.1136575E2,1.4314944E2,1.1182928E2,7.336164E0,4.21722E0],"tree_param":{"num_deleted":"0","num_feature":"25","num_nodes":"31","size_leaf_vector":"1"}},{"base_weights":[-2.4228632E-2,-3.0761105E-1,8.170634E-1,-7.619416E-2,-7.3682725E-2,4.3717268E-1,9.035695E-2,-6.106665E-1,6.78743E-2,7.041489E-2,8.9923024E-2,-6.6625494E-1,5.3821117E-1,-7.547802E-2,1.2318164E-1,-1.24187125E-2,8.9406855E-2,-8.2983816E-1,-4.342596E-1,2.2722307E-1,7.795477E-2,8.022185E-2,8.898792E-2,-5.2936685E-1,1.5577285E-1,-6.737485E-2,-4.5248136E-2,-2.4125488E-2,-7.3674366E-2,-1.2031626E-3,9.276244E-2,1.3708678E-2,-2.029638E-2,-5.150761E-2,-7.24245E-3,2.0216797E-2,-1.9557884E-2],"categories":[],"categories_nodes":[],"categories_segments":[],"categories_sizes":[],"default_left":[0,0,0,0,0,0,0,0,0,0,0,0,0,0,0,0,0,0,0,0,0,0,0,0,0,0,0,0,0,0,0,0,0,0,0,0,0],"id":21,"left_children":[1,3,5,-1,7,9,-1,11,13,15,-1,17,19,-1,21,23,-1,25,27,29,-1,31,-1,33,35,-1,-1,-1,-1,-1,-1,-1,-1,-1,-1,-1,-1],"loss_changes":[6.610715E2,3.435959E2,1.0237671E2,0E0,1.1864325E2,9.895127E1,0E0,2.1152954E1,7.353944E1,2.2344688E1,0E0,1.1443085E1,2.1922202E0,0E0,5.3627075E1,1.9627516E1,0E0,2.2711563E0,7.74971E0,2.6955051E0,0E0,4.0761894E1,0E0,3.7084723E0,8.145836E0,0E0,0E0,0E0,0E0,0E0,0E0,0E0,0E0,0E0,0E0,0E0,0E0],"parents":[2147483647,0,0,1,1,2,2,4,4,5,5,7,7,8,8,9,9,11,11,12,12,14,14,15,15,17,17,18,18,19,19,21,21,23,23,24,24],"right_children":[2,4,6,-1,8,10,-1,12,14,16,-1,18,20,-1,22,24,-1,26,28,30,-1,32,-1,34,36,-1,-1,-1,-1,-1,-1,-1,-1,-1,-1,-1,-1],"split_conditions":[1.05E3,7.182E2,1.342E3,-7.619416E-2,3.9E1,6.8E0,9.035695E-2,6.8E0,5.7E0,2.2E2,8.9923024E-2,2.8E1,6.6E0,-7.547802E-2,6.8E0,4.4E1,8.9406855E-2,6.5E0,-5.6E0,4.617E1,7.795477E-2,1E0,8.898792E-2,3.145E1,1E0,-6.737485E-2,-4.5248136E-2,-2.4125488E-2,-7.3674366E-2,-1.2031626E-3,9.276244E-2,1.3708678E-2,-2.029638E-2,-5.150761E-2,-7.24245E-3,2.0216797E-2,-1.9557884E-2],"split_indices":[15,15,15,0,0,4,0,17,4,5,0,0,4,0,4,0,0,4,18,3,0,9,0,3,9,0,0,0,0,0,0,0,0,0,0,0,0],"split_type":[0,0,0,0,0,0,0,0,0,0,0,0,0,0,0,0,0,0,0,0,0,0,0,0,0,0,0,0,0,0,0,0,0,0,0,0,0],"sum_hessian":[2.770811E3,2.073129E3,6.976823E2,5.1386255E2,1.5592662E3,3.5346298E2,3.4421933E2,3.2460242E2,1.2346638E3,2.3933238E2,1.141306E2,3.1002206E2,1.4580337E1,5.9611885E1,1.175052E3,2.2379453E2,1.5537858E1,1.8030765E2,1.2971443E2,9.894268E0,4.6860685E0,1.1304554E3,4.4596558E1,5.441106E1,1.6938347E2,1.3616992E2,4.4137722E1,1.0892534E2,2.0789087E1,8.7661705E0,1.1280968E0,8.751139E2,2.5534152E2,3.946984E1,1.4941218E1,1.3331866E2,3.6064804E1],"tree_param":{"num_deleted":"0","num_feature":"25","num_nodes":"37","size_leaf_vector":"1"}},{"base_weights":[-2.334195E-2,-2.538145E-1,9.3436956E-1,-7.608271E-2,-4.140566E-2,4.7346166E-1,8.908088E-2,-1.4522491E-1,8.899464E-2,3.6123246E-1,8.6533576E-2,-3.4033126E-1,1.9474062E-1,4.8793775E-1,-8.2905434E-2,-5.3308994E-1,3.4150694E-2,-7.289612E-2,2.3941138E-1,-6.0245115E-2,5.3419507E-1,7.440561E-1,-4.4202504E-1,-5.4219384E-2,-2.750012E-2,-7.287271E-2,6.86328E-3,2.6493466E-2,-1.0582722E-2,3.5137527E-2,1.2753022E-1,9.427505E-2,3.0466568E-2,-7.882029E-3,-5.799372E-2],"categories":[],"categories_nodes":[],"categories_segments":[],"categories_sizes":[],"default_left":[0,0,0,0,0,0,0,0,0,0,0,0,0,0,0,0,0,0,0,0,0,0,0,0,0,0,0,0,0,0,0,0,0,0,0],"id":22,"left_children":[1,3,5,-1,7,9,-1,11,-1,13,-1,15,17,19,21,23,25,-1,27,-1,29,31,33,-1,-1,-1,-1,-1,-1,-1,-1,-1,-1,-1,-1],"loss_changes":[5.941118E2,3.5046005E2,6.0409943E1,0E0,2.1651146E2,1.3850746E1,0E0,1.0390638E2,0E0,9.149088E0,0E0,7.18448E1,3.0016502E1,7.959505E0,1.1252214E1,2.0490295E1,1.965056E1,0E0,2.392589E1,0E0,8.574661E0,1.4838414E0,2.850716E0,0E0,0E0,0E0,0E0,0E0,0E0,0E0,0E0,0E0,0E0,0E0,0E0],"parents":[2147483647,0,0,1,1,2,2,4,4,5,5,7,7,9,9,11,11,12,12,13,13,14,14,15,15,16,16,18,18,20,20,21,21,22,22],"right_children":[2,4,6,-1,8,10,-1,12,-1,14,-1,16,18,20,22,24,26,-1,28,-1,30,32,34,-1,-1,-1,-1,-1,-1,-1,-1,-1,-1,-1,-1],"split_conditions":[6.7E0,7.182E2,6.8E0,-7.608271E-2,2.2E2,2.2E2,8.908088E-2,6.1E1,8.899464E-2,8E1,8.6533576E-2,3.103E1,5.7E0,1.26E2,6E0,2.719E1,5.7E0,-7.289612E-2,1E0,-6.0245115E-2,-1.198E2,5.8E0,9.45E2,-5.4219384E-2,-2.750012E-2,-7.287271E-2,6.86328E-3,2.6493466E-2,-1.0582722E-2,3.5137527E-2,1.2753022E-1,9.427505E-2,3.0466568E-2,-7.882029E-3,-5.799372E-2],"split_indices":[16,15,4,0,5,5,0,0,0,0,0,3,4,5,4,3,4,0,9,0,19,17,15,0,0,0,0,0,0,0,0,0,0,0,0],"split_type":[0,0,0,0,0,0,0,0,0,0,0,0,0,0,0,0,0,0,0,0,0,0,0,0,0,0,0,0,0,0,0,0,0,0,0],"sum_hessian":[2.6895493E3,2.1684487E3,5.211005E2,4.7253986E2,1.6959089E3,1.8586589E2,3.3523465E2,1.5645209E3,1.3138805E2,1.6086044E2,2.5005451E1,9.940399E2,5.704809E2,1.25078865E2,3.5781578E1,6.5596747E2,3.3807248E2,2.0271883E1,5.5020905E2,3.7599556E0,1.2131891E2,1.0509339E1,2.5272238E1,3.048663E2,3.5110117E2,1.7379974E1,3.206925E2,4.235664E2,1.2664262E2,1.1617621E2,5.1427E0,3.092763E0,7.416577E0,1.3181211E1,1.2091026E1],"tree_param":{"num_deleted":"0","num_feature":"25","num_nodes":"35","size_leaf_vector":"1"}},{"base_weights":[-2.2487253E-2,-2.7846754E-1,7.772874E-1,-7.597766E-2,-7.1411565E-2,3.8354057E-1,8.784538E-2,-1.6969755E-1,8.769865E-2,2.8634408E-1,8.6025454E-2,-6.316822E-1,-3.401295E-2,-6.885004E-2,3.309176E-1,-4.622905E-1,-8.525136E-1,-7.509725E-2,1.5038284E-2,-5.8616992E-2,3.8222376E-1,-2.3890845E-2,-6.461627E-2,-6.525946E-2,-3.554807E-4,-1.2849881E-2,1.4555284E-2,-2.4837751E-2,6.74666E-2,4.191485E-2,1.8922267E-2],"categories":[],"categories_nodes":[],"categories_segments":[],"categories_sizes":[],"default_left":[0,0,0,0,0,0,0,0,0,0,0,0,0,0,0,0,0,0,0,0,0,0,0,0,0,0,0,0,0,0,0],"id":23,"left_children":[1,3,5,-1,7,9,-1,11,-1,13,-1,15,17,-1,19,21,23,-1,25,27,29,-1,-1,-1,-1,-1,-1,-1,-1,-1,-1],"loss_changes":[5.350075E2,3.0101727E2,9.784552E1,0E0,1.8865045E2,2.3298523E1,0E0,8.979318E1,0E0,1.55371895E1,0E0,1.1771561E1,5.2613625E1,0E0,5.506014E0,1.0413803E1,2.0861511E0,0E0,3.5270306E1,8.8637E0,5.426285E0,0E0,0E0,0E0,0E0,0E0,0E0,0E0,0E0,0E0,0E0],"parents":[2147483647,0,0,1,1,2,2,4,4,5,5,7,7,9,9,11,11,12,12,14,14,15,15,16,16,18,18,19,19,20,20],"right_children":[2,4,6,-1,8,10,-1,12,-1,14,-1,16,18,-1,20,22,24,-1,26,28,30,-1,-1,-1,-1,-1,-1,-1,-1,-1,-1],"split_conditions":[6.7E0,7.182E2,6.8E0,-7.597766E-2,2.2E2,2.2E2,8.784538E-2,3.9E1,8.769865E-2,1.26E2,8.6025454E-2,1E0,5.7E0,-6.885004E-2,2.518E1,-5.7E0,4.164E1,-7.509725E-2,2.78E1,1E0,6.1E0,-2.3890845E-2,-6.461627E-2,-6.525946E-2,-3.554807E-4,-1.2849881E-2,1.4555284E-2,-2.4837751E-2,6.74666E-2,4.191485E-2,1.8922267E-2],"split_indices":[17,15,4,0,5,5,0,0,0,5,0,9,4,0,3,18,3,0,3,12,4,0,0,0,0,0,0,0,0,0,0],"split_type":[0,0,0,0,0,0,0,0,0,0,0,0,0,0,0,0,0,0,0,0,0,0,0,0,0,0,0,0,0,0,0],"sum_hessian":[2.6112217E3,1.9785939E3,6.326278E2,4.3422186E2,1.544372E3,3.173963E2,3.1523148E2,1.4318121E3,1.12559845E2,2.8277182E2,3.4624508E1,3.2422424E2,1.1075879E3,9.392697E0,2.7337912E2,1.8523254E2,1.389917E2,5.2518425E1,1.0550695E3,3.1799965E1,2.4157915E2,1.375192E2,4.771335E1,1.3613708E2,2.8546076E0,5.1696204E2,5.381074E2,2.5267086E1,6.5328784E0,1.009848E2,1.4059435E2],"tree_param":{"num_deleted":"0","num_feature":"25","num_nodes":"31","size_leaf_vector":"1"}},{"base_weights":[-2.1670753E-2,-7.588489E-2,1.70709E-1,1.062526E-2,8.6727604E-2,-8.3773114E-2,8.674029E-2,-6.8683606E-1,1.2304296E-2,-7.9091275E-1,-3.7564158E-1,-7.522683E-2,5.6340396E-2,-4.7630418E-2,-6.7982614E-2,1.9091347E-2,-4.2448647E-2,-3.8822746E-4,4.0577993E-2],"categories":[],"categories_nodes":[],"categories_segments":[],"categories_sizes":[],"default_left":[0,0,0,0,0,0,0,0,0,0,0,0,0,0,0,0,0,0,0],"id":24,"left_children":[1,-1,3,5,-1,7,-1,9,11,13,15,-1,17,-1,-1,-1,-1,-1,-1],"loss_changes":[4.8371185E2,0E0,3.3550662E2,1.9808449E2,0E0,9.8040146E1,0E0,7.2339935E0,6.5352806E1,2.5450745E0,7.3628683E0,0E0,4.1766014E1,0E0,0E0,0E0,0E0,0E0,0E0],"parents":[2147483647,0,0,2,2,3,3,5,5,7,7,8,8,9,9,10,10,12,12],"right_children":[2,-1,4,6,-1,8,-1,10,12,14,16,-1,18,-1,-1,-1,-1,-1,-1],"split_conditions":[7.182E2,-7.588489E-2,6.8E0,2.2E2,8.6727604E-2,3.2E1,8.674029E-2,2.7E1,5.7E0,1E0,1.462E2,-7.522683E-2,3.899E1,-4.7630418E-2,-6.7982614E-2,1.9091347E-2,-4.2448647E-2,-3.8822746E-4,4.0577993E-2],"split_indices":[15,0,4,5,0,0,0,0,4,9,20,0,3,0,0,0,0,0,0],"split_type":[0,0,0,0,0,0,0,0,0,0,0,0,0,0,0,0,0,0,0],"sum_hessian":[2.5375225E3,4.1213144E2,2.1253909E3,1.8292998E3,2.9609113E2,1.6909307E3,1.3836923E2,2.3152644E2,1.4594042E3,1.7234528E2,5.918116E1,5.9759857E1,1.3996443E3,7.613529E1,9.620999E1,1.3650087E1,4.5531075E1,1.2428894E3,1.5675488E2],"tree_param":{"num_deleted":"0","num_feature":"25","num_nodes":"19","size_leaf_vector":"1"}},{"base_weights":[-2.0839492E-2,-7.57929E-2,1.6112624E-1,9.7859185E-3,8.5713565E-2,-7.8481585E-2,8.568839E-2,-2.7630556E-1,2.0252423E-1,-4.6630085E-1,5.6752563E-2,-7.180047E-2,2.318835E-1,-7.50397E-2,-3.0778887E-2,-7.163916E-2,7.594072E-3,2.4339043E-2,-7.714907E-3],"categories":[],"categories_nodes":[],"categories_segments":[],"categories_sizes":[],"default_left":[0,0,0,0,0,0,0,0,0,0,0,0,0,0,0,0,0,0,0],"id":25,"left_children":[1,-1,3,5,-1,7,-1,9,11,13,15,-1,17,-1,-1,-1,-1,-1,-1],"loss_changes":[4.4508374E2,0E0,3.101588E2,1.8104E2,0E0,9.344188E1,0E0,6.243879E1,2.3875639E1,1.8353058E1,1.6270662E1,0E0,2.1066772E1,0E0,0E0,0E0,0E0,0E0,0E0],"parents":[2147483647,0,0,2,2,3,3,5,5,7,7,8,8,9,9,10,10,12,12],"right_children":[2,-1,4,6,-1,8,-1,10,12,14,16,-1,18,-1,-1,-1,-1,-1,-1],"split_conditions":[7.182E2,-7.57929E-2,6.8E0,2.2E2,8.5713565E-2,6.1E1,8.568839E-2,3.103E1,5.7E0,5.7E0,5.7E0,-7.180047E-2,1E0,-7.50397E-2,-3.0778887E-2,-7.163916E-2,7.594072E-3,2.4339043E-2,-7.714907E-3],"split_indices":[15,0,4,5,0,0,0,3,4,4,4,0,9,0,0,0,0,0,0],"split_type":[0,0,0,0,0,0,0,0,0,0,0,0,0,0,0,0,0,0,0],"sum_hessian":[2.4694463E3,3.8279996E2,2.0866462E3,1.808813E3,2.7783328E2,1.6789146E3,1.2989847E2,9.852968E2,6.9361774E2,6.2714026E2,3.5815656E2,1.6343554E1,6.7727423E2,5.7820435E1,5.693198E2,1.4224995E1,3.4393155E2,5.3049713E2,1.4677708E2],"tree_param":{"num_deleted":"0","num_feature":"25","num_nodes":"19","size_leaf_vector":"1"}},{"base_weights":[-2.0067003E-2,-7.570564E-2,1.5199958E-1,8.949569E-3,8.4791265E-2,-7.360168E-2,8.4728345E-2,-7.5088316E-1,1.6227565E-3,-5.725352E-1,-8.9592046E-1,-7.5002775E-2,4.2112187E-2,-4.7303926E-2,3.2858744E-2,-6.791619E-2,-6.0696094E-3,-7.5332266E-3,1.8021662E-2],"categories":[],"categories_nodes":[],"categories_segments":[],"categories_sizes":[],"default_left":[0,0,0,0,0,0,0,0,0,0,0,0,0,0,0,0,0,0,0],"id":26,"left_children":[1,-1,3,5,-1,7,-1,9,11,13,15,-1,17,-1,-1,-1,-1,-1,-1],"loss_changes":[4.0967233E2,0E0,2.8696744E2,1.6566144E2,0E0,8.4972824E1,0E0,3.7997437E0,6.0961487E1,4.8363113E0,6.343765E-1,0E0,4.0838028E1,0E0,0E0,0E0,0E0,0E0,0E0],"parents":[2147483647,0,0,2,2,3,3,5,5,7,7,8,8,9,9,10,10,12,12],"right_children":[2,-1,4,6,-1,8,-1,10,12,14,16,-1,18,-1,-1,-1,-1,-1,-1],"split_conditions":[7.182E2,-7.570564E-2,6.8E0,2.2E2,8.4791265E-2,2.8E1,8.4728345E-2,1E0,5.7E0,-1.199E2,2.25E2,-7.5002775E-2,1E0,-4.7303926E-2,3.2858744E-2,-6.791619E-2,-6.0696094E-3,-7.5332266E-3,1.8021662E-2],"split_indices":[15,0,4,5,0,0,0,9,4,19,22,0,7,0,0,0,0,0,0],"split_type":[0,0,0,0,0,0,0,0,0,0,0,0,0,0,0,0,0,0,0],"sum_hessian":[2.4046433E3,3.555352E2,2.0491082E3,1.7886433E3,2.6046475E2,1.6668066E3,1.2183662E2,1.6572485E2,1.5010818E3,7.6546036E1,8.917882E1,5.739908E1,1.4436827E3,7.27346E1,3.8114421E0,8.80277E1,1.1511185E0,8.3996234E2,6.037204E2],"tree_param":{"num_deleted":"0","num_feature":"25","num_nodes":"19","size_leaf_vector":"1"}},{"base_weights":[-1.924611E-2,-7.562257E-2,1.432172E-1,8.217025E-3,8.395037E-2,-6.887458E-2,8.384954E-2,-7.350017E-1,1.2994341E-3,-5.528131E-1,-8.866889E-1,-7.481356E-2,3.8816933E-2,-5.755669E-2,-1.786468E-2,-6.7263566E-2,-5.844908E-3,-8.5447505E-3,1.5604087E-2],"categories":[],"categories_nodes":[],"categories_segments":[],"categories_sizes":[],"default_left":[0,0,0,0,0,0,0,0,0,0,0,0,0,0,0,0,0,0,0],"id":27,"left_children":[1,-1,3,5,-1,7,-1,9,11,13,15,-1,17,-1,-1,-1,-1,-1,-1],"loss_changes":[3.7720572E2,0E0,2.6570364E2,1.5171442E2,0E0,7.751438E1,0E0,3.8773956E0,5.6292576E1,4.8445415E0,6.250305E-1,0E0,3.74501E1,0E0,0E0,0E0,0E0,0E0,0E0],"parents":[2147483647,0,0,2,2,3,3,5,5,7,7,8,8,9,9,10,10,12,12],"right_children":[2,-1,4,6,-1,8,-1,10,12,14,16,-1,18,-1,-1,-1,-1,-1,-1],"split_conditions":[7.182E2,-7.562257E-2,6.8E0,2.2E2,8.395037E-2,2.8E1,8.384954E-2,1E0,5.7E0,6.2E0,2.25E2,-7.481356E-2,6.1E1,-5.755669E-2,-1.786468E-2,-6.7263566E-2,-5.844908E-3,-8.5447505E-3,1.5604087E-2],"split_indices":[15,0,4,5,0,0,0,9,4,17,22,0,0,0,0,0,0,0,0],"split_type":[0,0,0,0,0,0,0,0,0,0,0,0,0,0,0,0,0,0,0],"sum_hessian":[2.345585E3,3.3019516E2,2.0153899E3,1.7714078E3,2.4398209E2,1.6572252E3,1.1418264E2,1.570408E2,1.5001843E3,7.34572E1,8.3583595E1,5.3383682E1,1.4468007E3,4.281361E1,3.0643589E1,8.243918E1,1.1444235E0,7.6062146E2,6.861792E2],"tree_param":{"num_deleted":"0","num_feature":"25","num_nodes":"19","size_leaf_vector":"1"}},{"base_weights":[-1.8468041E-2,-7.5543225E-2,1.3487747E-1,7.5073806E-3,8.3181895E-2,-6.449789E-2,8.304271E-2,-7.3754746E-1,-7.682443E-4,-5.67189E-1,-8.734828E-1,-7.465465E-2,3.4536026E-2,-4.777681E-2,3.7984565E-2,-6.631692E-2,-8.949574E-3,-1.5991706E-3,3.4972526E-2],"categories":[],"categories_nodes":[],"categories_segments":[],"categories_sizes":[],"default_left":[0,0,0,0,0,0,0,0,0,0,0,0,0,0,0,0,0,0,0],"id":28,"left_children":[1,-1,3,5,-1,7,-1,9,11,13,15,-1,17,-1,-1,-1,-1,-1,-1],"loss_changes":[3.4742825E2,0E0,2.4615732E2,1.3907986E2,0E0,7.071018E1,0E0,2.806694E0,5.2949856E1,5.2813683E0,5.2202225E-1,0E0,3.5131195E1,0E0,0E0,0E0,0E0,0E0,0E0],"parents":[2147483647,0,0,2,2,3,3,5,5,7,7,8,8,9,9,10,10,12,12],"right_children":[2,-1,4,6,-1,8,-1,10,12,14,16,-1,18,-1,-1,-1,-1,-1,-1],"split_conditions":[7.182E2,-7.5543225E-2,6.8E0,2.2E2,8.3181895E-2,2.7E1,8.304271E-2,1E0,5.7E0,-1.199E2,2.23E2,-7.465465E-2,3.899E1,-4.777681E-2,3.7984565E-2,-6.631692E-2,-8.949574E-3,-1.5991706E-3,3.4972526E-2],"split_indices":[15,0,4,5,0,0,0,9,4,19,22,0,3,0,0,0,0,0,0],"split_type":[0,0,0,0,0,0,0,0,0,0,0,0,0,0,0,0,0,0,0],"sum_hessian":[2.2894817E3,3.0664706E2,1.9828346E3,1.7544617E3,2.2837296E2,1.6475302E3,1.0693147E2,1.4159288E2,1.5059373E3,6.51355E1,7.645738E1,5.068874E1,1.4552485E3,6.1539364E1,3.5961297E0,7.521352E1,1.2438644E0,1.2893882E3,1.6586037E2],"tree_param":{"num_deleted":"0","num_feature":"25","num_nodes":"19","size_leaf_vector":"1"}},{"base_weights":[-1.7656684E-2,-7.546711E-2,1.2700374E-1,6.909276E-3,8.247799E-2,-6.032816E-2,8.229978E-2,-2.3343566E-1,1.6854046E-1,-4.5390502E-1,9.914584E-3,4.7438085E-2,3.774999E-1,-2.4980422E-2,-5.055143E-2,-5.9634345E-3,3.3493638E-2,-8.5286625E-2,1.8292783E-2,3.7312005E-2,-6.167061E-3],"categories":[],"categories_nodes":[],"categories_segments":[],"categories_sizes":[],"default_left":[0,0,0,0,0,0,0,0,0,0,0,0,0,0,0,0,0,0,0,0,0],"id":29,"left_children":[1,-1,3,5,-1,7,-1,9,11,13,15,17,19,-1,-1,-1,-1,-1,-1,-1,-1],"loss_changes":[3.2014124E2,0E0,2.281318E2,1.2759094E2,0E0,6.498591E1,0E0,5.0101894E1,1.786102E1,1.2806236E1,1.7405922E1,1.0464322E2,1.4333183E1,0E0,0E0,0E0,0E0,0E0,0E0,0E0,0E0],"parents":[2147483647,0,0,2,2,3,3,5,5,7,7,8,8,9,9,10,10,11,11,12,12],"right_children":[2,-1,4,6,-1,8,-1,10,12,14,16,18,20,-1,-1,-1,-1,-1,-1,-1,-1],"split_conditions":[7.182E2,-7.546711E-2,6.8E0,2.2E2,8.247799E-2,6.1E1,8.229978E-2,2.854E1,1.647E2,1E0,4.228E1,-1.493E2,1E0,-2.4980422E-2,-5.055143E-2,-5.9634345E-3,3.3493638E-2,-8.5286625E-2,1.8292783E-2,3.7312005E-2,-6.167061E-3],"split_indices":[15,0,4,5,0,0,0,3,20,9,3,19,9,0,0,0,0,0,0,0,0],"split_type":[0,0,0,0,0,0,0,0,0,0,0,0,0,0,0,0,0,0,0,0,0],"sum_hessian":[2.2367441E3,2.8476678E2,1.9519773E3,1.7383584E3,2.1361885E2,1.6382834E3,1.0007499E2,9.3275964E2,7.055238E2,4.8893304E2,4.4382657E2,4.4743817E2,2.5808563E2,3.1727597E2,1.7165709E2,3.6906253E2,7.476405E1,6.297021E1,3.8446796E2,2.0460065E2,5.3484978E1],"tree_param":{"num_deleted":"0","num_feature":"25","num_nodes":"21","size_leaf_vector":"1"}},{"base_weights":[-1.6955577E-2,-7.5393796E-2,1.1948006E-1,6.2485365E-3,8.1831776E-2,-5.656551E-2,8.161366E-2,-7.4859396E-2,-1.6567139E-2,8.446182E-2,-3.422475E-1,-1.6370097E-2,1.3344011E-2,-6.2427178E-2,-1.8452113E-2],"categories":[],"categories_nodes":[],"categories_segments":[],"categories_sizes":[],"default_left":[0,0,0,0,0,0,0,0,0,0,0,0,0,0,0],"id":30,"left_children":[1,-1,3,5,-1,7,-1,-1,9,11,13,-1,-1,-1,-1],"loss_changes":[2.950545E2,0E0,2.1154193E2,1.1716982E2,0E0,6.1354668E1,0E0,0E0,5.1495598E1,3.3838547E1,1.726931E1,0E0,0E0,0E0,0E0],"parents":[2147483647,0,0,2,2,3,3,5,5,8,8,9,9,10,10],"right_children":[2,-1,4,6,-1,8,-1,-1,10,12,14,-1,-1,-1,-1],"split_conditions":[7.182E2,-7.5393796E-2,6.8E0,2.2E2,8.1831776E-2,5.7E0,8.161366E-2,-7.4859396E-2,1E0,2.654E1,2.8E1,-1.6370097E-2,1.3344011E-2,-6.2427178E-2,-1.8452113E-2],"split_indices":[15,0,4,5,0,4,0,0,9,3,0,0,0,0,0],"split_type":[0,0,0,0,0,0,0,0,0,0,0,0,0,0,0],"sum_hessian":[2.1863135E3,2.6443866E2,1.9218748E3,1.7221785E3,1.9969635E2,1.6285756E3,9.360284E1,6.538812E1,1.5631875E3,1.1936478E3,3.695396E2,2.812591E2,9.1238873E2,5.9387127E1,3.101525E2],"tree_param":{"num_deleted":"0","num_feature":"25","num_nodes":"15","size_leaf_vector":"1"}},{"base_weights":[-1.62146E-2,-7.532286E-2,1.12318724E-1,5.6888987E-3,8.123722E-2,-5.2938383E-2,8.097805E-2,-7.470298E-2,-1.5565602E-2,-6.47401E-1,3.1464897E-2,-3.4660954E-2,-6.113163E-2,-7.6236166E-3,1.5999863E-2],"categories":[],"categories_nodes":[],"categories_segments":[],"categories_sizes":[],"default_left":[0,0,0,0,0,0,0,0,0,0,0,0,0,0,0],"id":31,"left_children":[1,-1,3,5,-1,7,-1,-1,9,11,13,-1,-1,-1,-1],"loss_changes":[2.7203152E2,0E0,1.9621732E2,1.0766216E2,0E0,5.7133377E1,0E0,0E0,4.639523E1,2.983406E0,3.520833E1,0E0,0E0,0E0,0E0],"parents":[2147483647,0,0,2,2,3,3,5,5,8,8,9,9,10,10],"right_children":[2,-1,4,6,-1,8,-1,-1,10,12,14,-1,-1,-1,-1],"split_conditions":[7.182E2,-7.532286E-2,6.8E0,2.2E2,8.123722E-2,5.7E0,8.097805E-2,-7.470298E-2,2.7E1,1E0,1E0,-3.4660954E-2,-6.113163E-2,-7.6236166E-3,1.5999863E-2],"split_indices":[15,0,4,5,0,4,0,0,0,9,7,0,0,0,0],"split_type":[0,0,0,0,0,0,0,0,0,0,0,0,0,0,0],"sum_hessian":[2.1400498E3,2.4555453E2,1.8944954E3,1.7079171E3,1.8657822E2,1.6204144E3,8.750261E1,6.0787666E1,1.5596268E3,1.0716352E2,1.4524633E3,5.269928E1,5.446424E1,8.388946E2,6.135687E2],"tree_param":{"num_deleted":"0","num_feature":"25","num_nodes":"15","size_leaf_vector":"1"}},{"base_weights":[-1.5476431E-2,-7.525388E-2,1.05485424E-1,5.178715E-3,8.068893E-2,-4.950175E-2,8.038739E-2,-7.454576E-2,-1.4606915E-2,-1.6557987E-1,1.7051557E-1,-3.9263014E-2,-3.4533318E-3,4.144397E-3,2.757841E-2],"categories":[],"categories_nodes":[],"categories_segments":[],"categories_sizes":[],"default_left":[0,0,0,0,0,0,0,0,0,0,0,0,0,0,0],"id":32,"left_children":[1,-1,3,5,-1,7,-1,-1,9,11,13,-1,-1,-1,-1],"loss_changes":[2.5087735E2,0E0,1.8205885E2,9.898823E1,0E0,5.3193516E1,0E0,0E0,4.357194E1,3.6713554E1,1.5897209E1,0E0,0E0,0E0,0E0],"parents":[2147483647,0,0,2,2,3,3,5,5,8,8,9,9,10,10],"right_children":[2,-1,4,6,-1,8,-1,-1,10,12,14,-1,-1,-1,-1],"split_conditions":[7.182E2,-7.525388E-2,6.8E0,2.2E2,8.068893E-2,5.7E0,8.038739E-2,-7.454576E-2,6.1E1,2.719E1,1.59E2,-3.9263014E-2,-3.4533318E-3,4.144397E-3,2.757841E-2],"split_indices":[15,0,4,5,0,4,0,0,0,3,5,0,0,0,0],"split_type":[0,0,0,0,0,0,0,0,0,0,0,0,0,0,0],"sum_hessian":[2.0975195E3,2.2801349E2,1.869506E3,1.6952714E3,1.7423463E2,1.6135106E3,8.176075E1,5.6511864E1,1.5569987E3,8.576582E2,6.993405E2,2.1387357E2,6.437846E2,4.421778E2,2.5716272E2],"tree_param":{"num_deleted":"0","num_feature":"25","num_nodes":"15","size_leaf_vector":"1"}},{"base_weights":[-1.4742129E-2,-7.518647E-2,9.909067E-2,4.738081E-3,8.018216E-2,-4.628429E-2,7.9836704E-2,-7.438695E-2,-1.36873545E-2,7.753603E-2,-3.1798774E-1,-4.1071046E-3,1.9218136E-2,-4.0224925E-2,-9.911051E-3],"categories":[],"categories_nodes":[],"categories_segments":[],"categories_sizes":[],"default_left":[0,0,0,0,0,0,0,0,0,0,0,0,0,0,0],"id":33,"left_children":[1,-1,3,5,-1,7,-1,-1,9,11,13,-1,-1,-1,-1],"loss_changes":[2.3145853E2,0E0,1.6894034E2,9.106761E1,0E0,4.9515385E1,0E0,0E0,4.317399E1,2.8306915E1,1.448436E1,0E0,0E0,0E0,0E0],"parents":[2147483647,0,0,2,2,3,3,5,5,8,8,9,9,10,10],"right_children":[2,-1,4,6,-1,8,-1,-1,10,12,14,-1,-1,-1,-1],"split_conditions":[7.182E2,-7.518647E-2,6.8E0,2.2E2,8.018216E-2,5.7E0,7.9836704E-2,-7.438695E-2,1E0,1E0,5.5E1,-4.1071046E-3,1.9218136E-2,-4.0224925E-2,-9.911051E-3],"split_indices":[15,0,4,5,0,4,0,0,9,7,0,0,0,0,0],"split_type":[0,0,0,0,0,0,0,0,0,0,0,0,0,0,0],"sum_hessian":[2.056666E3,2.117214E2,1.8449447E3,1.6823108E3,1.6263388E2,1.6059478E3,7.6363E1,5.2538307E1,1.5534094E3,1.1957053E3,3.577042E2,6.874636E2,5.0824167E2,1.636018E2,1.9410239E2],"tree_param":{"num_deleted":"0","num_feature":"25","num_nodes":"15","size_leaf_vector":"1"}},{"base_weights":[-1.4031013E-2,-7.512025E-2,9.297757E-2,4.3186084E-3,7.9712614E-2,-4.3257266E-2,7.9321526E-2,-6.631729E-1,4.0986515E-3,-6.8414176E-1,2.9322779E-2,-7.362493E-2,2.8128533E-2,-6.8664655E-2,-4.397676E-2,-1.5688663E-3,2.9572297E-2],"categories":[],"categories_nodes":[],"categories_segments":[],"categories_sizes":[],"default_left":[0,0,0,0,0,0,0,0,0,0,0,0,0,0,0,0,0],"id":34,"left_children":[1,-1,3,5,-1,7,-1,9,11,13,-1,-1,15,-1,-1,-1,-1],"loss_changes":[2.1359242E2,0E0,1.568071E2,8.38293E1,0E0,4.6992188E1,0E0,2.778572E0,3.5275944E1,1.9916611E0,0E0,0E0,2.6113989E1,0E0,0E0,0E0,0E0],"parents":[2147483647,0,0,2,2,3,3,5,5,7,7,8,8,9,9,12,12],"right_children":[2,-1,4,6,-1,8,-1,10,12,14,-1,-1,16,-1,-1,-1,-1],"split_conditions":[7.182E2,-7.512025E-2,6.8E0,2.2E2,7.9712614E-2,2.7E1,7.9321526E-2,-1.194E2,5.7E0,9E0,2.9322779E-2,-7.362493E-2,3.899E1,-6.8664655E-2,-4.397676E-2,-1.5688663E-3,2.9572297E-2],"split_indices":[15,0,4,5,0,0,0,19,4,0,0,0,3,0,0,0,0],"split_type":[0,0,0,0,0,0,0,0,0,0,0,0,0,0,0,0,0],"sum_hessian":[2.0192677E3,1.9659067E2,1.8226771E3,1.6709341E3,1.5174304E2,1.5996399E3,7.129412E1,1.1260273E2,1.4870372E3,1.1075069E2,1.8520366E0,3.4438393E1,1.4525988E3,3.0415745E1,8.0334946E1,1.2818441E3,1.7075471E2],"tree_param":{"num_deleted":"0","num_feature":"25","num_nodes":"17","size_leaf_vector":"1"}},{"base_weights":[-1.3337322E-2,-7.505484E-2,8.722799E-2,3.942121E-3,7.92765E-2,-4.042847E-2,7.8837834E-2,-7.407743E-2,-1.1805606E-2,7.116648E-2,-2.9692128E-1,-2.544499E-3,2.0850608E-2,-6.164133E-2,-1.6786342E-2],"categories":[],"categories_nodes":[],"categories_segments":[],"categories_sizes":[],"default_left":[0,0,0,0,0,0,0,0,0,0,0,0,0,0,0],"id":35,"left_children":[1,-1,3,5,-1,7,-1,-1,9,11,13,-1,-1,-1,-1],"loss_changes":[1.9716737E2,0E0,1.4555971E2,7.720766E1,0E0,4.3211075E1,0E0,0E0,3.6650875E1,2.609827E1,1.3218004E1,0E0,0E0,0E0,0E0],"parents":[2147483647,0,0,2,2,3,3,5,5,8,8,9,9,10,10],"right_children":[2,-1,4,6,-1,8,-1,-1,10,12,14,-1,-1,-1,-1],"split_conditions":[7.182E2,-7.505484E-2,6.8E0,2.2E2,7.92765E-2,5.7E0,7.8837834E-2,-7.407743E-2,1E0,6.6E1,2.3E1,-2.544499E-3,2.0850608E-2,-6.164133E-2,-1.6786342E-2],"split_indices":[15,0,4,5,0,4,0,0,9,0,0,0,0,0,0],"split_type":[0,0,0,0,0,0,0,0,0,0,0,0,0,0,0],"sum_hessian":[1.9837426E3,1.8253952E2,1.801203E3,1.659674E3,1.4152898E2,1.593135E3,6.653898E1,4.5743736E1,1.5473912E3,1.1991691E3,3.482222E2,7.957145E2,4.0345462E2,4.1312206E1,3.0690997E2],"tree_param":{"num_deleted":"0","num_feature":"25","num_nodes":"15","size_leaf_vector":"1"}},{"base_weights":[-1.2685861E-2,-7.498988E-2,8.17603E-2,3.5699727E-3,7.887035E-2,-3.7802722E-2,7.8381956E-2,-7.390944E-2,-1.1086368E-2,-2.8223673E-1,6.919205E-2,-3.77291E-2,-4.1594417E-3,1.4907945E-2,-7.2797113E-3],"categories":[],"categories_nodes":[],"categories_segments":[],"categories_sizes":[],"default_left":[0,0,0,0,0,0,0,0,0,0,0,0,0,0,0],"id":36,"left_children":[1,-1,3,5,-1,7,-1,-1,9,11,13,-1,-1,-1,-1],"loss_changes":[1.820451E2,0E0,1.3514224E2,7.114797E1,0E0,4.019713E1,0E0,0E0,3.3663246E1,1.7662304E1,2.572765E1,0E0,0E0,0E0,0E0],"parents":[2147483647,0,0,2,2,3,3,5,5,8,8,9,9,10,10],"right_children":[2,-1,4,6,-1,8,-1,-1,10,12,14,-1,-1,-1,-1],"split_conditions":[7.182E2,-7.498988E-2,6.8E0,2.2E2,7.887035E-2,5.7E0,7.8381956E-2,-7.390944E-2,2.662E1,6E1,9.425E2,-3.77291E-2,-4.1594417E-3,1.4907945E-2,-7.2797113E-3],"split_indices":[15,0,4,5,0,4,0,0,3,0,15,0,0,0,0],"split_type":[0,0,0,0,0,0,0,0,0,0,0,0,0,0,0],"sum_hessian":[1.9506578E3,1.694919E2,1.7811659E3,1.649208E3,1.3195798E2,1.5871259E3,6.2082134E1,4.253349E1,1.5445924E3,3.5226334E2,1.192329E3,1.7785957E2,1.7440376E2,6.699603E2,5.223687E2],"tree_param":{"num_deleted":"0","num_feature":"25","num_nodes":"15","size_leaf_vector":"1"}},{"base_weights":[-1.20514715E-2,-7.4925E-2,7.657102E-2,3.2272171E-3,7.849105E-2,-3.533169E-2,7.7950574E-2,-6.228556E-1,5.2160025E-3,-6.455576E-1,3.0316569E-2,-7.297712E-2,2.4522869E-2,-6.739473E-2,-4.085715E-2,-6.801541E-3,1.3279359E-2],"categories":[],"categories_nodes":[],"categories_segments":[],"categories_sizes":[],"default_left":[0,0,0,0,0,0,0,0,0,0,0,0,0,0,0,0,0],"id":37,"left_children":[1,-1,3,5,-1,7,-1,9,11,13,-1,-1,15,-1,-1,-1,-1],"loss_changes":[1.6812323E2,0E0,1.2548409E2,6.559342E1,0E0,3.7714703E1,0E0,2.6440353E0,2.8010311E1,2.0706978E0,0E0,0E0,2.556971E1,0E0,0E0,0E0,0E0],"parents":[2147483647,0,0,2,2,3,3,5,5,7,7,8,8,9,9,12,12],"right_children":[2,-1,4,6,-1,8,-1,10,12,14,-1,-1,16,-1,-1,-1,-1],"split_conditions":[7.182E2,-7.4925E-2,6.8E0,2.2E2,7.849105E-2,2.7E1,7.7950574E-2,-1.194E2,5.7E0,9E0,3.0316569E-2,-7.297712E-2,1E0,-6.739473E-2,-4.085715E-2,-6.801541E-3,1.3279359E-2],"split_indices":[15,0,4,5,0,0,0,19,4,0,0,0,7,0,0,0,0],"split_type":[0,0,0,0,0,0,0,0,0,0,0,0,0,0,0,0,0],"sum_hessian":[1.9202845E3,1.573769E2,1.7629076E3,1.6399106E3,1.229969E2,1.5820024E3,5.7908222E1,1.0120541E2,1.4807971E3,9.938022E1,1.8251865E0,2.7703674E1,1.4530934E3,2.6055365E1,7.332485E1,8.280623E2,6.2503107E2],"tree_param":{"num_deleted":"0","num_feature":"25","num_nodes":"17","size_leaf_vector":"1"}},{"base_weights":[-1.1441912E-2,-7.485984E-2,7.166691E-2,2.9081125E-3,7.813578E-2,-3.30227E-2,7.754065E-2,-7.35786E-2,-9.576744E-3,6.604464E-2,-2.7649492E-1,-2.1484066E-3,1.8639488E-2,-3.625735E-2,-8.53938E-3],"categories":[],"categories_nodes":[],"categories_segments":[],"categories_sizes":[],"default_left":[0,0,0,0,0,0,0,0,0,0,0,0,0,0,0],"id":38,"left_children":[1,-1,3,5,-1,7,-1,-1,9,11,13,-1,-1,-1,-1],"loss_changes":[1.5530357E2,0E0,1.1652455E2,6.0499218E1,0E0,3.507139E1,0E0,0E0,3.1126738E1,2.0772469E1,1.1402479E1,0E0,0E0,0E0,0E0],"parents":[2147483647,0,0,2,2,3,3,5,5,8,8,9,9,10,10],"right_children":[2,-1,4,6,-1,8,-1,-1,10,12,14,-1,-1,-1,-1],"split_conditions":[7.182E2,-7.485984E-2,6.8E0,2.2E2,7.813578E-2,5.7E0,7.754065E-2,-7.35786E-2,1E0,6.6E1,5.5E1,-2.1484066E-3,1.8639488E-2,-3.625735E-2,-8.53938E-3],"split_indices":[15,0,4,5,0,4,0,0,9,0,0,0,0,0,0],"split_type":[0,0,0,0,0,0,0,0,0,0,0,0,0,0,0],"sum_hessian":[1.8920143E3,1.4612857E2,1.7458856E3,1.6312725E3,1.1461323E2,1.5772701E3,5.400235E1,3.7080875E1,1.5401892E3,1.2007529E3,3.3943634E2,7.9109546E2,4.096574E2,1.4850642E2,1.9092992E2],"tree_param":{"num_deleted":"0","num_feature":"25","num_nodes":"15","size_leaf_vector":"1"}},{"base_weights":[-1.084348E-2,-7.479406E-2,6.708743E-2,2.6339004E-3,7.780194E-2,-3.0859346E-2,7.714939E-2,-7.339478E-2,-8.980632E-3,-2.624169E-1,6.39679E-2,-3.52073E-2,-4.7045145E-3,1.3673447E-2,-6.7695226E-3],"categories":[],"categories_nodes":[],"categories_segments":[],"categories_sizes":[],"default_left":[0,0,0,0,0,0,0,0,0,0,0,0,0,0,0],"id":39,"left_children":[1,-1,3,5,-1,7,-1,-1,9,11,13,-1,-1,-1,-1],"loss_changes":[1.4350375E2,0E0,1.0820178E2,5.582181E1,0E0,3.2610123E1,0E0,0E0,2.8462574E1,1.4194571E1,2.183754E1,0E0,0E0,0E0,0E0],"parents":[2147483647,0,0,2,2,3,3,5,5,8,8,9,9,10,10],"right_children":[2,-1,4,6,-1,8,-1,-1,10,12,14,-1,-1,-1,-1],"split_conditions":[7.182E2,-7.479406E-2,6.8E0,2.2E2,7.780194E-2,5.7E0,7.714939E-2,-7.339478E-2,2.662E1,6E1,9.425E2,-3.52073E-2,-4.7045145E-3,1.3673447E-2,-6.7695226E-3],"split_indices":[15,0,4,5,0,4,0,0,3,0,15,0,0,0,0],"split_type":[0,0,0,0,0,0,0,0,0,0,0,0,0,0,0],"sum_hessian":[1.8649211E3,1.3568547E2,1.7292357E3,1.622461E3,1.0677464E2,1.5721115E3,5.0349625E1,3.4486893E1,1.5376245E3,3.430858E2,1.1945388E3,1.677906E2,1.7529517E2,6.757952E2,5.187435E2],"tree_param":{"num_deleted":"0","num_feature":"25","num_nodes":"15","size_leaf_vector":"1"}},{"base_weights":[-1.0278861E-2,-7.472729E-2,6.273491E-2,2.3651302E-3,7.74872E-2,-2.8842334E-2,7.6774195E-2,-5.848333E-1,6.320641E-3,-6.635891E-2,-4.7260943E-1,-6.833377E-2,2.1525775E-1,-3.959009E-2,2.2101656E-2,-1.4425588E-2,8.841743E-3,2.8950194E-2,3.391273E-3],"categories":[],"categories_nodes":[],"categories_segments":[],"categories_sizes":[],"default_left":[0,0,0,0,0,0,0,0,0,0,0,0,0,0,0,0,0,0,0],"id":40,"left_children":[1,-1,3,5,-1,7,-1,9,11,-1,13,15,17,-1,-1,-1,-1,-1,-1],"loss_changes":[1.326245E2,0E0,1.0048201E2,5.1526688E1,0E0,3.067457E1,0E0,2.7233982E0,2.3045141E1,0E0,3.1262197E0,2.516114E1,1.127434E1,0E0,0E0,0E0,0E0,0E0,0E0],"parents":[2147483647,0,0,2,2,3,3,5,5,7,7,8,8,10,10,11,11,12,12],"right_children":[2,-1,4,6,-1,8,-1,10,12,-1,14,16,18,-1,-1,-1,-1,-1,-1],"split_conditions":[7.182E2,-7.472729E-2,6.8E0,2.2E2,7.74872E-2,2.7E1,7.6774195E-2,9E0,3.383E1,-6.635891E-2,-1.199E2,6.6E1,1.611E2,-3.959009E-2,2.2101656E-2,-1.4425588E-2,8.841743E-3,2.8950194E-2,3.391273E-3],"split_indices":[15,0,4,5,0,0,0,0,3,0,19,0,20,0,0,0,0,0,0],"split_type":[0,0,0,0,0,0,0,0,0,0,0,0,0,0,0,0,0,0,0],"sum_hessian":[1.8401957E3,1.2599041E2,1.7142052E3,1.6147546E3,9.9450584E1,1.5678187E3,4.6935898E1,9.232704E1,1.4754917E3,2.3263704E1,6.906334E1,1.0875698E3,3.8792188E2,6.471482E1,4.348516E0,6.5282025E2,4.3474957E2,1.9292651E2,1.9499538E2],"tree_param":{"num_deleted":"0","num_feature":"25","num_nodes":"19","size_leaf_vector":"1"}},{"base_weights":[-9.711346E-3,-7.465917E-2,5.8717508E-2,2.1570385E-3,7.718934E-2,-2.6941994E-2,7.641267E-2,-7.315461E-2,-6.810772E-3,6.2073946E-2,-2.5617367E-1,-2.6127645E-3,1.7938973E-2,-5.7724256E-2,-1.4842511E-2],"categories":[],"categories_nodes":[],"categories_segments":[],"categories_sizes":[],"default_left":[0,0,0,0,0,0,0,0,0,0,0,0,0,0,0],"id":41,"left_children":[1,-1,3,5,-1,7,-1,-1,9,11,13,-1,-1,-1,-1],"loss_changes":[1.2260965E2,0E0,9.330267E1,4.7576256E1,0E0,2.9845694E1,0E0,0E0,2.6331375E1,2.0625801E1,9.775803E0,0E0,0E0,0E0,0E0],"parents":[2147483647,0,0,2,2,3,3,5,5,8,8,9,9,10,10],"right_children":[2,-1,4,6,-1,8,-1,-1,10,12,14,-1,-1,-1,-1],"split_conditions":[7.182E2,-7.465917E-2,6.8E0,2.2E2,7.718934E-2,5.7E0,7.641267E-2,-7.315461E-2,1E0,1.59E2,2.3E1,-2.6127645E-3,1.7938973E-2,-5.7724256E-2,-1.4842511E-2],"split_indices":[15,0,4,5,0,4,0,0,9,5,0,0,0,0,0],"split_type":[0,0,0,0,0,0,0,0,0,0,0,0,0,0,0],"sum_hessian":[1.8158291E3,1.1699035E2,1.6988387E3,1.6062279E3,9.261084E1,1.5624806E3,4.37473E1,3.1488623E1,1.530992E3,1.2001971E3,3.3079483E2,7.762556E2,4.2394153E2,3.247045E1,2.9832437E2],"tree_param":{"num_deleted":"0","num_feature":"25","num_nodes":"15","size_leaf_vector":"1"}},{"base_weights":[-9.208013E-3,-7.458934E-2,5.4846317E-2,1.9124618E-3,7.690637E-2,-2.519945E-2,7.606255E-2,-7.295369E-2,-6.426475E-3,-2.3909508E-1,5.855016E-2,-3.2440543E-2,-4.74391E-3,1.2597362E-2,-6.4360676E-3],"categories":[],"categories_nodes":[],"categories_segments":[],"categories_sizes":[],"default_left":[0,0,0,0,0,0,0,0,0,0,0,0,0,0,0],"id":42,"left_children":[1,-1,3,5,-1,7,-1,-1,9,11,13,-1,-1,-1,-1],"loss_changes":[1.1335973E2,0E0,8.664984E1,4.3946922E1,0E0,2.7735794E1,0E0,0E0,2.31495E1,1.1343187E1,1.8922602E1,0E0,0E0,0E0,0E0],"parents":[2147483647,0,0,2,2,3,3,5,5,8,8,9,9,10,10],"right_children":[2,-1,4,6,-1,8,-1,-1,10,12,14,-1,-1,-1,-1],"split_conditions":[7.182E2,-7.458934E-2,6.8E0,2.2E2,7.690637E-2,5.7E0,7.606255E-2,-7.295369E-2,2.662E1,6E1,9.425E2,-3.2440543E-2,-4.74391E-3,1.2597362E-2,-6.4360676E-3],"split_indices":[15,0,4,5,0,4,0,0,3,0,15,0,0,0,0],"split_type":[0,0,0,0,0,0,0,0,0,0,0,0,0,0,0],"sum_hessian":[1.7942524E3,1.08635735E2,1.6856167E3,1.5993899E3,8.622688E1,1.5586194E3,4.077046E1,2.929348E1,1.5293259E3,3.3327036E2,1.1960555E3,1.5799722E2,1.7527313E2,6.8029346E2,5.157621E2],"tree_param":{"num_deleted":"0","num_feature":"25","num_nodes":"15","size_leaf_vector":"1"}},{"base_weights":[-8.713801E-3,-7.4517444E-2,5.1220708E-2,1.7019286E-3,7.663642E-2,-2.355725E-2,7.572177E-2,-7.27439E-2,-6.050674E-3,5.7640526E-2,-2.4108051E-1,-4.1128183E-3,1.536389E-2,-5.6308474E-2,-1.4004879E-2],"categories":[],"categories_nodes":[],"categories_segments":[],"categories_sizes":[],"default_left":[0,0,0,0,0,0,0,0,0,0,0,0,0,0,0],"id":43,"left_children":[1,-1,3,5,-1,7,-1,-1,9,11,13,-1,-1,-1,-1],"loss_changes":[1.0483158E2,0E0,8.046805E1,4.0605637E1,0E0,2.5773212E1,0E0,0E0,2.2898167E1,1.9940548E1,8.894409E0,0E0,0E0,0E0,0E0],"parents":[2147483647,0,0,2,2,3,3,5,5,8,8,9,9,10,10],"right_children":[2,-1,4,6,-1,8,-1,-1,10,12,14,-1,-1,-1,-1],"split_conditions":[7.182E2,-7.4517444E-2,6.8E0,2.2E2,7.663642E-2,5.7E0,7.572177E-2,-7.27439E-2,1E0,1E0,2.3E1,-4.1128183E-3,1.536389E-2,-5.6308474E-2,-1.4004879E-2],"split_indices":[15,0,4,5,0,4,0,0,9,7,0,0,0,0,0],"split_type":[0,0,0,0,0,0,0,0,0,0,0,0,0,0,0],"sum_hessian":[1.7741428E3,1.00880646E2,1.6732621E3,1.5929913E3,8.027079E1,1.5549987E3,3.7992664E1,2.7255072E1,1.5277437E3,1.2026027E3,3.2514093E2,6.8208057E2,5.205221E2,3.009423E1,2.950467E2],"tree_param":{"num_deleted":"0","num_feature":"25","num_nodes":"15","size_leaf_vector":"1"}},{"base_weights":[-8.257718E-3,-7.444309E-2,4.7801755E-2,1.4917235E-3,7.637776E-2,-2.20428E-2,7.538831E-2,-7.252441E-2,-5.716154E-3,-1.14459306E-1,1.165887E-1,-1.4100266E-2,2.1006478E-2,5.3937634E-4,2.2746246E-2],"categories":[],"categories_nodes":[],"categories_segments":[],"categories_sizes":[],"default_left":[0,0,0,0,0,0,0,0,0,0,0,0,0,0,0],"id":44,"left_children":[1,-1,3,5,-1,7,-1,-1,9,11,13,-1,-1,-1,-1],"loss_changes":[9.696076E1,0E0,7.47284E1,3.7530476E1,0E0,2.394626E1,0E0,0E0,2.0324032E1,2.3523972E1,1.4687591E1,0E0,0E0,0E0,0E0],"parents":[2147483647,0,0,2,2,3,3,5,5,8,8,9,9,10,10],"right_children":[2,-1,4,6,-1,8,-1,-1,10,12,14,-1,-1,-1,-1],"split_conditions":[7.182E2,-7.444309E-2,6.8E0,2.2E2,7.637776E-2,5.7E0,7.538831E-2,-7.252441E-2,6.1E1,3.899E1,1.59E2,-1.4100266E-2,2.1006478E-2,5.3937634E-4,2.2746246E-2],"split_indices":[15,0,4,5,0,4,0,0,0,3,5,0,0,0,0],"split_type":[0,0,0,0,0,0,0,0,0,0,0,0,0,0,0],"sum_hessian":[1.7553036E3,9.368234E1,1.6616212E3,1.5869047E3,7.4716576E1,1.5515029E3,3.5401756E1,2.5362303E1,1.5261406E3,8.078938E2,7.182468E2,6.814023E2,1.2649149E2,4.5353082E2,2.6471597E2],"tree_param":{"num_deleted":"0","num_feature":"25","num_nodes":"15","size_leaf_vector":"1"}},{"base_weights":[-7.779102E-3,-7.436589E-2,4.4671357E-2,1.3524452E-3,7.612876E-2,-2.0588636E-2,7.5060315E-2,-7.229441E-2,-5.350786E-3,5.3307164E-2,-2.2588593E-1,-3.838764E-3,1.4127943E-2,2.5318054E-2,-2.0648314E-2],"categories":[],"categories_nodes":[],"categories_segments":[],"categories_sizes":[],"default_left":[0,0,0,0,0,0,0,0,0,0,0,0,0,0,0],"id":45,"left_children":[1,-1,3,5,-1,7,-1,-1,9,11,13,-1,-1,-1,-1],"loss_changes":[8.970816E1,0E0,6.938725E1,3.4694073E1,0E0,2.2249035E1,0E0,0E0,1.9734156E1,1.7016937E1,9.018564E0,0E0,0E0,0E0,0E0],"parents":[2147483647,0,0,2,2,3,3,5,5,8,8,9,9,10,10],"right_children":[2,-1,4,6,-1,8,-1,-1,10,12,14,-1,-1,-1,-1],"split_conditions":[7.182E2,-7.436589E-2,6.8E0,2.2E2,7.612876E-2,5.7E0,7.5060315E-2,-7.229441E-2,1E0,1E0,7.56E2,-3.838764E-3,1.4127943E-2,2.5318054E-2,-2.0648314E-2],"split_indices":[15,0,4,5,0,4,0,0,9,7,15,0,0,0,0],"split_type":[0,0,0,0,0,0,0,0,0,0,0,0,0,0,0],"sum_hessian":[1.736706E3,8.700105E1,1.649705E3,1.5801658E3,6.953917E1,1.5471798E3,3.298602E1,2.3604845E1,1.523575E3,1.2040736E3,3.1950128E2,6.7922534E2,5.2484827E2,2.5295403E1,2.9420587E2],"tree_param":{"num_deleted":"0","num_feature":"25","num_nodes":"15","size_leaf_vector":"1"}},{"base_weights":[-7.3208506E-3,-7.428548E-2,4.170301E-2,1.2219757E-3,7.588789E-2,-1.9219492E-2,7.473602E-2,-5.191606E-1,8.439996E-3,-8.5340977E-1,-4.0633538E-1,-2.2872606E-2,4.1558647E-1,-7.039224E-2,-3.7044812E-2,-2.1997396E-2,-6.44943E-2,-1.0118033E-2,8.597607E-3,5.4393895E-2,3.5614376E-3],"categories":[],"categories_nodes":[],"categories_segments":[],"categories_sizes":[],"default_left":[0,0,0,0,0,0,0,0,0,0,0,0,0,0,0,0,0,0,0,0,0],"id":46,"left_children":[1,-1,3,5,-1,7,-1,9,11,13,15,17,19,-1,-1,-1,-1,-1,-1,-1,-1],"loss_changes":[8.3009605E1,0E0,6.4428894E1,3.2079994E1,0E0,2.1371025E1,0E0,2.7086773E0,1.8688288E1,1.344862E-1,2.951435E0,2.0989424E1,1.1898422E1,0E0,0E0,0E0,0E0,0E0,0E0,0E0,0E0],"parents":[2147483647,0,0,2,2,3,3,5,5,7,7,8,8,9,9,10,10,11,11,