{"learner":{"attributes":{"best_iteration":"91","best_score":"0.08205890755119435"},"feature_names":[],"feature_types":[],"gradient_booster":{"model":{"gbtree_model_param":{"num_parallel_tree":"1","num_trees":"142"},"iteration_indptr":[0,1,2,3,4,5,6,7,8,9,10,11,12,13,14,15,16,17,18,19,20,21,22,23,24,25,26,27,28,29,30,31,32,33,34,35,36,37,38,39,40,41,42,43,44,45,46,47,48,49,50,51,52,53,54,55,56,57,58,59,60,61,62,63,64,65,66,67,68,69,70,71,72,73,74,75,76,77,78,79,80,81,82,83,84,85,86,87,88,89,90,91,92,93,94,95,96,97,98,99,100,101,102,103,104,105,106,107,108,109,110,111,112,113,114,115,116,117,118,119,120,121,122,123,124,125,126,127,128,129,130,131,132,133,134,135,136,137,138,139,140,141,142],"tree_info":[0,0,0,0,0,0,0,0,0,0,0,0,0,0,0,0,0,0,0,0,0,0,0,0,0,0,0,0,0,0,0,0,0,0,0,0,0,0,0,0,0,0,0,0,0,0,0,0,0,0,0,0,0,0,0,0,0,0,0,0,0,0,0,0,0,0,0,0,0,0,0,0,0,0,0,0,0,0,0,0,0,0,0,0,0,0,0,0,0,0,0,0,0,0,0,0,0,0,0,0,0,0,0,0,0,0,0,0,0,0,0,0,0,0,0,0,0,0,0,0,0,0,0,0,0,0,0,0,0,0,0,0,0,0,0,0,0,0,0,0,0,0],"trees":[{"base_weights":[-1.3983494E-7,-4.7435984E-1,8.778038E-1,-7.1262443E-1,8.7280214E-1,-9.3861544E-1,-2.2105645E-1,-9.834942E-1,-4.315931E-1,-8.182346E-2,3.2388732E-1,-9.979788E-1,-3.403476E-1,-8.1187055E-2,6.908403E-4,-8.163745E-2,8.5288405E-1,-8.1897795E-2,-9.324282E-1,-7.864112E-2,7.4206434E-2,-8.02103E-2,4.4041565E-1,3.674942E-1,2.248032E0,-1.0002382E0,-6.933035E-1,-7.5688675E-2,5.300397E-1,-3.882877E-1,1.2922388E0,1.609488E-1,1.5869051E0,2.563433E0,7.290218E-1,-7.826316E-2,-6.865635E-2,-8.123982E-2,-3.9551873E-2,1.7957326E-2,6.3012406E-2,-7.34464E-2,-8.444681E-3,2.5532624E-2,1.4236577E-1,3.7447375E-3,9.895875E-2,5.0810836E-2,1.6607949E-1,1.713531E-1,3.6677974E-1,8.6169355E-2,3.0043092E-2],"categories":[],"categories_nodes":[],"categories_segments":[],"categories_sizes":[],"default_left":[0,0,0,0,0,0,0,0,0,0,0,0,0,0,0,0,0,0,0,0,0,0,0,0,0,0,0,0,0,0,0,0,0,0,0,0,0,0,0,0,0,0,0,0,0,0,0,0,0,0,0,0,0],"id":0,"left_children":[1,3,-1,5,-1,7,9,11,13,-1,15,17,19,-1,21,-1,23,-1,25,-1,27,-1,29,31,33,35,37,-1,39,41,43,45,47,49,51,-1,-1,-1,-1,-1,-1,-1,-1,-1,-1,-1,-1,-1,-1,-1,-1,-1,-1],"loss_changes":[2.7646389E4,1.3818666E4,0E0,5.2127734E2,0E0,7.2743164E1,7.018357E2,2.717212E1,7.407451E1,0E0,6.812653E2,1.6773682E1,1.9620258E1,0E0,7.538414E1,0E0,4.4816537E2,0E0,2.7003052E1,0E0,2.173108E1,0E0,8.065093E1,1.23934166E2,8.002734E1,3.9205322E0,2.4055252E1,0E0,2.5806074E0,9.392034E0,3.1779709E1,5.4309425E1,3.9192368E1,8.0374695E1,3.785902E0,0E0,0E0,0E0,0E0,0E0,0E0,0E0,0E0,0E0,0E0,0E0,0E0,0E0,0E0,0E0,0E0,0E0,0E0],"parents":[2147483647,0,0,1,1,3,3,5,5,6,6,7,7,8,8,10,10,11,11,12,12,14,14,16,16,18,18,20,20,22,22,23,23,24,24,25,25,26,26,28,28,29,29,30,30,31,31,32,32,33,33,34,34],"right_children":[2,4,-1,6,-1,8,10,12,14,-1,16,18,20,-1,22,-1,24,-1,26,-1,28,-1,30,32,34,36,38,-1,40,42,44,46,48,50,52,-1,-1,-1,-1,-1,-1,-1,-1,-1,-1,-1,-1,-1,-1,-1,-1,-1,-1],"split_conditions":[6.8E0,2.2E2,8.778038E-1,5.4E1,8.7280214E-1,3.589E1,5.7E0,1E0,5.7E0,-8.182346E-2,1.26E2,5.7E0,5.7E0,-8.1187055E-2,1.26E2,-8.163745E-2,3.059E1,-8.1897795E-2,4.3E1,-7.864112E-2,1.26E2,-8.02103E-2,3.9E1,1E0,1E0,2.9E1,1.26E2,-7.5688675E-2,4.8E1,2.6E1,3.902E1,1E0,2.726E1,4.229E1,1E0,-7.826316E-2,-6.865635E-2,-8.123982E-2,-3.9551873E-2,1.7957326E-2,6.3012406E-2,-7.34464E-2,-8.444681E-3,2.5532624E-2,1.4236577E-1,3.7447375E-3,9.895875E-2,5.0810836E-2,1.6607949E-1,1.713531E-1,3.6677974E-1,8.6169355E-2,3.0043092E-2],"split_indices":[4,5,0,0,0,3,4,1,4,0,5,4,4,0,5,0,3,0,0,0,5,0,0,1,9,0,5,0,0,0,3,2,3,3,6,0,0,0,0,0,0,0,0,0,0,0,0,0,0,0,0,0,0],"split_type":[0,0,0,0,0,0,0,0,0,0,0,0,0,0,0,0,0,0,0,0,0,0,0,0,0,0,0,0,0,0,0,0,0,0,0,0,0,0,0,0,0,0,0,0,0,0,0,0,0,0,0,0,0],"sum_hessian":[4.9776E3,4.78464E3,1.9295978E2,4.693255E3,9.138563E1,3.2145186E3,1.4787361E3,2.9522612E3,2.622573E2,5.691575E2,9.095786E2,2.886697E3,6.556432E1,1.0406295E2,1.5819435E2,2.4755783E2,6.620208E2,1.1796134E3,1.7070835E3,2.36436E1,4.1920727E1,4.5653927E1,1.1254043E2,4.9208243E2,1.6993839E2,1.3274637E3,3.7961978E2,1.2055125E1,2.98656E1,5.7320175E1,5.5220253E1,4.2177383E2,7.03086E1,1.4015056E2,2.9787827E1,8.715467E2,4.5591705E2,1.11684906E2,2.6793488E2,1.633275E1,1.353285E1,1.74216E1,3.9898575E1,2.20881E1,3.313215E1,3.858418E2,3.5932053E1,2.95545E1,4.07541E1,1.269288E2,1.322175E1,1.197735E1,1.7810474E1],"tree_param":{"num_deleted":"0","num_feature":"15","num_nodes":"53","size_leaf_vector":"1"}},{"base_weights":[-2.3392199E-2,-4.5957392E-1,4.0950686E-1,-6.913506E-1,4.0995085E-1,-9.23138E-1,-2.1004437E-1,-9.700024E-1,-4.125414E-1,-8.126694E-2,2.900589E-1,-9.851951E-1,-3.2382545E-1,-8.059504E-2,-2.1635583E-3,-8.1070416E-2,7.449036E-1,-8.134551E-2,-9.1656804E-1,-7.792071E-2,6.717257E-2,-7.956649E-2,3.9393306E-1,4.180404E-1,2.1125073E0,-9.8755145E-1,-6.7111087E-1,-7.484532E-2,4.7715828E-1,-3.6958802E-1,1.1034621E0,2.2066468E-1,1.4452393E0,2.3615844E0,7.8942597E-1,-8.125249E-2,-7.079221E-2,-8.0650695E-2,-3.7867375E-2,1.6446427E-2,5.5726036E-2,-7.24731E-2,-7.882721E-3,5.8821525E-2,2.0138747E-1,7.3597576E-3,1.04615614E-1,4.5173295E-2,1.4002386E-1,1.5253013E-1,2.4832389E-1,1.0570351E-1,2.3693545E-2],"categories":[],"categories_nodes":[],"categories_segments":[],"categories_sizes":[],"default_left":[0,0,0,0,0,0,0,0,0,0,0,0,0,0,0,0,0,0,0,0,0,0,0,0,0,0,0,0,0,0,0,0,0,0,0,0,0,0,0,0,0,0,0,0,0,0,0,0,0,0,0,0,0],"id":1,"left_children":[1,3,-1,5,-1,7,9,11,13,-1,15,17,19,-1,21,-1,23,-1,25,-1,27,-1,29,31,33,35,37,-1,39,41,43,45,47,49,51,-1,-1,-1,-1,-1,-1,-1,-1,-1,-1,-1,-1,-1,-1,-1,-1,-1,-1],"loss_changes":[1.2055523E4,6.4161367E3,0E0,5.0116748E2,0E0,7.217578E1,6.3901483E2,2.6945557E1,6.974611E1,0E0,5.8108813E2,1.7515137E1,1.8324913E1,0E0,6.729844E1,0E0,3.117302E2,0E0,2.7414307E1,0E0,1.9318357E1,0E0,6.367825E1,1.14368256E2,4.2510803E1,4.1968994E0,2.395398E1,0E0,2.0194087E0,8.89505E0,2.858171E1,6.8304565E1,3.1224213E1,2.8382324E1,6.25821E0,0E0,0E0,0E0,0E0,0E0,0E0,0E0,0E0,0E0,0E0,0E0,0E0,0E0,0E0,0E0,0E0,0E0,0E0],"parents":[2147483647,0,0,1,1,3,3,5,5,6,6,7,7,8,8,10,10,11,11,12,12,14,14,16,16,18,18,20,20,22,22,23,23,24,24,25,25,26,26,28,28,29,29,30,30,31,31,32,32,33,33,34,34],"right_children":[2,4,-1,6,-1,8,10,12,14,-1,16,18,20,-1,22,-1,24,-1,26,-1,28,-1,30,32,34,36,38,-1,40,42,44,46,48,50,52,-1,-1,-1,-1,-1,-1,-1,-1,-1,-1,-1,-1,-1,-1,-1,-1,-1,-1],"split_conditions":[6.8E0,2.2E2,4.0950686E-1,5.4E1,4.0995085E-1,3.589E1,5.7E0,1E0,5.7E0,-8.126694E-2,1.26E2,5.7E0,5.7E0,-8.059504E-2,1.26E2,-8.1070416E-2,3.285E1,-8.134551E-2,4.3E1,-7.792071E-2,1.26E2,-7.956649E-2,3.9E1,1E0,1E0,1.26E2,1.26E2,-7.484532E-2,4.8E1,2.6E1,1E0,1E0,2.726E1,1E0,1E0,-8.125249E-2,-7.079221E-2,-8.0650695E-2,-3.7867375E-2,1.6446427E-2,5.5726036E-2,-7.24731E-2,-7.882721E-3,5.8821525E-2,2.0138747E-1,7.3597576E-3,1.04615614E-1,4.5173295E-2,1.4002386E-1,1.5253013E-1,2.4832389E-1,1.0570351E-1,2.3693545E-2],"split_indices":[4,5,0,0,0,3,4,1,4,0,5,4,4,0,5,0,3,0,0,0,5,0,0,1,9,5,5,0,0,0,1,2,3,1,6,0,0,0,0,0,0,0,0,0,0,0,0,0,0,0,0,0,0],"split_type":[0,0,0,0,0,0,0,0,0,0,0,0,0,0,0,0,0,0,0,0,0,0,0,0,0,0,0,0,0,0,0,0,0,0,0,0,0,0,0,0,0,0,0,0,0,0,0,0,0,0,0,0,0],"sum_hessian":[5.038317E3,4.667925E3,3.703922E2,4.493064E3,1.7486089E2,3.0319966E3,1.4610671E3,2.77628E3,2.557166E2,5.315168E2,9.295504E2,2.7119922E3,6.428793E1,9.723295E1,1.5848364E2,2.3122205E2,6.9832837E2,1.1015317E3,1.6104603E3,2.2139198E1,4.214873E1,4.2692608E1,1.1579104E2,5.646744E2,1.3365396E2,1.2468596E3,3.636007E2,1.1316164E1,3.0832567E1,5.600424E1,5.97868E1,4.7467978E2,8.999464E1,1.118186E2,2.1835361E1,3.8282175E2,8.640379E2,1.04350006E2,2.592507E2,1.6577589E1,1.4254979E1,1.6384556E1,3.9619682E1,5.099273E1,8.794073E0,4.3080655E2,4.3873203E1,3.0821285E1,5.917335E1,8.545217E1,2.6366428E1,8.599662E0,1.3235699E1],"tree_param":{"num_deleted":"0","num_feature":"15","num_nodes":"53","size_leaf_vector":"1"}},{"base_weights":[-2.978268E-2,-4.4314158E-1,2.9720333E-1,-6.7040193E-1,2.975101E-1,-9.077721E-1,-1.993596E-1,-9.5667094E-1,-3.938539E-1,-8.075598E-2,2.6136014E-1,-9.725982E-1,-3.0809435E-1,-8.0045044E-2,-3.7046245E-3,-8.054787E-2,6.569943E-1,-8.083922E-2,-9.0072966E-1,-7.723098E-2,6.0722798E-2,-7.895985E-2,3.5524952E-1,2.3992892E-1,1.4457476E0,-9.750399E-1,-6.4900213E-1,-7.40241E-2,4.3096387E-1,-3.5152882E-1,9.5807153E-1,8.2322635E-2,1.0697984E0,1.2651252E0,2.76655E0,-7.46344E-2,-5.6296334E-2,-8.010388E-2,-3.6210485E-2,5.2121013E-2,1.562894E-2,-7.1513474E-2,-7.354842E-3,1.6359273E-2,1.0421041E-1,-1.5782803E-2,2.5548263E-2,9.6991874E-2,1.2819161E-2,7.7127576E-2,1.5755805E-1,2.2791214E-1,1.23656146E-1],"categories":[],"categories_nodes":[],"categories_segments":[],"categories_sizes":[],"default_left":[0,0,0,0,0,0,0,0,0,0,0,0,0,0,0,0,0,0,0,0,0,0,0,0,0,0,0,0,0,0,0,0,0,0,0,0,0,0,0,0,0,0,0,0,0,0,0,0,0,0,0,0,0],"id":2,"left_children":[1,3,-1,5,-1,7,9,11,13,-1,15,17,19,-1,21,-1,23,-1,25,-1,27,-1,29,31,33,35,37,-1,39,41,43,45,47,49,51,-1,-1,-1,-1,-1,-1,-1,-1,-1,-1,-1,-1,-1,-1,-1,-1,-1,-1],"loss_changes":[8.239817E3,4.5369644E3,0E0,4.8099426E2,0E0,7.152515E1,5.836874E2,2.668164E1,6.5754486E1,0E0,5.0108038E2,1.8310547E1,1.7114634E1,0E0,6.0429417E1,0E0,2.4021521E2,0E0,2.7814209E1,0E0,1.7238388E1,0E0,5.1280724E1,6.2632713E1,5.679364E1,4.536499E0,2.3831772E1,0E0,1.7778149E0,8.416048E0,2.0381626E1,3.063136E1,1.5133499E1,4.2191162E1,3.9868164E0,0E0,0E0,0E0,0E0,0E0,0E0,0E0,0E0,0E0,0E0,0E0,0E0,0E0,0E0,0E0,0E0,0E0,0E0],"parents":[2147483647,0,0,1,1,3,3,5,5,6,6,7,7,8,8,10,10,11,11,12,12,14,14,16,16,18,18,20,20,22,22,23,23,24,24,25,25,26,26,28,28,29,29,30,30,31,31,32,32,33,33,34,34],"right_children":[2,4,-1,6,-1,8,10,12,14,-1,16,18,20,-1,22,-1,24,-1,26,-1,28,-1,30,32,34,36,38,-1,40,42,44,46,48,50,52,-1,-1,-1,-1,-1,-1,-1,-1,-1,-1,-1,-1,-1,-1,-1,-1,-1,-1],"split_conditions":[6.8E0,2.2E2,2.9720333E-1,5.4E1,2.975101E-1,3.589E1,5.7E0,1E0,5.7E0,-8.075598E-2,1.26E2,5.7E0,5.7E0,-8.0045044E-2,1.26E2,-8.054787E-2,2.946E1,-8.083922E-2,4.3E1,-7.723098E-2,1.26E2,-7.895985E-2,3.9E1,1E0,1E0,3.07E1,1.26E2,-7.40241E-2,6.1E0,2.6E1,3.902E1,6.6E1,1E0,1E0,7.7E1,-7.46344E-2,-5.6296334E-2,-8.010388E-2,-3.6210485E-2,5.2121013E-2,1.562894E-2,-7.1513474E-2,-7.354842E-3,1.6359273E-2,1.0421041E-1,-1.5782803E-2,2.5548263E-2,9.6991874E-2,1.2819161E-2,7.7127576E-2,1.5755805E-1,2.2791214E-1,1.23656146E-1],"split_indices":[4,5,0,0,0,3,4,1,4,0,5,4,4,0,5,0,3,0,0,0,5,0,0,1,2,3,5,0,4,0,3,0,9,1,0,0,0,0,0,0,0,0,0,0,0,0,0,0,0,0,0,0,0],"split_type":[0,0,0,0,0,0,0,0,0,0,0,0,0,0,0,0,0,0,0,0,0,0,0,0,0,0,0,0,0,0,0,0,0,0,0,0,0,0,0,0,0,0,0,0,0,0,0,0,0,0,0,0,0],"sum_hessian":[4.9907573E3,4.523328E3,4.6742932E2,4.302455E3,2.2087314E2,2.8602004E3,1.4422548E3,2.6109128E3,2.4928741E2,4.9611838E2,9.461364E2,2.5478452E3,6.3067684E1,9.081007E1,1.5847736E2,2.1585957E2,7.3027686E2,1.0281011E3,1.5197441E3,2.0724579E1,4.2343105E1,3.990793E1,1.1856942E2,4.7854373E2,2.5173311E2,1.171147E3,3.4859714E2,1.0621243E1,3.1721865E1,5.4770565E1,6.379886E1,4.0308942E2,7.545432E1,2.2317175E2,2.856135E1,1.0717891E3,9.935792E1,9.74523E1,2.5114482E2,1.3540381E1,1.8181482E1,1.540985E1,3.9360714E1,2.405124E1,3.9747616E1,1.890363E2,2.1405312E2,6.0081596E1,1.53727255E1,1.756398E2,4.7531948E1,2.1585016E1,6.9763346E0],"tree_param":{"num_deleted":"0","num_feature":"15","num_nodes":"53","size_leaf_vector":"1"}},{"base_weights":[-3.293298E-2,-4.272451E-1,2.4009465E-1,-6.49724E-1,2.4029626E-1,-8.9247525E-1,-1.8904796E-1,-9.434259E-1,-3.762015E-1,-8.0286115E-2,2.3651451E-1,-9.60116E-1,-2.9305756E-1,-7.953246E-2,-5.636952E-3,-8.00653E-2,5.836406E-1,-8.037448E-2,-8.848492E-1,-7.656712E-2,5.485678E-2,-7.838561E-2,3.2039583E-1,2.0853776E-1,1.212973E0,-9.626304E-1,-6.2698364E-1,-7.3220626E-2,3.9040595E-1,-3.3410928E-1,8.376188E-1,6.245574E-2,9.4761086E-1,8.565843E-1,1.5977533E0,-7.543224E-2,-6.320032E-2,-7.959476E-2,-3.4583498E-2,1.25061115E-2,4.6264607E-2,-7.056314E-2,-6.859413E-3,4.4031713E-2,1.4821886E-1,-1.5432382E-3,6.0536865E-2,3.175835E-2,1.0065942E-1,1.3739452E-2,8.755575E-2,1.3137436E-1,5.011044E-2],"categories":[],"categories_nodes":[],"categories_segments":[],"categories_sizes":[],"default_left":[0,0,0,0,0,0,0,0,0,0,0,0,0,0,0,0,0,0,0,0,0,0,0,0,0,0,0,0,0,0,0,0,0,0,0,0,0,0,0,0,0,0,0,0,0,0,0,0,0,0,0,0,0],"id":3,"left_children":[1,3,-1,5,-1,7,9,11,13,-1,15,17,19,-1,21,-1,23,-1,25,-1,27,-1,29,31,33,35,37,-1,39,41,43,45,47,49,51,-1,-1,-1,-1,-1,-1,-1,-1,-1,-1,-1,-1,-1,-1,-1,-1,-1,-1],"loss_changes":[6.2592017E3,3.5362065E3,0E0,4.608971E2,0E0,7.0663086E1,5.344337E2,2.638501E1,6.190522E1,0E0,4.3573676E2,1.9157227E1,1.5985447E1,0E0,5.4357056E1,0E0,1.791055E2,0E0,2.8191284E1,0E0,1.5435555E1,0E0,4.1615917E1,5.1467716E1,3.751245E1,4.8495483E0,2.3682144E1,0E0,1.595995E0,7.9545736E0,1.8377674E1,2.4723188E1,1.5704773E1,3.1046677E1,1.8170105E1,0E0,0E0,0E0,0E0,0E0,0E0,0E0,0E0,0E0,0E0,0E0,0E0,0E0,0E0,0E0,0E0,0E0,0E0],"parents":[2147483647,0,0,1,1,3,3,5,5,6,6,7,7,8,8,10,10,11,11,12,12,14,14,16,16,18,18,20,20,22,22,23,23,24,24,25,25,26,26,28,28,29,29,30,30,31,31,32,32,33,33,34,34],"right_children":[2,4,-1,6,-1,8,10,12,14,-1,16,18,20,-1,22,-1,24,-1,26,-1,28,-1,30,32,34,36,38,-1,40,42,44,46,48,50,52,-1,-1,-1,-1,-1,-1,-1,-1,-1,-1,-1,-1,-1,-1,-1,-1,-1,-1],"split_conditions":[6.8E0,2.2E2,2.4009465E-1,5.4E1,2.4029626E-1,3.589E1,5.7E0,1E0,5.7E0,-8.0286115E-2,1.26E2,5.7E0,5.7E0,-7.953246E-2,1.26E2,-8.00653E-2,2.924E1,-8.037448E-2,4.3E1,-7.656712E-2,1.26E2,-7.838561E-2,3.9E1,1E0,3.39E1,3.2E1,1.26E2,-7.3220626E-2,4.8E1,2.6E1,1E0,1E0,2.726E1,6.1E1,1E0,-7.543224E-2,-6.320032E-2,-7.959476E-2,-3.4583498E-2,1.25061115E-2,4.6264607E-2,-7.056314E-2,-6.859413E-3,4.4031713E-2,1.4821886E-1,-1.5432382E-3,6.0536865E-2,3.175835E-2,1.0065942E-1,1.3739452E-2,8.755575E-2,1.3137436E-1,5.011044E-2],"split_indices":[4,5,0,0,0,3,4,1,4,0,5,4,4,0,5,0,3,0,0,0,5,0,0,1,3,0,5,0,0,0,1,2,3,0,9,0,0,0,0,0,0,0,0,0,0,0,0,0,0,0,0,0,0],"split_type":[0,0,0,0,0,0,0,0,0,0,0,0,0,0,0,0,0,0,0,0,0,0,0,0,0,0,0,0,0,0,0,0,0,0,0,0,0,0,0,0,0,0,0,0,0,0,0,0,0,0,0,0,0],"sum_hessian":[4.906019E3,4.3736523E3,5.323666E2,4.121928E3,2.517244E2,2.6988455E3,1.4230825E3,2.45567E3,2.4317563E2,4.628672E2,9.602153E2,2.3937637E3,6.190627E1,8.477697E1,1.5839865E2,2.0142914E2,7.5878613E2,9.5912445E2,1.4346392E3,1.9395832E1,4.2510437E1,3.7292313E1,1.2110634E2,4.7625427E2,2.8253186E2,1.1000829E3,3.3455627E2,9.968396E0,3.254204E1,5.361491E1,6.7491425E1,3.9856094E2,7.769334E1,1.4835223E2,1.3417963E2,8.037145E2,2.963684E2,9.097319E1,2.4358308E2,1.7245718E1,1.5296324E1,1.4494627E1,3.9120285E1,5.6561916E1,1.092951E1,3.5945508E2,3.910587E1,3.4254677E1,4.343866E1,4.735306E1,1.00999176E2,1.1436186E2,1.9817768E1],"tree_param":{"num_deleted":"0","num_feature":"15","num_nodes":"53","size_leaf_vector":"1"}},{"base_weights":[-3.463319E-2,-4.1202188E-1,2.0485444E-1,-6.293311E-1,2.0498571E-1,-8.771627E-1,-1.7927922E-1,-9.462267E-1,-4.7187293E-1,-7.9853386E-2,2.146185E-1,-1.0001051E0,-7.6803946E-1,-7.942854E-2,-1.5982418E-1,-7.961871E-2,5.213706E-1,-1.0053827E0,-3.899272E-1,-7.962454E-2,-5.883717E-1,-7.879281E-2,1.299454E-1,1.436144E-1,9.8187846E-1,-7.991708E-2,-9.634917E-1,-4.5815345E-2,-8.0779465E-3,-7.9098776E-2,-4.2095652E-1,-8.269639E-1,3.9398408E-1,2.0029427E-2,7.829347E-1,8.45473E-1,1.9446706E0,-7.988418E-2,-6.88034E-2,-3.4659624E-2,8.694197E-2,-3.458707E-2,-7.256924E-2,1.6570305E-2,1.04253635E-1,1.4134846E-2,-2.2298995E-2,-2.5373572E-3,7.613586E-2,3.7231572E-2,8.8224724E-2,1.7992513E-1,1.16138384E-1],"categories":[],"categories_nodes":[],"categories_segments":[],"categories_sizes":[],"default_left":[0,0,0,0,0,0,0,0,0,0,0,0,0,0,0,0,0,0,0,0,0,0,0,0,0,0,0,0,0,0,0,0,0,0,0,0,0,0,0,0,0,0,0,0,0,0,0,0,0,0,0,0,0],"id":4,"left_children":[1,3,-1,5,-1,7,9,11,13,-1,15,17,19,-1,21,-1,23,25,27,-1,29,-1,31,33,35,-1,37,-1,-1,-1,39,41,43,45,47,49,51,-1,-1,-1,-1,-1,-1,-1,-1,-1,-1,-1,-1,-1,-1,-1,-1],"loss_changes":[5.011245E3,2.8888647E3,0E0,4.40641E2,0E0,7.088403E1,4.9014517E2,2.0125366E1,6.81785E1,0E0,3.8147397E2,4.9785156E0,2.6257965E1,0E0,6.331021E1,0E0,1.364426E2,3.1398926E0,9.27783E-1,0E0,2.440944E1,0E0,4.7211205E1,3.4156128E1,4.4800354E1,0E0,3.6385498E0,0E0,0E0,0E0,1.5885166E1,1.6347275E0,2.4877855E1,1.9484123E1,1.3317295E1,3.5393494E1,4.045624E0,0E0,0E0,0E0,0E0,0E0,0E0,0E0,0E0,0E0,0E0,0E0,0E0,0E0,0E0,0E0,0E0],"parents":[2147483647,0,0,1,1,3,3,5,5,6,6,7,7,8,8,10,10,11,11,12,12,14,14,16,16,17,17,18,18,20,20,22,22,23,23,24,24,26,26,30,30,31,31,32,32,33,33,34,34,35,35,36,36],"right_children":[2,4,-1,6,-1,8,10,12,14,-1,16,18,20,-1,22,-1,24,26,28,-1,30,-1,32,34,36,-1,38,-1,-1,-1,40,42,44,46,48,50,52,-1,-1,-1,-1,-1,-1,-1,-1,-1,-1,-1,-1,-1,-1,-1,-1],"split_conditions":[6.8E0,2.2E2,2.0485444E-1,5.4E1,2.0498571E-1,3.27E1,5.7E0,4.3E1,5.7E0,-7.9853386E-2,1.26E2,1E0,5.7E0,-7.942854E-2,1.26E2,-7.961871E-2,2.782E1,5.7E0,6E0,-7.962454E-2,1.26E2,-7.879281E-2,3E1,1E0,1E0,-7.991708E-2,1.26E2,-4.5815345E-2,-8.0779465E-3,-7.9098776E-2,1E0,1.45E2,1E0,1E0,6.2E1,6.4E1,1.55E2,-7.988418E-2,-6.88034E-2,-3.4659624E-2,8.694197E-2,-3.458707E-2,-7.256924E-2,1.6570305E-2,1.04253635E-1,1.4134846E-2,-2.2298995E-2,-2.5373572E-3,7.613586E-2,3.7231572E-2,8.8224724E-2,1.7992513E-1,1.16138384E-1],"split_indices":[4,5,0,0,0,3,4,0,4,0,5,1,4,0,5,0,3,4,4,0,5,0,0,1,2,0,5,0,0,0,2,5,1,9,0,0,5,0,0,0,0,0,0,0,0,0,0,0,0,0,0,0,0],"split_type":[0,0,0,0,0,0,0,0,0,0,0,0,0,0,0,0,0,0,0,0,0,0,0,0,0,0,0,0,0,0,0,0,0,0,0,0,0,0,0,0,0,0,0,0,0,0,0,0,0,0,0,0,0],"sum_hessian":[4.7985776E3,4.223224E3,5.753537E2,3.9510347E3,2.7218942E2,2.547336E3,1.4036989E3,2.1753135E3,3.7202234E2,4.3166565E2,9.7203314E2,1.6667319E3,5.085816E2,1.2826863E2,2.437537E2,1.8788828E2,7.841449E2,1.6517977E3,1.4934181E1,1.9120187E2,3.1737973E2,5.9187336E1,1.8456636E2,4.314977E2,3.526472E2,6.6789526E2,9.8390247E2,7.723294E0,7.210888E0,8.244826E1,2.3493147E2,3.945273E1,1.4511363E2,3.6246255E2,6.903514E1,3.1053033E2,4.211686E1,3.0019373E2,6.8370874E2,2.2965533E2,5.2761393E0,1.2143587E1,2.7309143E1,1.24675514E2,2.043812E1,2.370519E2,1.2541066E2,1.5471304E1,5.356384E1,1.5232678E2,1.5820355E2,1.7263138E1,2.485372E1],"tree_param":{"num_deleted":"0","num_feature":"15","num_nodes":"53","size_leaf_vector":"1"}},{"base_weights":[-3.5518207E-2,-3.9733827E-1,1.8079072E-1,-6.090543E-1,1.8087268E-1,-8.8784707E-1,-2.1027261E-1,-9.519112E-1,-5.003666E-1,-7.94815E-2,1.5083876E-1,-7.9546645E-2,-8.801104E-1,-7.892461E-2,-2.1633017E-1,-7.9265505E-2,4.2366007E-1,-9.552374E-1,-6.509297E-1,-7.814792E-2,3.904764E-2,1.2824158E-1,8.9408493E-1,-9.6104306E-1,-1.7998854E-2,-7.869004E-2,-5.020721E-1,-8.095624E-1,2.993341E-1,-2.8831205E-1,3.3991233E-1,7.6321304E-1,1.73027E0,-7.9444684E-2,-6.8755835E-2,-4.142626E-2,1.0830519E-2,-3.3124536E-2,-7.167764E-2,1.2173043E-2,8.4153116E-2,4.1461233E-3,-3.5819992E-2,4.1388616E-2,-1.0369453E-2,2.5535258E-2,7.4633345E-2,9.644354E-2,2.0194474E-1],"categories":[],"categories_nodes":[],"categories_segments":[],"categories_sizes":[],"default_left":[0,0,0,0,0,0,0,0,0,0,0,0,0,0,0,0,0,0,0,0,0,0,0,0,0,0,0,0,0,0,0,0,0,0,0,0,0,0,0,0,0,0,0,0,0,0,0,0,0],"id":5,"left_children":[1,3,-1,5,-1,7,9,11,13,-1,15,-1,17,-1,19,-1,21,23,25,-1,27,29,31,33,-1,-1,35,37,39,41,43,45,47,-1,-1,-1,-1,-1,-1,-1,-1,-1,-1,-1,-1,-1,-1,-1,-1],"loss_changes":[4.1413145E3,2.425618E3,0E0,4.2132312E2,0E0,5.4906128E1,4.7909265E2,1.4001465E1,4.9728447E1,0E0,3.6171133E2,0E0,1.9319702E1,0E0,4.4665356E1,0E0,1.2428012E2,3.3825073E0,1.66111E1,0E0,3.6159325E1,4.8680233E1,3.6446198E1,2.782898E0,0E0,0E0,6.981674E0,1.6445236E0,1.3928597E1,1.2135827E1,3.7147392E1,2.9090622E1,1.6171494E1,0E0,0E0,0E0,0E0,0E0,0E0,0E0,0E0,0E0,0E0,0E0,0E0,0E0,0E0,0E0,0E0],"parents":[2147483647,0,0,1,1,3,3,5,5,6,6,7,7,8,8,10,10,12,12,14,14,16,16,17,17,18,18,20,20,21,21,22,22,23,23,26,26,27,27,28,28,29,29,30,30,31,31,32,32],"right_children":[2,4,-1,6,-1,8,10,12,14,-1,16,-1,18,-1,20,-1,22,24,26,-1,28,30,32,34,-1,-1,36,38,40,42,44,46,48,-1,-1,-1,-1,-1,-1,-1,-1,-1,-1,-1,-1,-1,-1,-1,-1],"split_conditions":[6.8E0,2.2E2,1.8079072E-1,5.1E1,1.8087268E-1,3.27E1,5.7E0,5.7E0,5.7E0,-7.94815E-2,1.26E2,-7.9546645E-2,4E1,-7.892461E-2,1.26E2,-7.9265505E-2,2.946E1,1E0,1.26E2,-7.814792E-2,3E1,6.1E1,4.105E1,1.26E2,-1.7998854E-2,-7.869004E-2,1E0,1.45E2,1E0,1.45E2,1E0,6E1,1E0,-7.9444684E-2,-6.8755835E-2,-4.142626E-2,1.0830519E-2,-3.3124536E-2,-7.167764E-2,1.2173043E-2,8.4153116E-2,4.1461233E-3,-3.5819992E-2,4.1388616E-2,-1.0369453E-2,2.5535258E-2,7.4633345E-2,9.644354E-2,2.0194474E-1],"split_indices":[4,5,0,0,0,3,4,4,4,0,5,0,0,0,5,0,3,1,5,0,0,0,3,5,0,0,1,5,1,5,9,0,1,0,0,0,0,0,0,0,0,0,0,0,0,0,0,0,0],"split_type":[0,0,0,0,0,0,0,0,0,0,0,0,0,0,0,0,0,0,0,0,0,0,0,0,0,0,0,0,0,0,0,0,0,0,0,0,0,0,0,0,0,0,0,0,0,0,0,0,0],"sum_hessian":[4.6771895E3,4.0752222E3,6.019671E2,3.7903237E3,2.8489847E2,2.2300466E3,1.560277E3,1.9124027E3,3.17644E2,4.648429E2,1.0954341E3,7.5520526E2,1.1571975E3,1.0700287E2,2.1064116E2,2.0132858E2,8.9410547E2,8.691245E2,2.8807297E2,4.9033775E1,1.6160738E2,5.4999255E2,3.4411295E2,8.6178577E2,7.3387256E0,7.673065E1,2.1134233E2,3.7438065E1,1.2416931E2,1.8518971E2,3.6480283E2,2.99198E2,4.491495E1,2.607456E2,6.0104016E2,1.9622694E2,1.5115383E1,1.1786947E1,2.5651117E1,1.0746728E2,1.6702038E1,6.603375E1,1.1915596E2,2.526631E2,1.1213971E2,1.0686137E2,1.9233662E2,3.232505E1,1.2589905E1],"tree_param":{"num_deleted":"0","num_feature":"15","num_nodes":"49","size_leaf_vector":"1"}},{"base_weights":[-3.591931E-2,-3.832111E-1,1.632796E-1,-5.890004E-1,1.6332495E-1,-7.923343E-2,-3.4800825E-1,-7.596983E-1,1.3758963E-1,-8.649493E-1,-2.0458248E-1,-7.888379E-2,3.8245404E-1,-9.4370776E-1,-6.296766E-1,-7.768737E-2,3.531688E-2,2.145368E-1,1.0507593E0,-7.906833E-2,-8.945255E-1,-7.826509E-2,-4.8053664E-1,-7.920733E-1,2.7257997E-1,1.1211834E-1,1.0038321E0,1.1794565E0,2.9399127E-1,-7.204254E-2,-5.5972245E-2,-3.9779898E-2,9.982547E-3,-3.1693257E-2,-7.0789814E-2,1.1153773E-2,7.356197E-2,-1.7578086E-2,2.2842648E-2,9.307477E-2,3.0266436E-2,7.556538E-2,1.3606122E-1,6.0908567E-2,-3.9237095E-3],"categories":[],"categories_nodes":[],"categories_segments":[],"categories_sizes":[],"default_left":[0,0,0,0,0,0,0,0,0,0,0,0,0,0,0,0,0,0,0,0,0,0,0,0,0,0,0,0,0,0,0,0,0,0,0,0,0,0,0,0,0,0,0,0,0],"id":6,"left_children":[1,3,-1,5,-1,-1,7,9,11,13,15,-1,17,19,21,-1,23,25,27,-1,29,-1,31,33,35,37,39,41,43,-1,-1,-1,-1,-1,-1,-1,-1,-1,-1,-1,-1,-1,-1,-1,-1],"loss_changes":[3.4957798E3,2.0731663E3,0E0,4.0966016E2,0E0,0E0,4.8052954E2,7.581799E1,3.217641E2,1.9660095E1,4.163829E1,0E0,1.0254436E2,3.498169E0,1.6604767E1,0E0,3.2187134E1,5.9154205E1,1.7538452E1,0E0,4.8823547E0,0E0,6.3608437E0,1.651125E0,1.1022566E1,4.3419765E1,1.1469383E1,1.5261261E1,5.0705953E0,0E0,0E0,0E0,0E0,0E0,0E0,0E0,0E0,0E0,0E0,0E0,0E0,0E0,0E0,0E0,0E0],"parents":[2147483647,0,0,1,1,3,3,6,6,7,7,8,8,9,9,10,10,12,12,13,13,14,14,16,16,17,17,18,18,20,20,22,22,23,23,24,24,25,25,26,26,27,27,28,28],"right_children":[2,4,-1,6,-1,-1,8,10,12,14,16,-1,18,20,22,-1,24,26,28,-1,30,-1,32,34,36,38,40,42,44,-1,-1,-1,-1,-1,-1,-1,-1,-1,-1,-1,-1,-1,-1,-1,-1],"split_conditions":[6.8E0,2.2E2,1.632796E-1,5.7E0,1.6332495E-1,-7.923343E-2,5.1E1,3.27E1,1.26E2,4E1,1.26E2,-7.888379E-2,3.39E1,1.26E2,1.26E2,-7.768737E-2,3E1,1E0,1E0,-7.906833E-2,2.8E1,-7.826509E-2,1E0,1.45E2,1E0,6.1E1,8E1,4.229E1,1E0,-7.204254E-2,-5.5972245E-2,-3.9779898E-2,9.982547E-3,-3.1693257E-2,-7.0789814E-2,1.1153773E-2,7.356197E-2,-1.7578086E-2,2.2842648E-2,9.307477E-2,3.0266436E-2,7.556538E-2,1.3606122E-1,6.0908567E-2,-3.9237095E-3],"split_indices":[4,5,0,4,0,0,0,3,5,0,5,0,3,5,5,0,0,2,9,0,0,0,1,5,1,0,0,3,6,0,0,0,0,0,0,0,0,0,0,0,0,0,0,0,0],"split_type":[0,0,0,0,0,0,0,0,0,0,0,0,0,0,0,0,0,0,0,0,0,0,0,0,0,0,0,0,0,0,0,0,0,0,0,0,0,0,0,0,0,0,0,0,0],"sum_hessian":[4.5464546E3,3.9304587E3,6.1599567E2,3.6388174E3,2.9164145E2,1.2366808E3,2.4021365E3,1.2996924E3,1.1024442E3,1.0920748E3,2.0761757E2,1.8765535E2,9.147888E2,8.159285E2,2.7614633E2,4.5755924E1,1.6186163E2,7.321509E2,1.8263794E2,2.4495622E2,5.709723E2,7.156342E1,2.0458292E2,3.5550526E1,1.2631112E2,6.4907E2,8.308088E1,1.5561523E2,2.7022707E1,3.9119815E2,1.7977414E2,1.8933397E2,1.524895E1,1.1453589E1,2.4096935E1,1.0853904E2,1.7772078E1,2.3169754E2,4.1737247E2,5.8787235E1,2.4293644E1,1.2448398E2,3.1131258E1,1.0286956E1,1.673575E1],"tree_param":{"num_deleted":"0","num_feature":"15","num_nodes":"45","size_leaf_vector":"1"}},{"base_weights":[-3.5956703E-2,-3.6953068E-1,1.4996396E-1,-5.6911963E-1,1.4998077E-1,-7.890164E-2,-3.3145344E-1,-7.538729E-1,1.1306052E-1,-8.752771E-1,-2.817389E-1,-7.854658E-2,3.3354044E-1,-9.4458807E-1,-6.390905E-1,-7.766455E-2,-6.022697E-2,1.1714969E-1,7.5907797E-1,-7.869461E-2,-8.98227E-1,-7.7651806E-2,-4.9665955E-1,-6.595329E-1,2.1895479E-1,-1.5573813E-1,3.8655606E-1,6.5637577E-1,1.5313053E0,-6.043718E-2,-7.380625E-2,-4.1985564E-2,2.9760802E-2,-5.5759944E-2,1.1678858E-2,6.4407685E-3,7.124893E-2,-1.56091675E-2,4.2909436E-2,4.4020902E-2,-8.290448E-3,3.737374E-2,8.957547E-2,1.2835613E-1,4.6692554E-2],"categories":[],"categories_nodes":[],"categories_segments":[],"categories_sizes":[],"default_left":[0,0,0,0,0,0,0,0,0,0,0,0,0,0,0,0,0,0,0,0,0,0,0,0,0,0,0,0,0,0,0,0,0,0,0,0,0,0,0,0,0,0,0,0,0],"id":7,"left_children":[1,3,-1,5,-1,-1,7,9,11,13,15,-1,17,19,21,-1,23,25,27,-1,29,-1,31,33,35,37,39,41,43,-1,-1,-1,-1,-1,-1,-1,-1,-1,-1,-1,-1,-1,-1,-1,-1],"loss_changes":[2.9957388E3,1.7937195E3,0E0,4.010027E2,0E0,0E0,4.404189E2,6.8681885E1,2.928983E2,1.5047791E1,4.125448E1,0E0,8.8465256E1,2.6344604E0,1.1903259E1,0E0,3.232038E1,4.7015076E1,2.4690872E1,0E0,3.3145142E0,0E0,9.461674E0,4.314707E0,1.2754393E1,1.2244186E1,3.2108383E1,2.3869263E1,5.036499E0,0E0,0E0,0E0,0E0,0E0,0E0,0E0,0E0,0E0,0E0,0E0,0E0,0E0,0E0,0E0,0E0],"parents":[2147483647,0,0,1,1,3,3,6,6,7,7,8,8,9,9,10,10,12,12,13,13,14,14,16,16,17,17,18,18,20,20,22,22,23,23,24,24,25,25,26,26,27,27,28,28],"right_children":[2,4,-1,6,-1,-1,8,10,12,14,16,-1,18,20,22,-1,24,26,28,-1,30,-1,32,34,36,38,40,42,44,-1,-1,-1,-1,-1,-1,-1,-1,-1,-1,-1,-1,-1,-1,-1,-1],"split_conditions":[6.8E0,2.2E2,1.4996396E-1,5.7E0,1.4998077E-1,-7.890164E-2,5E1,3.07E1,1.26E2,4E1,1.26E2,-7.854658E-2,3.07E1,1.26E2,1.26E2,-7.766455E-2,3.3E1,6.6E1,1E0,-7.869461E-2,1E0,-7.7651806E-2,1E0,4.622E1,4.494E1,1E0,1E0,1E0,7.7E1,-6.043718E-2,-7.380625E-2,-4.1985564E-2,2.9760802E-2,-5.5759944E-2,1.1678858E-2,6.4407685E-3,7.124893E-2,-1.56091675E-2,4.2909436E-2,4.4020902E-2,-8.290448E-3,3.737374E-2,8.957547E-2,1.2835613E-1,4.6692554E-2],"split_indices":[4,5,0,4,0,0,0,3,5,0,5,0,3,5,5,0,0,0,2,0,9,0,1,3,3,2,9,1,0,0,0,0,0,0,0,0,0,0,0,0,0,0,0,0,0],"split_type":[0,0,0,0,0,0,0,0,0,0,0,0,0,0,0,0,0,0,0,0,0,0,0,0,0,0,0,0,0,0,0,0,0,0,0,0,0,0,0,0,0,0,0,0,0],"sum_hessian":[4.410016E3,3.789767E3,6.2024884E2,3.4960203E3,2.9374686E2,1.1519675E3,2.3440527E3,1.2015396E3,1.1425132E3,9.550935E2,2.464461E2,1.8182886E2,9.6068427E2,7.3608417E2,2.1900937E2,5.5138653E1,1.9130745E2,6.376879E2,3.2299634E2,2.1930585E2,5.167783E2,5.62482E1,1.6276117E2,6.036419E1,1.3094325E2,3.1700662E2,3.206813E2,2.8671475E2,3.6281597E1,2.5390897E2,2.6286932E2,1.5236583E2,1.039534E1,5.4809414E1,5.554775E0,1.11722595E2,1.922066E1,2.9638965E2,2.061699E1,2.2841985E2,9.226145E1,2.230938E2,6.3620953E1,2.9542965E1,6.7386327E0],"tree_param":{"num_deleted":"0","num_feature":"15","num_nodes":"45","size_leaf_vector":"1"}},{"base_weights":[-3.5762534E-2,-3.562531E-1,1.3950637E-1,-5.4940885E-1,1.3949993E-1,-7.859565E-2,-3.1542397E-1,-7.3543525E-1,1.0347697E-1,-8.6078876E-1,-2.6683164E-1,-7.821624E-2,3.0307156E-1,-9.335227E-1,-6.1818445E-1,-7.726589E-2,-5.6391582E-2,3.3782322E-2,5.8251876E-1,-7.8363106E-2,-8.8473713E-1,-7.725793E-2,-4.7541183E-1,-7.7837694E-1,1.5127663E-1,-7.2190054E-2,5.963725E-1,4.1551915E-1,9.2695534E-1,-5.9143897E-2,-7.313782E-2,-4.035798E-2,2.709764E-2,-6.4854145E-2,-1.8649511E-2,-5.9249657E-3,3.845581E-2,-2.8258175E-2,5.6316666E-3,1.2397937E-2,6.6644125E-2,9.7850785E-3,5.187011E-2,7.757816E-2,2.3578592E-2],"categories":[],"categories_nodes":[],"categories_segments":[],"categories_sizes":[],"default_left":[0,0,0,0,0,0,0,0,0,0,0,0,0,0,0,0,0,0,0,0,0,0,0,0,0,0,0,0,0,0,0,0,0,0,0,0,0,0,0,0,0,0,0,0,0],"id":8,"left_children":[1,3,-1,5,-1,-1,7,9,11,13,15,-1,17,19,21,-1,23,25,27,-1,29,-1,31,33,35,37,39,41,43,-1,-1,-1,-1,-1,-1,-1,-1,-1,-1,-1,-1,-1,-1,-1,-1],"loss_changes":[2.5963083E3,1.5656847E3,0E0,3.9193872E2,0E0,0E0,4.0299884E2,6.694934E1,2.6285623E2,1.5336243E1,3.8948833E1,0E0,7.35806E1,2.8328857E0,1.1917725E1,0E0,2.8814985E1,2.9801218E1,2.721965E1,0E0,3.4706116E0,0E0,8.5103E0,1.747982E0,1.2482975E1,1.8910065E1,9.832691E0,2.5487885E1,9.932999E0,0E0,0E0,0E0,0E0,0E0,0E0,0E0,0E0,0E0,0E0,0E0,0E0,0E0,0E0,0E0,0E0],"parents":[2147483647,0,0,1,1,3,3,6,6,7,7,8,8,9,9,10,10,12,12,13,13,14,14,16,16,17,17,18,18,20,20,22,22,23,23,24,24,25,25,26,26,27,27,28,28],"right_children":[2,4,-1,6,-1,-1,8,10,12,14,16,-1,18,20,22,-1,24,26,28,-1,30,-1,32,34,36,38,40,42,44,-1,-1,-1,-1,-1,-1,-1,-1,-1,-1,-1,-1,-1,-1,-1,-1],"split_conditions":[6.8E0,2.2E2,1.3950637E-1,5.7E0,1.3949993E-1,-7.859565E-2,5E1,3.07E1,1.26E2,4E1,1.26E2,-7.821624E-2,2.763E1,1.26E2,1.26E2,-7.726589E-2,3E1,1E0,6.9E1,-7.8363106E-2,1E0,-7.725793E-2,1E0,4.309E1,3.862E1,6E1,2.625E1,3.351E1,1E0,-5.9143897E-2,-7.313782E-2,-4.035798E-2,2.709764E-2,-6.4854145E-2,-1.8649511E-2,-5.9249657E-3,3.845581E-2,-2.8258175E-2,5.6316666E-3,1.2397937E-2,6.6644125E-2,9.7850785E-3,5.187011E-2,7.757816E-2,2.3578592E-2],"split_indices":[4,5,0,4,0,0,0,3,5,0,5,0,3,5,5,0,0,1,0,0,9,0,1,3,3,0,3,3,9,0,0,0,0,0,0,0,0,0,0,0,0,0,0,0,0],"split_type":[0,0,0,0,0,0,0,0,0,0,0,0,0,0,0,0,0,0,0,0,0,0,0,0,0,0,0,0,0,0,0,0,0,0,0,0,0,0,0,0,0,0,0,0,0],"sum_hessian":[4.2709556E3,3.6540544E3,6.1690106E2,3.3618105E3,2.9224396E2,1.0727366E3,2.289074E3,1.1426449E3,1.1464292E3,9.0083154E2,2.4181331E2,1.6937997E2,9.7704926E2,6.9086035E2,2.0997119E2,5.141342E1,1.9039989E2,4.9813876E2,4.7891046E2,2.0429163E2,4.8656873E2,5.2444775E1,1.5752641E2,4.1918083E1,1.484818E2,4.199134E2,7.8225365E1,3.2401746E2,1.54893E2,2.4053976E2,2.4602898E2,1.4687782E2,1.0648602E1,3.549921E1,6.418874E0,9.117767E1,5.7304123E1,1.3635703E2,2.835564E2,3.223666E1,4.598871E1,1.601437E2,1.6387375E2,1.311978E2,2.3695206E1],"tree_param":{"num_deleted":"0","num_feature":"15","num_nodes":"45","size_leaf_vector":"1"}},{"base_weights":[-3.545142E-2,-3.433824E-1,1.3108781E-1,-5.299225E-1,1.3106163E-1,-7.8313194E-2,-2.9999793E-1,-7.1689165E-1,9.469718E-2,-8.4606713E-1,-2.5284046E-1,-7.790741E-2,2.7582765E-1,-9.2232513E-1,-5.973011E-1,-7.688444E-2,-5.3190615E-2,4.121E-1,-1.739275E-1,-7.8054056E-2,-8.710217E-1,-7.688112E-2,-4.5451042E-1,-6.220039E-1,1.8706182E-1,-5.9658256E-3,5.6494653E-1,-2.8209487E-1,1.0962634E-1,-5.7829816E-2,-7.246877E-2,-3.8744695E-2,2.4721712E-2,-6.9899954E-2,-2.7072046E-2,-2.1406151E-3,3.7758816E-2,2.7351618E-2,-1.7126303E-2,3.19184E-2,7.381368E-2,-4.6522867E-2,-1.53719755E-2,6.90099E-2,-1.4266805E-3],"categories":[],"categories_nodes":[],"categories_segments":[],"categories_sizes":[],"default_left":[0,0,0,0,0,0,0,0,0,0,0,0,0,0,0,0,0,0,0,0,0,0,0,0,0,0,0,0,0,0,0,0,0,0,0,0,0,0,0,0,0,0,0,0,0],"id":9,"left_children":[1,3,-1,5,-1,-1,7,9,11,13,15,-1,17,19,21,-1,23,25,27,-1,29,-1,31,33,35,37,39,41,43,-1,-1,-1,-1,-1,-1,-1,-1,-1,-1,-1,-1,-1,-1,-1,-1],"loss_changes":[2.2698857E3,1.3757228E3,0E0,3.8241486E2,0E0,0E0,3.6835596E2,6.504181E1,2.3650946E2,1.5595459E1,3.6714664E1,0E0,6.0922836E1,3.0393677E0,1.190551E1,0E0,2.6155457E1,4.871277E1,7.13369E0,0E0,3.627411E0,0E0,7.6502113E0,4.260973E0,9.204817E0,1.6986643E1,3.2196075E1,4.2533007E0,6.760296E0,0E0,0E0,0E0,0E0,0E0,0E0,0E0,0E0,0E0,0E0,0E0,0E0,0E0,0E0,0E0,0E0],"parents":[2147483647,0,0,1,1,3,3,6,6,7,7,8,8,9,9,10,10,12,12,13,13,14,14,16,16,17,17,18,18,20,20,22,22,23,23,24,24,25,25,26,26,27,27,28,28],"right_children":[2,4,-1,6,-1,-1,8,10,12,14,16,-1,18,20,22,-1,24,26,28,-1,30,-1,32,34,36,38,40,42,44,-1,-1,-1,-1,-1,-1,-1,-1,-1,-1,-1,-1,-1,-1,-1,-1],"split_conditions":[6.8E0,2.2E2,1.3108781E-1,5.7E0,1.3106163E-1,-7.8313194E-2,5E1,3.07E1,1.26E2,4E1,1.26E2,-7.790741E-2,1E0,1.26E2,1.26E2,-7.688444E-2,3.3E1,2.71E1,2.914E1,-7.8054056E-2,1E0,-7.688112E-2,1E0,2.6E1,3.862E1,1E0,1E0,5.6E1,3.023E1,-5.7829816E-2,-7.246877E-2,-3.8744695E-2,2.4721712E-2,-6.9899954E-2,-2.7072046E-2,-2.1406151E-3,3.7758816E-2,2.7351618E-2,-1.7126303E-2,3.19184E-2,7.381368E-2,-4.6522867E-2,-1.53719755E-2,6.90099E-2,-1.4266805E-3],"split_indices":[4,5,0,4,0,0,0,3,5,0,5,0,9,5,5,0,0,3,3,0,9,0,1,0,3,6,1,0,3,0,0,0,0,0,0,0,0,0,0,0,0,0,0,0,0],"split_type":[0,0,0,0,0,0,0,0,0,0,0,0,0,0,0,0,0,0,0,0,0,0,0,0,0,0,0,0,0,0,0,0,0,0,0,0,0,0,0,0,0,0,0,0,0],"sum_hessian":[4.1315117E3,3.5238374E3,6.0767426E2,3.2358892E3,2.879481E2,9.986809E2,2.2372083E3,1.087611E3,1.1495973E3,8.5013904E2,2.3747195E2,1.5774422E2,9.9185315E2,6.486049E2,2.0153415E2,4.7930935E1,1.8954102E2,7.6127606E2,2.3057706E2,1.9025595E2,4.5834894E2,4.8889465E1,1.5264468E2,5.5812447E1,1.3372858E2,2.0406863E2,5.572074E2,1.6691072E2,6.3666336E1,2.2806032E2,2.3028864E2,1.4176158E2,1.0883098E1,2.4339E1,3.1473446E1,8.007278E1,5.3655804E1,7.628416E1,1.2778448E2,4.1970023E2,1.375072E2,2.9689821E1,1.372209E2,7.8784823E0,5.5787853E1],"tree_param":{"num_deleted":"0","num_feature":"15","num_nodes":"45","size_leaf_vector":"1"}},{"base_weights":[-3.50397E-2,-3.3082828E-1,1.24177046E-1,-5.10599E-1,1.2413352E-1,-7.805216E-2,-2.8509384E-1,-6.981943E-1,8.662662E-2,-8.3108187E-1,-2.3947863E-1,-7.761791E-2,2.5130925E-1,-9.109531E-1,-5.7646596E-1,-7.651768E-2,-5.0223682E-2,1.2298961E-1,6.776094E-1,-7.776519E-2,-8.570457E-1,-7.6518886E-2,-4.3398774E-1,-7.440624E-1,1.2824479E-1,-2.0316622E-1,2.889663E-1,7.699972E-1,1.2482506E-1,-5.6494195E-2,-7.1795784E-2,-3.7148513E-2,2.2593807E-2,-6.280993E-2,-1.5192785E-2,2.675865E-2,-1.1409706E-2,4.9783443E-3,-3.133828E-2,3.177701E-2,-8.75967E-3,4.6400927E-2,9.055459E-2,3.940444E-2,-1.1156422E-2],"categories":[],"categories_nodes":[],"categories_segments":[],"categories_sizes":[],"default_left":[0,0,0,0,0,0,0,0,0,0,0,0,0,0,0,0,0,0,0,0,0,0,0,0,0,0,0,0,0,0,0,0,0,0,0,0,0,0,0,0,0,0,0,0,0],"id":10,"left_children":[1,3,-1,5,-1,-1,7,9,11,13,15,-1,17,19,21,-1,23,25,27,-1,29,-1,31,33,35,37,39,41,43,-1,-1,-1,-1,-1,-1,-1,-1,-1,-1,-1,-1,-1,-1,-1,-1],"loss_changes":[1.9982313E3,1.2149155E3,0E0,3.7256E2,0E0,0E0,3.3629156E2,6.3025543E1,2.1329236E2,1.5821533E1,3.458139E1,0E0,5.497715E1,3.2528687E0,1.18656845E1,0E0,2.3586113E1,4.20065E1,1.1785774E1,0E0,3.7834473E0,0E0,6.8717365E0,1.8007965E0,9.777447E0,1.5184028E1,2.814618E1,1.24338E1,3.8599288E0,0E0,0E0,0E0,0E0,0E0,0E0,0E0,0E0,0E0,0E0,0E0,0E0,0E0,0E0,0E0,0E0],"parents":[2147483647,0,0,1,1,3,3,6,6,7,7,8,8,9,9,10,10,12,12,13,13,14,14,16,16,17,17,18,18,20,20,22,22,23,23,24,24,25,25,26,26,27,27,28,28],"right_children":[2,4,-1,6,-1,-1,8,10,12,14,16,-1,18,20,22,-1,24,26,28,-1,30,-1,32,34,36,38,40,42,44,-1,-1,-1,-1,-1,-1,-1,-1,-1,-1,-1,-1,-1,-1,-1,-1],"split_conditions":[6.8E0,2.2E2,1.24177046E-1,5.7E0,1.2413352E-1,-7.805216E-2,5E1,3.07E1,1.26E2,4E1,1.26E2,-7.761791E-2,3.351E1,1.26E2,1.26E2,-7.651768E-2,3E1,6.1E1,1E0,-7.776519E-2,1E0,-7.6518886E-2,1E0,4.309E1,1.58E2,1E0,1E0,4.105E1,1E0,-5.6494195E-2,-7.1795784E-2,-3.7148513E-2,2.2593807E-2,-6.280993E-2,-1.5192785E-2,2.675865E-2,-1.1409706E-2,4.9783443E-3,-3.133828E-2,3.177701E-2,-8.75967E-3,4.6400927E-2,9.055459E-2,3.940444E-2,-1.1156422E-2],"split_indices":[4,5,0,4,0,0,0,3,5,0,5,0,3,5,5,0,0,0,9,0,9,0,1,3,5,6,9,3,6,0,0,0,0,0,0,0,0,0,0,0,0,0,0,0,0],"split_type":[0,0,0,0,0,0,0,0,0,0,0,0,0,0,0,0,0,0,0,0,0,0,0,0,0,0,0,0,0,0,0,0,0,0,0,0,0,0,0,0,0,0,0,0,0],"sum_hessian":[3.9935706E3,3.3996218E3,5.939489E2,3.1181084E3,2.8151343E2,9.295036E2,2.1886047E3,1.0361887E3,1.152416E3,8.028078E2,2.3338097E2,1.4687491E2,1.0055411E3,6.091454E2,1.936624E2,4.4677307E1,1.8870366E2,7.738844E2,2.3165666E2,1.7714305E2,4.3200232E2,4.556804E1,1.4809436E2,3.795917E1,1.5074449E2,2.609248E2,5.129596E2,1.9814706E2,3.35096E1,2.1641719E2,2.1558514E2,1.369941E2,1.1100265E1,3.1908592E1,6.05058E0,8.289942E1,6.784507E1,1.159861E2,1.449387E2,3.8506152E2,1.2789806E2,1.4901096E2,4.9136097E1,1.3225131E1,2.0284472E1],"tree_param":{"num_deleted":"0","num_feature":"15","num_nodes":"45","size_leaf_vector":"1"}},{"base_weights":[-3.4522757E-2,-3.1857938E-1,1.18413694E-1,-4.9151155E-1,1.1835445E-1,-7.78107E-2,-2.7072477E-1,-7.749173E-1,1.4375876E-2,-8.833438E-1,-3.3780462E-1,-7.748289E-2,1.7195939E-1,-8.9412683E-1,2.4173197E-3,-7.552579E-2,-1.6710989E-1,9.3600325E-2,8.516385E-1,-7.752438E-2,-8.357512E-1,-7.2605544E-1,6.7909166E-2,-1.1830909E-2,5.6753176E-1,1.2176569E0,5.427738E-1,-7.433113E-2,-5.71257E-2,-6.84086E-2,-3.0366378E-2,2.3076897E-2,-1.8773159E-2,-1.5333925E-2,1.5630232E-2,3.270448E-2,1.2227687E-1,1.12760104E-1,4.6051152E-2,-2.3516374E-2,7.127818E-2],"categories":[],"categories_nodes":[],"categories_segments":[],"categories_sizes":[],"default_left":[0,0,0,0,0,0,0,0,0,0,0,0,0,0,0,0,0,0,0,0,0,0,0,0,0,0,0,0,0,0,0,0,0,0,0,0,0,0,0,0,0],"id":11,"left_children":[1,3,-1,5,-1,-1,7,9,11,13,15,-1,17,19,-1,-1,21,23,25,-1,27,29,31,33,35,37,39,-1,-1,-1,-1,-1,-1,-1,-1,-1,-1,-1,-1,-1,-1],"loss_changes":[1.7689055E3,1.0771943E3,0E0,3.6235663E2,0E0,0E0,3.0812695E2,3.6397552E1,2.2635324E2,6.147461E0,1.7595058E1,0E0,6.3399315E1,4.1257324E0,0E0,0E0,1.6482862E1,5.3462048E1,1.32537E1,0E0,4.2746277E0,1.8486385E0,6.8668065E0,3.7208633E1,2.6495174E1,8.65657E0,2.4227379E1,0E0,0E0,0E0,0E0,0E0,0E0,0E0,0E0,0E0,0E0,0E0,0E0,0E0,0E0],"parents":[2147483647,0,0,1,1,3,3,6,6,7,7,8,8,9,9,10,10,12,12,13,13,16,16,17,17,18,18,20,20,21,21,22,22,23,23,24,24,25,25,26,26],"right_children":[2,4,-1,6,-1,-1,8,10,12,14,16,-1,18,20,-1,-1,22,24,26,-1,28,30,32,34,36,38,40,-1,-1,-1,-1,-1,-1,-1,-1,-1,-1,-1,-1,-1,-1],"split_conditions":[6.8E0,2.2E2,1.18413694E-1,5.7E0,1.1835445E-1,-7.78107E-2,4.3E1,3.07E1,1.26E2,1E0,1.26E2,-7.748289E-2,1E0,1.26E2,2.4173197E-3,-7.552579E-2,3E1,1E0,1.55E2,-7.752438E-2,1.4E1,2.6E1,6.2E0,2.782E1,4.043E1,7.7E1,1.59E2,-7.433113E-2,-5.71257E-2,-6.84086E-2,-3.0366378E-2,2.3076897E-2,-1.8773159E-2,-1.5333925E-2,1.5630232E-2,3.270448E-2,1.2227687E-1,1.12760104E-1,4.6051152E-2,-2.3516374E-2,7.127818E-2],"split_indices":[4,5,0,4,0,0,0,3,5,1,5,0,2,5,0,0,0,1,5,0,0,0,4,3,3,0,5,0,0,0,0,0,0,0,0,0,0,0,0,0,0],"split_type":[0,0,0,0,0,0,0,0,0,0,0,0,0,0,0,0,0,0,0,0,0,0,0,0,0,0,0,0,0,0,0,0,0,0,0,0,0,0,0,0,0],"sum_hessian":[3.857706E3,3.2808662E3,5.768397E2,3.007398E3,2.7346838E2,8.6491815E2,2.1424797E3,7.7326465E2,1.3692151E3,6.187595E2,1.5450516E2,1.7832257E2,1.1908926E3,6.115802E2,7.179318E0,3.0404673E1,1.2410049E2,1.0688091E3,1.22083496E2,1.7546657E2,4.3611362E2,3.611615E1,8.798434E1,8.75107E2,1.9370209E2,5.452573E1,6.755776E1,1.36824E2,2.992896E2,2.1703173E1,1.4412976E1,5.019478E1,3.7789562E1,4.6685614E2,4.0825082E2,1.736338E2,2.0068285E1,3.599311E1,1.853262E1,2.1861006E1,4.569676E1],"tree_param":{"num_deleted":"0","num_feature":"15","num_nodes":"41","size_leaf_vector":"1"}},{"base_weights":[-3.3870585E-2,-3.0653843E-1,1.13544226E-1,-4.7258732E-1,1.13470346E-1,-7.758709E-2,-2.567781E-1,-7.5811344E-1,1.2856777E-2,-8.7069744E-1,-3.2147533E-1,-7.723449E-2,1.5784553E-1,-8.819982E-1,2.2539173E-3,-7.514058E-2,-1.5753594E-1,8.623374E-2,7.568674E-1,-7.727175E-2,-8.208363E-1,-7.081082E-1,6.2412582E-2,-8.769028E-2,3.312148E-1,9.248419E-1,2.235102E-1,-7.3836595E-2,-5.5801913E-2,-2.4927652E-2,-6.578139E-2,2.0972325E-2,-1.7673677E-2,-2.6716504E-2,8.0777425E-3,4.4482715E-2,1.160977E-2,1.5756582E-1,5.831573E-2,5.9856463E-2,-1.6750365E-2],"categories":[],"categories_nodes":[],"categories_segments":[],"categories_sizes":[],"default_left":[0,0,0,0,0,0,0,0,0,0,0,0,0,0,0,0,0,0,0,0,0,0,0,0,0,0,0,0,0,0,0,0,0,0,0,0,0,0,0,0,0],"id":12,"left_children":[1,3,-1,5,-1,-1,7,9,11,13,15,-1,17,19,-1,-1,21,23,25,-1,27,29,31,33,35,37,39,-1,-1,-1,-1,-1,-1,-1,-1,-1,-1,-1,-1,-1,-1],"loss_changes":[1.5729685E3,9.5806946E2,0E0,3.5195117E2,0E0,0E0,2.838659E2,3.5822845E1,2.067339E2,5.963806E0,1.6811604E1,0E0,5.1432976E1,4.3793335E0,0E0,0E0,1.5033661E1,4.576645E1,1.126664E1,0E0,4.45636E0,1.9569988E0,5.851816E0,3.301797E1,2.050906E1,1.5182358E1,8.391914E0,0E0,0E0,0E0,0E0,0E0,0E0,0E0,0E0,0E0,0E0,0E0,0E0,0E0,0E0],"parents":[2147483647,0,0,1,1,3,3,6,6,7,7,8,8,9,9,10,10,12,12,13,13,16,16,17,17,18,18,20,20,21,21,22,22,23,23,24,24,25,25,26,26],"right_children":[2,4,-1,6,-1,-1,8,10,12,14,16,-1,18,20,-1,-1,22,24,26,-1,28,30,32,34,36,38,40,-1,-1,-1,-1,-1,-1,-1,-1,-1,-1,-1,-1,-1,-1],"split_conditions":[6.8E0,2.2E2,1.13544226E-1,5.7E0,1.13470346E-1,-7.758709E-2,4.3E1,3.07E1,1.26E2,1E0,1.26E2,-7.723449E-2,1E0,1.26E2,2.2539173E-3,-7.514058E-2,3E1,2.957E1,8E1,-7.727175E-2,1.4E1,1.45E2,6.2E0,6E1,1E0,1.3E2,6.1E0,-7.3836595E-2,-5.5801913E-2,-2.4927652E-2,-6.578139E-2,2.0972325E-2,-1.7673677E-2,-2.6716504E-2,8.0777425E-3,4.4482715E-2,1.160977E-2,1.5756582E-1,5.831573E-2,5.9856463E-2,-1.6750365E-2],"split_indices":[4,5,0,4,0,0,0,3,5,1,5,0,2,5,0,0,0,3,0,0,0,5,4,0,6,5,4,0,0,0,0,0,0,0,0,0,0,0,0,0,0],"split_type":[0,0,0,0,0,0,0,0,0,0,0,0,0,0,0,0,0,0,0,0,0,0,0,0,0,0,0,0,0,0,0,0,0,0,0,0,0,0,0,0,0],"sum_hessian":[3.7250176E3,3.167768E3,5.572495E2,2.9035269E3,2.6424115E2,8.0464954E2,2.0988774E3,7.334162E2,1.3654612E3,5.822843E2,1.511319E2,1.6595259E2,1.1995085E3,5.750901E2,7.194203E0,2.835183E1,1.22780075E2,1.0724441E3,1.27064445E2,1.6330313E2,4.1178696E2,3.4414562E1,8.836551E1,6.275545E2,4.448896E2,9.607331E1,3.0991135E1,1.2776222E2,2.8402472E2,1.1596149E1,2.2818415E1,5.1150433E1,3.7215076E1,2.6396448E2,3.6359006E2,1.7811711E2,2.667725E2,9.217553E0,8.685576E1,1.3214E1,1.7777136E1],"tree_param":{"num_deleted":"0","num_feature":"15","num_nodes":"41","size_leaf_vector":"1"}},{"base_weights":[-3.316806E-2,-2.9470643E-1,1.0938485E-1,-4.538238E-1,1.09297E-1,-7.737979E-2,-2.4329992E-1,-7.975166E-1,-1.3213699E-2,-8.2520735E-1,5.151096E-1,-7.706854E-2,1.2528723E-1,-9.264644E-1,-6.3974136E-1,3.3894805E-3,6.2182944E-2,-9.270985E-2,3.071275E-1,-9.991318E-1,-8.6605793E-1,-7.6116644E-2,-5.108305E-1,-2.063837E-1,5.5860966E-1,4.256156E-1,-1.1246198E-1,-7.5757116E-2,-4.3747563E-2,-7.421098E-2,-5.8455452E-2,-5.153258E-2,-1.9394973E-2,-1.8883834E-2,5.2978955E-2,5.31707E-2,-1.4069137E-2,1.9058267E-2,5.6465287E-2,-1.2008281E-2,5.420131E-2],"categories":[],"categories_nodes":[],"categories_segments":[],"categories_sizes":[],"default_left":[0,0,0,0,0,0,0,0,0,0,0,0,0,0,0,0,0,0,0,0,0,0,0,0,0,0,0,0,0,0,0,0,0,0,0,0,0,0,0,0,0],"id":13,"left_children":[1,3,-1,5,-1,-1,7,9,11,13,15,-1,17,19,21,-1,-1,23,25,27,29,-1,31,33,35,37,39,-1,-1,-1,-1,-1,-1,-1,-1,-1,-1,-1,-1,-1,-1],"loss_changes":[1.404057E3,8.542756E2,0E0,3.4136163E2,0E0,0E0,2.6260187E2,2.2384216E1,2.0472226E2,1.0525757E1,1.895046E0,0E0,5.0856407E1,8.059387E-1,9.749184E0,0E0,0E0,4.3346245E1,3.4815277E1,1.690216E-1,1.5325928E0,0E0,6.93734E0,2.0809704E1,9.896364E0,3.0427132E1,6.275119E0,0E0,0E0,0E0,0E0,0E0,0E0,0E0,0E0,0E0,0E0,0E0,0E0,0E0,0E0],"parents":[2147483647,0,0,1,1,3,3,6,6,7,7,8,8,9,9,10,10,12,12,13,13,14,14,17,17,18,18,19,19,20,20,22,22,23,23,24,24,25,25,26,26],"right_children":[2,4,-1,6,-1,-1,8,10,12,14,16,-1,18,20,22,-1,-1,24,26,28,30,-1,32,34,36,38,40,-1,-1,-1,-1,-1,-1,-1,-1,-1,-1,-1,-1,-1,-1],"split_conditions":[6.8E0,2.2E2,1.0938485E-1,5.7E0,1.09297E-1,-7.737979E-2,3.9E1,1E0,1.26E2,2.8E1,3.4E1,-7.706854E-2,6E1,1.4E2,1.26E2,3.3894805E-3,6.2182944E-2,3.902E1,1E0,3.671E1,2.09E1,-7.6116644E-2,2.86E1,1E0,1E0,1.59E2,3.824E1,-7.5757116E-2,-4.3747563E-2,-7.421098E-2,-5.8455452E-2,-5.153258E-2,-1.9394973E-2,-1.8883834E-2,5.2978955E-2,5.31707E-2,-1.4069137E-2,1.9058267E-2,5.6465287E-2,-1.2008281E-2,5.420131E-2],"split_indices":[4,5,0,4,0,0,0,1,5,0,0,0,0,5,5,0,0,3,9,3,3,0,3,2,9,5,3,0,0,0,0,0,0,0,0,0,0,0,0,0,0],"split_type":[0,0,0,0,0,0,0,0,0,0,0,0,0,0,0,0,0,0,0,0,0,0,0,0,0,0,0,0,0,0,0,0,0,0,0,0,0,0,0,0,0],"sum_hessian":[3.5969443E3,3.0610342E3,5.3591003E2,2.8068552E3,2.5417885E2,7.484347E2,2.0584207E3,6.03143E2,1.4552776E3,5.910458E2,1.2097182E1,1.7406007E2,1.2812175E3,3.7973193E2,2.1131387E2,5.3037276E0,6.793455E0,5.829022E2,6.9831537E2,1.6531816E2,2.1441377E2,5.2285004E1,1.5902887E2,4.9686774E2,8.6034485E1,5.445307E2,1.5378467E2,1.5967924E2,5.638908E0,8.4144455E1,1.3026932E2,9.259507E1,6.643379E1,4.7401462E2,2.285311E1,7.164952E1,1.4384963E1,3.5845212E2,1.8607855E2,1.4624886E2,7.535801E0],"tree_param":{"num_deleted":"0","num_feature":"15","num_nodes":"41","size_leaf_vector":"1"}},{"base_weights":[-3.244434E-2,-2.8313822E-1,1.0579897E-1,-4.3534672E-1,1.05697535E-1,-7.718739E-2,-2.3037592E-1,-7.8185755E-1,-1.2806104E-2,-8.105238E-1,4.6775773E-1,-7.685043E-2,1.15134664E-1,-9.1673493E-1,-6.199816E-1,3.1675235E-3,5.5548895E-2,-4.9291268E-2,3.361618E-1,-9.940107E-1,-8.531206E-1,-7.5826555E-2,-4.9030444E-1,-3.0976337E-1,1.5322681E-1,2.537497E-1,7.272446E-1,-7.542856E-2,-4.2441685E-2,-7.3764324E-2,-5.7217147E-2,-5.1088765E-2,-1.939568E-2,9.1456965E-4,-3.0193424E-2,1.9680914E-2,-1.0636438E-2,3.724055E-2,4.250316E-3,9.697079E-2,3.2599825E-2],"categories":[],"categories_nodes":[],"categories_segments":[],"categories_sizes":[],"default_left":[0,0,0,0,0,0,0,0,0,0,0,0,0,0,0,0,0,0,0,0,0,0,0,0,0,0,0,0,0,0,0,0,0,0,0,0,0,0,0,0,0],"id":14,"left_children":[1,3,-1,5,-1,-1,7,9,11,13,15,-1,17,19,21,-1,-1,23,25,27,29,-1,31,33,35,37,39,-1,-1,-1,-1,-1,-1,-1,-1,-1,-1,-1,-1,-1,-1],"loss_changes":[1.2573744E3,7.633896E2,0E0,3.3052258E2,0E0,0E0,2.4253648E2,2.086444E1,1.8791019E2,1.0752838E1,1.53157E0,0E0,4.6850018E1,9.074402E-1,9.813782E0,0E0,0E0,3.907325E1,1.7536942E1,2.0843506E-1,1.6371613E0,0E0,6.6619606E0,9.685062E0,1.3466956E1,2.177567E1,1.5188988E1,0E0,0E0,0E0,0E0,0E0,0E0,0E0,0E0,0E0,0E0,0E0,0E0,0E0,0E0],"parents":[2147483647,0,0,1,1,3,3,6,6,7,7,8,8,9,9,10,10,12,12,13,13,14,14,17,17,18,18,19,19,20,20,22,22,23,23,24,24,25,25,26,26],"right_children":[2,4,-1,6,-1,-1,8,10,12,14,16,-1,18,20,22,-1,-1,24,26,28,30,-1,32,34,36,38,40,-1,-1,-1,-1,-1,-1,-1,-1,-1,-1,-1,-1,-1,-1],"split_conditions":[6.8E0,2.2E2,1.0579897E-1,5.7E0,1.05697535E-1,-7.718739E-2,3.9E1,1E0,1.26E2,2.8E1,3.4E1,-7.685043E-2,2.957E1,1.4E2,1.26E2,3.1675235E-3,5.5548895E-2,6.1E1,4.105E1,3.671E1,2.09E1,-7.5826555E-2,2.773E1,1.4E2,1E0,1E0,1.45E2,-7.542856E-2,-4.2441685E-2,-7.3764324E-2,-5.7217147E-2,-5.1088765E-2,-1.939568E-2,9.1456965E-4,-3.0193424E-2,1.9680914E-2,-1.0636438E-2,3.724055E-2,4.250316E-3,9.697079E-2,3.2599825E-2],"split_indices":[4,5,0,4,0,0,0,1,5,0,0,0,3,5,5,0,0,0,3,3,3,0,3,5,9,6,5,0,0,0,0,0,0,0,0,0,0,0,0,0,0],"split_type":[0,0,0,0,0,0,0,0,0,0,0,0,0,0,0,0,0,0,0,0,0,0,0,0,0,0,0,0,0,0,0,0,0,0,0,0,0,0,0,0,0],"sum_hessian":[3.4734597E3,2.9600461E3,5.1341345E2,2.7164836E3,2.435626E2,6.96023E2,2.0204606E3,5.708681E2,1.4495925E3,5.5840955E2,1.2458573E1,1.6192674E2,1.2876658E3,3.561019E2,2.0230763E2,5.3191624E0,7.1394114E0,7.388209E2,5.4884485E2,1.5418246E2,2.0191943E2,4.868933E1,1.536183E2,3.2293848E2,4.1588248E2,4.5467987E2,9.416494E1,1.4876654E2,5.41592E0,7.852523E1,1.233942E2,8.316443E1,7.045387E1,7.245971E1,2.5047878E2,3.036308E2,1.1225168E2,2.0303352E2,2.5164636E2,3.0934494E1,6.3230446E1],"tree_param":{"num_deleted":"0","num_feature":"15","num_nodes":"41","size_leaf_vector":"1"}},{"base_weights":[-3.168191E-2,-2.718089E-1,1.0268285E-1,-4.171696E-1,1.02568E-1,-7.700857E-2,-2.1797115E-1,-7.658646E-1,-1.2379436E-2,-7.954872E-1,4.258135E-1,-7.664419E-2,1.0589038E-1,-9.0676534E-1,-6.0011935E-1,2.9605024E-3,4.9855936E-2,1.6725188E-2,4.7972342E-1,-7.4932106E-2,-8.467311E-1,-7.554359E-2,-4.699923E-1,-4.1598264E-2,5.7478726E-1,3.9155564E-1,9.712839E-1,-7.238122E-2,-5.6147646E-2,-4.966428E-2,-1.827453E-2,1.2892477E-2,-1.3894562E-2,5.7314645E-2,2.9955702E-3,1.7475998E-2,5.1239397E-2,4.295731E-3,8.3753444E-2],"categories":[],"categories_nodes":[],"categories_segments":[],"categories_sizes":[],"default_left":[0,0,0,0,0,0,0,0,0,0,0,0,0,0,0,0,0,0,0,0,0,0,0,0,0,0,0,0,0,0,0,0,0,0,0,0,0,0,0],"id":15,"left_children":[1,3,-1,5,-1,-1,7,9,11,13,15,-1,17,19,21,-1,-1,23,25,-1,27,-1,29,31,33,35,37,-1,-1,-1,-1,-1,-1,-1,-1,-1,-1,-1,-1],"loss_changes":[1.129135E3,6.8342755E2,0E0,3.194982E2,0E0,0E0,2.2366661E2,1.9464478E1,1.7262988E2,1.0956421E1,1.2469413E0,0E0,4.313493E1,1.0113525E0,9.8534775E0,0E0,0E0,3.4071888E1,1.0421017E1,0E0,1.7110138E0,0E0,6.345825E0,2.9109564E1,1.0003605E1,9.689049E0,4.8844604E0,0E0,0E0,0E0,0E0,0E0,0E0,0E0,0E0,0E0,0E0,0E0,0E0],"parents":[2147483647,0,0,1,1,3,3,6,6,7,7,8,8,9,9,10,10,12,12,13,13,14,14,17,17,18,18,20,20,22,22,23,23,24,24,25,25,26,26],"right_children":[2,4,-1,6,-1,-1,8,10,12,14,16,-1,18,20,22,-1,-1,24,26,-1,28,-1,30,32,34,36,38,-1,-1,-1,-1,-1,-1,-1,-1,-1,-1,-1,-1],"split_conditions":[6.8E0,2.2E2,1.0268285E-1,5.7E0,1.02568E-1,-7.700857E-2,3.9E1,1E0,1.26E2,2.8E1,3.4E1,-7.664419E-2,1E0,2.077E1,1.26E2,2.9605024E-3,4.9855936E-2,1E0,3.824E1,-7.4932106E-2,1.4E2,-7.554359E-2,2.773E1,1E0,7.8E1,1.59E2,4.7E1,-7.238122E-2,-5.6147646E-2,-4.966428E-2,-1.827453E-2,1.2892477E-2,-1.3894562E-2,5.7314645E-2,2.9955702E-3,1.7475998E-2,5.1239397E-2,4.295731E-3,8.3753444E-2],"split_indices":[4,5,0,4,0,0,0,1,5,0,0,0,1,3,5,0,0,2,3,0,5,0,3,6,0,5,0,0,0,0,0,0,0,0,0,0,0,0,0],"split_type":[0,0,0,0,0,0,0,0,0,0,0,0,0,0,0,0,0,0,0,0,0,0,0,0,0,0,0,0,0,0,0,0,0,0,0,0,0,0,0],"sum_hessian":[3.3547517E3,2.8645142E3,4.9023755E2,2.631895E3,2.3261932E2,6.4717554E2,1.9847194E3,5.407957E2,1.4439236E3,5.280031E2,1.2792575E1,1.5061801E2,1.2933057E3,3.340772E2,1.9392592E2,5.3336196E0,7.458955E0,1.0450817E3,2.4822401E2,1.2546961E2,2.086076E2,4.5337635E1,1.4858829E2,9.470321E2,9.8049515E1,2.1199628E2,3.6227745E1,9.05372E1,1.180704E2,7.931191E1,6.9276375E1,3.8085065E2,5.6618146E2,7.2090805E1,2.595871E1,1.3850159E2,7.349468E1,5.1643114E0,3.1063435E1],"tree_param":{"num_deleted":"0","num_feature":"15","num_nodes":"39","size_leaf_vector":"1"}},{"base_weights":[-3.0836323E-2,-2.606266E-1,9.995624E-2,-3.9920282E-1,9.982789E-2,-7.684215E-2,-2.0596406E-1,-7.673789E-2,-7.400086E-2,-7.640073E-1,7.2956994E-2,-8.6740804E-1,-5.1265955E-1,-1.1854272E-1,2.5038326E-1,-7.4492306E-1,-7.107437E-2,-6.20915E-1,1.663291E-1,-3.3718503E-1,1.3337743E-1,3.4715778E-1,-1.0823098E-1,-7.395934E-2,-4.866063E-2,-3.3528917E-2,-5.557627E-2,3.4227394E-2,-8.54604E-3,-2.9734062E-2,1.6956892E-2,3.051858E-2,-4.358884E-3,1.49735855E-2,4.6566185E-2,-1.1332662E-2,4.4482153E-2],"categories":[],"categories_nodes":[],"categories_segments":[],"categories_sizes":[],"default_left":[0,0,0,0,0,0,0,0,0,0,0,0,0,0,0,0,0,0,0,0,0,0,0,0,0,0,0,0,0,0,0,0,0,0,0,0,0],"id":16,"left_children":[1,3,-1,5,-1,-1,7,-1,9,11,13,15,17,19,21,23,-1,25,27,29,31,33,35,-1,-1,-1,-1,-1,-1,-1,-1,-1,-1,-1,-1,-1,-1],"loss_changes":[1.0163097E3,6.12739E2,0E0,3.084332E2,0E0,0E0,2.1047513E2,0E0,1.7061842E2,7.233368E0,4.717691E1,1.3373413E0,6.61248E0,3.6839848E1,2.5045704E1,1.3761444E0,0E0,1.2680054E0,1.1060241E0,1.2038601E1,1.6319763E1,2.279818E1,4.716768E0,0E0,0E0,0E0,0E0,0E0,0E0,0E0,0E0,0E0,0E0,0E0,0E0,0E0,0E0],"parents":[2147483647,0,0,1,1,3,3,6,6,8,8,9,9,10,10,11,11,12,12,13,13,14,14,15,15,17,17,18,18,19,19,20,20,21,21,22,22],"right_children":[2,4,-1,6,-1,-1,8,-1,10,12,14,16,18,20,22,24,-1,26,28,30,32,34,36,-1,-1,-1,-1,-1,-1,-1,-1,-1,-1,-1,-1,-1,-1],"split_conditions":[6.8E0,2.2E2,9.995624E-2,5.7E0,9.982789E-2,-7.684215E-2,1.26E2,-7.673789E-2,3.3E1,2.6E1,6E1,1E0,3.726E1,3.001E1,1E0,2.077E1,-7.107437E-2,1.55E2,1.55E2,1E0,1E0,1.59E2,3.824E1,-7.395934E-2,-4.866063E-2,-3.3528917E-2,-5.557627E-2,3.4227394E-2,-8.54604E-3,-2.9734062E-2,1.6956892E-2,3.051858E-2,-4.358884E-3,1.49735855E-2,4.6566185E-2,-1.1332662E-2,4.4482153E-2],"split_indices":[4,5,0,4,0,0,5,0,0,0,0,9,3,3,9,3,0,5,5,1,6,5,3,0,0,0,0,0,0,0,0,0,0,0,0,0,0],"split_type":[0,0,0,0,0,0,0,0,0,0,0,0,0,0,0,0,0,0,0,0,0,0,0,0,0,0,0,0,0,0,0,0,0,0,0,0,0],"sum_hessian":[3.241376E3,2.77461E3,4.6676593E2,2.5530789E3,2.215312E2,6.016659E2,1.9514128E3,2.703659E2,1.681047E3,2.9442834E2,1.3866187E3,2.0687285E2,8.75555E1,6.670212E2,7.195974E2,8.595823E1,1.2091462E2,7.558933E1,1.1966161E1,3.5691504E2,3.1010614E2,5.667012E2,1.5289624E2,2.1854387E1,6.410384E1,3.2812016E1,4.277732E1,5.5719323E0,6.3942285E0,3.2320312E2,3.3711918E1,1.2723539E2,1.8287076E2,3.6937482E2,1.9732637E2,1.4482767E2,8.068582E0],"tree_param":{"num_deleted":"0","num_feature":"15","num_nodes":"37","size_leaf_vector":"1"}},{"base_weights":[-3.002092E-2,-2.497401E-1,9.755603E-2,-3.81649E-1,9.7413994E-2,-7.668705E-2,-1.9455552E-1,-7.65678E-2,-6.954564E-2,-7.477088E-1,6.716685E-2,-8.553269E-1,-4.9270505E-1,-1.7586982E-2,4.2801234E-1,-7.281351E-1,-7.04974E-2,-6.0125303E-1,1.5419641E-1,-2.2266015E-1,1.3633768E-1,9.637102E-3,5.0147915E-1,-7.3567525E-2,-4.722016E-2,-6.005487E-2,-3.6134742E-2,3.1231984E-2,-8.045362E-3,-3.094369E-2,1.522459E-3,2.5635555E-3,3.4425292E-2,-1.5362516E-2,6.211548E-2,3.2556973E-2,6.8018615E-2],"categories":[],"categories_nodes":[],"categories_segments":[],"categories_sizes":[],"default_left":[0,0,0,0,0,0,0,0,0,0,0,0,0,0,0,0,0,0,0,0,0,0,0,0,0,0,0,0,0,0,0,0,0,0,0,0,0],"id":17,"left_children":[1,3,-1,5,-1,-1,7,-1,9,11,13,15,17,19,21,23,-1,25,27,29,31,33,35,-1,-1,-1,-1,-1,-1,-1,-1,-1,-1,-1,-1,-1,-1],"loss_changes":[9.167426E2,5.501685E2,0E0,2.9719907E2,0E0,0E0,1.9838681E2,0E0,1.5486105E2,7.2687225E0,4.253495E1,1.4223633E0,6.098095E0,3.5605984E1,8.125816E0,1.4403992E0,0E0,1.364172E0,9.4179535E-1,2.23237E1,2.122615E1,7.285406E0,5.753315E0,0E0,0E0,0E0,0E0,0E0,0E0,0E0,0E0,0E0,0E0,0E0,0E0,0E0,0E0],"parents":[2147483647,0,0,1,1,3,3,6,6,8,8,9,9,10,10,11,11,12,12,13,13,14,14,15,15,17,17,18,18,19,19,20,20,21,21,22,22],"right_children":[2,4,-1,6,-1,-1,8,-1,10,12,14,16,18,20,22,24,-1,26,28,30,32,34,36,-1,-1,-1,-1,-1,-1,-1,-1,-1,-1,-1,-1,-1,-1],"split_conditions":[6.8E0,2.2E2,9.755603E-2,5.7E0,9.7413994E-2,-7.668705E-2,1.26E2,-7.65678E-2,3.3E1,2.6E1,1E0,1E0,3.726E1,5.7E1,2.625E1,2.077E1,-7.04974E-2,2.66E1,1.55E2,3.001E1,3.285E1,1E0,4.043E1,-7.3567525E-2,-4.722016E-2,-6.005487E-2,-3.6134742E-2,3.1231984E-2,-8.045362E-3,-3.094369E-2,1.522459E-3,2.5635555E-3,3.4425292E-2,-1.5362516E-2,6.211548E-2,3.2556973E-2,6.8018615E-2],"split_indices":[4,5,0,4,0,0,5,0,0,0,1,9,3,0,3,3,0,3,5,3,3,12,3,0,0,0,0,0,0,0,0,0,0,0,0,0,0],"split_type":[0,0,0,0,0,0,0,0,0,0,0,0,0,0,0,0,0,0,0,0,0,0,0,0,0,0,0,0,0,0,0,0,0,0,0,0,0],"sum_hessian":[3.1331748E3,2.6898704E3,4.4330423E2,2.4794268E3,2.1044359E2,5.592797E2,1.9201471E3,2.5136842E2,1.6687787E3,2.7922284E2,1.3895559E3,1.9470024E2,8.452261E1,1.12603E3,2.6352582E2,8.1630936E1,1.13069305E2,7.243827E1,1.2084343E1,4.826075E2,6.4342255E2,3.953201E1,2.239938E2,2.0384325E1,6.1246613E1,2.4995516E1,4.7442753E1,5.737485E0,6.3468575E0,2.7047678E2,2.1213075E2,4.8953915E2,1.5388339E2,3.1918827E1,7.6131806E0,1.9384596E2,3.0147839E1],"tree_param":{"num_deleted":"0","num_feature":"15","num_nodes":"37","size_leaf_vector":"1"}},{"base_weights":[-2.9163629E-2,-2.391459E-1,9.543192E-2,-3.6458117E-1,9.527583E-2,-7.654226E-2,-1.8369617E-1,-7.640744E-2,-6.5321244E-2,-7.3109466E-1,6.1981928E-2,-8.4288865E-1,-4.7304204E-1,-1.6456299E-2,3.8937294E-1,-7.1103364E-1,-6.990524E-2,-5.8161443E-1,1.4300181E-1,-1.828506E-1,1.490152E-1,9.741286E-3,4.5467386E-1,-7.3173925E-2,-4.5766532E-2,-5.894946E-2,-3.463933E-2,-8.507357E-3,3.0027593E-2,-2.6959315E-2,2.4735E-3,2.0876864E-4,2.6855E-2,6.078951E-2,-1.4089349E-2,2.4567869E-2,4.978798E-2],"categories":[],"categories_nodes":[],"categories_segments":[],"categories_sizes":[],"default_left":[0,0,0,0,0,0,0,0,0,0,0,0,0,0,0,0,0,0,0,0,0,0,0,0,0,0,0,0,0,0,0,0,0,0,0,0,0],"id":18,"left_children":[1,3,-1,5,-1,-1,7,-1,9,11,13,15,17,19,21,23,-1,25,27,29,31,33,35,-1,-1,-1,-1,-1,-1,-1,-1,-1,-1,-1,-1,-1,-1],"loss_changes":[8.2847266E2,4.946571E2,0E0,2.8584436E2,0E0,0E0,1.8683713E2,0E0,1.4049106E2,7.2770386E0,3.5753147E1,1.5052185E0,5.6148663E0,3.0972773E1,6.6663055E0,1.5015182E0,0E0,1.362751E0,9.162186E-1,2.1389776E1,1.7242725E1,6.5630746E0,5.8858185E0,0E0,0E0,0E0,0E0,0E0,0E0,0E0,0E0,0E0,0E0,0E0,0E0,0E0,0E0],"parents":[2147483647,0,0,1,1,3,3,6,6,8,8,9,9,10,10,11,11,12,12,13,13,14,14,15,15,17,17,18,18,19,19,20,20,21,21,22,22],"right_children":[2,4,-1,6,-1,-1,8,-1,10,12,14,16,18,20,22,24,-1,26,28,30,32,34,36,-1,-1,-1,-1,-1,-1,-1,-1,-1,-1,-1,-1,-1,-1],"split_conditions":[6.8E0,2.2E2,9.543192E-2,5.7E0,9.527583E-2,-7.654226E-2,1.26E2,-7.640744E-2,3.3E1,2.6E1,1E0,1E0,3.726E1,6E1,2.625E1,2.077E1,-6.990524E-2,2.66E1,4.309E1,3.001E1,2.88E1,5.8E0,6.9E1,-7.3173925E-2,-4.5766532E-2,-5.894946E-2,-3.463933E-2,-8.507357E-3,3.0027593E-2,-2.6959315E-2,2.4735E-3,2.0876864E-4,2.6855E-2,6.078951E-2,-1.4089349E-2,2.4567869E-2,4.978798E-2],"split_indices":[4,5,0,4,0,0,5,0,0,0,1,9,3,0,3,3,0,3,3,3,3,4,0,0,0,0,0,0,0,0,0,0,0,0,0,0,0],"split_type":[0,0,0,0,0,0,0,0,0,0,0,0,0,0,0,0,0,0,0,0,0,0,0,0,0,0,0,0,0,0,0,0,0,0,0,0,0],"sum_hessian":[3.029136E3,2.6090417E3,4.200942E2,2.4095703E3,1.9947145E2,5.198142E2,1.8897561E3,2.3367833E2,1.6560778E3,2.6506918E2,1.3910085E3,1.8336511E2,8.170407E1,1.1229221E3,2.6808643E2,7.760236E1,1.0576275E2,6.950951E1,1.2194562E1,5.598475E2,5.6307465E2,3.951459E1,2.2857182E2,1.9014507E1,5.8587852E1,2.3625944E1,4.5883564E1,6.388489E0,5.806073E0,3.075358E2,2.5231168E2,3.3191397E2,2.311607E2,7.206766E0,3.2307823E1,1.4377263E2,8.4799194E1],"tree_param":{"num_deleted":"0","num_feature":"15","num_nodes":"37","size_leaf_vector":"1"}},{"base_weights":[-2.8297126E-2,-2.2877437E-1,9.354328E-2,-3.4787324E-1,9.337263E-2,-7.640685E-2,-1.7331125E-1,-7.6255776E-2,-6.1338596E-2,-7.141493E-1,5.719323E-2,-8.3007514E-1,-4.5361772E-1,4.432357E-3,5.1653045E-1,-6.9363296E-1,-6.929571E-2,-5.6194437E-1,1.3268809E-1,-8.751019E-2,2.4979761E-1,8.2730424E-1,2.5406957E-1,-7.277686E-2,-4.430238E-2,-2.8135508E-2,-5.2108813E-2,-7.105434E-3,3.1610884E-2,-2.3817958E-2,3.249663E-3,1.134981E-2,4.3478236E-2,1.3230024E-1,5.1054567E-2,-2.8725717E-2,4.0461183E-2],"categories":[],"categories_nodes":[],"categories_segments":[],"categories_sizes":[],"default_left":[0,0,0,0,0,0,0,0,0,0,0,0,0,0,0,0,0,0,0,0,0,0,0,0,0,0,0,0,0,0,0,0,0,0,0,0,0],"id":19,"left_children":[1,3,-1,5,-1,-1,7,-1,9,11,13,15,17,19,21,23,-1,25,27,29,31,33,35,-1,-1,-1,-1,-1,-1,-1,-1,-1,-1,-1,-1,-1,-1],"loss_changes":[7.4992737E2,4.452398E2,0E0,2.7450748E2,0E0,0E0,1.758275E2,0E0,1.273456E2,7.261444E0,3.3764877E1,1.5852203E0,5.1606884E0,2.823877E1,1.1498077E1,1.5589638E0,0E0,1.4214039E0,9.1328835E-1,2.7423388E1,1.0996067E1,7.761959E0,1.4619247E1,0E0,0E0,0E0,0E0,0E0,0E0,0E0,0E0,0E0,0E0,0E0,0E0,0E0,0E0],"parents":[2147483647,0,0,1,1,3,3,6,6,8,8,9,9,10,10,11,11,12,12,13,13,14,14,15,15,17,17,18,18,19,19,20,20,21,21,22,22],"right_children":[2,4,-1,6,-1,-1,8,-1,10,12,14,16,18,20,22,24,-1,26,28,30,32,34,36,-1,-1,-1,-1,-1,-1,-1,-1,-1,-1,-1,-1,-1,-1],"split_conditions":[6.8E0,2.2E2,9.354328E-2,5.7E0,9.337263E-2,-7.640685E-2,1.26E2,-7.6255776E-2,3.3E1,2.6E1,1E0,1E0,3.726E1,3.351E1,1.55E2,2.077E1,-6.929571E-2,1.55E2,4.395E1,5.6E1,6.6E1,5.5E1,1.59E2,-7.277686E-2,-4.430238E-2,-2.8135508E-2,-5.2108813E-2,-7.105434E-3,3.1610884E-2,-2.3817958E-2,3.249663E-3,1.134981E-2,4.3478236E-2,1.3230024E-1,5.1054567E-2,-2.8725717E-2,4.0461183E-2],"split_indices":[4,5,0,4,0,0,5,0,0,0,2,9,3,3,5,3,0,5,3,0,0,0,5,0,0,0,0,0,0,0,0,0,0,0,0,0,0],"split_type":[0,0,0,0,0,0,0,0,0,0,0,0,0,0,0,0,0,0,0,0,0,0,0,0,0,0,0,0,0,0,0,0,0,0,0,0,0],"sum_hessian":[2.930531E3,2.5332065E3,3.973244E2,2.3445022E3,1.8870439E2,4.8307812E2,1.8614241E3,2.172103E2,1.6442137E3,2.5189336E2,1.3923204E3,1.728127E2,7.908065E1,1.2497769E3,1.4254355E2,7.3852806E1,9.89599E1,6.678324E1,1.2297413E1,9.0958374E2,3.4019318E2,6.427953E1,7.8264015E1,1.7738476E1,5.611433E1,2.934342E1,3.743982E1,7.255517E0,5.041896E0,3.2923743E2,5.803463E2,2.6312006E2,7.7073105E1,7.2044964E0,5.707504E1,2.4108566E1,5.415545E1],"tree_param":{"num_deleted":"0","num_feature":"15","num_nodes":"37","size_leaf_vector":"1"}},{"base_weights":[-2.7381638E-2,-2.1857432E-1,9.185688E-2,-3.314833E-1,9.167109E-2,-7.627996E-2,-1.6332008E-1,-7.6111875E-2,-5.75098E-2,-6.968497E-1,5.2840035E-2,-8.168713E-1,-4.343309E-1,-1.853488E-2,3.444665E-1,-6.7595184E-1,-6.8666734E-2,-5.4217136E-1,1.2354688E-1,1.5905572E-1,-1.494433E-1,2.8725278E-1,7.63914E-1,-7.237469E-2,-4.2830583E-2,-5.6988765E-2,-3.1344403E-2,-6.674505E-3,2.8949788E-2,2.4218297E-2,-3.3892496E-3,-1.50490515E-2,4.2961363E-2,1.345072E-2,3.6030278E-2,-1.8306706E-2,7.2475076E-2],"categories":[],"categories_nodes":[],"categories_segments":[],"categories_sizes":[],"default_left":[0,0,0,0,0,0,0,0,0,0,0,0,0,0,0,0,0,0,0,0,0,0,0,0,0,0,0,0,0,0,0,0,0,0,0,0,0],"id":20,"left_children":[1,3,-1,5,-1,-1,7,-1,9,11,13,15,17,19,21,23,-1,25,27,29,31,33,35,-1,-1,-1,-1,-1,-1,-1,-1,-1,-1,-1,-1,-1,-1],"loss_changes":[6.797737E2,4.0113724E2,0E0,2.6327338E2,0E0,0E0,1.6537312E2,0E0,1.153345E2,7.2267E0,2.9035208E1,1.6616898E0,4.7373486E0,2.6093153E1,6.362488E0,1.6122513E0,0E0,1.446909E0,7.812509E-1,1.5955433E1,2.4010183E1,4.977623E0,6.8300114E0,0E0,0E0,0E0,0E0,0E0,0E0,0E0,0E0,0E0,0E0,0E0,0E0,0E0,0E0],"parents":[2147483647,0,0,1,1,3,3,6,6,8,8,9,9,10,10,11,11,12,12,13,13,14,14,15,15,17,17,18,18,19,19,20,20,21,21,22,22],"right_children":[2,4,-1,6,-1,-1,8,-1,10,12,14,16,18,20,22,24,-1,26,28,30,32,34,36,-1,-1,-1,-1,-1,-1,-1,-1,-1,-1,-1,-1,-1,-1],"split_conditions":[6.8E0,2.2E2,9.185688E-2,5.7E0,9.167109E-2,-7.627996E-2,1.26E2,-7.6111875E-2,3.3E1,2.6E1,1E0,1E0,3.726E1,1E0,4.043E1,2.077E1,-6.8666734E-2,2.66E1,4.395E1,1.58E2,1E0,1.59E2,4.3E1,-7.237469E-2,-4.2830583E-2,-5.6988765E-2,-3.1344403E-2,-6.674505E-3,2.8949788E-2,2.4218297E-2,-3.3892496E-3,-1.50490515E-2,4.2961363E-2,1.345072E-2,3.6030278E-2,-1.8306706E-2,7.2475076E-2],"split_indices":[4,5,0,4,0,0,5,0,0,0,1,9,3,6,3,3,0,3,3,5,2,5,0,0,0,0,0,0,0,0,0,0,0,0,0,0,0],"split_type":[0,0,0,0,0,0,0,0,0,0,0,0,0,0,0,0,0,0,0,0,0,0,0,0,0,0,0,0,0,0,0,0,0,0,0,0,0],"sum_hessian":[2.8373706E3,2.4622314E3,3.7513934E2,2.2840198E3,1.7821149E2,4.4889133E2,1.8351285E3,2.0188382E2,1.6332446E3,2.396215E2,1.3936232E3,1.6299141E2,7.663009E1,1.1203552E3,2.7326794E2,7.0363716E1,9.26277E1,6.424029E1,1.2389798E1,4.7532007E2,6.4503516E2,2.4195013E2,3.1317802E1,1.6550125E1,5.3813587E1,2.148424E1,4.275605E1,7.211013E0,5.178786E0,2.6341556E2,2.1190451E2,6.030025E2,4.203268E1,1.5646472E2,8.548543E1,5.202882E0,2.6114922E1],"tree_param":{"num_deleted":"0","num_feature":"15","num_nodes":"37","size_leaf_vector":"1"}},{"base_weights":[-2.6468374E-2,-2.0856988E-1,9.034536E-2,-3.1542847E-1,9.01437E-2,-7.61608E-2,-1.5375619E-1,-7.597485E-2,-5.3903088E-2,-6.7927545E-1,4.8782595E-2,-8.0326563E-1,-4.1546902E-1,1.2186318E-1,-2.1701631E-1,-6.5801376E-1,-6.80163E-2,-5.2256083E-1,1.1505409E-1,-1.695441E-1,1.9820443E-1,-5.9117687E-1,-1.5701869E-1,-7.196589E-2,-4.1354243E-2,-2.4849923E-2,-4.966686E-2,2.5735E-2,-8.813593E-3,1.0197474E-2,-2.5779007E-2,6.1568846E-3,3.0543528E-2,-5.9426997E-2,-2.4460195E-2,-1.4905061E-2,1.960466E-2],"categories":[],"categories_nodes":[],"categories_segments":[],"categories_sizes":[],"default_left":[0,0,0,0,0,0,0,0,0,0,0,0,0,0,0,0,0,0,0,0,0,0,0,0,0,0,0,0,0,0,0,0,0,0,0,0,0],"id":21,"left_children":[1,3,-1,5,-1,-1,7,-1,9,11,13,15,17,19,21,23,-1,25,27,29,31,33,35,-1,-1,-1,-1,-1,-1,-1,-1,-1,-1,-1,-1,-1,-1],"loss_changes":[6.1698315E2,3.6172217E2,0E0,2.521596E2,0E0,0E0,1.5543504E2,0E0,1.0436315E2,7.1635666E0,2.7152014E1,1.733902E0,4.341467E0,2.4414246E1,6.6756496E0,1.6609306E0,0E0,1.4599724E0,7.551541E-1,1.2181616E1,2.1056713E1,1.9440184E0,4.6110764E0,0E0,0E0,0E0,0E0,0E0,0E0,0E0,0E0,0E0,0E0,0E0,0E0,0E0,0E0],"parents":[2147483647,0,0,1,1,3,3,6,6,8,8,9,9,10,10,11,11,12,12,13,13,14,14,15,15,17,17,18,18,19,19,20,20,21,21,22,22],"right_children":[2,4,-1,6,-1,-1,8,-1,10,12,14,16,18,20,22,24,-1,26,28,30,32,34,36,-1,-1,-1,-1,-1,-1,-1,-1,-1,-1,-1,-1,-1,-1],"split_conditions":[6.8E0,2.2E2,9.034536E-2,5.7E0,9.01437E-2,-7.61608E-2,1.26E2,-7.597485E-2,3.3E1,2.6E1,1E0,1E0,3.726E1,2.625E1,2.58E1,2.077E1,-6.80163E-2,1.55E2,1.55E2,1E0,6.6E1,6.4E1,1E0,-7.196589E-2,-4.1354243E-2,-2.4849923E-2,-4.966686E-2,2.5735E-2,-8.813593E-3,1.0197474E-2,-2.5779007E-2,6.1568846E-3,3.0543528E-2,-5.9426997E-2,-2.4460195E-2,-1.4905061E-2,1.960466E-2],"split_indices":[4,5,0,4,0,0,5,0,0,0,9,9,3,3,3,3,0,5,5,6,0,0,2,0,0,0,0,0,0,0,0,0,0,0,0,0,0],"split_type":[0,0,0,0,0,0,0,0,0,0,0,0,0,0,0,0,0,0,0,0,0,0,0,0,0,0,0,0,0,0,0,0,0,0,0,0,0],"sum_hessian":[2.7500535E3,2.3964055E3,3.53648E2,2.2283608E3,1.6804454E2,4.1708435E2,1.8112765E3,1.8762317E2,1.6236533E3,2.2820897E2,1.3954445E3,1.5385262E2,7.435634E1,1.0949365E3,3.0050787E2,6.711766E1,8.673496E1,6.1880173E1,1.2476168E1,2.270454E2,8.678911E2,4.0304615E1,2.6020325E2,1.5443695E1,5.1673965E1,2.7541954E1,3.433822E1,6.0588593E0,6.4173083E0,8.2520706E1,1.4452469E2,5.588634E2,3.0902774E2,2.1781494E1,1.852312E1,2.370906E2,2.3112652E1],"tree_param":{"num_deleted":"0","num_feature":"15","num_nodes":"37","size_leaf_vector":"1"}},{"base_weights":[-2.5632242E-2,-1.9890738E-1,8.8985875E-2,-2.9991472E-1,8.876751E-2,-7.604864E-2,-1.4477156E-1,-7.584386E-2,-5.063945E-2,-6.6139936E-1,4.4886958E-2,-7.892503E-1,-3.9688364E-1,-3.141479E-2,2.6791126E-1,-7.109559E-2,-6.824409E-1,-5.02919E-1,1.0687526E-1,-2.1290384E-1,1.1400409E-1,4.4044098E-1,1.5819623E-1,-1.7920142E-2,-5.7827312E-2,-5.498737E-2,-2.8129375E-2,2.4423316E-2,-8.929383E-3,-4.552081E-3,-3.0754657E-2,3.2937612E-2,4.2375186E-3,4.4161104E-2,1.854283E-2,3.2202813E-3,3.7760466E-2],"categories":[],"categories_nodes":[],"categories_segments":[],"categories_sizes":[],"default_left":[0,0,0,0,0,0,0,0,0,0,0,0,0,0,0,0,0,0,0,0,0,0,0,0,0,0,0,0,0,0,0,0,0,0,0,0,0],"id":22,"left_children":[1,3,-1,5,-1,-1,7,-1,9,11,13,15,17,19,21,-1,23,25,27,29,31,33,35,-1,-1,-1,-1,-1,-1,-1,-1,-1,-1,-1,-1,-1,-1],"loss_changes":[5.6074225E2,3.2652405E2,0E0,2.4108719E2,0E0,0E0,1.4595132E2,0E0,9.429494E1,7.079109E0,2.3800093E1,1.8336868E0,3.9658232E0,2.7540588E1,6.678499E0,0E0,3.3929405E0,1.5113363E0,7.089944E-1,1.3903383E1,1.081026E1,3.8108902E0,8.712833E0,0E0,0E0,0E0,0E0,0E0,0E0,0E0,0E0,0E0,0E0,0E0,0E0,0E0,0E0],"parents":[2147483647,0,0,1,1,3,3,6,6,8,8,9,9,10,10,11,11,12,12,13,13,14,14,16,16,17,17,18,18,19,19,20,20,21,21,22,22],"right_children":[2,4,-1,6,-1,-1,8,-1,10,12,14,16,18,20,22,-1,24,26,28,30,32,34,36,-1,-1,-1,-1,-1,-1,-1,-1,-1,-1,-1,-1,-1,-1],"split_conditions":[6.8E0,2.2E2,8.8985875E-2,5.7E0,8.876751E-2,-7.604864E-2,1.26E2,-7.584386E-2,3.3E1,2.6E1,3.39E1,2.077E1,3.726E1,6.1E1,1E0,-7.109559E-2,2.285E1,2.66E1,6.1E0,1.58E2,5.8E0,1.58E2,6.6E1,-1.7920142E-2,-5.7827312E-2,-5.498737E-2,-2.8129375E-2,2.4423316E-2,-8.929383E-3,-4.552081E-3,-3.0754657E-2,3.2937612E-2,4.2375186E-3,4.4161104E-2,1.854283E-2,3.2202813E-3,3.7760466E-2],"split_indices":[4,5,0,4,0,0,5,0,0,0,3,3,3,0,6,0,3,3,4,5,4,5,0,0,0,0,0,0,0,0,0,0,0,0,0,0,0],"split_type":[0,0,0,0,0,0,0,0,0,0,0,0,0,0,0,0,0,0,0,0,0,0,0,0,0,0,0,0,0,0,0,0,0,0,0,0,0],"sum_hessian":[2.6677139E3,2.3347847E3,3.3292914E2,2.1765435E3,1.5824117E2,3.8749774E2,1.7890458E3,1.7435712E2,1.6146886E3,2.1758817E2,1.3971005E3,1.4535066E2,7.22375E1,1.0416031E3,3.554973E2,5.530571E1,9.0044945E1,5.9677708E1,1.2559794E1,4.6313126E2,5.784719E2,1.370182E2,2.184791E2,1.5607344E1,7.44376E1,1.961742E1,4.0060287E1,6.1568565E0,6.4029384E0,2.6209634E2,2.0103491E2,8.593011E1,4.925418E2,7.634225E1,6.067596E1,1.6464288E2,5.383621E1],"tree_param":{"num_deleted":"0","num_feature":"15","num_nodes":"37","size_leaf_vector":"1"}},{"base_weights":[-2.472694E-2,-1.8945956E-1,8.7759264E-2,-2.8483745E-1,8.752333E-2,-7.594276E-2,-1.3616192E-1,-7.571812E-2,-4.7465768E-2,-6.432324E-1,4.1434046E-2,-7.7474856E-1,-3.7879395E-1,1.07846E-1,-2.0494348E-1,-6.1834306E-1,-6.670681E-2,-4.8353964E-1,9.928949E-2,2.6907414E-1,-1.4763923E-2,-5.6953037E-1,-1.4819041E-1,-7.1125366E-2,-3.801872E-2,-2.1701423E-2,-4.7200434E-2,-7.0347507E-3,2.4958678E-2,2.9437577E-2,8.177253E-3,-3.1239513E-2,5.5097127E-3,-5.790039E-2,-2.362327E-2,-1.4039384E-2,1.7408308E-2],"categories":[],"categories_nodes":[],"categories_segments":[],"categories_sizes":[],"default_left":[0,0,0,0,0,0,0,0,0,0,0,0,0,0,0,0,0,0,0,0,0,0,0,0,0,0,0,0,0,0,0,0,0,0,0,0,0],"id":23,"left_children":[1,3,-1,5,-1,-1,7,-1,9,11,13,15,17,19,21,23,-1,25,27,29,31,33,35,-1,-1,-1,-1,-1,-1,-1,-1,-1,-1,-1,-1,-1,-1],"loss_changes":[5.101489E2,2.950013E2,0E0,2.3019225E2,0E0,0E0,1.369812E2,0E0,8.512959E1,6.964569E0,2.2915157E1,1.9327393E0,3.6172695E0,2.180264E1,6.069421E0,1.7930527E0,0E0,1.4780254E0,6.461255E-1,9.3677635E0,2.2266804E1,1.8034277E0,3.880569E0,0E0,0E0,0E0,0E0,0E0,0E0,0E0,0E0,0E0,0E0,0E0,0E0,0E0,0E0],"parents":[2147483647,0,0,1,1,3,3,6,6,8,8,9,9,10,10,11,11,12,12,13,13,14,14,15,15,17,17,18,18,19,19,20,20,21,21,22,22],"right_children":[2,4,-1,6,-1,-1,8,-1,10,12,14,16,18,20,22,24,-1,26,28,30,32,34,36,-1,-1,-1,-1,-1,-1,-1,-1,-1,-1,-1,-1,-1,-1],"split_conditions":[6.8E0,2.2E2,8.7759264E-2,5.7E0,8.752333E-2,-7.594276E-2,1.26E2,-7.571812E-2,3.3E1,2.6E1,1E0,1E0,3.726E1,1E0,2.58E1,2.077E1,-6.670681E-2,1.55E2,4.395E1,1.58E2,2.5E1,6.4E1,1E0,-7.1125366E-2,-3.801872E-2,-2.1701423E-2,-4.7200434E-2,-7.0347507E-3,2.4958678E-2,2.9437577E-2,8.177253E-3,-3.1239513E-2,5.5097127E-3,-5.790039E-2,-2.362327E-2,-1.4039384E-2,1.7408308E-2],"split_indices":[4,5,0,4,0,0,5,0,0,0,9,9,3,6,3,3,0,5,3,5,3,0,2,0,0,0,0,0,0,0,0,0,0,0,0,0,0],"split_type":[0,0,0,0,0,0,0,0,0,0,0,0,0,0,0,0,0,0,0,0,0,0,0,0,0,0,0,0,0,0,0,0,0,0,0,0,0],"sum_hessian":[2.5896875E3,2.27665E3,3.130376E2,2.127822E3,1.488278E2,3.5998196E2,1.7678401E3,1.6201877E2,1.6058213E3,2.076966E2,1.3981246E3,1.3742143E2,7.027516E1,1.1017156E3,2.9640915E2,6.0837475E1,7.6583954E1,5.7635994E1,1.2639171E1,4.7539355E2,6.26322E2,3.870829E1,2.5770084E2,1.34610815E1,4.7376396E1,2.5996443E1,3.1639551E1,7.2456737E0,5.3934975E0,2.6758112E2,2.0781244E2,1.1210453E2,5.1421747E2,2.0427351E1,1.8280937E1,2.3419139E2,2.3509466E1],"tree_param":{"num_deleted":"0","num_feature":"15","num_nodes":"37","size_leaf_vector":"1"}},{"base_weights":[-2.3892324E-2,-1.8028703E-1,8.664933E-2,-7.5842544E-2,-3.2718573E-2,-1.2802787E-1,8.6394735E-2,-7.559687E-2,-4.4575736E-2,-6.435168E-1,3.560141E-2,-6.775347E-1,1.9969877E-2,-2.675417E-2,2.870317E-1,-6.762629E-2,-5.611667E-1,-2.0398106E-1,7.453503E-2,2.369719E-1,6.544079E-1,-3.5293035E-2,-5.6599364E-2,-1.7798888E-2,5.7728164E-2,1.5598738E-3,2.9788774E-2,1.0063285E-2,3.1580128E-2,-1.984032E-2,6.302732E-2],"categories":[],"categories_nodes":[],"categories_segments":[],"categories_sizes":[],"default_left":[0,0,0,0,0,0,0,0,0,0,0,0,0,0,0,0,0,0,0,0,0,0,0,0,0,0,0,0,0,0,0],"id":24,"left_children":[1,3,-1,-1,5,7,-1,-1,9,11,13,15,-1,17,19,-1,21,23,25,27,29,-1,-1,-1,-1,-1,-1,-1,-1,-1,-1],"loss_changes":[4.6462677E2,2.727033E2,0E0,0E0,2.1352278E2,1.2846075E2,0E0,0E0,7.6830666E1,6.026169E0,2.2138302E1,4.2506027E0,0E0,2.0335442E1,5.005224E0,0E0,1.7954597E0,1.3554293E1,1.2493107E1,4.646347E0,5.875388E0,0E0,0E0,0E0,0E0,0E0,0E0,0E0,0E0,0E0,0E0],"parents":[2147483647,0,0,1,1,4,4,5,5,8,8,9,9,10,10,11,11,13,13,14,14,16,16,17,17,18,18,19,19,20,20],"right_children":[2,4,-1,-1,6,8,-1,-1,10,12,14,16,-1,18,20,-1,22,24,26,28,30,-1,-1,-1,-1,-1,-1,-1,-1,-1,-1],"split_conditions":[6.8E0,5.7E0,8.664933E-2,-7.5842544E-2,2.2E2,1.26E2,8.6394735E-2,-7.559687E-2,3.2E1,4.309E1,1E0,1.4E1,1.9969877E-2,5.5E1,4.043E1,-6.762629E-2,1E0,1E0,3.616E1,1.59E2,4.3E1,-3.5293035E-2,-5.6599364E-2,-1.7798888E-2,5.7728164E-2,1.5598738E-3,2.9788774E-2,1.0063285E-2,3.1580128E-2,-1.984032E-2,6.302732E-2],"split_indices":[4,4,0,0,5,5,0,0,0,3,1,0,0,0,3,0,9,2,3,5,0,0,0,0,0,0,0,0,0,0,0],"split_type":[0,0,0,0,0,0,0,0,0,0,0,0,0,0,0,0,0,0,0,0,0,0,0,0,0,0,0,0,0,0,0],"sum_hessian":[2.5172207E3,2.2232122E3,2.9400845E2,3.343967E2,1.8888154E3,1.7489944E3,1.3982108E2,1.5054541E2,1.598449E3,1.8788445E2,1.4105646E3,1.8135849E2,6.5259595E0,1.1309729E3,2.795916E2,5.967104E1,1.21687454E2,4.1093732E2,7.2003564E2,2.4751016E2,3.208145E1,8.5219574E1,3.646788E1,3.9806454E2,1.2872772E1,6.181483E2,1.0188734E2,1.5993523E2,8.757493E1,5.328226E0,2.6753223E1],"tree_param":{"num_deleted":"0","num_feature":"15","num_nodes":"31","size_leaf_vector":"1"}},{"base_weights":[-2.2930901E-2,-1.7137171E-1,8.564222E-2,-7.574739E-2,-3.0922353E-2,-1.2023928E-1,8.536786E-2,-7.54794E-2,-4.1681442E-2,-6.2499934E-1,3.295605E-2,-6.699464E-2,-4.969801E-1,-8.960586E-3,3.7998644E-1,-5.415475E-1,2.0430326E-2,-2.7324858E-1,5.2301764E-2,6.33689E-1,1.6000073E-1,-6.41851E-2,-3.6061075E-2,1.6571783E-3,-3.2134224E-2,8.85675E-3,-1.3133748E-2,3.8364E-2,1.0485642E-1,-3.0798243E-2,3.0637462E-2],"categories":[],"categories_nodes":[],"categories_segments":[],"categories_sizes":[],"default_left":[0,0,0,0,0,0,0,0,0,0,0,0,0,0,0,0,0,0,0,0,0,0,0,0,0,0,0,0,0,0,0],"id":25,"left_children":[1,3,-1,-1,5,7,-1,-1,9,11,13,-1,15,17,19,21,-1,23,25,27,29,-1,-1,-1,-1,-1,-1,-1,-1,-1,-1],"loss_changes":[4.2351782E2,2.5583289E2,0E0,0E0,1.9455489E2,1.20429054E2,0E0,0E0,6.927434E1,5.754715E0,2.0530907E1,0E0,4.414467E0,2.041603E1,8.387739E0,1.8398666E0,0E0,1.0886427E1,1.5338089E1,5.849989E0,1.1909672E1,0E0,0E0,0E0,0E0,0E0,0E0,0E0,0E0,0E0,0E0],"parents":[2147483647,0,0,1,1,4,4,5,5,8,8,9,9,10,10,12,12,13,13,14,14,15,15,17,17,18,18,19,19,20,20],"right_children":[2,4,-1,-1,6,8,-1,-1,10,12,14,-1,16,18,20,22,-1,24,26,28,30,-1,-1,-1,-1,-1,-1,-1,-1,-1,-1],"split_conditions":[6.8E0,5.7E0,8.564222E-2,-7.574739E-2,2.2E2,1.26E2,8.536786E-2,-7.54794E-2,3.2E1,1.4E1,1E0,-6.699464E-2,4.309E1,2.625E1,1.55E2,5.8E0,2.0430326E-2,1E0,1E0,3.671E1,1.59E2,-6.41851E-2,-3.6061075E-2,1.6571783E-3,-3.2134224E-2,8.85675E-3,-1.3133748E-2,3.8364E-2,1.0485642E-1,-3.0798243E-2,3.0637462E-2],"split_indices":[4,4,0,0,5,5,0,0,0,0,2,0,3,3,5,4,0,6,9,3,5,0,0,0,0,0,0,0,0,0,0],"split_type":[0,0,0,0,0,0,0,0,0,0,0,0,0,0,0,0,0,0,0,0,0,0,0,0,0,0,0,0,0,0,0],"sum_hessian":[2.4472524E3,2.171392E3,2.7586044E2,3.1061063E2,1.8607814E3,1.729551E3,1.312303E2,1.3987819E2,1.5896729E3,1.7949368E2,1.4101792E3,5.6054573E1,1.2343911E2,1.2590741E3,1.5110515E2,1.169602E2,6.4789114E0,2.362825E2,1.02279156E3,6.930143E1,8.180372E1,1.6822716E1,1.0013748E2,8.1690865E1,1.5459164E2,7.936756E2,2.2911595E2,6.1190838E1,8.110589E0,2.4618395E1,5.718532E1],"tree_param":{"num_deleted":"0","num_feature":"15","num_nodes":"31","size_leaf_vector":"1"}},{"base_weights":[-2.20098E-2,-1.6271721E-1,8.472608E-2,-7.56567E-2,-2.9237326E-2,-1.1286061E-1,8.4430695E-2,-7.536504E-2,-3.9000195E-2,-6.699887E-1,2.3680134E-2,-6.947865E-2,-5.456748E-1,1.2818226E-1,-1.1285189E-1,-1.4648242E-1,-6.0933846E-1,8.133525E-2,6.278111E-1,-8.537742E-2,1.5853453E-1,1.7603695E-2,-4.474472E-2,-5.2883424E-2,-2.2964064E-2,1.7011937E-2,-2.7766353E-3,7.830939E-3,5.566948E-2,-3.181442E-3,2.4615338E-2],"categories":[],"categories_nodes":[],"categories_segments":[],"categories_sizes":[],"default_left":[0,0,0,0,0,0,0,0,0,0,0,0,0,0,0,0,0,0,0,0,0,0,0,0,0,0,0,0,0,0,0],"id":26,"left_children":[1,3,-1,-1,5,7,-1,-1,9,11,13,-1,15,17,19,21,23,25,27,-1,29,-1,-1,-1,-1,-1,-1,-1,-1,-1,-1],"loss_changes":[3.863956E2,2.3990738E2,0E0,0E0,1.7746992E2,1.1282719E2,0E0,0E0,6.2630203E1,4.0551834E0,2.0575321E1,0E0,2.421606E0,1.906577E1,1.742117E2,2.697593E0,2.2488728E0,1.288673E1,4.1076984E0,0E0,1.6902918E1,0E0,0E0,0E0,0E0,0E0,0E0,0E0,0E0,0E0,0E0],"parents":[2147483647,0,0,1,1,4,4,5,5,8,8,9,9,10,10,12,12,13,13,14,14,15,15,16,16,17,17,18,18,20,20],"right_children":[2,4,-1,-1,6,8,-1,-1,10,12,14,-1,16,18,20,22,24,26,28,-1,30,-1,-1,-1,-1,-1,-1,-1,-1,-1,-1],"split_conditions":[6.8E0,5.7E0,8.472608E-2,-7.56567E-2,2.2E2,1.26E2,8.4430695E-2,-7.536504E-2,2.9E1,2.077E1,1.58E2,-6.947865E-2,2.264E1,4.105E1,1.59E2,2E1,2.6E1,1E0,4.1E1,-8.537742E-2,6E1,1.7603695E-2,-4.474472E-2,-5.2883424E-2,-2.2964064E-2,1.7011937E-2,-2.7766353E-3,7.830939E-3,5.566948E-2,-3.181442E-3,2.4615338E-2],"split_indices":[4,4,0,0,5,5,0,0,0,3,5,0,3,3,5,0,0,6,0,0,0,0,0,0,0,0,0,0,0,0,0],"split_type":[0,0,0,0,0,0,0,0,0,0,0,0,0,0,0,0,0,0,0,0,0,0,0,0,0,0,0,0,0,0,0],"sum_hessian":[2.3822668E3,2.1236672E3,2.5859958E2,2.885005E2,1.8351667E3,1.7121084E3,1.23058426E2,1.2996204E2,1.5821464E3,1.4208818E2,1.4400581E3,4.428986E1,9.779832E1,8.1574493E2,6.243132E2,1.3905717E1,8.38926E1,7.4687775E2,6.8867195E1,1.2997388E2,4.943393E2,7.7883534E0,6.117363E0,6.274406E1,2.1148537E1,3.3462415E2,4.1225363E2,1.269993E1,5.6167267E1,2.2664975E2,2.6768954E2],"tree_param":{"num_deleted":"0","num_feature":"15","num_nodes":"31","size_leaf_vector":"1"}},{"base_weights":[-2.1287853E-2,-1.5452908E-1,8.389065E-2,-7.556996E-2,-2.7863566E-2,-1.0611368E-1,8.357288E-2,-7.525311E-2,-3.6755703E-2,-6.523367E-1,2.1582767E-2,-6.89515E-2,-5.264367E-1,-1.18344195E-1,1.13783255E-1,-1.6039905E-1,-5.9469E-1,-2.0248273E-1,2.2455677E-1,2.7960211E-2,2.6859814E-1,1.56114325E-2,-4.6404015E-2,-5.2295502E-2,-2.1343788E-2,-2.9275836E-3,-2.5858995E-2,2.8332336E-2,-1.1255759E-2,1.4845214E-2,-8.652203E-2,1.5969222E-2,7.031062E-2],"categories":[],"categories_nodes":[],"categories_segments":[],"categories_sizes":[],"default_left":[0,0,0,0,0,0,0,0,0,0,0,0,0,0,0,0,0,0,0,0,0,0,0,0,0,0,0,0,0,0,0,0,0],"id":27,"left_children":[1,3,-1,-1,5,7,-1,-1,9,11,13,-1,15,17,19,21,23,25,27,29,31,-1,-1,-1,-1,-1,-1,-1,-1,-1,-1,-1,-1],"loss_changes":[3.529315E2,2.2478058E2,0E0,0E0,1.6211542E2,1.0558708E2,0E0,0E0,5.6629795E1,4.104931E0,1.8604364E1,0E0,2.2806396E0,1.6572998E1,1.1540632E1,2.8848073E0,2.3397827E0,1.0697742E1,6.56217E0,1.12757095E2,1.1339718E1,0E0,0E0,0E0,0E0,0E0,0E0,0E0,0E0,0E0,0E0,0E0,0E0],"parents":[2147483647,0,0,1,1,4,4,5,5,8,8,9,9,10,10,12,12,13,13,14,14,15,15,16,16,17,17,18,18,19,19,20,20],"right_children":[2,4,-1,-1,6,8,-1,-1,10,12,14,-1,16,18,20,22,24,26,28,30,32,-1,-1,-1,-1,-1,-1,-1,-1,-1,-1,-1,-1],"split_conditions":[6.8E0,5.7E0,8.389065E-2,-7.556996E-2,2.2E2,1.26E2,8.357288E-2,-7.525311E-2,2.9E1,2.077E1,5.7E1,-6.89515E-2,2.285E1,3.824E1,1.59E2,2E1,2.6E1,1.55E2,6.5E0,1.58E2,1E0,1.56114325E-2,-4.6404015E-2,-5.2295502E-2,-2.1343788E-2,-2.9275836E-3,-2.5858995E-2,2.8332336E-2,-1.1255759E-2,1.4845214E-2,-8.652203E-2,1.5969222E-2,7.031062E-2],"split_indices":[4,4,0,0,5,5,0,0,0,3,0,0,3,3,5,0,0,5,4,5,10,0,0,0,0,0,0,0,0,0,0,0,0],"split_type":[0,0,0,0,0,0,0,0,0,0,0,0,0,0,0,0,0,0,0,0,0,0,0,0,0,0,0,0,0,0,0,0,0],"sum_hessian":[2.3217317E3,2.0795103E3,2.4222144E2,2.6795114E2,1.8115592E3,1.6962556E3,1.1530358E2,1.20745445E2,1.5755101E3,1.355041E2,1.440006E3,4.1399395E1,9.410471E1,5.7185443E2,8.681516E2,1.531602E1,7.87887E1,4.595122E2,1.12342255E2,5.5928656E2,3.0886502E2,8.791952E0,6.524068E0,5.8265827E1,2.0522865E1,2.144603E2,2.450519E2,7.97286E1,3.261365E1,4.896771E2,6.960949E1,2.863486E2,2.2516424E1],"tree_param":{"num_deleted":"0","num_feature":"15","num_nodes":"33","size_leaf_vector":"1"}},{"base_weights":[-2.0538162E-2,-1.4659686E-1,8.3127044E-2,-7.548664E-2,-2.6503801E-2,-9.96975E-2,8.278542E-2,-7.514298E-2,-3.4598302E-2,-6.344363E-1,1.9712713E-2,-6.840277E-2,-5.0726396E-1,7.728805E-2,-2.001721E-1,-1.3057731E-1,-5.7146496E-1,2.1063821E-1,-2.5810841E-2,-5.5498755E-1,-1.4653696E-1,-4.2842988E-2,1.6316172E-2,-5.029977E-2,-2.0653412E-2,9.789074E-3,3.0218735E-2,-5.701199E-3,3.930334E-2,-5.7173084E-2,-2.1863466E-2,-3.9579924E-3,-2.0361051E-2],"categories":[],"categories_nodes":[],"categories_segments":[],"categories_sizes":[],"default_left":[0,0,0,0,0,0,0,0,0,0,0,0,0,0,0,0,0,0,0,0,0,0,0,0,0,0,0,0,0,0,0,0,0],"id":28,"left_children":[1,3,-1,-1,5,7,-1,-1,9,11,13,-1,15,17,19,21,23,25,27,29,31,-1,-1,-1,-1,-1,-1,-1,-1,-1,-1,-1,-1],"loss_changes":[3.2260327E2,2.10544E2,0E0,0E0,1.4821889E2,9.87705E1,0E0,0E0,5.1162746E1,4.1404533E0,1.825473E1,0E0,2.1424313E0,1.5712392E1,5.6133356E0,2.3710215E0,2.1071548E0,7.623007E0,1.7851198E1,1.9045582E0,3.0468779E0,0E0,0E0,0E0,0E0,0E0,0E0,0E0,0E0,0E0,0E0,0E0,0E0],"parents":[2147483647,0,0,1,1,4,4,5,5,8,8,9,9,10,10,12,12,13,13,14,14,15,15,16,16,17,17,18,18,19,19,20,20],"right_children":[2,4,-1,-1,6,8,-1,-1,10,12,14,-1,16,18,20,22,24,26,28,30,32,-1,-1,-1,-1,-1,-1,-1,-1,-1,-1,-1,-1],"split_conditions":[6.8E0,5.7E0,8.3127044E-2,-7.548664E-2,2.2E2,1.26E2,8.278542E-2,-7.514298E-2,2.9E1,2.077E1,1E0,-6.840277E-2,2.264E1,1E0,2.58E1,6.1E0,2.6E1,6.9E1,1E0,6.4E1,1.58E2,-4.2842988E-2,1.6316172E-2,-5.029977E-2,-2.0653412E-2,9.789074E-3,3.0218735E-2,-5.701199E-3,3.930334E-2,-5.7173084E-2,-2.1863466E-2,-3.9579924E-3,-2.0361051E-2],"split_indices":[4,4,0,0,5,5,0,0,0,3,9,0,3,6,3,4,0,0,2,0,5,0,0,0,0,0,0,0,0,0,0,0,0],"split_type":[0,0,0,0,0,0,0,0,0,0,0,0,0,0,0,0,0,0,0,0,0,0,0,0,0,0,0,0,0,0,0,0,0],"sum_hessian":[2.264803E3,2.0380896E3,2.2671355E2,2.4885495E2,1.7892346E3,1.6812747E3,1.07959915E2,1.1218022E2,1.5690945E3,1.2938792E2,1.4397065E3,3.871234E1,9.067558E1,1.1414691E3,2.982374E2,1.3645753E1,7.702983E1,4.9726E2,6.4420917E2,3.7935184E1,2.6030222E2,5.739599E0,7.9061537E0,5.675121E1,2.0278622E1,3.5219046E2,1.4506956E2,5.9109985E2,5.310927E1,2.0170416E1,1.776477E1,1.4951866E2,1.1078355E2],"tree_param":{"num_deleted":"0","num_feature":"15","num_nodes":"33","size_leaf_vector":"1"}},{"base_weights":[-1.9702176E-2,-1.3882342E-1,8.242749E-2,-7.540626E-2,-2.508139E-2,-9.349409E-2,8.206043E-2,-7.503404E-2,-3.2433227E-2,-4.327103E-1,4.1810438E-2,-4.8569322E-1,6.5138584E-1,-2.1882524E-1,8.703773E-2,-5.3595805E-1,2.612379E-1,7.636557E-2,1.6790735E-2,-3.8358226E-1,6.090483E-4,1.4416912E-1,-1.2331582E-1,-4.8997607E-2,-2.3694854E-2,-8.391914E-3,4.8425034E-2,-3.3974938E-2,4.2124517E-2,5.7537253E-3,-5.044521E-2,2.037636E-2,2.704766E-3,9.034992E-3,-1.2579049E-2],"categories":[],"categories_nodes":[],"categories_segments":[],"categories_sizes":[],"default_left":[0,0,0,0,0,0,0,0,0,0,0,0,0,0,0,0,0,0,0,0,0,0,0,0,0,0,0,0,0,0,0,0,0,0,0],"id":29,"left_children":[1,3,-1,-1,5,7,-1,-1,9,11,13,15,17,19,21,23,25,-1,-1,27,29,31,33,-1,-1,-1,-1,-1,-1,-1,-1,-1,-1,-1,-1],"loss_changes":[2.9504575E2,1.9718721E2,0E0,0E0,1.3560338E2,9.23766E1,0E0,0E0,4.6509655E1,1.4380684E1,1.558565E1,8.926205E0,1.6282387E0,7.0701475E0,1.3549942E1,5.4632225E0,2.2852478E0,0E0,0E0,7.5833015E0,4.3995037E0,1.2203438E1,2.6294968E0,0E0,0E0,0E0,0E0,0E0,0E0,0E0,0E0,0E0,0E0,0E0,0E0],"parents":[2147483647,0,0,1,1,4,4,5,5,8,8,9,9,10,10,11,11,12,12,13,13,14,14,15,15,16,16,19,19,20,20,21,21,22,22],"right_children":[2,4,-1,-1,6,8,-1,-1,10,12,14,16,18,20,22,24,26,-1,-1,28,30,32,34,-1,-1,-1,-1,-1,-1,-1,-1,-1,-1,-1,-1],"split_conditions":[6.8E0,5.7E0,8.242749E-2,-7.540626E-2,2.2E2,1.26E2,8.206043E-2,-7.503404E-2,3.9E1,1E0,2.528E1,1E0,1.55E2,6.9E1,1E0,2.744E1,6.2E0,7.636557E-2,1.6790735E-2,1E0,1E0,1.55E2,5.8E0,-4.8997607E-2,-2.3694854E-2,-8.391914E-3,4.8425034E-2,-3.3974938E-2,4.2124517E-2,5.7537253E-3,-5.044521E-2,2.037636E-2,2.704766E-3,9.034992E-3,-1.2579049E-2],"split_indices":[4,4,0,0,5,5,0,0,0,1,3,14,5,0,9,3,4,0,0,2,14,5,4,0,0,0,0,0,0,0,0,0,0,0,0],"split_type":[0,0,0,0,0,0,0,0,0,0,0,0,0,0,0,0,0,0,0,0,0,0,0,0,0,0,0,0,0,0,0,0,0,0,0],"sum_hessian":[2.2118308E3,1.9997739E3,2.1205698E2,2.3111139E2,1.7686625E3,1.6676437E3,1.01018776E2,1.04221306E2,1.5634225E3,2.4385815E2,1.3195643E3,2.3302168E2,1.0836464E1,1.9455351E2,1.1250107E3,2.1859384E2,1.4427848E1,5.088548E0,5.747916E0,1.1069371E2,8.38598E1,8.8497015E2,2.4004062E2,1.412787E2,7.731514E1,7.6812773E0,6.74657E0,1.0360585E2,7.0878644E0,7.613833E1,7.721472E0,4.053396E2,4.7963055E2,3.6722313E1,2.033183E2],"tree_param":{"num_deleted":"0","num_feature":"15","num_nodes":"35","size_leaf_vector":"1"}},{"base_weights":[-1.8804103E-2,-1.312958E-1,8.178518E-2,-7.532835E-2,-2.3630429E-2,-8.756782E-2,8.139095E-2,-7.4925676E-2,-3.0300245E-2,-6.442297E-1,1.4084543E-2,-6.723621E-2,-5.117894E-1,-4.0051807E-2,2.3293921E-1,-1.9000487E-1,-6.404481E-1,-1.8803488E-1,4.9022038E-2,2.0505466E-1,8.647958E-1,-4.3602742E-2,6.775191E-3,-5.2979935E-2,-5.583031E-3,-2.4995772E-2,-2.1381702E-3,-3.1714804E-2,5.6758276E-3,7.567072E-3,2.6020342E-2,8.444896E-2,3.475309E-2],"categories":[],"categories_nodes":[],"categories_segments":[],"categories_sizes":[],"default_left":[0,0,0,0,0,0,0,0,0,0,0,0,0,0,0,0,0,0,0,0,0,0,0,0,0,0,0,0,0,0,0,0,0],"id":30,"left_children":[1,3,-1,-1,5,7,-1,-1,9,11,13,-1,15,17,19,21,23,25,27,29,31,-1,-1,-1,-1,-1,-1,-1,-1,-1,-1,-1,-1],"loss_changes":[2.700057E2,1.8463211E2,0E0,0E0,1.2414853E2,8.6370514E1,0E0,0E0,4.247648E1,3.0523376E0,1.7240925E1,0E0,2.8279018E0,1.5389635E1,4.906889E0,2.4411836E0,1.8315487E0,1.0153734E1,9.204014E0,4.068697E0,7.244215E-1,0E0,0E0,0E0,0E0,0E0,0E0,0E0,0E0,0E0,0E0,0E0,0E0],"parents":[2147483647,0,0,1,1,4,4,5,5,8,8,9,9,10,10,12,12,13,13,14,14,15,15,16,16,17,17,18,18,19,19,20,20],"right_children":[2,4,-1,-1,6,8,-1,-1,10,12,14,-1,16,18,20,22,24,26,28,30,32,-1,-1,-1,-1,-1,-1,-1,-1,-1,-1,-1,-1],"split_conditions":[6.8E0,5.7E0,8.178518E-2,-7.532835E-2,2.2E2,1.26E2,8.139095E-2,-7.4925676E-2,2.7E1,2.077E1,1E0,-6.723621E-2,2.453E1,5.5E1,4.79E1,6.1E0,2E2,2.957E1,2.17E1,6.9E1,6.5E0,-4.3602742E-2,6.775191E-3,-5.2979935E-2,-5.583031E-3,-2.4995772E-2,-2.1381702E-3,-3.1714804E-2,5.6758276E-3,7.567072E-3,2.6020342E-2,8.444896E-2,3.475309E-2],"split_indices":[4,4,0,0,5,5,0,0,0,3,1,0,3,0,3,4,5,3,3,0,4,0,0,0,0,0,0,0,0,0,0,0,0],"split_type":[0,0,0,0,0,0,0,0,0,0,0,0,0,0,0,0,0,0,0,0,0,0,0,0,0,0,0,0,0,0,0,0,0],"sum_hessian":[2.161637E3,1.9634088E3,1.982282E2,2.1462651E2,1.7487823E3,1.6543134E3,9.4468925E1,9.682661E1,1.5574868E3,1.0409751E2,1.4533893E3,3.3852066E1,7.0245445E1,1.1658253E3,2.87564E2,2.077143E1,4.9474014E1,4.3763995E2,7.2818536E2,2.7667838E2,1.0885611E1,8.220934E0,1.2550495E1,4.4088768E1,5.385246E0,2.2850552E2,2.0913443E2,3.8139347E1,6.90046E2,1.6053578E2,1.1614259E2,5.501188E0,5.3844233E0],"tree_param":{"num_deleted":"0","num_feature":"15","num_nodes":"33","size_leaf_vector":"1"}},{"base_weights":[-1.7953565E-2,-1.2412301E-1,8.119411E-2,-7.525247E-2,-2.2283804E-2,-8.203734E-2,8.077085E-2,-7.481729E-2,-2.834244E-2,-6.502961E-1,1.150641E-2,-6.824466E-2,-5.212419E-1,-2.0284691E-1,6.0158644E-2,-6.852244E-2,-4.4115674E-1,-3.3471045E-1,4.240503E-3,1.4599341E-1,-5.4763872E-2,-2.2199359E-2,-4.8713606E-2,-6.688224E-4,-3.8673796E-2,4.7849654E-3,-4.1328404E-2,7.2798138E-3,4.11823E-2,-8.473898E-2,1.4416478E-2],"categories":[],"categories_nodes":[],"categories_segments":[],"categories_sizes":[],"default_left":[0,0,0,0,0,0,0,0,0,0,0,0,0,0,0,0,0,0,0,0,0,0,0,0,0,0,0,0,0,0,0],"id":31,"left_children":[1,3,-1,-1,5,7,-1,-1,9,11,13,-1,15,17,19,-1,21,23,25,27,29,-1,-1,-1,-1,-1,-1,-1,-1,-1,-1],"loss_changes":[2.4727766E2,1.7278885E2,0E0,0E0,1.1376196E2,8.070808E1,0E0,0E0,3.8482155E1,2.6582794E0,1.5237165E1,0E0,1.6329651E0,7.382283E0,1.1752595E1,0E0,1.4937458E0,9.730825E0,3.5454247E0,1.3394863E1,1.3557841E2,0E0,0E0,0E0,0E0,0E0,0E0,0E0,0E0,0E0,0E0],"parents":[2147483647,0,0,1,1,4,4,5,5,8,8,9,9,10,10,12,12,13,13,14,14,16,16,17,17,18,18,19,19,20,20],"right_children":[2,4,-1,-1,6,8,-1,-1,10,12,14,-1,16,18,20,-1,22,24,26,28,30,-1,-1,-1,-1,-1,-1,-1,-1,-1,-1],"split_conditions":[6.8E0,5.7E0,8.119411E-2,-7.525247E-2,2.2E2,1.26E2,8.077085E-2,-7.481729E-2,2.6E1,1E1,2.625E1,-6.824466E-2,5.8E0,6.9E1,1.58E2,-6.852244E-2,1E0,1E0,1E0,4.105E1,1.59E2,-2.2199359E-2,-4.8713606E-2,-6.688224E-4,-3.8673796E-2,4.7849654E-3,-4.1328404E-2,7.2798138E-3,4.11823E-2,-8.473898E-2,1.4416478E-2],"split_indices":[4,4,0,0,5,5,0,0,0,0,3,0,4,0,5,0,9,6,14,3,5,0,0,0,0,0,0,0,0,0,0],"split_type":[0,0,0,0,0,0,0,0,0,0,0,0,0,0,0,0,0,0,0,0,0,0,0,0,0,0,0,0,0,0,0],"sum_hessian":[2.1141577E3,1.9289581E3,1.851997E2,1.9931255E2,1.7296455E3,1.641348E3,8.829752E1,8.995688E1,1.5513911E3,9.24909E1,1.4589003E3,2.8700386E1,6.3790512E1,2.692892E2,1.189611E3,9.048347E0,5.4742165E1,1.6414996E2,1.05139244E2,6.808322E2,5.0877884E2,3.3690327E1,2.1051836E1,5.8988026E1,1.0516194E2,9.5753944E1,9.3853035E0,6.0824365E2,7.258855E1,9.437994E1,4.143989E2],"tree_param":{"num_deleted":"0","num_feature":"15","num_nodes":"31","size_leaf_vector":"1"}},{"base_weights":[-1.7370246E-2,-1.1747807E-1,8.064895E-2,-7.517819E-2,-2.1299407E-2,-7.7117324E-2,8.019467E-2,-7.470831E-2,-2.6834166E-2,-6.329388E-1,1.03099E-2,-6.76845E-2,-5.027595E-1,-3.9136253E-2,2.0873526E-1,-6.799109E-2,-4.2274684E-1,8.468959E-2,-1.3507573E-1,1.835937E-1,7.7644616E-1,-2.1033313E-2,-4.7406938E-2,1.1288582E-2,-1.0339914E-2,-2.0761324E-2,8.886636E-4,2.32274E-2,6.0221106E-3,7.735123E-2,2.6498545E-2],"categories":[],"categories_nodes":[],"categories_segments":[],"categories_sizes":[],"default_left":[0,0,0,0,0,0,0,0,0,0,0,0,0,0,0,0,0,0,0,0,0,0,0,0,0,0,0,0,0,0,0],"id":32,"left_children":[1,3,-1,-1,5,7,-1,-1,9,11,13,-1,15,17,19,-1,21,23,25,27,29,-1,-1,-1,-1,-1,-1,-1,-1,-1,-1],"loss_changes":[2.2670593E2,1.6154996E2,0E0,0E0,1.0437795E2,7.533431E1,0E0,0E0,3.4840435E1,2.6816444E0,1.4322023E1,0E0,1.6365204E0,1.3895584E1,4.013565E0,0E0,1.4329147E0,7.5041513E0,1.3725024E1,3.6244507E0,9.340906E-1,0E0,0E0,0E0,0E0,0E0,0E0,0E0,0E0,0E0,0E0],"parents":[2147483647,0,0,1,1,4,4,5,5,8,8,9,9,10,10,12,12,13,13,14,14,16,16,17,17,18,18,19,19,20,20],"right_children":[2,4,-1,-1,6,8,-1,-1,10,12,14,-1,16,18,20,-1,22,24,26,28,30,-1,-1,-1,-1,-1,-1,-1,-1,-1,-1],"split_conditions":[6.8E0,5.7E0,8.064895E-2,-7.517819E-2,2.2E2,1.26E2,8.019467E-2,-7.470831E-2,2.6E1,1E1,1E0,-6.76845E-2,5.8E0,1E0,4.79E1,-6.799109E-2,1E0,1E0,6E1,6.1E0,5.379E1,-2.1033313E-2,-4.7406938E-2,1.1288582E-2,-1.0339914E-2,-2.0761324E-2,8.886636E-4,2.32274E-2,6.0221106E-3,7.735123E-2,2.6498545E-2],"split_indices":[4,4,0,0,5,5,0,0,0,0,1,0,4,6,3,0,9,9,0,4,3,0,0,0,0,0,0,0,0,0,0],"split_type":[0,0,0,0,0,0,0,0,0,0,0,0,0,0,0,0,0,0,0,0,0,0,0,0,0,0,0,0,0,0,0],"sum_hessian":[2.0703618E3,1.8974204E3,1.7294153E2,1.8508768E2,1.7123326E3,1.6298422E3,8.2490486E1,8.357551E1,1.5462667E3,8.8362144E1,1.4579045E3,2.68467E1,6.151544E1,1.16772E3,2.9018454E2,8.465221E0,5.305022E1,5.098243E2,6.578957E2,2.7914572E2,1.1038809E1,3.297506E1,2.0075161E1,3.9370297E2,1.16121346E2,3.3440378E2,3.234919E2,1.247976E2,1.5434814E2,5.9918056E0,5.047003E0],"tree_param":{"num_deleted":"0","num_feature":"15","num_nodes":"31","size_leaf_vector":"1"}},{"base_weights":[-1.6554948E-2,-1.1086195E-1,8.0144964E-2,-7.510507E-2,-2.006951E-2,-7.218865E-2,7.9657525E-2,-7.459815E-2,-2.5098896E-2,-6.1536515E-1,9.550669E-3,-6.709996E-2,-4.8437604E-1,9.143585E-2,-1.0176107E-1,-6.744319E-2,-4.0460664E-1,4.9509313E-2,4.7914845E-1,-8.325129E-2,1.2248891E-1,-1.990687E-2,-4.6082705E-2,7.0025056E-4,2.8184857E-2,4.2787045E-2,-1.7541369E-3,-2.999033E-2,1.2272124E-2],"categories":[],"categories_nodes":[],"categories_segments":[],"categories_sizes":[],"default_left":[0,0,0,0,0,0,0,0,0,0,0,0,0,0,0,0,0,0,0,0,0,0,0,0,0,0,0,0,0],"id":33,"left_children":[1,3,-1,-1,5,7,-1,-1,9,11,13,-1,15,17,19,-1,21,23,25,-1,27,-1,-1,-1,-1,-1,-1,-1,-1],"loss_changes":[2.0788159E2,1.5107626E2,0E0,0E0,9.578342E1,7.03379E1,0E0,0E0,3.154755E1,2.6956062E0,1.329564E1,0E0,1.6350441E0,1.3636912E1,1.3993361E2,0E0,1.3695049E0,9.951662E0,3.7725945E0,0E0,1.0954202E1,0E0,0E0,0E0,0E0,0E0,0E0,0E0,0E0],"parents":[2147483647,0,0,1,1,4,4,5,5,8,8,9,9,10,10,12,12,13,13,14,14,16,16,17,17,18,18,20,20],"right_children":[2,4,-1,-1,6,8,-1,-1,10,12,14,-1,16,18,20,-1,22,24,26,-1,28,-1,-1,-1,-1,-1,-1,-1,-1],"split_conditions":[6.8E0,5.7E0,8.0144964E-2,-7.510507E-2,2.2E2,1.26E2,7.9657525E-2,-7.459815E-2,2.6E1,1E1,1.58E2,-6.709996E-2,5.8E0,4.043E1,1.59E2,-6.744319E-2,1E0,1E0,1E0,-8.325129E-2,2.311E1,-1.990687E-2,-4.6082705E-2,7.0025056E-4,2.8184857E-2,4.2787045E-2,-1.7541369E-3,-2.999033E-2,1.2272124E-2],"split_indices":[4,4,0,0,5,5,0,0,0,0,5,0,4,3,5,0,9,2,9,0,3,0,0,0,0,0,0,0,0],"split_type":[0,0,0,0,0,0,0,0,0,0,0,0,0,0,0,0,0,0,0,0,0,0,0,0,0,0,0,0,0],"sum_hessian":[2.0291726E3,1.8677507E3,1.6142189E2,1.7187572E2,1.695875E3,1.6188422E3,7.70329E1,7.764826E1,1.5411938E3,8.4524956E1,1.456669E3,2.5124107E1,5.9400852E1,8.3937274E2,6.1729614E2,7.9227915E0,5.147806E1,7.584798E2,8.089293E1,1.1159611E2,5.0570007E2,3.2310898E1,1.9167162E1,6.762487E2,8.2231064E1,6.83363E1,1.255663E1,3.6283035E1,4.6941702E2],"tree_param":{"num_deleted":"0","num_feature":"15","num_nodes":"29","size_leaf_vector":"1"}},{"base_weights":[-1.5978971E-2,-1.0477963E-1,7.9677925E-2,-7.503271E-2,-1.9158527E-2,-6.782773E-2,7.915505E-2,-7.448622E-2,-2.375527E-2,-3.5961485E-1,3.1702574E-2,-4.1253394E-1,5.454223E-1,-1.5041383E-3,2.8961003E-1,-4.6611807E-1,3.097476E-1,6.592778E-2,1.1271331E-2,-2.3858151E-1,3.594612E-2,3.8671336E-1,5.4448448E-2,-6.628911E-2,-3.0317273E-2,-3.6837505E-3,4.853696E-2,-4.0158285E-3,-2.8597474E-2,-3.2640897E-2,4.141174E-3,4.523361E-2,1.944107E-2,-1.5518392E-2,2.0868523E-2],"categories":[],"categories_nodes":[],"categories_segments":[],"categories_sizes":[],"default_left":[0,0,0,0,0,0,0,0,0,0,0,0,0,0,0,0,0,0,0,0,0,0,0,0,0,0,0,0,0,0,0,0,0,0,0],"id":34,"left_children":[1,3,-1,-1,5,7,-1,-1,9,11,13,15,17,19,21,23,25,-1,-1,27,29,31,33,-1,-1,-1,-1,-1,-1,-1,-1,-1,-1,-1,-1],"loss_changes":[1.9081235E2,1.4115218E2,0E0,0E0,8.79985E1,6.560805E1,0E0,0E0,2.864367E1,1.0662807E1,1.1307652E1,8.135227E0,1.5117135E0,1.0402528E1,3.4180374E0,4.622139E0,1.8311259E0,0E0,0E0,4.2004194E0,9.210544E0,2.7801247E0,2.7001328E0,0E0,0E0,0E0,0E0,0E0,0E0,0E0,0E0,0E0,0E0,0E0,0E0],"parents":[2147483647,0,0,1,1,4,4,5,5,8,8,9,9,10,10,11,11,12,12,13,13,14,14,15,15,16,16,19,19,20,20,21,21,22,22],"right_children":[2,4,-1,-1,6,8,-1,-1,10,12,14,16,18,20,22,24,26,-1,-1,28,30,32,34,-1,-1,-1,-1,-1,-1,-1,-1,-1,-1,-1,-1],"split_conditions":[6.8E0,5.7E0,7.9677925E-2,-7.503271E-2,2.2E2,1.26E2,7.915505E-2,-7.448622E-2,3.9E1,1E0,3.902E1,1E0,3.494E1,4.9E1,6.5E0,1E1,6.2E0,6.592778E-2,1.1271331E-2,6.1E0,2.112E1,1.45E2,5.5E1,-6.628911E-2,-3.0317273E-2,-3.6837505E-3,4.853696E-2,-4.0158285E-3,-2.8597474E-2,-3.2640897E-2,4.141174E-3,4.523361E-2,1.944107E-2,-1.5518392E-2,2.0868523E-2],"split_indices":[4,4,0,0,5,5,0,0,0,1,3,14,3,0,4,0,4,0,0,4,3,5,0,0,0,0,0,0,0,0,0,0,0,0,0],"split_type":[0,0,0,0,0,0,0,0,0,0,0,0,0,0,0,0,0,0,0,0,0,0,0,0,0,0,0,0,0,0,0,0,0,0,0],"sum_hessian":[1.9904828E3,1.8398746E3,1.5060817E2,1.5960548E2,1.6802692E3,1.6083597E3,7.190936E1,7.21433E1,1.5362166E3,2.1693666E2,1.3192798E3,2.0546684E2,1.1469818E1,1.1696735E3,1.4960641E2,1.9160672E2,1.3860127E1,5.555054E0,5.9147635E0,1.588308E2,1.01084265E3,1.0542831E2,4.41781E1,2.300996E1,1.6859676E2,7.1306E0,6.729528E0,6.976028E1,8.907052E1,3.8869175E1,9.7197345E2,3.7703926E1,6.772438E1,2.0413685E1,2.3764416E1],"tree_param":{"num_deleted":"0","num_feature":"15","num_nodes":"35","size_leaf_vector":"1"}},{"base_weights":[-1.51571045E-2,-9.870038E-2,7.924403E-2,-7.49607E-2,-1.7986508E-2,-6.341531E-2,7.868326E-2,-7.437195E-2,-2.21632E-2,-5.820473E-1,8.290279E-3,-6.418774E-2,-4.3792814E-1,5.3343203E-2,-1.6917907E-1,9.136582E-2,-5.7212E-1,1.6380078E-1,-3.4138978E-2,-4.8853645E-1,-1.23596914E-1,-3.1047078E-2,4.7460712E-2,-3.182965E-2,-5.567437E-2,7.322623E-3,2.409555E-2,-5.8222315E-3,3.485063E-2,-6.0732864E-2,-2.4073789E-2,8.568965E-3,-1.2582426E-2],"categories":[],"categories_nodes":[],"categories_segments":[],"categories_sizes":[],"default_left":[0,0,0,0,0,0,0,0,0,0,0,0,0,0,0,0,0,0,0,0,0,0,0,0,0,0,0,0,0,0,0,0,0],"id":35,"left_children":[1,3,-1,-1,5,7,-1,-1,9,11,13,-1,15,17,19,21,23,25,27,29,31,-1,-1,-1,-1,-1,-1,-1,-1,-1,-1,-1,-1],"loss_changes":[1.7515894E2,1.3191574E2,0E0,0E0,8.084998E1,6.121731E1,0E0,0E0,2.6131115E1,2.7447739E0,1.1636391E1,0E0,3.8766003E0,1.1220212E1,4.229149E0,3.4774485E0,7.684202E-1,5.3147974E0,1.4103748E1,1.7028551E0,2.7422495E0,0E0,0E0,0E0,0E0,0E0,0E0,0E0,0E0,0E0,0E0,0E0,0E0],"parents":[2147483647,0,0,1,1,4,4,5,5,8,8,9,9,10,10,12,12,13,13,14,14,15,15,16,16,17,17,18,18,19,19,20,20],"right_children":[2,4,-1,-1,6,8,-1,-1,10,12,14,-1,16,18,20,22,24,26,28,30,32,-1,-1,-1,-1,-1,-1,-1,-1,-1,-1,-1,-1],"split_conditions":[6.8E0,5.7E0,7.924403E-2,-7.49607E-2,2.2E2,1.26E2,7.868326E-2,-7.437195E-2,2.6E1,2.077E1,1E0,-6.418774E-2,2.285E1,1E0,2.58E1,1E0,1E0,6.9E1,4.309E1,6E0,5.8E0,-3.1047078E-2,4.7460712E-2,-3.182965E-2,-5.567437E-2,7.322623E-3,2.409555E-2,-5.8222315E-3,3.485063E-2,-6.0732864E-2,-2.4073789E-2,8.568965E-3,-1.2582426E-2],"split_indices":[4,4,0,0,5,5,0,0,0,3,9,0,3,6,3,13,9,0,3,4,4,0,0,0,0,0,0,0,0,0,0,0,0],"split_type":[0,0,0,0,0,0,0,0,0,0,0,0,0,0,0,0,0,0,0,0,0,0,0,0,0,0,0,0,0,0,0,0,0],"sum_hessian":[1.9541089E3,1.8136421E3,1.4046687E2,1.4821077E2,1.6654313E3,1.5983273E3,6.710397E1,6.7030945E1,1.5312964E3,7.805993E1,1.4532365E3,2.5216558E1,5.2843365E1,1.1595651E3,2.936714E2,1.0752264E1,4.2091103E1,5.121001E2,6.4746497E2,3.5466755E1,2.5820462E2,5.6834116E0,5.068853E0,2.4403873E1,1.768723E1,3.6173096E2,1.5036913E2,5.9631744E2,5.1147556E1,1.0843827E1,2.4622927E1,4.0190598E1,2.1801402E2],"tree_param":{"num_deleted":"0","num_feature":"15","num_nodes":"33","size_leaf_vector":"1"}},{"base_weights":[-1.4452188E-2,-9.296949E-2,7.883987E-2,-7.4888654E-2,-1.6979884E-2,-5.9359536E-2,7.82386E-2,-7.425476E-2,-2.078356E-2,-5.4036117E-1,8.878623E-3,-6.358343E-2,-4.0005863E-1,8.478658E-2,-9.531314E-2,-5.5233583E-2,-5.487645E-1,5.2601E-2,4.074838E-1,-8.271076E-2,1.1265175E-1,-3.674338E-2,1.682654E-2,-4.772688E-2,-1.633078E-2,1.3275774E-3,2.4857061E-2,3.5804175E-2,6.130935E-4,-2.5861408E-3,1.7303867E-2],"categories":[],"categories_nodes":[],"categories_segments":[],"categories_sizes":[],"default_left":[0,0,0,0,0,0,0,0,0,0,0,0,0,0,0,0,0,0,0,0,0,0,0,0,0,0,0,0,0,0,0],"id":36,"left_children":[1,3,-1,-1,5,7,-1,-1,9,11,13,-1,15,17,19,21,23,25,27,-1,29,-1,-1,-1,-1,-1,-1,-1,-1,-1,-1],"loss_changes":[1.6090102E2,1.2321613E2,0E0,0E0,7.434053E1,5.708763E1,0E0,0E0,2.355943E1,3.2216072E0,1.145075E1,0E0,2.9734726E0,8.6773405E0,1.2798869E2,2.3901117E0,1.0449295E0,7.4162025E0,2.112257E0,0E0,8.81105E0,0E0,0E0,0E0,0E0,0E0,0E0,0E0,0E0,0E0,0E0],"parents":[2147483647,0,0,1,1,4,4,5,5,8,8,9,9,10,10,12,12,13,13,14,14,15,15,16,16,17,17,18,18,20,20],"right_children":[2,4,-1,-1,6,8,-1,-1,10,12,14,-1,16,18,20,22,24,26,28,-1,30,-1,-1,-1,-1,-1,-1,-1,-1,-1,-1],"split_conditions":[6.8E0,5.7E0,7.883987E-2,-7.4888654E-2,2.2E2,1.26E2,7.82386E-2,-7.425476E-2,2.7E1,2.077E1,1.58E2,-6.358343E-2,2.453E1,4.105E1,1.59E2,6.1E0,1.6E2,1E0,1E0,-8.271076E-2,6E1,-3.674338E-2,1.682654E-2,-4.772688E-2,-1.633078E-2,1.3275774E-3,2.4857061E-2,3.5804175E-2,6.130935E-4,-2.5861408E-3,1.7303867E-2],"split_indices":[4,4,0,0,5,5,0,0,0,3,5,0,3,3,5,4,5,2,9,0,0,0,0,0,0,0,0,0,0,0,0],"split_type":[0,0,0,0,0,0,0,0,0,0,0,0,0,0,0,0,0,0,0,0,0,0,0,0,0,0,0,0,0,0,0],"sum_hessian":[1.9208291E3,1.7898644E3,1.3096475E2,1.3762984E2,1.6522346E3,1.5896334E3,6.260115E1,6.228354E1,1.5273499E3,8.155605E1,1.4457938E3,2.3977118E1,5.7578938E1,8.3653217E2,6.0926166E2,1.7762344E1,3.9816593E1,7.617216E2,7.481055E1,1.0350813E2,5.057535E2,6.6583133E0,1.1104032E1,3.075569E1,9.060905E0,6.7793036E2,8.379126E1,6.349861E1,1.1311939E1,2.2547548E2,2.80278E2],"tree_param":{"num_deleted":"0","num_feature":"15","num_nodes":"31","size_leaf_vector":"1"}},{"base_weights":[-1.3904471E-2,-8.7699905E-2,7.846235E-2,-7.481617E-2,-1.6182141E-2,-5.5740193E-2,7.781778E-2,-7.4134044E-2,-1.9662086E-2,-3.1950912E-1,2.7069286E-2,-3.716785E-1,4.9473593E-1,6.929413E-2,-1.4283544E-1,-4.2591766E-1,3.1176376E-1,6.0543057E-2,9.234582E-3,4.2593207E-2,3.5200557E-1,-4.596997E-1,-9.973008E-2,-6.446709E-2,-2.7634658E-2,-6.962681E-3,4.1415893E-2,1.1384702E-2,-3.8349319E-3,5.177396E-2,1.2018996E-2,-4.8358165E-2,-1.212265E-2,-4.3244697E-3,-2.5514219E-2],"categories":[],"categories_nodes":[],"categories_segments":[],"categories_sizes":[],"default_left":[0,0,0,0,0,0,0,0,0,0,0,0,0,0,0,0,0,0,0,0,0,0,0,0,0,0,0,0,0,0,0,0,0,0,0],"id":37,"left_children":[1,3,-1,-1,5,7,-1,-1,9,11,13,15,17,19,21,23,25,-1,-1,27,29,31,33,-1,-1,-1,-1,-1,-1,-1,-1,-1,-1,-1,-1],"loss_changes":[1.4792436E2,1.1500815E2,0E0,0E0,6.841548E1,5.319892E1,0E0,0E0,2.135809E1,8.914017E0,9.473437E0,7.313648E0,1.3875074E0,7.965519E0,3.5449557E0,4.1653824E0,1.4930822E0,0E0,0E0,9.906277E0,5.7989225E0,1.6171465E0,2.3343701E0,0E0,0E0,0E0,0E0,0E0,0E0,0E0,0E0,0E0,0E0,0E0,0E0],"parents":[2147483647,0,0,1,1,4,4,5,5,8,8,9,9,10,10,11,11,12,12,13,13,14,14,15,15,16,16,19,19,20,20,21,21,22,22],"right_children":[2,4,-1,-1,6,8,-1,-1,10,12,14,16,18,20,22,24,26,-1,-1,28,30,32,34,-1,-1,-1,-1,-1,-1,-1,-1,-1,-1,-1,-1],"split_conditions":[6.8E0,5.7E0,7.846235E-2,-7.481617E-2,2.2E2,1.26E2,7.781778E-2,-7.4134044E-2,3.9E1,1E0,1E0,1E0,3.494E1,4.105E1,2.58E1,1E1,1E0,6.0543057E-2,9.234582E-3,1E0,1.45E2,6.2E0,7.9E1,-6.446709E-2,-2.7634658E-2,-6.962681E-3,4.1415893E-2,1.1384702E-2,-3.8349319E-3,5.177396E-2,1.2018996E-2,-4.8358165E-2,-1.212265E-2,-4.3244697E-3,-2.5514219E-2],"split_indices":[4,4,0,0,5,5,0,0,0,1,9,14,3,3,3,0,6,0,0,6,5,4,0,0,0,0,0,0,0,0,0,0,0,0,0],"split_type":[0,0,0,0,0,0,0,0,0,0,0,0,0,0,0,0,0,0,0,0,0,0,0,0,0,0,0,0,0,0,0,0,0,0,0],"sum_hessian":[1.8887598E3,1.7666909E3,1.22068794E2,1.2780518E2,1.6388857E3,1.5805006E3,5.8385166E1,5.7875275E1,1.5226252E3,2.0451819E2,1.318107E3,1.9271436E2,1.1803841E1,1.0562094E3,2.6189777E2,1.7889383E2,1.3820519E1,5.7750273E0,6.0288134E0,9.6611444E2,9.0094864E1,3.0204224E1,2.3169356E2,1.9296194E1,1.5959764E2,5.38058E0,8.4399395E0,4.4592868E2,5.201858E2,3.1651386E1,5.8443478E1,1.7916315E1,1.22879095E1,1.9824811E2,3.3445446E1],"tree_param":{"num_deleted":"0","num_feature":"15","num_nodes":"35","size_leaf_vector":"1"}},{"base_weights":[-1.3167861E-2,-8.245893E-2,7.8108646E-2,-7.474285E-2,-1.5189235E-2,-5.209317E-2,7.7417806E-2,-7.400923E-2,-1.8357184E-2,-5.303062E-1,6.626744E-3,-6.2024835E-2,-3.8641644E-1,-1.7366484E-1,4.616504E-2,1.15008324E-1,-5.245109E-1,-2.9173854E-1,1.9162007E-3,-1.6722472E-2,1.5781635E-1,-2.8651953E-2,4.568945E-2,-2.7913315E-2,-5.306253E-2,-5.2684685E-4,-3.4743946E-2,4.351312E-3,-4.0119022E-2,-9.951188E-3,4.869704E-3,1.8241255E-2,1.3801152E-3],"categories":[],"categories_nodes":[],"categories_segments":[],"categories_sizes":[],"default_left":[0,0,0,0,0,0,0,0,0,0,0,0,0,0,0,0,0,0,0,0,0,0,0,0,0,0,0,0,0,0,0,0,0],"id":38,"left_children":[1,3,-1,-1,5,7,-1,-1,9,11,13,-1,15,17,19,21,23,25,27,29,31,-1,-1,-1,-1,-1,-1,-1,-1,-1,-1,-1,-1],"loss_changes":[1.3600664E2,1.0736587E2,0E0,0E0,6.2966328E1,